<neuralNetwork>
    <neuron name = "0" type = "sensor" linkName = "Link0" />
    <neuron name = "1" type = "sensor" linkName = "Link3" />
    <neuron name = "2" type = "sensor" linkName = "Link3-0-1" />
    <neuron name = "3" type = "sensor" linkName = "Link3-1-0" />
    <neuron name = "4" type = "motor"  jointName = "Link0_Link1" />
    <neuron name = "5" type = "motor"  jointName = "Link1_Link2" />
    <neuron name = "6" type = "motor"  jointName = "Link2_Link3" />
    <neuron name = "7" type = "motor"  jointName = "Link0_Link1" />
    <neuron name = "8" type = "motor"  jointName = "Link0_Link1" />
    <neuron name = "9" type = "motor"  jointName = "Link0_Link1" />
    <neuron name = "10" type = "motor"  jointName = "Link0_Link1" />
    <synapse sourceNeuronName = "0" targetNeuronName = "4" weight = "-0.1960567761393328" />
    <synapse sourceNeuronName = "0" targetNeuronName = "5" weight = "-0.7708599156558278" />
    <synapse sourceNeuronName = "0" targetNeuronName = "6" weight = "-0.2580288243842781" />
    <synapse sourceNeuronName = "0" targetNeuronName = "7" weight = "0.6823199378319902" />
    <synapse sourceNeuronName = "0" targetNeuronName = "8" weight = "-0.9466864725878539" />
    <synapse sourceNeuronName = "0" targetNeuronName = "9" weight = "0.1456197011750464" />
    <synapse sourceNeuronName = "0" targetNeuronName = "10" weight = "0.9680090766813314" />
    <synapse sourceNeuronName = "1" targetNeuronName = "4" weight = "-0.9415265508389705" />
    <synapse sourceNeuronName = "1" targetNeuronName = "5" weight = "-0.23144148986440882" />
    <synapse sourceNeuronName = "1" targetNeuronName = "6" weight = "-0.024771698351931493" />
    <synapse sourceNeuronName = "1" targetNeuronName = "7" weight = "0.643799020422759" />
    <synapse sourceNeuronName = "1" targetNeuronName = "8" weight = "0.6671570562611768" />
    <synapse sourceNeuronName = "1" targetNeuronName = "9" weight = "0.892158776131202" />
    <synapse sourceNeuronName = "1" targetNeuronName = "10" weight = "0.4604288022962355" />
    <synapse sourceNeuronName = "2" targetNeuronName = "4" weight = "-0.012088587847840504" />
    <synapse sourceNeuronName = "2" targetNeuronName = "5" weight = "-0.5776084689224696" />
    <synapse sourceNeuronName = "2" targetNeuronName = "6" weight = "-0.05486954301809144" />
    <synapse sourceNeuronName = "2" targetNeuronName = "7" weight = "0.25867651450250406" />
    <synapse sourceNeuronName = "2" targetNeuronName = "8" weight = "-0.8575623556416223" />
    <synapse sourceNeuronName = "2" targetNeuronName = "9" weight = "-0.9283111115990943" />
    <synapse sourceNeuronName = "2" targetNeuronName = "10" weight = "0.0672476963034081" />
    <synapse sourceNeuronName = "3" targetNeuronName = "4" weight = "-0.7028249071980734" />
    <synapse sourceNeuronName = "3" targetNeuronName = "5" weight = "0.8232931369032828" />
    <synapse sourceNeuronName = "3" targetNeuronName = "6" weight = "-0.6328638577872983" />
    <synapse sourceNeuronName = "3" targetNeuronName = "7" weight = "0.04868214454098596" />
    <synapse sourceNeuronName = "3" targetNeuronName = "8" weight = "0.5078135510621817" />
    <synapse sourceNeuronName = "3" targetNeuronName = "9" weight = "0.9103100925381933" />
    <synapse sourceNeuronName = "3" targetNeuronName = "10" weight = "-0.42679567552506636" />
</neuralNetwork>