<neuralNetwork>
    <neuron name = "0" type = "sensor" linkName = "Link0" />
    <neuron name = "1" type = "sensor" linkName = "Link1" />
    <neuron name = "2" type = "sensor" linkName = "Link1" />
    <neuron name = "3" type = "sensor" linkName = "Link3" />
    <neuron name = "4" type = "sensor" linkName = "Link2-0" />
    <neuron name = "5" type = "motor"  jointName = "Link0_Link1" />
    <neuron name = "6" type = "motor"  jointName = "Link1_Link2" />
    <neuron name = "7" type = "motor"  jointName = "Link2_Link3" />
    <neuron name = "8" type = "motor"  jointName = "Link0_Link1" />
    <neuron name = "9" type = "motor"  jointName = "Link0_Link1" />
    <neuron name = "10" type = "motor"  jointName = "Link0_Link1" />
    <neuron name = "11" type = "motor"  jointName = "Link0_Link1" />
    <neuron name = "12" type = "motor"  jointName = "Link0_Link1" />
    <neuron name = "13" type = "motor"  jointName = "Link0_Link1" />
    <synapse sourceNeuronName = "0" targetNeuronName = "5" weight = "0.5588254839720157" />
    <synapse sourceNeuronName = "0" targetNeuronName = "6" weight = "0.06278338618139223" />
    <synapse sourceNeuronName = "0" targetNeuronName = "7" weight = "-0.8835506210925197" />
    <synapse sourceNeuronName = "0" targetNeuronName = "8" weight = "0.45753714672061063" />
    <synapse sourceNeuronName = "0" targetNeuronName = "9" weight = "-0.22758521107431928" />
    <synapse sourceNeuronName = "0" targetNeuronName = "10" weight = "-0.615551457506659" />
    <synapse sourceNeuronName = "0" targetNeuronName = "11" weight = "0.08042421582357995" />
    <synapse sourceNeuronName = "0" targetNeuronName = "12" weight = "-0.010578102247745802" />
    <synapse sourceNeuronName = "0" targetNeuronName = "13" weight = "0.41565110881876466" />
    <synapse sourceNeuronName = "1" targetNeuronName = "5" weight = "0.4232334273717835" />
    <synapse sourceNeuronName = "1" targetNeuronName = "6" weight = "-0.7923370335733579" />
    <synapse sourceNeuronName = "1" targetNeuronName = "7" weight = "-0.21966871021831502" />
    <synapse sourceNeuronName = "1" targetNeuronName = "8" weight = "0.3298265556317608" />
    <synapse sourceNeuronName = "1" targetNeuronName = "9" weight = "-0.31383463289309543" />
    <synapse sourceNeuronName = "1" targetNeuronName = "10" weight = "0.3248973678567679" />
    <synapse sourceNeuronName = "1" targetNeuronName = "11" weight = "0.4131327874884758" />
    <synapse sourceNeuronName = "1" targetNeuronName = "12" weight = "-0.9483045982135585" />
    <synapse sourceNeuronName = "1" targetNeuronName = "13" weight = "0.3109465439910113" />
    <synapse sourceNeuronName = "2" targetNeuronName = "5" weight = "-0.1425492666476842" />
    <synapse sourceNeuronName = "2" targetNeuronName = "6" weight = "0.17658533508381136" />
    <synapse sourceNeuronName = "2" targetNeuronName = "7" weight = "0.6263382807486708" />
    <synapse sourceNeuronName = "2" targetNeuronName = "8" weight = "0.9793640117933315" />
    <synapse sourceNeuronName = "2" targetNeuronName = "9" weight = "0.13991171492141108" />
    <synapse sourceNeuronName = "2" targetNeuronName = "10" weight = "-0.8956675367410056" />
    <synapse sourceNeuronName = "2" targetNeuronName = "11" weight = "-0.37068605922809184" />
    <synapse sourceNeuronName = "2" targetNeuronName = "12" weight = "-0.0263119520356474" />
    <synapse sourceNeuronName = "2" targetNeuronName = "13" weight = "-0.5173690388220704" />
    <synapse sourceNeuronName = "3" targetNeuronName = "5" weight = "0.18690202430836256" />
    <synapse sourceNeuronName = "3" targetNeuronName = "6" weight = "0.12281357868077958" />
    <synapse sourceNeuronName = "3" targetNeuronName = "7" weight = "0.24356710781422986" />
    <synapse sourceNeuronName = "3" targetNeuronName = "8" weight = "0.5231442058890592" />
    <synapse sourceNeuronName = "3" targetNeuronName = "9" weight = "-0.6675729813835911" />
    <synapse sourceNeuronName = "3" targetNeuronName = "10" weight = "-0.12920386104229675" />
    <synapse sourceNeuronName = "3" targetNeuronName = "11" weight = "0.8034612243655161" />
    <synapse sourceNeuronName = "3" targetNeuronName = "12" weight = "0.8024213450650799" />
    <synapse sourceNeuronName = "3" targetNeuronName = "13" weight = "-0.1012057061915208" />
    <synapse sourceNeuronName = "4" targetNeuronName = "5" weight = "-0.21270701391994384" />
    <synapse sourceNeuronName = "4" targetNeuronName = "6" weight = "0.8913194884746731" />
    <synapse sourceNeuronName = "4" targetNeuronName = "7" weight = "0.5443521297854961" />
    <synapse sourceNeuronName = "4" targetNeuronName = "8" weight = "0.2832037065677544" />
    <synapse sourceNeuronName = "4" targetNeuronName = "9" weight = "-0.3743415514477435" />
    <synapse sourceNeuronName = "4" targetNeuronName = "10" weight = "-0.7457621789259012" />
    <synapse sourceNeuronName = "4" targetNeuronName = "11" weight = "-0.1919598441760868" />
    <synapse sourceNeuronName = "4" targetNeuronName = "12" weight = "-0.1774954089552747" />
    <synapse sourceNeuronName = "4" targetNeuronName = "13" weight = "0.3749887434119996" />
</neuralNetwork>