<neuralNetwork>
    <neuron name = "0" type = "sensor" linkName = "Link0" />
    <neuron name = "1" type = "sensor" linkName = "Link2" />
    <neuron name = "2" type = "sensor" linkName = "Link3" />
    <neuron name = "3" type = "sensor" linkName = "Link2-2" />
    <neuron name = "4" type = "sensor" linkName = "Link2-0-2" />
    <neuron name = "5" type = "sensor" linkName = "Link2-1-2" />
    <neuron name = "6" type = "sensor" linkName = "Link3-0" />
    <neuron name = "7" type = "sensor" linkName = "Link3-1" />
    <neuron name = "8" type = "sensor" linkName = "Link3-2" />
    <neuron name = "9" type = "sensor" linkName = "Link3-1-0" />
    <neuron name = "10" type = "sensor" linkName = "Link3-1-2" />
    <neuron name = "11" type = "sensor" linkName = "Link3-1-3" />
    <neuron name = "12" type = "sensor" linkName = "Link3-2-0" />
    <neuron name = "13" type = "motor"  jointName = "Link0_Link1" />
    <neuron name = "14" type = "motor"  jointName = "Link1_Link2" />
    <neuron name = "15" type = "motor"  jointName = "Link2_Link3" />
    <synapse sourceNeuronName = "0" targetNeuronName = "13" weight = "-0.005519169806564639" />
    <synapse sourceNeuronName = "0" targetNeuronName = "14" weight = "-0.7646199981437125" />
    <synapse sourceNeuronName = "0" targetNeuronName = "15" weight = "-0.3378883009786622" />
    <synapse sourceNeuronName = "1" targetNeuronName = "13" weight = "-0.5703464707333339" />
    <synapse sourceNeuronName = "1" targetNeuronName = "14" weight = "-0.44640903151986944" />
    <synapse sourceNeuronName = "1" targetNeuronName = "15" weight = "-0.3287294290668621" />
    <synapse sourceNeuronName = "2" targetNeuronName = "13" weight = "-0.8871842226559106" />
    <synapse sourceNeuronName = "2" targetNeuronName = "14" weight = "-0.7524770161364289" />
    <synapse sourceNeuronName = "2" targetNeuronName = "15" weight = "0.4353807897198716" />
    <synapse sourceNeuronName = "3" targetNeuronName = "13" weight = "0.6984548723544488" />
    <synapse sourceNeuronName = "3" targetNeuronName = "14" weight = "-0.48476123779010805" />
    <synapse sourceNeuronName = "3" targetNeuronName = "15" weight = "0.16409754265012144" />
    <synapse sourceNeuronName = "4" targetNeuronName = "13" weight = "0.6797880354673154" />
    <synapse sourceNeuronName = "4" targetNeuronName = "14" weight = "-0.014669177238309627" />
    <synapse sourceNeuronName = "4" targetNeuronName = "15" weight = "-0.7935803774640733" />
    <synapse sourceNeuronName = "5" targetNeuronName = "13" weight = "0.6412801812269728" />
    <synapse sourceNeuronName = "5" targetNeuronName = "14" weight = "-0.5609064072739407" />
    <synapse sourceNeuronName = "5" targetNeuronName = "15" weight = "0.5117582848325994" />
    <synapse sourceNeuronName = "6" targetNeuronName = "13" weight = "-0.547317233394405" />
    <synapse sourceNeuronName = "6" targetNeuronName = "14" weight = "-0.06430237757779156" />
    <synapse sourceNeuronName = "6" targetNeuronName = "15" weight = "-0.8939488500937409" />
    <synapse sourceNeuronName = "7" targetNeuronName = "13" weight = "-0.46825757047554384" />
    <synapse sourceNeuronName = "7" targetNeuronName = "14" weight = "0.8499424832485918" />
    <synapse sourceNeuronName = "7" targetNeuronName = "15" weight = "-0.8680294089190481" />
    <synapse sourceNeuronName = "8" targetNeuronName = "13" weight = "0.8255503752007332" />
    <synapse sourceNeuronName = "8" targetNeuronName = "14" weight = "-0.5949118140150313" />
    <synapse sourceNeuronName = "8" targetNeuronName = "15" weight = "0.24100925057189526" />
    <synapse sourceNeuronName = "9" targetNeuronName = "13" weight = "0.0004032298980596316" />
    <synapse sourceNeuronName = "9" targetNeuronName = "14" weight = "-0.8058611292889366" />
    <synapse sourceNeuronName = "9" targetNeuronName = "15" weight = "0.3166061575188861" />
    <synapse sourceNeuronName = "10" targetNeuronName = "13" weight = "0.27538081312571916" />
    <synapse sourceNeuronName = "10" targetNeuronName = "14" weight = "-0.22617732364964205" />
    <synapse sourceNeuronName = "10" targetNeuronName = "15" weight = "0.28824377657799216" />
    <synapse sourceNeuronName = "11" targetNeuronName = "13" weight = "0.8248530082441692" />
    <synapse sourceNeuronName = "11" targetNeuronName = "14" weight = "-0.2485574386015199" />
    <synapse sourceNeuronName = "11" targetNeuronName = "15" weight = "0.7832093038637038" />
    <synapse sourceNeuronName = "12" targetNeuronName = "13" weight = "-0.07432609062024609" />
    <synapse sourceNeuronName = "12" targetNeuronName = "14" weight = "-0.18434698068297295" />
    <synapse sourceNeuronName = "12" targetNeuronName = "15" weight = "-0.9244548494220235" />
</neuralNetwork>