<neuralNetwork>
    <neuron name = "0" type = "sensor" linkName = "Link0" />
    <neuron name = "1" type = "sensor" linkName = "Link1" />
    <neuron name = "2" type = "sensor" linkName = "Link1" />
    <neuron name = "3" type = "sensor" linkName = "Link2-3" />
    <neuron name = "4" type = "sensor" linkName = "Link2-0-0" />
    <neuron name = "5" type = "motor"  jointName = "Link0_Link1" />
    <neuron name = "6" type = "motor"  jointName = "Link1_Link2" />
    <neuron name = "7" type = "motor"  jointName = "Link0_Link1" />
    <neuron name = "8" type = "motor"  jointName = "Link0_Link1" />
    <neuron name = "9" type = "motor"  jointName = "Link0_Link1" />
    <neuron name = "10" type = "motor"  jointName = "Link0_Link1" />
    <neuron name = "11" type = "motor"  jointName = "Link0_Link1" />
    <neuron name = "12" type = "motor"  jointName = "Link0_Link1" />
    <synapse sourceNeuronName = "0" targetNeuronName = "5" weight = "0.3159932898055835" />
    <synapse sourceNeuronName = "0" targetNeuronName = "6" weight = "-0.05267569082874979" />
    <synapse sourceNeuronName = "0" targetNeuronName = "7" weight = "-0.17726007546337663" />
    <synapse sourceNeuronName = "0" targetNeuronName = "8" weight = "0.16098751617310847" />
    <synapse sourceNeuronName = "0" targetNeuronName = "9" weight = "0.33817978160505" />
    <synapse sourceNeuronName = "0" targetNeuronName = "10" weight = "0.45687371966425316" />
    <synapse sourceNeuronName = "0" targetNeuronName = "11" weight = "0.7026401251518521" />
    <synapse sourceNeuronName = "0" targetNeuronName = "12" weight = "0.4703490733148745" />
    <synapse sourceNeuronName = "1" targetNeuronName = "5" weight = "0.8772211791188731" />
    <synapse sourceNeuronName = "1" targetNeuronName = "6" weight = "0.1703923945896595" />
    <synapse sourceNeuronName = "1" targetNeuronName = "7" weight = "-0.261195503656396" />
    <synapse sourceNeuronName = "1" targetNeuronName = "8" weight = "0.5470456209856513" />
    <synapse sourceNeuronName = "1" targetNeuronName = "9" weight = "0.6264649227897987" />
    <synapse sourceNeuronName = "1" targetNeuronName = "10" weight = "-0.09462541140924596" />
    <synapse sourceNeuronName = "1" targetNeuronName = "11" weight = "0.35776015405581507" />
    <synapse sourceNeuronName = "1" targetNeuronName = "12" weight = "-0.5976003861814019" />
    <synapse sourceNeuronName = "2" targetNeuronName = "5" weight = "0.7005573159960896" />
    <synapse sourceNeuronName = "2" targetNeuronName = "6" weight = "-0.4300836174419487" />
    <synapse sourceNeuronName = "2" targetNeuronName = "7" weight = "0.9515263907524325" />
    <synapse sourceNeuronName = "2" targetNeuronName = "8" weight = "0.08751285908377948" />
    <synapse sourceNeuronName = "2" targetNeuronName = "9" weight = "0.5813355750968214" />
    <synapse sourceNeuronName = "2" targetNeuronName = "10" weight = "0.30017165497969467" />
    <synapse sourceNeuronName = "2" targetNeuronName = "11" weight = "0.09504815202684136" />
    <synapse sourceNeuronName = "2" targetNeuronName = "12" weight = "-0.28517385532262307" />
    <synapse sourceNeuronName = "3" targetNeuronName = "5" weight = "0.13550567255139034" />
    <synapse sourceNeuronName = "3" targetNeuronName = "6" weight = "0.6403489619485951" />
    <synapse sourceNeuronName = "3" targetNeuronName = "7" weight = "-0.8283616916865686" />
    <synapse sourceNeuronName = "3" targetNeuronName = "8" weight = "-0.13549627094123906" />
    <synapse sourceNeuronName = "3" targetNeuronName = "9" weight = "-0.6029240101176061" />
    <synapse sourceNeuronName = "3" targetNeuronName = "10" weight = "0.3670905399505202" />
    <synapse sourceNeuronName = "3" targetNeuronName = "11" weight = "0.9743581436534112" />
    <synapse sourceNeuronName = "3" targetNeuronName = "12" weight = "0.9500150621618806" />
    <synapse sourceNeuronName = "4" targetNeuronName = "5" weight = "0.42406218329329626" />
    <synapse sourceNeuronName = "4" targetNeuronName = "6" weight = "0.2219046572634673" />
    <synapse sourceNeuronName = "4" targetNeuronName = "7" weight = "0.05268697166137781" />
    <synapse sourceNeuronName = "4" targetNeuronName = "8" weight = "0.5221616053516758" />
    <synapse sourceNeuronName = "4" targetNeuronName = "9" weight = "0.4220013233793074" />
    <synapse sourceNeuronName = "4" targetNeuronName = "10" weight = "0.815700491761439" />
    <synapse sourceNeuronName = "4" targetNeuronName = "11" weight = "-0.5666098006445244" />
    <synapse sourceNeuronName = "4" targetNeuronName = "12" weight = "0.38750615340701344" />
</neuralNetwork>