<neuralNetwork>
    <neuron name = "0" type = "sensor" linkName = "Link0" />
    <neuron name = "1" type = "sensor" linkName = "Link3" />
    <neuron name = "2" type = "sensor" linkName = "Link2-1" />
    <neuron name = "3" type = "sensor" linkName = "Link2-3" />
    <neuron name = "4" type = "sensor" linkName = "Link3-1" />
    <neuron name = "5" type = "motor"  jointName = "Link0_Link1" />
    <neuron name = "6" type = "motor"  jointName = "Link1_Link2" />
    <neuron name = "7" type = "motor"  jointName = "Link2_Link3" />
    <neuron name = "8" type = "motor"  jointName = "Link0_Link1" />
    <neuron name = "9" type = "motor"  jointName = "Link0_Link1" />
    <neuron name = "10" type = "motor"  jointName = "Link0_Link1" />
    <neuron name = "11" type = "motor"  jointName = "Link0_Link1" />
    <neuron name = "12" type = "motor"  jointName = "Link0_Link1" />
    <synapse sourceNeuronName = "0" targetNeuronName = "5" weight = "-0.43474108414086254" />
    <synapse sourceNeuronName = "0" targetNeuronName = "6" weight = "-0.5726802102317115" />
    <synapse sourceNeuronName = "0" targetNeuronName = "7" weight = "-0.20846787850920445" />
    <synapse sourceNeuronName = "0" targetNeuronName = "8" weight = "0.6970206639214032" />
    <synapse sourceNeuronName = "0" targetNeuronName = "9" weight = "-0.11108986890649164" />
    <synapse sourceNeuronName = "0" targetNeuronName = "10" weight = "-0.16208985951058552" />
    <synapse sourceNeuronName = "0" targetNeuronName = "11" weight = "-0.03212250947190287" />
    <synapse sourceNeuronName = "0" targetNeuronName = "12" weight = "0.7654959312479783" />
    <synapse sourceNeuronName = "1" targetNeuronName = "5" weight = "0.28614872791946566" />
    <synapse sourceNeuronName = "1" targetNeuronName = "6" weight = "0.7103522131189357" />
    <synapse sourceNeuronName = "1" targetNeuronName = "7" weight = "0.7388027564184927" />
    <synapse sourceNeuronName = "1" targetNeuronName = "8" weight = "0.21835691430835857" />
    <synapse sourceNeuronName = "1" targetNeuronName = "9" weight = "-0.8179150745204673" />
    <synapse sourceNeuronName = "1" targetNeuronName = "10" weight = "-0.9821362705817069" />
    <synapse sourceNeuronName = "1" targetNeuronName = "11" weight = "-0.29784249851058475" />
    <synapse sourceNeuronName = "1" targetNeuronName = "12" weight = "-0.6328364298900231" />
    <synapse sourceNeuronName = "2" targetNeuronName = "5" weight = "-0.8492637747554028" />
    <synapse sourceNeuronName = "2" targetNeuronName = "6" weight = "-0.46777197722440467" />
    <synapse sourceNeuronName = "2" targetNeuronName = "7" weight = "-0.2047560952837577" />
    <synapse sourceNeuronName = "2" targetNeuronName = "8" weight = "0.9848141020294277" />
    <synapse sourceNeuronName = "2" targetNeuronName = "9" weight = "-0.06348097473177527" />
    <synapse sourceNeuronName = "2" targetNeuronName = "10" weight = "0.10398278390303783" />
    <synapse sourceNeuronName = "2" targetNeuronName = "11" weight = "0.5183136958232926" />
    <synapse sourceNeuronName = "2" targetNeuronName = "12" weight = "0.3456876441239296" />
    <synapse sourceNeuronName = "3" targetNeuronName = "5" weight = "-0.5371194389341116" />
    <synapse sourceNeuronName = "3" targetNeuronName = "6" weight = "-0.2087504225033161" />
    <synapse sourceNeuronName = "3" targetNeuronName = "7" weight = "-0.7851330277587942" />
    <synapse sourceNeuronName = "3" targetNeuronName = "8" weight = "0.6916688161455149" />
    <synapse sourceNeuronName = "3" targetNeuronName = "9" weight = "-0.18560470212823188" />
    <synapse sourceNeuronName = "3" targetNeuronName = "10" weight = "0.26450737572583183" />
    <synapse sourceNeuronName = "3" targetNeuronName = "11" weight = "0.7599708662710387" />
    <synapse sourceNeuronName = "3" targetNeuronName = "12" weight = "-0.9627034235234739" />
    <synapse sourceNeuronName = "4" targetNeuronName = "5" weight = "-0.06690848228526947" />
    <synapse sourceNeuronName = "4" targetNeuronName = "6" weight = "-0.35776461193403364" />
    <synapse sourceNeuronName = "4" targetNeuronName = "7" weight = "0.8918176956352908" />
    <synapse sourceNeuronName = "4" targetNeuronName = "8" weight = "-0.279044146732663" />
    <synapse sourceNeuronName = "4" targetNeuronName = "9" weight = "-0.7465615133238606" />
    <synapse sourceNeuronName = "4" targetNeuronName = "10" weight = "-0.10721178744536641" />
    <synapse sourceNeuronName = "4" targetNeuronName = "11" weight = "0.8089729975230202" />
    <synapse sourceNeuronName = "4" targetNeuronName = "12" weight = "-0.7124833572772271" />
</neuralNetwork>