<neuralNetwork>
    <neuron name = "0" type = "sensor" linkName = "Link0" />
    <neuron name = "1" type = "sensor" linkName = "Link2-0" />
    <neuron name = "2" type = "sensor" linkName = "Link2-2" />
    <neuron name = "3" type = "sensor" linkName = "Link2-3" />
    <neuron name = "4" type = "sensor" linkName = "Link2-1-1-2" />
    <neuron name = "5" type = "sensor" linkName = "Link2-1-1-3" />
    <neuron name = "6" type = "sensor" linkName = "Link2-3-0" />
    <neuron name = "7" type = "sensor" linkName = "Link2-3-2" />
    <neuron name = "8" type = "sensor" linkName = "Link2-3-0-0" />
    <neuron name = "9" type = "motor"  jointName = "Link0_Link1" />
    <neuron name = "10" type = "motor"  jointName = "Link1_Link2" />
    <neuron name = "11" type = "motor"  jointName = "Link0_Link1" />
    <neuron name = "12" type = "motor"  jointName = "Link0_Link1" />
    <neuron name = "13" type = "motor"  jointName = "Link0_Link1" />
    <neuron name = "14" type = "motor"  jointName = "Link0_Link1" />
    <neuron name = "15" type = "motor"  jointName = "Link0_Link1" />
    <synapse sourceNeuronName = "0" targetNeuronName = "9" weight = "-0.577273954754782" />
    <synapse sourceNeuronName = "0" targetNeuronName = "10" weight = "0.008975818902287047" />
    <synapse sourceNeuronName = "0" targetNeuronName = "11" weight = "0.15707275924420494" />
    <synapse sourceNeuronName = "0" targetNeuronName = "12" weight = "-0.17809147716398388" />
    <synapse sourceNeuronName = "0" targetNeuronName = "13" weight = "-0.27729055147691595" />
    <synapse sourceNeuronName = "0" targetNeuronName = "14" weight = "-0.7721115379081345" />
    <synapse sourceNeuronName = "0" targetNeuronName = "15" weight = "-0.9084444484312211" />
    <synapse sourceNeuronName = "1" targetNeuronName = "9" weight = "0.20348502780572963" />
    <synapse sourceNeuronName = "1" targetNeuronName = "10" weight = "-0.08664235468284454" />
    <synapse sourceNeuronName = "1" targetNeuronName = "11" weight = "-0.3681441174054838" />
    <synapse sourceNeuronName = "1" targetNeuronName = "12" weight = "-0.9597734361527928" />
    <synapse sourceNeuronName = "1" targetNeuronName = "13" weight = "0.5542427468428361" />
    <synapse sourceNeuronName = "1" targetNeuronName = "14" weight = "0.7624180873417297" />
    <synapse sourceNeuronName = "1" targetNeuronName = "15" weight = "0.7407111965596427" />
    <synapse sourceNeuronName = "2" targetNeuronName = "9" weight = "0.3320223797718336" />
    <synapse sourceNeuronName = "2" targetNeuronName = "10" weight = "-0.46342762336462107" />
    <synapse sourceNeuronName = "2" targetNeuronName = "11" weight = "0.13360004907830847" />
    <synapse sourceNeuronName = "2" targetNeuronName = "12" weight = "0.3089363446577347" />
    <synapse sourceNeuronName = "2" targetNeuronName = "13" weight = "0.08492943581410461" />
    <synapse sourceNeuronName = "2" targetNeuronName = "14" weight = "0.5399088319841872" />
    <synapse sourceNeuronName = "2" targetNeuronName = "15" weight = "0.8289532238755146" />
    <synapse sourceNeuronName = "3" targetNeuronName = "9" weight = "-0.930634715902201" />
    <synapse sourceNeuronName = "3" targetNeuronName = "10" weight = "0.5182443720865768" />
    <synapse sourceNeuronName = "3" targetNeuronName = "11" weight = "0.03925999708674888" />
    <synapse sourceNeuronName = "3" targetNeuronName = "12" weight = "0.6591231185341426" />
    <synapse sourceNeuronName = "3" targetNeuronName = "13" weight = "0.3006310407840218" />
    <synapse sourceNeuronName = "3" targetNeuronName = "14" weight = "0.6776421009672877" />
    <synapse sourceNeuronName = "3" targetNeuronName = "15" weight = "-0.9286781535766826" />
    <synapse sourceNeuronName = "4" targetNeuronName = "9" weight = "-0.7495020593134949" />
    <synapse sourceNeuronName = "4" targetNeuronName = "10" weight = "0.32152247526114475" />
    <synapse sourceNeuronName = "4" targetNeuronName = "11" weight = "0.9959206271733565" />
    <synapse sourceNeuronName = "4" targetNeuronName = "12" weight = "0.24089414951173915" />
    <synapse sourceNeuronName = "4" targetNeuronName = "13" weight = "-0.7527672242455528" />
    <synapse sourceNeuronName = "4" targetNeuronName = "14" weight = "-0.7549306068997181" />
    <synapse sourceNeuronName = "4" targetNeuronName = "15" weight = "-0.09086594992428654" />
    <synapse sourceNeuronName = "5" targetNeuronName = "9" weight = "-0.6468645993931292" />
    <synapse sourceNeuronName = "5" targetNeuronName = "10" weight = "-0.049649584355659915" />
    <synapse sourceNeuronName = "5" targetNeuronName = "11" weight = "0.9372254054999329" />
    <synapse sourceNeuronName = "5" targetNeuronName = "12" weight = "0.1341405580846471" />
    <synapse sourceNeuronName = "5" targetNeuronName = "13" weight = "0.36672658566685445" />
    <synapse sourceNeuronName = "5" targetNeuronName = "14" weight = "0.11040474278328172" />
    <synapse sourceNeuronName = "5" targetNeuronName = "15" weight = "0.7208548043843723" />
    <synapse sourceNeuronName = "6" targetNeuronName = "9" weight = "-0.6017759288883553" />
    <synapse sourceNeuronName = "6" targetNeuronName = "10" weight = "-0.5612181304555994" />
    <synapse sourceNeuronName = "6" targetNeuronName = "11" weight = "-0.1529862055691289" />
    <synapse sourceNeuronName = "6" targetNeuronName = "12" weight = "-0.16993505531839048" />
    <synapse sourceNeuronName = "6" targetNeuronName = "13" weight = "-0.10307332617085163" />
    <synapse sourceNeuronName = "6" targetNeuronName = "14" weight = "0.7044305047820647" />
    <synapse sourceNeuronName = "6" targetNeuronName = "15" weight = "0.5786559113743834" />
    <synapse sourceNeuronName = "7" targetNeuronName = "9" weight = "-0.8995444473853829" />
    <synapse sourceNeuronName = "7" targetNeuronName = "10" weight = "-0.6367947326599017" />
    <synapse sourceNeuronName = "7" targetNeuronName = "11" weight = "0.05179275323702903" />
    <synapse sourceNeuronName = "7" targetNeuronName = "12" weight = "-0.40649038542315585" />
    <synapse sourceNeuronName = "7" targetNeuronName = "13" weight = "0.29901017500941585" />
    <synapse sourceNeuronName = "7" targetNeuronName = "14" weight = "0.1037998755438776" />
    <synapse sourceNeuronName = "7" targetNeuronName = "15" weight = "0.9665650074722747" />
    <synapse sourceNeuronName = "8" targetNeuronName = "9" weight = "0.8415522246539202" />
    <synapse sourceNeuronName = "8" targetNeuronName = "10" weight = "0.19699987197637103" />
    <synapse sourceNeuronName = "8" targetNeuronName = "11" weight = "-0.3068837728442768" />
    <synapse sourceNeuronName = "8" targetNeuronName = "12" weight = "0.901688775522514" />
    <synapse sourceNeuronName = "8" targetNeuronName = "13" weight = "-0.31945533360378997" />
    <synapse sourceNeuronName = "8" targetNeuronName = "14" weight = "0.15465462660177165" />
    <synapse sourceNeuronName = "8" targetNeuronName = "15" weight = "-0.7480064747102122" />
</neuralNetwork>