<neuralNetwork>
    <neuron name = "0" type = "sensor" linkName = "Link0" />
    <neuron name = "1" type = "sensor" linkName = "Link1" />
    <neuron name = "2" type = "sensor" linkName = "Link1" />
    <neuron name = "3" type = "sensor" linkName = "Link3" />
    <neuron name = "4" type = "sensor" linkName = "Link2-0" />
    <neuron name = "5" type = "sensor" linkName = "Link3-0" />
    <neuron name = "6" type = "sensor" linkName = "Link3-1" />
    <neuron name = "7" type = "motor"  jointName = "Link0_Link1" />
    <neuron name = "8" type = "motor"  jointName = "Link1_Link2" />
    <neuron name = "9" type = "motor"  jointName = "Link2_Link3" />
    <neuron name = "10" type = "motor"  jointName = "Link0_Link1" />
    <neuron name = "11" type = "motor"  jointName = "Link0_Link1" />
    <neuron name = "12" type = "motor"  jointName = "Link0_Link1" />
    <neuron name = "13" type = "motor"  jointName = "Link0_Link1" />
    <neuron name = "14" type = "motor"  jointName = "Link0_Link1" />
    <neuron name = "15" type = "motor"  jointName = "Link0_Link1" />
    <synapse sourceNeuronName = "0" targetNeuronName = "7" weight = "0.8354010247884129" />
    <synapse sourceNeuronName = "0" targetNeuronName = "8" weight = "0.7967826145947308" />
    <synapse sourceNeuronName = "0" targetNeuronName = "9" weight = "-0.011647857179409193" />
    <synapse sourceNeuronName = "0" targetNeuronName = "10" weight = "-0.23866818564151737" />
    <synapse sourceNeuronName = "0" targetNeuronName = "11" weight = "0.5361410610994026" />
    <synapse sourceNeuronName = "0" targetNeuronName = "12" weight = "-0.6577134459729406" />
    <synapse sourceNeuronName = "0" targetNeuronName = "13" weight = "-0.6756042849019221" />
    <synapse sourceNeuronName = "0" targetNeuronName = "14" weight = "0.843030282238955" />
    <synapse sourceNeuronName = "0" targetNeuronName = "15" weight = "0.08071003777554231" />
    <synapse sourceNeuronName = "1" targetNeuronName = "7" weight = "-0.30634724443062766" />
    <synapse sourceNeuronName = "1" targetNeuronName = "8" weight = "0.6123630861234062" />
    <synapse sourceNeuronName = "1" targetNeuronName = "9" weight = "-0.5077134388051747" />
    <synapse sourceNeuronName = "1" targetNeuronName = "10" weight = "-0.4189119104631278" />
    <synapse sourceNeuronName = "1" targetNeuronName = "11" weight = "0.6197824730775701" />
    <synapse sourceNeuronName = "1" targetNeuronName = "12" weight = "0.6223636573454498" />
    <synapse sourceNeuronName = "1" targetNeuronName = "13" weight = "-0.8983180517052061" />
    <synapse sourceNeuronName = "1" targetNeuronName = "14" weight = "-0.9803112839825521" />
    <synapse sourceNeuronName = "1" targetNeuronName = "15" weight = "0.46041889178258466" />
    <synapse sourceNeuronName = "2" targetNeuronName = "7" weight = "-0.8049000500750361" />
    <synapse sourceNeuronName = "2" targetNeuronName = "8" weight = "0.0272357476474816" />
    <synapse sourceNeuronName = "2" targetNeuronName = "9" weight = "0.9521368309410299" />
    <synapse sourceNeuronName = "2" targetNeuronName = "10" weight = "0.9344189995697758" />
    <synapse sourceNeuronName = "2" targetNeuronName = "11" weight = "0.9387666868692122" />
    <synapse sourceNeuronName = "2" targetNeuronName = "12" weight = "0.006593632016045792" />
    <synapse sourceNeuronName = "2" targetNeuronName = "13" weight = "-0.8168378169974202" />
    <synapse sourceNeuronName = "2" targetNeuronName = "14" weight = "-0.5269396370273909" />
    <synapse sourceNeuronName = "2" targetNeuronName = "15" weight = "0.008724896104284952" />
    <synapse sourceNeuronName = "3" targetNeuronName = "7" weight = "0.652853970032051" />
    <synapse sourceNeuronName = "3" targetNeuronName = "8" weight = "-0.918836717587648" />
    <synapse sourceNeuronName = "3" targetNeuronName = "9" weight = "-0.9534942468460472" />
    <synapse sourceNeuronName = "3" targetNeuronName = "10" weight = "0.44247013534918533" />
    <synapse sourceNeuronName = "3" targetNeuronName = "11" weight = "0.8572314534466969" />
    <synapse sourceNeuronName = "3" targetNeuronName = "12" weight = "0.08904109171449215" />
    <synapse sourceNeuronName = "3" targetNeuronName = "13" weight = "0.2424474289529508" />
    <synapse sourceNeuronName = "3" targetNeuronName = "14" weight = "0.6024040663554975" />
    <synapse sourceNeuronName = "3" targetNeuronName = "15" weight = "0.7797874395613469" />
    <synapse sourceNeuronName = "4" targetNeuronName = "7" weight = "-0.47375762164799773" />
    <synapse sourceNeuronName = "4" targetNeuronName = "8" weight = "0.41535288456839314" />
    <synapse sourceNeuronName = "4" targetNeuronName = "9" weight = "-0.41225553254191594" />
    <synapse sourceNeuronName = "4" targetNeuronName = "10" weight = "0.7563623351523592" />
    <synapse sourceNeuronName = "4" targetNeuronName = "11" weight = "0.7620579130023162" />
    <synapse sourceNeuronName = "4" targetNeuronName = "12" weight = "0.011444665566943124" />
    <synapse sourceNeuronName = "4" targetNeuronName = "13" weight = "0.17915971439893807" />
    <synapse sourceNeuronName = "4" targetNeuronName = "14" weight = "-0.0331196861028602" />
    <synapse sourceNeuronName = "4" targetNeuronName = "15" weight = "-0.8855589714997953" />
    <synapse sourceNeuronName = "5" targetNeuronName = "7" weight = "0.7504615659635281" />
    <synapse sourceNeuronName = "5" targetNeuronName = "8" weight = "-0.8273563336091518" />
    <synapse sourceNeuronName = "5" targetNeuronName = "9" weight = "-0.33834149110810907" />
    <synapse sourceNeuronName = "5" targetNeuronName = "10" weight = "-0.5908578665291528" />
    <synapse sourceNeuronName = "5" targetNeuronName = "11" weight = "-0.6439730857331136" />
    <synapse sourceNeuronName = "5" targetNeuronName = "12" weight = "0.3911763399892878" />
    <synapse sourceNeuronName = "5" targetNeuronName = "13" weight = "-0.20110443192056837" />
    <synapse sourceNeuronName = "5" targetNeuronName = "14" weight = "-0.3182591436129074" />
    <synapse sourceNeuronName = "5" targetNeuronName = "15" weight = "-0.36958299736325007" />
    <synapse sourceNeuronName = "6" targetNeuronName = "7" weight = "0.06988092769000498" />
    <synapse sourceNeuronName = "6" targetNeuronName = "8" weight = "-0.37618636317436227" />
    <synapse sourceNeuronName = "6" targetNeuronName = "9" weight = "0.8273895216050664" />
    <synapse sourceNeuronName = "6" targetNeuronName = "10" weight = "0.5070030743499219" />
    <synapse sourceNeuronName = "6" targetNeuronName = "11" weight = "-0.926158913363752" />
    <synapse sourceNeuronName = "6" targetNeuronName = "12" weight = "-0.19515701275406028" />
    <synapse sourceNeuronName = "6" targetNeuronName = "13" weight = "-0.41334499882878495" />
    <synapse sourceNeuronName = "6" targetNeuronName = "14" weight = "-0.5405631323316464" />
    <synapse sourceNeuronName = "6" targetNeuronName = "15" weight = "0.8246568362806139" />
</neuralNetwork>