<neuralNetwork>
    <neuron name = "0" type = "sensor" linkName = "Link0" />
    <neuron name = "1" type = "sensor" linkName = "Link2" />
    <neuron name = "2" type = "sensor" linkName = "Link3" />
    <neuron name = "3" type = "sensor" linkName = "Link2-0" />
    <neuron name = "4" type = "sensor" linkName = "Link2-2" />
    <neuron name = "5" type = "motor"  jointName = "Link0_Link1" />
    <neuron name = "6" type = "motor"  jointName = "Link1_Link2" />
    <neuron name = "7" type = "motor"  jointName = "Link2_Link3" />
    <neuron name = "8" type = "motor"  jointName = "Link0_Link1" />
    <neuron name = "9" type = "motor"  jointName = "Link0_Link1" />
    <neuron name = "10" type = "motor"  jointName = "Link0_Link1" />
    <neuron name = "11" type = "motor"  jointName = "Link0_Link1" />
    <neuron name = "12" type = "motor"  jointName = "Link0_Link1" />
    <neuron name = "13" type = "motor"  jointName = "Link0_Link1" />
    <neuron name = "14" type = "motor"  jointName = "Link0_Link1" />
    <neuron name = "15" type = "motor"  jointName = "Link0_Link1" />
    <synapse sourceNeuronName = "0" targetNeuronName = "5" weight = "-0.3664664513375171" />
    <synapse sourceNeuronName = "0" targetNeuronName = "6" weight = "-0.4094606485715657" />
    <synapse sourceNeuronName = "0" targetNeuronName = "7" weight = "-0.9946483967527353" />
    <synapse sourceNeuronName = "0" targetNeuronName = "8" weight = "-0.7768141092469483" />
    <synapse sourceNeuronName = "0" targetNeuronName = "9" weight = "0.5505060411307985" />
    <synapse sourceNeuronName = "0" targetNeuronName = "10" weight = "0.9146291205663395" />
    <synapse sourceNeuronName = "0" targetNeuronName = "11" weight = "-0.6681612115920736" />
    <synapse sourceNeuronName = "0" targetNeuronName = "12" weight = "-0.7951621270837386" />
    <synapse sourceNeuronName = "0" targetNeuronName = "13" weight = "-0.01840981907641992" />
    <synapse sourceNeuronName = "0" targetNeuronName = "14" weight = "-0.2344197280420257" />
    <synapse sourceNeuronName = "0" targetNeuronName = "15" weight = "-0.9149028211557368" />
    <synapse sourceNeuronName = "1" targetNeuronName = "5" weight = "0.5972431749690426" />
    <synapse sourceNeuronName = "1" targetNeuronName = "6" weight = "0.898198949346195" />
    <synapse sourceNeuronName = "1" targetNeuronName = "7" weight = "0.8196573299697538" />
    <synapse sourceNeuronName = "1" targetNeuronName = "8" weight = "-0.6356384796602577" />
    <synapse sourceNeuronName = "1" targetNeuronName = "9" weight = "0.9638879990343179" />
    <synapse sourceNeuronName = "1" targetNeuronName = "10" weight = "0.012865620794993093" />
    <synapse sourceNeuronName = "1" targetNeuronName = "11" weight = "0.04879049002296543" />
    <synapse sourceNeuronName = "1" targetNeuronName = "12" weight = "0.38917072070111236" />
    <synapse sourceNeuronName = "1" targetNeuronName = "13" weight = "0.9039575444502015" />
    <synapse sourceNeuronName = "1" targetNeuronName = "14" weight = "-0.054317765581110455" />
    <synapse sourceNeuronName = "1" targetNeuronName = "15" weight = "-0.558605582247367" />
    <synapse sourceNeuronName = "2" targetNeuronName = "5" weight = "0.15455022523549888" />
    <synapse sourceNeuronName = "2" targetNeuronName = "6" weight = "-0.7476591116383373" />
    <synapse sourceNeuronName = "2" targetNeuronName = "7" weight = "0.12880396037666286" />
    <synapse sourceNeuronName = "2" targetNeuronName = "8" weight = "0.18314376037085878" />
    <synapse sourceNeuronName = "2" targetNeuronName = "9" weight = "-0.382605029526466" />
    <synapse sourceNeuronName = "2" targetNeuronName = "10" weight = "-0.008055885393335016" />
    <synapse sourceNeuronName = "2" targetNeuronName = "11" weight = "0.553902484560199" />
    <synapse sourceNeuronName = "2" targetNeuronName = "12" weight = "-0.7358067536526336" />
    <synapse sourceNeuronName = "2" targetNeuronName = "13" weight = "-0.20317101986862096" />
    <synapse sourceNeuronName = "2" targetNeuronName = "14" weight = "-0.4433044657388183" />
    <synapse sourceNeuronName = "2" targetNeuronName = "15" weight = "-0.06905764905723366" />
    <synapse sourceNeuronName = "3" targetNeuronName = "5" weight = "0.5666157801067242" />
    <synapse sourceNeuronName = "3" targetNeuronName = "6" weight = "-0.8494196009400656" />
    <synapse sourceNeuronName = "3" targetNeuronName = "7" weight = "-0.018029371782502857" />
    <synapse sourceNeuronName = "3" targetNeuronName = "8" weight = "0.3433743218469578" />
    <synapse sourceNeuronName = "3" targetNeuronName = "9" weight = "0.21837708222715224" />
    <synapse sourceNeuronName = "3" targetNeuronName = "10" weight = "0.5296394615629565" />
    <synapse sourceNeuronName = "3" targetNeuronName = "11" weight = "-0.8402748967133489" />
    <synapse sourceNeuronName = "3" targetNeuronName = "12" weight = "-0.3805832598970984" />
    <synapse sourceNeuronName = "3" targetNeuronName = "13" weight = "0.9838773352204966" />
    <synapse sourceNeuronName = "3" targetNeuronName = "14" weight = "-0.8542185209106723" />
    <synapse sourceNeuronName = "3" targetNeuronName = "15" weight = "-0.2730830878000705" />
    <synapse sourceNeuronName = "4" targetNeuronName = "5" weight = "-0.9764003782045803" />
    <synapse sourceNeuronName = "4" targetNeuronName = "6" weight = "-0.8712268819646616" />
    <synapse sourceNeuronName = "4" targetNeuronName = "7" weight = "-0.22136490766344696" />
    <synapse sourceNeuronName = "4" targetNeuronName = "8" weight = "-0.14285886973213957" />
    <synapse sourceNeuronName = "4" targetNeuronName = "9" weight = "0.6602399375620864" />
    <synapse sourceNeuronName = "4" targetNeuronName = "10" weight = "0.05313124710759953" />
    <synapse sourceNeuronName = "4" targetNeuronName = "11" weight = "-0.479742615815935" />
    <synapse sourceNeuronName = "4" targetNeuronName = "12" weight = "0.38706688152118507" />
    <synapse sourceNeuronName = "4" targetNeuronName = "13" weight = "-0.1636348670928891" />
    <synapse sourceNeuronName = "4" targetNeuronName = "14" weight = "0.053607013983875795" />
    <synapse sourceNeuronName = "4" targetNeuronName = "15" weight = "0.469008486650877" />
</neuralNetwork>