<neuralNetwork>
    <neuron name = "0" type = "sensor" linkName = "Link0" />
    <neuron name = "1" type = "sensor" linkName = "Link1" />
    <neuron name = "2" type = "sensor" linkName = "Link1" />
    <neuron name = "3" type = "sensor" linkName = "Link2-0" />
    <neuron name = "4" type = "sensor" linkName = "Link2-1" />
    <neuron name = "5" type = "sensor" linkName = "Link2-2" />
    <neuron name = "6" type = "sensor" linkName = "Link2-0-0-1" />
    <neuron name = "7" type = "sensor" linkName = "Link2-0-0-2" />
    <neuron name = "8" type = "motor"  jointName = "Link0_Link1" />
    <neuron name = "9" type = "motor"  jointName = "Link1_Link2" />
    <neuron name = "10" type = "motor"  jointName = "Link0_Link1" />
    <neuron name = "11" type = "motor"  jointName = "Link0_Link1" />
    <neuron name = "12" type = "motor"  jointName = "Link0_Link1" />
    <neuron name = "13" type = "motor"  jointName = "Link0_Link1" />
    <neuron name = "14" type = "motor"  jointName = "Link0_Link1" />
    <neuron name = "15" type = "motor"  jointName = "Link0_Link1" />
    <neuron name = "16" type = "motor"  jointName = "Link0_Link1" />
    <neuron name = "17" type = "motor"  jointName = "Link0_Link1" />
    <neuron name = "18" type = "motor"  jointName = "Link0_Link1" />
    <neuron name = "19" type = "motor"  jointName = "Link0_Link1" />
    <synapse sourceNeuronName = "0" targetNeuronName = "8" weight = "0.15764409977903182" />
    <synapse sourceNeuronName = "0" targetNeuronName = "9" weight = "-0.39039499321794735" />
    <synapse sourceNeuronName = "0" targetNeuronName = "10" weight = "-0.24635001472436113" />
    <synapse sourceNeuronName = "0" targetNeuronName = "11" weight = "0.405280459655059" />
    <synapse sourceNeuronName = "0" targetNeuronName = "12" weight = "0.43104738960932654" />
    <synapse sourceNeuronName = "0" targetNeuronName = "13" weight = "-0.8456821920180386" />
    <synapse sourceNeuronName = "0" targetNeuronName = "14" weight = "-0.1816789686643785" />
    <synapse sourceNeuronName = "0" targetNeuronName = "15" weight = "-0.6910822444746261" />
    <synapse sourceNeuronName = "0" targetNeuronName = "16" weight = "-0.5403756784521017" />
    <synapse sourceNeuronName = "0" targetNeuronName = "17" weight = "0.8397450220059077" />
    <synapse sourceNeuronName = "0" targetNeuronName = "18" weight = "0.5622414617383691" />
    <synapse sourceNeuronName = "0" targetNeuronName = "19" weight = "-0.9910224786670487" />
    <synapse sourceNeuronName = "1" targetNeuronName = "8" weight = "-0.3347692494359653" />
    <synapse sourceNeuronName = "1" targetNeuronName = "9" weight = "-0.7959724414173872" />
    <synapse sourceNeuronName = "1" targetNeuronName = "10" weight = "-0.3959415114024265" />
    <synapse sourceNeuronName = "1" targetNeuronName = "11" weight = "0.5131865701962401" />
    <synapse sourceNeuronName = "1" targetNeuronName = "12" weight = "-0.5160713559708017" />
    <synapse sourceNeuronName = "1" targetNeuronName = "13" weight = "-0.04946447904341422" />
    <synapse sourceNeuronName = "1" targetNeuronName = "14" weight = "0.7739955450878253" />
    <synapse sourceNeuronName = "1" targetNeuronName = "15" weight = "0.6005425073514743" />
    <synapse sourceNeuronName = "1" targetNeuronName = "16" weight = "-0.9534031748745646" />
    <synapse sourceNeuronName = "1" targetNeuronName = "17" weight = "-0.18537911979805743" />
    <synapse sourceNeuronName = "1" targetNeuronName = "18" weight = "0.5854699759061561" />
    <synapse sourceNeuronName = "1" targetNeuronName = "19" weight = "0.8973381843631782" />
    <synapse sourceNeuronName = "2" targetNeuronName = "8" weight = "-0.6317223021721394" />
    <synapse sourceNeuronName = "2" targetNeuronName = "9" weight = "0.6458581526637477" />
    <synapse sourceNeuronName = "2" targetNeuronName = "10" weight = "-0.7070667578927259" />
    <synapse sourceNeuronName = "2" targetNeuronName = "11" weight = "-0.0854817397119656" />
    <synapse sourceNeuronName = "2" targetNeuronName = "12" weight = "0.3966545993661672" />
    <synapse sourceNeuronName = "2" targetNeuronName = "13" weight = "0.9850114103257079" />
    <synapse sourceNeuronName = "2" targetNeuronName = "14" weight = "0.9066871946468786" />
    <synapse sourceNeuronName = "2" targetNeuronName = "15" weight = "-0.7393322653139556" />
    <synapse sourceNeuronName = "2" targetNeuronName = "16" weight = "0.598029578082405" />
    <synapse sourceNeuronName = "2" targetNeuronName = "17" weight = "-0.031626650916023236" />
    <synapse sourceNeuronName = "2" targetNeuronName = "18" weight = "-0.3790262845365773" />
    <synapse sourceNeuronName = "2" targetNeuronName = "19" weight = "0.7808593568017888" />
    <synapse sourceNeuronName = "3" targetNeuronName = "8" weight = "0.980154679145385" />
    <synapse sourceNeuronName = "3" targetNeuronName = "9" weight = "0.4728481200492374" />
    <synapse sourceNeuronName = "3" targetNeuronName = "10" weight = "-0.661764631212254" />
    <synapse sourceNeuronName = "3" targetNeuronName = "11" weight = "-0.7875229003732127" />
    <synapse sourceNeuronName = "3" targetNeuronName = "12" weight = "-0.018208950050248474" />
    <synapse sourceNeuronName = "3" targetNeuronName = "13" weight = "0.174384328035617" />
    <synapse sourceNeuronName = "3" targetNeuronName = "14" weight = "0.6511854816469285" />
    <synapse sourceNeuronName = "3" targetNeuronName = "15" weight = "0.2593788589234429" />
    <synapse sourceNeuronName = "3" targetNeuronName = "16" weight = "-0.8989833180738831" />
    <synapse sourceNeuronName = "3" targetNeuronName = "17" weight = "0.8181466039143743" />
    <synapse sourceNeuronName = "3" targetNeuronName = "18" weight = "-0.9961513533695907" />
    <synapse sourceNeuronName = "3" targetNeuronName = "19" weight = "0.7117432459054842" />
    <synapse sourceNeuronName = "4" targetNeuronName = "8" weight = "0.25721955015715303" />
    <synapse sourceNeuronName = "4" targetNeuronName = "9" weight = "0.015511621018283517" />
    <synapse sourceNeuronName = "4" targetNeuronName = "10" weight = "0.5917721194608394" />
    <synapse sourceNeuronName = "4" targetNeuronName = "11" weight = "-0.15684149737390007" />
    <synapse sourceNeuronName = "4" targetNeuronName = "12" weight = "0.48146377195007495" />
    <synapse sourceNeuronName = "4" targetNeuronName = "13" weight = "-0.0737945192911782" />
    <synapse sourceNeuronName = "4" targetNeuronName = "14" weight = "0.28561566609401345" />
    <synapse sourceNeuronName = "4" targetNeuronName = "15" weight = "-0.8836940870795373" />
    <synapse sourceNeuronName = "4" targetNeuronName = "16" weight = "-0.13337872178470067" />
    <synapse sourceNeuronName = "4" targetNeuronName = "17" weight = "0.43197711665227967" />
    <synapse sourceNeuronName = "4" targetNeuronName = "18" weight = "-0.5154642904517777" />
    <synapse sourceNeuronName = "4" targetNeuronName = "19" weight = "-0.7564179234257937" />
    <synapse sourceNeuronName = "5" targetNeuronName = "8" weight = "0.45765476513800873" />
    <synapse sourceNeuronName = "5" targetNeuronName = "9" weight = "0.6650335314718305" />
    <synapse sourceNeuronName = "5" targetNeuronName = "10" weight = "-0.05118231305306975" />
    <synapse sourceNeuronName = "5" targetNeuronName = "11" weight = "-0.08197564897017173" />
    <synapse sourceNeuronName = "5" targetNeuronName = "12" weight = "-0.20800689939335726" />
    <synapse sourceNeuronName = "5" targetNeuronName = "13" weight = "-0.5575690871715651" />
    <synapse sourceNeuronName = "5" targetNeuronName = "14" weight = "0.8917879606409349" />
    <synapse sourceNeuronName = "5" targetNeuronName = "15" weight = "0.5598480959937422" />
    <synapse sourceNeuronName = "5" targetNeuronName = "16" weight = "-0.1738160919438163" />
    <synapse sourceNeuronName = "5" targetNeuronName = "17" weight = "0.7189672012450607" />
    <synapse sourceNeuronName = "5" targetNeuronName = "18" weight = "-0.9747280973509995" />
    <synapse sourceNeuronName = "5" targetNeuronName = "19" weight = "-0.8754510693429018" />
    <synapse sourceNeuronName = "6" targetNeuronName = "8" weight = "-0.23501948237682369" />
    <synapse sourceNeuronName = "6" targetNeuronName = "9" weight = "-0.862292125606769" />
    <synapse sourceNeuronName = "6" targetNeuronName = "10" weight = "-0.8529931278517435" />
    <synapse sourceNeuronName = "6" targetNeuronName = "11" weight = "-0.1787088548650042" />
    <synapse sourceNeuronName = "6" targetNeuronName = "12" weight = "-0.07956404889420532" />
    <synapse sourceNeuronName = "6" targetNeuronName = "13" weight = "-0.9904738770379464" />
    <synapse sourceNeuronName = "6" targetNeuronName = "14" weight = "0.29584466194712555" />
    <synapse sourceNeuronName = "6" targetNeuronName = "15" weight = "-0.2150531234182591" />
    <synapse sourceNeuronName = "6" targetNeuronName = "16" weight = "-0.024262230152453323" />
    <synapse sourceNeuronName = "6" targetNeuronName = "17" weight = "0.1625234903137831" />
    <synapse sourceNeuronName = "6" targetNeuronName = "18" weight = "-0.013742775503095883" />
    <synapse sourceNeuronName = "6" targetNeuronName = "19" weight = "0.7447585730384314" />
    <synapse sourceNeuronName = "7" targetNeuronName = "8" weight = "0.3401895236141945" />
    <synapse sourceNeuronName = "7" targetNeuronName = "9" weight = "0.18784552901711637" />
    <synapse sourceNeuronName = "7" targetNeuronName = "10" weight = "0.26612864421806237" />
    <synapse sourceNeuronName = "7" targetNeuronName = "11" weight = "-0.6948955363369462" />
    <synapse sourceNeuronName = "7" targetNeuronName = "12" weight = "-0.7974884200801182" />
    <synapse sourceNeuronName = "7" targetNeuronName = "13" weight = "0.2172908977956287" />
    <synapse sourceNeuronName = "7" targetNeuronName = "14" weight = "-0.17891402783721544" />
    <synapse sourceNeuronName = "7" targetNeuronName = "15" weight = "-0.5889174437367966" />
    <synapse sourceNeuronName = "7" targetNeuronName = "16" weight = "0.9384050504628625" />
    <synapse sourceNeuronName = "7" targetNeuronName = "17" weight = "0.3798412577962662" />
    <synapse sourceNeuronName = "7" targetNeuronName = "18" weight = "0.30638912224907844" />
    <synapse sourceNeuronName = "7" targetNeuronName = "19" weight = "-0.05334421305342141" />
</neuralNetwork>