<neuralNetwork>
    <neuron name = "0" type = "sensor" linkName = "Link0" />
    <neuron name = "1" type = "sensor" linkName = "Link2-1" />
    <neuron name = "2" type = "sensor" linkName = "Link2-0-0" />
    <neuron name = "3" type = "sensor" linkName = "Link2-0-1" />
    <neuron name = "4" type = "sensor" linkName = "Link2-0-2" />
    <neuron name = "5" type = "sensor" linkName = "Link2-0-3" />
    <neuron name = "6" type = "sensor" linkName = "Link2-0-2-0" />
    <neuron name = "7" type = "sensor" linkName = "Link2-0-4-0" />
    <neuron name = "8" type = "sensor" linkName = "Link2-0-4-2" />
    <neuron name = "9" type = "sensor" linkName = "Link2-0-4-4" />
    <neuron name = "10" type = "sensor" linkName = "Link2-1-0" />
    <neuron name = "11" type = "sensor" linkName = "Link2-2-0" />
    <neuron name = "12" type = "sensor" linkName = "Link2-2-1" />
    <neuron name = "13" type = "sensor" linkName = "Link2-2-2" />
    <neuron name = "14" type = "sensor" linkName = "Link2-2-3" />
    <neuron name = "15" type = "sensor" linkName = "Link2-2-1-1" />
    <neuron name = "16" type = "sensor" linkName = "Link2-2-4-2" />
    <neuron name = "17" type = "sensor" linkName = "Link2-3-2" />
    <neuron name = "18" type = "sensor" linkName = "Link2-3-0-0" />
    <neuron name = "19" type = "motor"  jointName = "Link0_Link1" />
    <neuron name = "20" type = "motor"  jointName = "Link1_Link2" />
    <synapse sourceNeuronName = "0" targetNeuronName = "19" weight = "0.4889381712140868" />
    <synapse sourceNeuronName = "0" targetNeuronName = "20" weight = "-0.8428565444075331" />
    <synapse sourceNeuronName = "1" targetNeuronName = "19" weight = "-0.6062720176850065" />
    <synapse sourceNeuronName = "1" targetNeuronName = "20" weight = "0.31667314846821903" />
    <synapse sourceNeuronName = "2" targetNeuronName = "19" weight = "-0.28006974840219234" />
    <synapse sourceNeuronName = "2" targetNeuronName = "20" weight = "-0.3758868085811884" />
    <synapse sourceNeuronName = "3" targetNeuronName = "19" weight = "0.7473928195998887" />
    <synapse sourceNeuronName = "3" targetNeuronName = "20" weight = "0.6029686948605892" />
    <synapse sourceNeuronName = "4" targetNeuronName = "19" weight = "-0.17388564973692477" />
    <synapse sourceNeuronName = "4" targetNeuronName = "20" weight = "0.810984085216089" />
    <synapse sourceNeuronName = "5" targetNeuronName = "19" weight = "0.8855524007222773" />
    <synapse sourceNeuronName = "5" targetNeuronName = "20" weight = "-0.036721066672754654" />
    <synapse sourceNeuronName = "6" targetNeuronName = "19" weight = "-0.25772612648019" />
    <synapse sourceNeuronName = "6" targetNeuronName = "20" weight = "-0.5981992861192489" />
    <synapse sourceNeuronName = "7" targetNeuronName = "19" weight = "0.5504643915875971" />
    <synapse sourceNeuronName = "7" targetNeuronName = "20" weight = "-0.7383391075682735" />
    <synapse sourceNeuronName = "8" targetNeuronName = "19" weight = "0.4776886816418937" />
    <synapse sourceNeuronName = "8" targetNeuronName = "20" weight = "-0.011618863474409213" />
    <synapse sourceNeuronName = "9" targetNeuronName = "19" weight = "-0.28951781679153576" />
    <synapse sourceNeuronName = "9" targetNeuronName = "20" weight = "0.5132510973511908" />
    <synapse sourceNeuronName = "10" targetNeuronName = "19" weight = "0.5998140375191596" />
    <synapse sourceNeuronName = "10" targetNeuronName = "20" weight = "0.10055180433445798" />
    <synapse sourceNeuronName = "11" targetNeuronName = "19" weight = "-0.7051739898397311" />
    <synapse sourceNeuronName = "11" targetNeuronName = "20" weight = "0.4571160659932123" />
    <synapse sourceNeuronName = "12" targetNeuronName = "19" weight = "0.7939742830370617" />
    <synapse sourceNeuronName = "12" targetNeuronName = "20" weight = "0.06512163931318926" />
    <synapse sourceNeuronName = "13" targetNeuronName = "19" weight = "-0.6945626772360856" />
    <synapse sourceNeuronName = "13" targetNeuronName = "20" weight = "0.3523514461270856" />
    <synapse sourceNeuronName = "14" targetNeuronName = "19" weight = "0.9376716106034695" />
    <synapse sourceNeuronName = "14" targetNeuronName = "20" weight = "0.43738300422802046" />
    <synapse sourceNeuronName = "15" targetNeuronName = "19" weight = "0.5339434061806061" />
    <synapse sourceNeuronName = "15" targetNeuronName = "20" weight = "0.250526801157396" />
    <synapse sourceNeuronName = "16" targetNeuronName = "19" weight = "-0.5694971888417304" />
    <synapse sourceNeuronName = "16" targetNeuronName = "20" weight = "-0.006347008627379358" />
    <synapse sourceNeuronName = "17" targetNeuronName = "19" weight = "0.15089997137733135" />
    <synapse sourceNeuronName = "17" targetNeuronName = "20" weight = "0.8354099862803699" />
    <synapse sourceNeuronName = "18" targetNeuronName = "19" weight = "-0.9693923061569698" />
    <synapse sourceNeuronName = "18" targetNeuronName = "20" weight = "-0.7500657429447177" />
</neuralNetwork>