<neuralNetwork>
    <neuron name = "0" type = "sensor" linkName = "Link0" />
    <neuron name = "1" type = "sensor" linkName = "Link2" />
    <neuron name = "2" type = "sensor" linkName = "Link3" />
    <neuron name = "3" type = "sensor" linkName = "Link3-0" />
    <neuron name = "4" type = "sensor" linkName = "Link3-1" />
    <neuron name = "5" type = "sensor" linkName = "Link3-0-2" />
    <neuron name = "6" type = "sensor" linkName = "Link3-0-3" />
    <neuron name = "7" type = "sensor" linkName = "Link3-0-4" />
    <neuron name = "8" type = "sensor" linkName = "Link3-1-0" />
    <neuron name = "9" type = "sensor" linkName = "Link3-1-1" />
    <neuron name = "10" type = "motor"  jointName = "Link0_Link1" />
    <neuron name = "11" type = "motor"  jointName = "Link1_Link2" />
    <neuron name = "12" type = "motor"  jointName = "Link2_Link3" />
    <neuron name = "13" type = "motor"  jointName = "Link0_Link1" />
    <neuron name = "14" type = "motor"  jointName = "Link0_Link1" />
    <neuron name = "15" type = "motor"  jointName = "Link0_Link1" />
    <neuron name = "16" type = "motor"  jointName = "Link0_Link1" />
    <neuron name = "17" type = "motor"  jointName = "Link0_Link1" />
    <neuron name = "18" type = "motor"  jointName = "Link0_Link1" />
    <neuron name = "19" type = "motor"  jointName = "Link0_Link1" />
    <neuron name = "20" type = "motor"  jointName = "Link0_Link1" />
    <neuron name = "21" type = "motor"  jointName = "Link0_Link1" />
    <neuron name = "22" type = "motor"  jointName = "Link0_Link1" />
    <synapse sourceNeuronName = "0" targetNeuronName = "10" weight = "-0.40111986487430284" />
    <synapse sourceNeuronName = "0" targetNeuronName = "11" weight = "0.6934900794226173" />
    <synapse sourceNeuronName = "0" targetNeuronName = "12" weight = "-0.27299899074827194" />
    <synapse sourceNeuronName = "0" targetNeuronName = "13" weight = "-0.05419225554537532" />
    <synapse sourceNeuronName = "0" targetNeuronName = "14" weight = "0.18447449447744835" />
    <synapse sourceNeuronName = "0" targetNeuronName = "15" weight = "-0.09588755897760182" />
    <synapse sourceNeuronName = "0" targetNeuronName = "16" weight = "0.9982849723801519" />
    <synapse sourceNeuronName = "0" targetNeuronName = "17" weight = "0.4358526122583435" />
    <synapse sourceNeuronName = "0" targetNeuronName = "18" weight = "0.7516981465539867" />
    <synapse sourceNeuronName = "0" targetNeuronName = "19" weight = "0.5532865724409461" />
    <synapse sourceNeuronName = "0" targetNeuronName = "20" weight = "-0.45172406474982507" />
    <synapse sourceNeuronName = "0" targetNeuronName = "21" weight = "0.5682812968781306" />
    <synapse sourceNeuronName = "0" targetNeuronName = "22" weight = "-0.5608878252140987" />
    <synapse sourceNeuronName = "1" targetNeuronName = "10" weight = "0.48950997610923475" />
    <synapse sourceNeuronName = "1" targetNeuronName = "11" weight = "-0.8016084546748627" />
    <synapse sourceNeuronName = "1" targetNeuronName = "12" weight = "0.7315752633807457" />
    <synapse sourceNeuronName = "1" targetNeuronName = "13" weight = "0.20325733483390995" />
    <synapse sourceNeuronName = "1" targetNeuronName = "14" weight = "-0.9529930968640814" />
    <synapse sourceNeuronName = "1" targetNeuronName = "15" weight = "0.17410697930120644" />
    <synapse sourceNeuronName = "1" targetNeuronName = "16" weight = "0.284841670311341" />
    <synapse sourceNeuronName = "1" targetNeuronName = "17" weight = "-0.6071954594426154" />
    <synapse sourceNeuronName = "1" targetNeuronName = "18" weight = "0.15435528378631203" />
    <synapse sourceNeuronName = "1" targetNeuronName = "19" weight = "0.01413421219305544" />
    <synapse sourceNeuronName = "1" targetNeuronName = "20" weight = "0.34306019233324125" />
    <synapse sourceNeuronName = "1" targetNeuronName = "21" weight = "-0.6335146865598862" />
    <synapse sourceNeuronName = "1" targetNeuronName = "22" weight = "-0.9065721982739714" />
    <synapse sourceNeuronName = "2" targetNeuronName = "10" weight = "-0.27252651852875" />
    <synapse sourceNeuronName = "2" targetNeuronName = "11" weight = "0.29497417562635353" />
    <synapse sourceNeuronName = "2" targetNeuronName = "12" weight = "0.7818924624172814" />
    <synapse sourceNeuronName = "2" targetNeuronName = "13" weight = "0.22395373773722116" />
    <synapse sourceNeuronName = "2" targetNeuronName = "14" weight = "0.8034340725648117" />
    <synapse sourceNeuronName = "2" targetNeuronName = "15" weight = "-0.4489949960641242" />
    <synapse sourceNeuronName = "2" targetNeuronName = "16" weight = "0.981662903416616" />
    <synapse sourceNeuronName = "2" targetNeuronName = "17" weight = "0.20579554836172642" />
    <synapse sourceNeuronName = "2" targetNeuronName = "18" weight = "0.9933625697253461" />
    <synapse sourceNeuronName = "2" targetNeuronName = "19" weight = "-0.20462169499984784" />
    <synapse sourceNeuronName = "2" targetNeuronName = "20" weight = "-0.4017576066415376" />
    <synapse sourceNeuronName = "2" targetNeuronName = "21" weight = "0.49199493026217334" />
    <synapse sourceNeuronName = "2" targetNeuronName = "22" weight = "0.9778152939040694" />
    <synapse sourceNeuronName = "3" targetNeuronName = "10" weight = "0.3291360791385407" />
    <synapse sourceNeuronName = "3" targetNeuronName = "11" weight = "0.5738058653271607" />
    <synapse sourceNeuronName = "3" targetNeuronName = "12" weight = "0.5483971235213561" />
    <synapse sourceNeuronName = "3" targetNeuronName = "13" weight = "-0.5966469624696882" />
    <synapse sourceNeuronName = "3" targetNeuronName = "14" weight = "-0.07948927073530254" />
    <synapse sourceNeuronName = "3" targetNeuronName = "15" weight = "0.23207086013804035" />
    <synapse sourceNeuronName = "3" targetNeuronName = "16" weight = "-0.1398988213494432" />
    <synapse sourceNeuronName = "3" targetNeuronName = "17" weight = "-0.03339912838410175" />
    <synapse sourceNeuronName = "3" targetNeuronName = "18" weight = "0.6101832174285842" />
    <synapse sourceNeuronName = "3" targetNeuronName = "19" weight = "-0.8895104198234007" />
    <synapse sourceNeuronName = "3" targetNeuronName = "20" weight = "-0.6387416255246114" />
    <synapse sourceNeuronName = "3" targetNeuronName = "21" weight = "0.49039462919350885" />
    <synapse sourceNeuronName = "3" targetNeuronName = "22" weight = "0.39091725680090494" />
    <synapse sourceNeuronName = "4" targetNeuronName = "10" weight = "0.7041265702089294" />
    <synapse sourceNeuronName = "4" targetNeuronName = "11" weight = "-0.9883384296867683" />
    <synapse sourceNeuronName = "4" targetNeuronName = "12" weight = "0.8297088188454307" />
    <synapse sourceNeuronName = "4" targetNeuronName = "13" weight = "-0.6193433320773241" />
    <synapse sourceNeuronName = "4" targetNeuronName = "14" weight = "0.1301874032957624" />
    <synapse sourceNeuronName = "4" targetNeuronName = "15" weight = "0.747179406489483" />
    <synapse sourceNeuronName = "4" targetNeuronName = "16" weight = "-0.842021698914208" />
    <synapse sourceNeuronName = "4" targetNeuronName = "17" weight = "0.8939098625991551" />
    <synapse sourceNeuronName = "4" targetNeuronName = "18" weight = "0.07406670259358705" />
    <synapse sourceNeuronName = "4" targetNeuronName = "19" weight = "-0.23703359054241013" />
    <synapse sourceNeuronName = "4" targetNeuronName = "20" weight = "0.685519329580095" />
    <synapse sourceNeuronName = "4" targetNeuronName = "21" weight = "-0.03468035685723514" />
    <synapse sourceNeuronName = "4" targetNeuronName = "22" weight = "0.9691906437714717" />
    <synapse sourceNeuronName = "5" targetNeuronName = "10" weight = "-0.8134785524654715" />
    <synapse sourceNeuronName = "5" targetNeuronName = "11" weight = "0.6821537608162074" />
    <synapse sourceNeuronName = "5" targetNeuronName = "12" weight = "-0.012915097705979539" />
    <synapse sourceNeuronName = "5" targetNeuronName = "13" weight = "0.4168091155965834" />
    <synapse sourceNeuronName = "5" targetNeuronName = "14" weight = "-0.335199069408155" />
    <synapse sourceNeuronName = "5" targetNeuronName = "15" weight = "-0.36864248393424215" />
    <synapse sourceNeuronName = "5" targetNeuronName = "16" weight = "-0.7085212395822915" />
    <synapse sourceNeuronName = "5" targetNeuronName = "17" weight = "-0.21903657102856844" />
    <synapse sourceNeuronName = "5" targetNeuronName = "18" weight = "0.8139207111413098" />
    <synapse sourceNeuronName = "5" targetNeuronName = "19" weight = "-0.12020092923260539" />
    <synapse sourceNeuronName = "5" targetNeuronName = "20" weight = "-0.231638599581099" />
    <synapse sourceNeuronName = "5" targetNeuronName = "21" weight = "-0.6713945841574638" />
    <synapse sourceNeuronName = "5" targetNeuronName = "22" weight = "-0.3525411968768466" />
    <synapse sourceNeuronName = "6" targetNeuronName = "10" weight = "0.10666741530611668" />
    <synapse sourceNeuronName = "6" targetNeuronName = "11" weight = "-0.02547094253142057" />
    <synapse sourceNeuronName = "6" targetNeuronName = "12" weight = "0.6860223037548949" />
    <synapse sourceNeuronName = "6" targetNeuronName = "13" weight = "-0.21237807596697067" />
    <synapse sourceNeuronName = "6" targetNeuronName = "14" weight = "0.335888145870042" />
    <synapse sourceNeuronName = "6" targetNeuronName = "15" weight = "-0.4062568923835308" />
    <synapse sourceNeuronName = "6" targetNeuronName = "16" weight = "-0.508979568793632" />
    <synapse sourceNeuronName = "6" targetNeuronName = "17" weight = "0.08389184949066619" />
    <synapse sourceNeuronName = "6" targetNeuronName = "18" weight = "0.1676101701733772" />
    <synapse sourceNeuronName = "6" targetNeuronName = "19" weight = "0.9997495192035686" />
    <synapse sourceNeuronName = "6" targetNeuronName = "20" weight = "0.9984552309610621" />
    <synapse sourceNeuronName = "6" targetNeuronName = "21" weight = "0.7265748726524763" />
    <synapse sourceNeuronName = "6" targetNeuronName = "22" weight = "0.40873600361614426" />
    <synapse sourceNeuronName = "7" targetNeuronName = "10" weight = "-0.5418679102668975" />
    <synapse sourceNeuronName = "7" targetNeuronName = "11" weight = "0.07703891760165127" />
    <synapse sourceNeuronName = "7" targetNeuronName = "12" weight = "0.22983871432658032" />
    <synapse sourceNeuronName = "7" targetNeuronName = "13" weight = "-0.97027749368843" />
    <synapse sourceNeuronName = "7" targetNeuronName = "14" weight = "0.29545112445889776" />
    <synapse sourceNeuronName = "7" targetNeuronName = "15" weight = "-0.2135103350955989" />
    <synapse sourceNeuronName = "7" targetNeuronName = "16" weight = "0.27580253142402955" />
    <synapse sourceNeuronName = "7" targetNeuronName = "17" weight = "0.28264456663786364" />
    <synapse sourceNeuronName = "7" targetNeuronName = "18" weight = "-0.8175507839354055" />
    <synapse sourceNeuronName = "7" targetNeuronName = "19" weight = "-0.20200373635717983" />
    <synapse sourceNeuronName = "7" targetNeuronName = "20" weight = "0.7197039596080406" />
    <synapse sourceNeuronName = "7" targetNeuronName = "21" weight = "-0.785956030804674" />
    <synapse sourceNeuronName = "7" targetNeuronName = "22" weight = "0.7063883981468535" />
    <synapse sourceNeuronName = "8" targetNeuronName = "10" weight = "-0.33955359451306566" />
    <synapse sourceNeuronName = "8" targetNeuronName = "11" weight = "-0.5060102415649501" />
    <synapse sourceNeuronName = "8" targetNeuronName = "12" weight = "0.3916076567879163" />
    <synapse sourceNeuronName = "8" targetNeuronName = "13" weight = "0.9151568192197717" />
    <synapse sourceNeuronName = "8" targetNeuronName = "14" weight = "-0.41521886088825166" />
    <synapse sourceNeuronName = "8" targetNeuronName = "15" weight = "0.8166141833560636" />
    <synapse sourceNeuronName = "8" targetNeuronName = "16" weight = "-0.3362022426442617" />
    <synapse sourceNeuronName = "8" targetNeuronName = "17" weight = "-0.7784733845043794" />
    <synapse sourceNeuronName = "8" targetNeuronName = "18" weight = "-0.1932032538709254" />
    <synapse sourceNeuronName = "8" targetNeuronName = "19" weight = "-0.10117571779114476" />
    <synapse sourceNeuronName = "8" targetNeuronName = "20" weight = "-0.6693286027580212" />
    <synapse sourceNeuronName = "8" targetNeuronName = "21" weight = "-0.6206234904576162" />
    <synapse sourceNeuronName = "8" targetNeuronName = "22" weight = "-0.16642873744219622" />
    <synapse sourceNeuronName = "9" targetNeuronName = "10" weight = "0.8792919028193926" />
    <synapse sourceNeuronName = "9" targetNeuronName = "11" weight = "-0.7106912196611652" />
    <synapse sourceNeuronName = "9" targetNeuronName = "12" weight = "-0.97053140436938" />
    <synapse sourceNeuronName = "9" targetNeuronName = "13" weight = "0.24319443843245758" />
    <synapse sourceNeuronName = "9" targetNeuronName = "14" weight = "-0.9165469827574726" />
    <synapse sourceNeuronName = "9" targetNeuronName = "15" weight = "0.1754872547077877" />
    <synapse sourceNeuronName = "9" targetNeuronName = "16" weight = "0.46377008859300495" />
    <synapse sourceNeuronName = "9" targetNeuronName = "17" weight = "-0.9602182050820516" />
    <synapse sourceNeuronName = "9" targetNeuronName = "18" weight = "0.37107569367512117" />
    <synapse sourceNeuronName = "9" targetNeuronName = "19" weight = "-0.43366084740322197" />
    <synapse sourceNeuronName = "9" targetNeuronName = "20" weight = "-0.02086217626195941" />
    <synapse sourceNeuronName = "9" targetNeuronName = "21" weight = "0.43749389665684824" />
    <synapse sourceNeuronName = "9" targetNeuronName = "22" weight = "0.028303938371750492" />
</neuralNetwork>