<neuralNetwork>
    <neuron name = "0" type = "sensor" linkName = "Link0" />
    <neuron name = "1" type = "sensor" linkName = "Link1" />
    <neuron name = "2" type = "sensor" linkName = "Link1" />
    <neuron name = "3" type = "sensor" linkName = "Link3" />
    <neuron name = "4" type = "sensor" linkName = "Link2-0" />
    <neuron name = "5" type = "sensor" linkName = "Link3-0" />
    <neuron name = "6" type = "sensor" linkName = "Link3-1" />
    <neuron name = "7" type = "motor"  jointName = "Link0_Link1" />
    <neuron name = "8" type = "motor"  jointName = "Link1_Link2" />
    <neuron name = "9" type = "motor"  jointName = "Link2_Link3" />
    <synapse sourceNeuronName = "0" targetNeuronName = "7" weight = "0.33867742714818827" />
    <synapse sourceNeuronName = "0" targetNeuronName = "8" weight = "0.5947029832061224" />
    <synapse sourceNeuronName = "0" targetNeuronName = "9" weight = "0.8838594016077508" />
    <synapse sourceNeuronName = "1" targetNeuronName = "7" weight = "-0.33962103682563294" />
    <synapse sourceNeuronName = "1" targetNeuronName = "8" weight = "0.7102280073003933" />
    <synapse sourceNeuronName = "1" targetNeuronName = "9" weight = "-0.07565058831108495" />
    <synapse sourceNeuronName = "2" targetNeuronName = "7" weight = "-0.44318547975713884" />
    <synapse sourceNeuronName = "2" targetNeuronName = "8" weight = "0.9397960918405386" />
    <synapse sourceNeuronName = "2" targetNeuronName = "9" weight = "-0.9725160011525602" />
    <synapse sourceNeuronName = "3" targetNeuronName = "7" weight = "-0.5857206654975333" />
    <synapse sourceNeuronName = "3" targetNeuronName = "8" weight = "0.060762616742771725" />
    <synapse sourceNeuronName = "3" targetNeuronName = "9" weight = "0.4037633980665616" />
    <synapse sourceNeuronName = "4" targetNeuronName = "7" weight = "0.5737337628749086" />
    <synapse sourceNeuronName = "4" targetNeuronName = "8" weight = "0.4739429923667873" />
    <synapse sourceNeuronName = "4" targetNeuronName = "9" weight = "-0.3343085358581812" />
    <synapse sourceNeuronName = "5" targetNeuronName = "7" weight = "0.40570460926383345" />
    <synapse sourceNeuronName = "5" targetNeuronName = "8" weight = "0.5196034325780634" />
    <synapse sourceNeuronName = "5" targetNeuronName = "9" weight = "0.7849786084281374" />
    <synapse sourceNeuronName = "6" targetNeuronName = "7" weight = "0.9520242564739512" />
    <synapse sourceNeuronName = "6" targetNeuronName = "8" weight = "-0.3468612506103488" />
    <synapse sourceNeuronName = "6" targetNeuronName = "9" weight = "-0.11116113017751972" />
</neuralNetwork>