<neuralNetwork>
    <neuron name = "0" type = "sensor" linkName = "Link0" />
    <neuron name = "1" type = "sensor" linkName = "Link2" />
    <neuron name = "2" type = "sensor" linkName = "Link2-1-2" />
    <neuron name = "3" type = "sensor" linkName = "Link2-1-3-3" />
    <neuron name = "4" type = "sensor" linkName = "Link2-1-3-4" />
    <neuron name = "5" type = "sensor" linkName = "Link2-2-1" />
    <neuron name = "6" type = "sensor" linkName = "Link2-3-0" />
    <neuron name = "7" type = "sensor" linkName = "Link2-3-1" />
    <neuron name = "8" type = "sensor" linkName = "Link2-3-3" />
    <neuron name = "9" type = "sensor" linkName = "Link2-4-0-0" />
    <neuron name = "10" type = "sensor" linkName = "Link2-4-0-1" />
    <neuron name = "11" type = "sensor" linkName = "Link2-4-0-2" />
    <neuron name = "12" type = "sensor" linkName = "Link2-4-0-3" />
    <neuron name = "13" type = "motor"  jointName = "Link0_Link1" />
    <neuron name = "14" type = "motor"  jointName = "Link1_Link2" />
    <neuron name = "15" type = "motor"  jointName = "Link0_Link1" />
    <neuron name = "16" type = "motor"  jointName = "Link0_Link1" />
    <neuron name = "17" type = "motor"  jointName = "Link0_Link1" />
    <synapse sourceNeuronName = "0" targetNeuronName = "13" weight = "0.5278191804452017" />
    <synapse sourceNeuronName = "0" targetNeuronName = "14" weight = "-0.07730515903256174" />
    <synapse sourceNeuronName = "0" targetNeuronName = "15" weight = "0.204557779865995" />
    <synapse sourceNeuronName = "0" targetNeuronName = "16" weight = "0.9212168992094532" />
    <synapse sourceNeuronName = "0" targetNeuronName = "17" weight = "-0.5265914000321119" />
    <synapse sourceNeuronName = "1" targetNeuronName = "13" weight = "0.33754087209868744" />
    <synapse sourceNeuronName = "1" targetNeuronName = "14" weight = "-0.41522310717147337" />
    <synapse sourceNeuronName = "1" targetNeuronName = "15" weight = "0.7704195311283284" />
    <synapse sourceNeuronName = "1" targetNeuronName = "16" weight = "0.544611256157268" />
    <synapse sourceNeuronName = "1" targetNeuronName = "17" weight = "0.4574192678035831" />
    <synapse sourceNeuronName = "2" targetNeuronName = "13" weight = "-0.2316407682699848" />
    <synapse sourceNeuronName = "2" targetNeuronName = "14" weight = "0.18119465005270885" />
    <synapse sourceNeuronName = "2" targetNeuronName = "15" weight = "0.29143759773921896" />
    <synapse sourceNeuronName = "2" targetNeuronName = "16" weight = "0.5927844773244921" />
    <synapse sourceNeuronName = "2" targetNeuronName = "17" weight = "0.8166332540017927" />
    <synapse sourceNeuronName = "3" targetNeuronName = "13" weight = "-0.6168351864790287" />
    <synapse sourceNeuronName = "3" targetNeuronName = "14" weight = "0.22515737649407508" />
    <synapse sourceNeuronName = "3" targetNeuronName = "15" weight = "-0.7644654949494238" />
    <synapse sourceNeuronName = "3" targetNeuronName = "16" weight = "0.20429752485213015" />
    <synapse sourceNeuronName = "3" targetNeuronName = "17" weight = "-0.10634790072454492" />
    <synapse sourceNeuronName = "4" targetNeuronName = "13" weight = "0.5097572392889353" />
    <synapse sourceNeuronName = "4" targetNeuronName = "14" weight = "-0.22732244974314475" />
    <synapse sourceNeuronName = "4" targetNeuronName = "15" weight = "0.505241450108503" />
    <synapse sourceNeuronName = "4" targetNeuronName = "16" weight = "-0.8405421065571292" />
    <synapse sourceNeuronName = "4" targetNeuronName = "17" weight = "0.646770053748144" />
    <synapse sourceNeuronName = "5" targetNeuronName = "13" weight = "-0.004855453280214306" />
    <synapse sourceNeuronName = "5" targetNeuronName = "14" weight = "0.29781552578287496" />
    <synapse sourceNeuronName = "5" targetNeuronName = "15" weight = "-0.6913796908054439" />
    <synapse sourceNeuronName = "5" targetNeuronName = "16" weight = "0.7305698280074135" />
    <synapse sourceNeuronName = "5" targetNeuronName = "17" weight = "0.7593861984388002" />
    <synapse sourceNeuronName = "6" targetNeuronName = "13" weight = "0.435842055713477" />
    <synapse sourceNeuronName = "6" targetNeuronName = "14" weight = "-0.6142714835025682" />
    <synapse sourceNeuronName = "6" targetNeuronName = "15" weight = "-0.113726783276765" />
    <synapse sourceNeuronName = "6" targetNeuronName = "16" weight = "-0.4520023802546451" />
    <synapse sourceNeuronName = "6" targetNeuronName = "17" weight = "0.3354558980580893" />
    <synapse sourceNeuronName = "7" targetNeuronName = "13" weight = "-0.9391076713875979" />
    <synapse sourceNeuronName = "7" targetNeuronName = "14" weight = "-0.59365769253659" />
    <synapse sourceNeuronName = "7" targetNeuronName = "15" weight = "-0.6218335269609738" />
    <synapse sourceNeuronName = "7" targetNeuronName = "16" weight = "0.16414294288243125" />
    <synapse sourceNeuronName = "7" targetNeuronName = "17" weight = "0.34675890434829926" />
    <synapse sourceNeuronName = "8" targetNeuronName = "13" weight = "-0.6534856284091766" />
    <synapse sourceNeuronName = "8" targetNeuronName = "14" weight = "0.004228326496676926" />
    <synapse sourceNeuronName = "8" targetNeuronName = "15" weight = "0.8279731281196856" />
    <synapse sourceNeuronName = "8" targetNeuronName = "16" weight = "-0.844476874647136" />
    <synapse sourceNeuronName = "8" targetNeuronName = "17" weight = "-0.7466912927915947" />
    <synapse sourceNeuronName = "9" targetNeuronName = "13" weight = "-0.7025237591617501" />
    <synapse sourceNeuronName = "9" targetNeuronName = "14" weight = "0.7863285993945217" />
    <synapse sourceNeuronName = "9" targetNeuronName = "15" weight = "-0.32862465972917887" />
    <synapse sourceNeuronName = "9" targetNeuronName = "16" weight = "0.13722610682511882" />
    <synapse sourceNeuronName = "9" targetNeuronName = "17" weight = "-0.5932513414852723" />
    <synapse sourceNeuronName = "10" targetNeuronName = "13" weight = "-0.7257110337793711" />
    <synapse sourceNeuronName = "10" targetNeuronName = "14" weight = "0.9058183787039857" />
    <synapse sourceNeuronName = "10" targetNeuronName = "15" weight = "0.37397469947268713" />
    <synapse sourceNeuronName = "10" targetNeuronName = "16" weight = "0.9170054200618891" />
    <synapse sourceNeuronName = "10" targetNeuronName = "17" weight = "0.4422974637486159" />
    <synapse sourceNeuronName = "11" targetNeuronName = "13" weight = "-0.12366748039848541" />
    <synapse sourceNeuronName = "11" targetNeuronName = "14" weight = "-0.9229987795885786" />
    <synapse sourceNeuronName = "11" targetNeuronName = "15" weight = "0.4736531640586179" />
    <synapse sourceNeuronName = "11" targetNeuronName = "16" weight = "0.9793481315835162" />
    <synapse sourceNeuronName = "11" targetNeuronName = "17" weight = "-0.5667411335274155" />
    <synapse sourceNeuronName = "12" targetNeuronName = "13" weight = "0.2138468147157231" />
    <synapse sourceNeuronName = "12" targetNeuronName = "14" weight = "-0.18666614709442486" />
    <synapse sourceNeuronName = "12" targetNeuronName = "15" weight = "-0.847463337350622" />
    <synapse sourceNeuronName = "12" targetNeuronName = "16" weight = "0.37270807645118387" />
    <synapse sourceNeuronName = "12" targetNeuronName = "17" weight = "-0.6660895332272403" />
</neuralNetwork>