<neuralNetwork>
    <neuron name = "0" type = "sensor" linkName = "Link0" />
    <neuron name = "1" type = "sensor" linkName = "Link1" />
    <neuron name = "2" type = "sensor" linkName = "Link1" />
    <neuron name = "3" type = "sensor" linkName = "Link2-0" />
    <neuron name = "4" type = "sensor" linkName = "Link2-1" />
    <neuron name = "5" type = "sensor" linkName = "Link2-0-0" />
    <neuron name = "6" type = "sensor" linkName = "Link2-0-0-0" />
    <neuron name = "7" type = "sensor" linkName = "Link2-0-0-1" />
    <neuron name = "8" type = "sensor" linkName = "Link2-1-0" />
    <neuron name = "9" type = "sensor" linkName = "Link2-1-0-3" />
    <neuron name = "10" type = "motor"  jointName = "Link0_Link1" />
    <neuron name = "11" type = "motor"  jointName = "Link1_Link2" />
    <neuron name = "12" type = "motor"  jointName = "Link0_Link1" />
    <neuron name = "13" type = "motor"  jointName = "Link0_Link1" />
    <neuron name = "14" type = "motor"  jointName = "Link0_Link1" />
    <neuron name = "15" type = "motor"  jointName = "Link0_Link1" />
    <neuron name = "16" type = "motor"  jointName = "Link0_Link1" />
    <neuron name = "17" type = "motor"  jointName = "Link0_Link1" />
    <neuron name = "18" type = "motor"  jointName = "Link0_Link1" />
    <neuron name = "19" type = "motor"  jointName = "Link0_Link1" />
    <neuron name = "20" type = "motor"  jointName = "Link0_Link1" />
    <neuron name = "21" type = "motor"  jointName = "Link0_Link1" />
    <neuron name = "22" type = "motor"  jointName = "Link0_Link1" />
    <neuron name = "23" type = "motor"  jointName = "Link0_Link1" />
    <neuron name = "24" type = "motor"  jointName = "Link0_Link1" />
    <neuron name = "25" type = "motor"  jointName = "Link0_Link1" />
    <neuron name = "26" type = "motor"  jointName = "Link0_Link1" />
    <neuron name = "27" type = "motor"  jointName = "Link0_Link1" />
    <neuron name = "28" type = "motor"  jointName = "Link0_Link1" />
    <neuron name = "29" type = "motor"  jointName = "Link0_Link1" />
    <synapse sourceNeuronName = "0" targetNeuronName = "10" weight = "-0.7727926425101108" />
    <synapse sourceNeuronName = "0" targetNeuronName = "11" weight = "0.8432031550999037" />
    <synapse sourceNeuronName = "0" targetNeuronName = "12" weight = "-0.8568399466999534" />
    <synapse sourceNeuronName = "0" targetNeuronName = "13" weight = "0.41828917454681935" />
    <synapse sourceNeuronName = "0" targetNeuronName = "14" weight = "0.19126396467384854" />
    <synapse sourceNeuronName = "0" targetNeuronName = "15" weight = "0.9068106302027588" />
    <synapse sourceNeuronName = "0" targetNeuronName = "16" weight = "-0.21522919889679692" />
    <synapse sourceNeuronName = "0" targetNeuronName = "17" weight = "0.6455929354568144" />
    <synapse sourceNeuronName = "0" targetNeuronName = "18" weight = "-0.4049872459206727" />
    <synapse sourceNeuronName = "0" targetNeuronName = "19" weight = "0.3869575394880793" />
    <synapse sourceNeuronName = "0" targetNeuronName = "20" weight = "0.94298861682467" />
    <synapse sourceNeuronName = "0" targetNeuronName = "21" weight = "0.36893326641419844" />
    <synapse sourceNeuronName = "0" targetNeuronName = "22" weight = "-0.9018782294273568" />
    <synapse sourceNeuronName = "0" targetNeuronName = "23" weight = "0.6246447394577928" />
    <synapse sourceNeuronName = "0" targetNeuronName = "24" weight = "0.24621236395916646" />
    <synapse sourceNeuronName = "0" targetNeuronName = "25" weight = "-0.0684119735401858" />
    <synapse sourceNeuronName = "0" targetNeuronName = "26" weight = "0.019712042591079282" />
    <synapse sourceNeuronName = "0" targetNeuronName = "27" weight = "0.6989994171762275" />
    <synapse sourceNeuronName = "0" targetNeuronName = "28" weight = "-0.15675430263628254" />
    <synapse sourceNeuronName = "0" targetNeuronName = "29" weight = "0.7314138231496481" />
    <synapse sourceNeuronName = "1" targetNeuronName = "10" weight = "-0.3680433717735916" />
    <synapse sourceNeuronName = "1" targetNeuronName = "11" weight = "-0.11006398503743364" />
    <synapse sourceNeuronName = "1" targetNeuronName = "12" weight = "0.25414809444402375" />
    <synapse sourceNeuronName = "1" targetNeuronName = "13" weight = "0.4621597408860232" />
    <synapse sourceNeuronName = "1" targetNeuronName = "14" weight = "-0.2176069003604213" />
    <synapse sourceNeuronName = "1" targetNeuronName = "15" weight = "-0.011611819668423395" />
    <synapse sourceNeuronName = "1" targetNeuronName = "16" weight = "-0.01059081989010191" />
    <synapse sourceNeuronName = "1" targetNeuronName = "17" weight = "-0.19726233679313965" />
    <synapse sourceNeuronName = "1" targetNeuronName = "18" weight = "-0.3534362509666158" />
    <synapse sourceNeuronName = "1" targetNeuronName = "19" weight = "0.6273591425301757" />
    <synapse sourceNeuronName = "1" targetNeuronName = "20" weight = "-0.042421524191611715" />
    <synapse sourceNeuronName = "1" targetNeuronName = "21" weight = "0.9131338699908857" />
    <synapse sourceNeuronName = "1" targetNeuronName = "22" weight = "-0.4328713092212788" />
    <synapse sourceNeuronName = "1" targetNeuronName = "23" weight = "0.011160526670864979" />
    <synapse sourceNeuronName = "1" targetNeuronName = "24" weight = "-0.3556881918452306" />
    <synapse sourceNeuronName = "1" targetNeuronName = "25" weight = "0.9989159879285923" />
    <synapse sourceNeuronName = "1" targetNeuronName = "26" weight = "-0.9842752648238389" />
    <synapse sourceNeuronName = "1" targetNeuronName = "27" weight = "0.5738559411885089" />
    <synapse sourceNeuronName = "1" targetNeuronName = "28" weight = "-0.08906329202968033" />
    <synapse sourceNeuronName = "1" targetNeuronName = "29" weight = "-0.33578585549518225" />
    <synapse sourceNeuronName = "2" targetNeuronName = "10" weight = "0.018421615363679145" />
    <synapse sourceNeuronName = "2" targetNeuronName = "11" weight = "0.21304264040032694" />
    <synapse sourceNeuronName = "2" targetNeuronName = "12" weight = "-0.8975499235885096" />
    <synapse sourceNeuronName = "2" targetNeuronName = "13" weight = "-0.9620118493088499" />
    <synapse sourceNeuronName = "2" targetNeuronName = "14" weight = "-0.8425570015499244" />
    <synapse sourceNeuronName = "2" targetNeuronName = "15" weight = "-0.6063797585521418" />
    <synapse sourceNeuronName = "2" targetNeuronName = "16" weight = "-0.007975548475458671" />
    <synapse sourceNeuronName = "2" targetNeuronName = "17" weight = "0.25694960037855097" />
    <synapse sourceNeuronName = "2" targetNeuronName = "18" weight = "0.6733352299980988" />
    <synapse sourceNeuronName = "2" targetNeuronName = "19" weight = "-0.8675834757061052" />
    <synapse sourceNeuronName = "2" targetNeuronName = "20" weight = "-0.4350713671289741" />
    <synapse sourceNeuronName = "2" targetNeuronName = "21" weight = "0.8177168728595705" />
    <synapse sourceNeuronName = "2" targetNeuronName = "22" weight = "-0.6822445080959223" />
    <synapse sourceNeuronName = "2" targetNeuronName = "23" weight = "0.21475009795728894" />
    <synapse sourceNeuronName = "2" targetNeuronName = "24" weight = "-0.30663512629293077" />
    <synapse sourceNeuronName = "2" targetNeuronName = "25" weight = "-0.0473774999836154" />
    <synapse sourceNeuronName = "2" targetNeuronName = "26" weight = "-0.372860544929023" />
    <synapse sourceNeuronName = "2" targetNeuronName = "27" weight = "-0.8588753199524979" />
    <synapse sourceNeuronName = "2" targetNeuronName = "28" weight = "-0.14003149675046078" />
    <synapse sourceNeuronName = "2" targetNeuronName = "29" weight = "0.5206103947483169" />
    <synapse sourceNeuronName = "3" targetNeuronName = "10" weight = "-0.5749002215652732" />
    <synapse sourceNeuronName = "3" targetNeuronName = "11" weight = "-0.3844477442097789" />
    <synapse sourceNeuronName = "3" targetNeuronName = "12" weight = "0.14927558244168204" />
    <synapse sourceNeuronName = "3" targetNeuronName = "13" weight = "-0.9174831415912534" />
    <synapse sourceNeuronName = "3" targetNeuronName = "14" weight = "0.5097171332334256" />
    <synapse sourceNeuronName = "3" targetNeuronName = "15" weight = "0.3105749345175508" />
    <synapse sourceNeuronName = "3" targetNeuronName = "16" weight = "0.5484379397638921" />
    <synapse sourceNeuronName = "3" targetNeuronName = "17" weight = "0.011500528406788835" />
    <synapse sourceNeuronName = "3" targetNeuronName = "18" weight = "0.6967051043560029" />
    <synapse sourceNeuronName = "3" targetNeuronName = "19" weight = "0.13719583648163547" />
    <synapse sourceNeuronName = "3" targetNeuronName = "20" weight = "-0.9346938038454207" />
    <synapse sourceNeuronName = "3" targetNeuronName = "21" weight = "0.39868946769342006" />
    <synapse sourceNeuronName = "3" targetNeuronName = "22" weight = "0.6874813856149689" />
    <synapse sourceNeuronName = "3" targetNeuronName = "23" weight = "0.05383528203813359" />
    <synapse sourceNeuronName = "3" targetNeuronName = "24" weight = "-0.4468540724558179" />
    <synapse sourceNeuronName = "3" targetNeuronName = "25" weight = "-0.3603323782852996" />
    <synapse sourceNeuronName = "3" targetNeuronName = "26" weight = "-0.3643995422523858" />
    <synapse sourceNeuronName = "3" targetNeuronName = "27" weight = "-0.44172562996493947" />
    <synapse sourceNeuronName = "3" targetNeuronName = "28" weight = "-0.6674702175034763" />
    <synapse sourceNeuronName = "3" targetNeuronName = "29" weight = "0.5380597635099154" />
    <synapse sourceNeuronName = "4" targetNeuronName = "10" weight = "-0.2933903975128975" />
    <synapse sourceNeuronName = "4" targetNeuronName = "11" weight = "0.3801151174268025" />
    <synapse sourceNeuronName = "4" targetNeuronName = "12" weight = "-0.15373959509919732" />
    <synapse sourceNeuronName = "4" targetNeuronName = "13" weight = "0.48181053204816227" />
    <synapse sourceNeuronName = "4" targetNeuronName = "14" weight = "-0.7009380531630096" />
    <synapse sourceNeuronName = "4" targetNeuronName = "15" weight = "0.1628050496448601" />
    <synapse sourceNeuronName = "4" targetNeuronName = "16" weight = "0.029179752392594738" />
    <synapse sourceNeuronName = "4" targetNeuronName = "17" weight = "0.2896365962204752" />
    <synapse sourceNeuronName = "4" targetNeuronName = "18" weight = "0.33787845839888364" />
    <synapse sourceNeuronName = "4" targetNeuronName = "19" weight = "-0.8528387212397077" />
    <synapse sourceNeuronName = "4" targetNeuronName = "20" weight = "0.5338099403081416" />
    <synapse sourceNeuronName = "4" targetNeuronName = "21" weight = "0.38140260211747923" />
    <synapse sourceNeuronName = "4" targetNeuronName = "22" weight = "-0.2698759805402333" />
    <synapse sourceNeuronName = "4" targetNeuronName = "23" weight = "-0.6696987608323342" />
    <synapse sourceNeuronName = "4" targetNeuronName = "24" weight = "0.46645377823450573" />
    <synapse sourceNeuronName = "4" targetNeuronName = "25" weight = "0.794653805675662" />
    <synapse sourceNeuronName = "4" targetNeuronName = "26" weight = "0.7945178440804503" />
    <synapse sourceNeuronName = "4" targetNeuronName = "27" weight = "-0.8681072882451271" />
    <synapse sourceNeuronName = "4" targetNeuronName = "28" weight = "-0.36519241524377266" />
    <synapse sourceNeuronName = "4" targetNeuronName = "29" weight = "-0.0407456127300605" />
    <synapse sourceNeuronName = "5" targetNeuronName = "10" weight = "0.19458186733398475" />
    <synapse sourceNeuronName = "5" targetNeuronName = "11" weight = "0.7895898069562342" />
    <synapse sourceNeuronName = "5" targetNeuronName = "12" weight = "0.7459746596793815" />
    <synapse sourceNeuronName = "5" targetNeuronName = "13" weight = "0.9217584393274667" />
    <synapse sourceNeuronName = "5" targetNeuronName = "14" weight = "-0.8926883966490542" />
    <synapse sourceNeuronName = "5" targetNeuronName = "15" weight = "0.1837897857998445" />
    <synapse sourceNeuronName = "5" targetNeuronName = "16" weight = "0.01303091658931721" />
    <synapse sourceNeuronName = "5" targetNeuronName = "17" weight = "0.45675811340368044" />
    <synapse sourceNeuronName = "5" targetNeuronName = "18" weight = "0.4370898277352615" />
    <synapse sourceNeuronName = "5" targetNeuronName = "19" weight = "-0.6527691430356792" />
    <synapse sourceNeuronName = "5" targetNeuronName = "20" weight = "0.43531693747390166" />
    <synapse sourceNeuronName = "5" targetNeuronName = "21" weight = "-0.6474662319709796" />
    <synapse sourceNeuronName = "5" targetNeuronName = "22" weight = "-0.4035526518500503" />
    <synapse sourceNeuronName = "5" targetNeuronName = "23" weight = "-0.7859636669115937" />
    <synapse sourceNeuronName = "5" targetNeuronName = "24" weight = "-0.27887369759727854" />
    <synapse sourceNeuronName = "5" targetNeuronName = "25" weight = "0.5400733661968475" />
    <synapse sourceNeuronName = "5" targetNeuronName = "26" weight = "0.3136663525975829" />
    <synapse sourceNeuronName = "5" targetNeuronName = "27" weight = "-0.13896936427726003" />
    <synapse sourceNeuronName = "5" targetNeuronName = "28" weight = "-0.2908206824694748" />
    <synapse sourceNeuronName = "5" targetNeuronName = "29" weight = "0.6516071285123042" />
    <synapse sourceNeuronName = "6" targetNeuronName = "10" weight = "-0.400532962141116" />
    <synapse sourceNeuronName = "6" targetNeuronName = "11" weight = "-0.23980003380440507" />
    <synapse sourceNeuronName = "6" targetNeuronName = "12" weight = "0.799047515565849" />
    <synapse sourceNeuronName = "6" targetNeuronName = "13" weight = "0.8584328489737301" />
    <synapse sourceNeuronName = "6" targetNeuronName = "14" weight = "-0.6555078420704497" />
    <synapse sourceNeuronName = "6" targetNeuronName = "15" weight = "-0.4143523300004126" />
    <synapse sourceNeuronName = "6" targetNeuronName = "16" weight = "-0.5003063751103554" />
    <synapse sourceNeuronName = "6" targetNeuronName = "17" weight = "0.7695151291020565" />
    <synapse sourceNeuronName = "6" targetNeuronName = "18" weight = "0.8060428568507838" />
    <synapse sourceNeuronName = "6" targetNeuronName = "19" weight = "-0.9734448865970096" />
    <synapse sourceNeuronName = "6" targetNeuronName = "20" weight = "0.6394498047297807" />
    <synapse sourceNeuronName = "6" targetNeuronName = "21" weight = "0.9433247259364612" />
    <synapse sourceNeuronName = "6" targetNeuronName = "22" weight = "0.42245339142691263" />
    <synapse sourceNeuronName = "6" targetNeuronName = "23" weight = "-0.18137708039999545" />
    <synapse sourceNeuronName = "6" targetNeuronName = "24" weight = "0.7802458270805592" />
    <synapse sourceNeuronName = "6" targetNeuronName = "25" weight = "0.16188424334571105" />
    <synapse sourceNeuronName = "6" targetNeuronName = "26" weight = "0.9748765773100292" />
    <synapse sourceNeuronName = "6" targetNeuronName = "27" weight = "0.2658281829795739" />
    <synapse sourceNeuronName = "6" targetNeuronName = "28" weight = "0.38401045376891174" />
    <synapse sourceNeuronName = "6" targetNeuronName = "29" weight = "-0.7727123818399673" />
    <synapse sourceNeuronName = "7" targetNeuronName = "10" weight = "0.35806505294202084" />
    <synapse sourceNeuronName = "7" targetNeuronName = "11" weight = "0.9344260164339901" />
    <synapse sourceNeuronName = "7" targetNeuronName = "12" weight = "0.3430690580038225" />
    <synapse sourceNeuronName = "7" targetNeuronName = "13" weight = "-0.7342431794844537" />
    <synapse sourceNeuronName = "7" targetNeuronName = "14" weight = "-0.4160822801371924" />
    <synapse sourceNeuronName = "7" targetNeuronName = "15" weight = "-0.5735920790895555" />
    <synapse sourceNeuronName = "7" targetNeuronName = "16" weight = "0.3548412881878744" />
    <synapse sourceNeuronName = "7" targetNeuronName = "17" weight = "-0.6970902591030514" />
    <synapse sourceNeuronName = "7" targetNeuronName = "18" weight = "-0.7755270608237335" />
    <synapse sourceNeuronName = "7" targetNeuronName = "19" weight = "0.9827481419763546" />
    <synapse sourceNeuronName = "7" targetNeuronName = "20" weight = "0.08883029825457278" />
    <synapse sourceNeuronName = "7" targetNeuronName = "21" weight = "-0.9824361679899387" />
    <synapse sourceNeuronName = "7" targetNeuronName = "22" weight = "0.04468556708998772" />
    <synapse sourceNeuronName = "7" targetNeuronName = "23" weight = "-0.7035423940545982" />
    <synapse sourceNeuronName = "7" targetNeuronName = "24" weight = "-0.007483590110668681" />
    <synapse sourceNeuronName = "7" targetNeuronName = "25" weight = "0.3715707276351743" />
    <synapse sourceNeuronName = "7" targetNeuronName = "26" weight = "-0.29162777824904995" />
    <synapse sourceNeuronName = "7" targetNeuronName = "27" weight = "0.29543027091095175" />
    <synapse sourceNeuronName = "7" targetNeuronName = "28" weight = "-0.666456312672266" />
    <synapse sourceNeuronName = "7" targetNeuronName = "29" weight = "0.1589332986954699" />
    <synapse sourceNeuronName = "8" targetNeuronName = "10" weight = "-0.6891747259482475" />
    <synapse sourceNeuronName = "8" targetNeuronName = "11" weight = "-0.35122644875742415" />
    <synapse sourceNeuronName = "8" targetNeuronName = "12" weight = "-0.4270495296979786" />
    <synapse sourceNeuronName = "8" targetNeuronName = "13" weight = "-0.7036206703219401" />
    <synapse sourceNeuronName = "8" targetNeuronName = "14" weight = "-0.7374437427177716" />
    <synapse sourceNeuronName = "8" targetNeuronName = "15" weight = "-0.8094000559172356" />
    <synapse sourceNeuronName = "8" targetNeuronName = "16" weight = "-0.11572609047532834" />
    <synapse sourceNeuronName = "8" targetNeuronName = "17" weight = "0.09386833122825111" />
    <synapse sourceNeuronName = "8" targetNeuronName = "18" weight = "0.11518534844266126" />
    <synapse sourceNeuronName = "8" targetNeuronName = "19" weight = "-0.360958048590998" />
    <synapse sourceNeuronName = "8" targetNeuronName = "20" weight = "0.8711101372888272" />
    <synapse sourceNeuronName = "8" targetNeuronName = "21" weight = "0.8107364403401653" />
    <synapse sourceNeuronName = "8" targetNeuronName = "22" weight = "0.6547488881149686" />
    <synapse sourceNeuronName = "8" targetNeuronName = "23" weight = "0.008666967247237922" />
    <synapse sourceNeuronName = "8" targetNeuronName = "24" weight = "0.19322285681472007" />
    <synapse sourceNeuronName = "8" targetNeuronName = "25" weight = "0.9978668464570972" />
    <synapse sourceNeuronName = "8" targetNeuronName = "26" weight = "0.7321960887410828" />
    <synapse sourceNeuronName = "8" targetNeuronName = "27" weight = "0.04500210054950182" />
    <synapse sourceNeuronName = "8" targetNeuronName = "28" weight = "-0.9984032586096707" />
    <synapse sourceNeuronName = "8" targetNeuronName = "29" weight = "0.9841153772483973" />
    <synapse sourceNeuronName = "9" targetNeuronName = "10" weight = "0.45774874288464407" />
    <synapse sourceNeuronName = "9" targetNeuronName = "11" weight = "0.8600773101805694" />
    <synapse sourceNeuronName = "9" targetNeuronName = "12" weight = "0.3759897628701472" />
    <synapse sourceNeuronName = "9" targetNeuronName = "13" weight = "-0.5474147533040634" />
    <synapse sourceNeuronName = "9" targetNeuronName = "14" weight = "-0.060442451516150575" />
    <synapse sourceNeuronName = "9" targetNeuronName = "15" weight = "-0.7321462020627172" />
    <synapse sourceNeuronName = "9" targetNeuronName = "16" weight = "-0.2617519283973524" />
    <synapse sourceNeuronName = "9" targetNeuronName = "17" weight = "-0.5209138247334799" />
    <synapse sourceNeuronName = "9" targetNeuronName = "18" weight = "-0.5467005728811127" />
    <synapse sourceNeuronName = "9" targetNeuronName = "19" weight = "-0.49760735697819736" />
    <synapse sourceNeuronName = "9" targetNeuronName = "20" weight = "0.8478863689456988" />
    <synapse sourceNeuronName = "9" targetNeuronName = "21" weight = "-0.8094547853182785" />
    <synapse sourceNeuronName = "9" targetNeuronName = "22" weight = "0.528576871768577" />
    <synapse sourceNeuronName = "9" targetNeuronName = "23" weight = "-0.7273382899832004" />
    <synapse sourceNeuronName = "9" targetNeuronName = "24" weight = "-0.9728175833250312" />
    <synapse sourceNeuronName = "9" targetNeuronName = "25" weight = "-0.44977133865381447" />
    <synapse sourceNeuronName = "9" targetNeuronName = "26" weight = "-0.5018089131827774" />
    <synapse sourceNeuronName = "9" targetNeuronName = "27" weight = "0.5500122874173154" />
    <synapse sourceNeuronName = "9" targetNeuronName = "28" weight = "0.6166708137781145" />
    <synapse sourceNeuronName = "9" targetNeuronName = "29" weight = "-0.7864805993963786" />
</neuralNetwork>