<neuralNetwork>
    <neuron name = "0" type = "sensor" linkName = "Link0" />
    <neuron name = "1" type = "sensor" linkName = "Link2" />
    <neuron name = "2" type = "motor"  jointName = "Link0_Link1" />
    <neuron name = "3" type = "motor"  jointName = "Link1_Link2" />
    <neuron name = "4" type = "motor"  jointName = "Link0_Link1" />
    <neuron name = "5" type = "motor"  jointName = "Link0_Link1" />
    <neuron name = "6" type = "motor"  jointName = "Link0_Link1" />
    <neuron name = "7" type = "motor"  jointName = "Link0_Link1" />
    <neuron name = "8" type = "motor"  jointName = "Link0_Link1" />
    <neuron name = "9" type = "motor"  jointName = "Link0_Link1" />
    <neuron name = "10" type = "motor"  jointName = "Link0_Link1" />
    <neuron name = "11" type = "motor"  jointName = "Link0_Link1" />
    <neuron name = "12" type = "motor"  jointName = "Link0_Link1" />
    <neuron name = "13" type = "motor"  jointName = "Link0_Link1" />
    <neuron name = "14" type = "motor"  jointName = "Link0_Link1" />
    <neuron name = "15" type = "motor"  jointName = "Link0_Link1" />
    <neuron name = "16" type = "motor"  jointName = "Link0_Link1" />
    <neuron name = "17" type = "motor"  jointName = "Link0_Link1" />
    <neuron name = "18" type = "motor"  jointName = "Link0_Link1" />
    <neuron name = "19" type = "motor"  jointName = "Link0_Link1" />
    <neuron name = "20" type = "motor"  jointName = "Link0_Link1" />
    <neuron name = "21" type = "motor"  jointName = "Link0_Link1" />
    <neuron name = "22" type = "motor"  jointName = "Link0_Link1" />
    <neuron name = "23" type = "motor"  jointName = "Link0_Link1" />
    <neuron name = "24" type = "motor"  jointName = "Link0_Link1" />
    <neuron name = "25" type = "motor"  jointName = "Link0_Link1" />
    <neuron name = "26" type = "motor"  jointName = "Link0_Link1" />
    <neuron name = "27" type = "motor"  jointName = "Link0_Link1" />
    <neuron name = "28" type = "motor"  jointName = "Link0_Link1" />
    <neuron name = "29" type = "motor"  jointName = "Link0_Link1" />
    <neuron name = "30" type = "motor"  jointName = "Link0_Link1" />
    <neuron name = "31" type = "motor"  jointName = "Link0_Link1" />
    <neuron name = "32" type = "motor"  jointName = "Link0_Link1" />
    <neuron name = "33" type = "motor"  jointName = "Link0_Link1" />
    <neuron name = "34" type = "motor"  jointName = "Link0_Link1" />
    <neuron name = "35" type = "motor"  jointName = "Link0_Link1" />
    <neuron name = "36" type = "motor"  jointName = "Link0_Link1" />
    <synapse sourceNeuronName = "0" targetNeuronName = "2" weight = "-0.2254019379685661" />
    <synapse sourceNeuronName = "0" targetNeuronName = "3" weight = "-0.8287227851466188" />
    <synapse sourceNeuronName = "0" targetNeuronName = "4" weight = "0.6204162729268468" />
    <synapse sourceNeuronName = "0" targetNeuronName = "5" weight = "0.9527203909767252" />
    <synapse sourceNeuronName = "0" targetNeuronName = "6" weight = "-0.012370268515490945" />
    <synapse sourceNeuronName = "0" targetNeuronName = "7" weight = "-0.6715476159476752" />
    <synapse sourceNeuronName = "0" targetNeuronName = "8" weight = "0.211591099243843" />
    <synapse sourceNeuronName = "0" targetNeuronName = "9" weight = "0.38383738916610066" />
    <synapse sourceNeuronName = "0" targetNeuronName = "10" weight = "0.6513028429995391" />
    <synapse sourceNeuronName = "0" targetNeuronName = "11" weight = "0.15691168352704477" />
    <synapse sourceNeuronName = "0" targetNeuronName = "12" weight = "-0.8727381279912383" />
    <synapse sourceNeuronName = "0" targetNeuronName = "13" weight = "0.9507802170883235" />
    <synapse sourceNeuronName = "0" targetNeuronName = "14" weight = "-0.7154171817705581" />
    <synapse sourceNeuronName = "0" targetNeuronName = "15" weight = "0.08300628456575998" />
    <synapse sourceNeuronName = "0" targetNeuronName = "16" weight = "-0.9854171048635445" />
    <synapse sourceNeuronName = "0" targetNeuronName = "17" weight = "-0.48239574030659726" />
    <synapse sourceNeuronName = "0" targetNeuronName = "18" weight = "-0.17171278958616698" />
    <synapse sourceNeuronName = "0" targetNeuronName = "19" weight = "0.498023573629768" />
    <synapse sourceNeuronName = "0" targetNeuronName = "20" weight = "-0.6850778105481874" />
    <synapse sourceNeuronName = "0" targetNeuronName = "21" weight = "-0.775891725323693" />
    <synapse sourceNeuronName = "0" targetNeuronName = "22" weight = "-0.9925080521437983" />
    <synapse sourceNeuronName = "0" targetNeuronName = "23" weight = "-0.3913261444518552" />
    <synapse sourceNeuronName = "0" targetNeuronName = "24" weight = "-0.5890232096096837" />
    <synapse sourceNeuronName = "0" targetNeuronName = "25" weight = "0.37582833787199266" />
    <synapse sourceNeuronName = "0" targetNeuronName = "26" weight = "0.9881509340541652" />
    <synapse sourceNeuronName = "0" targetNeuronName = "27" weight = "0.04737770916885564" />
    <synapse sourceNeuronName = "0" targetNeuronName = "28" weight = "0.6402845119204978" />
    <synapse sourceNeuronName = "0" targetNeuronName = "29" weight = "-0.33230979089428403" />
    <synapse sourceNeuronName = "0" targetNeuronName = "30" weight = "-0.583214396478944" />
    <synapse sourceNeuronName = "0" targetNeuronName = "31" weight = "0.8291857917667762" />
    <synapse sourceNeuronName = "0" targetNeuronName = "32" weight = "0.5482333220334452" />
    <synapse sourceNeuronName = "0" targetNeuronName = "33" weight = "0.06969961602403307" />
    <synapse sourceNeuronName = "0" targetNeuronName = "34" weight = "0.5969732564681884" />
    <synapse sourceNeuronName = "0" targetNeuronName = "35" weight = "0.8674153507394029" />
    <synapse sourceNeuronName = "0" targetNeuronName = "36" weight = "-0.8506548223309294" />
    <synapse sourceNeuronName = "1" targetNeuronName = "2" weight = "0.9448931414034951" />
    <synapse sourceNeuronName = "1" targetNeuronName = "3" weight = "0.8085436732645448" />
    <synapse sourceNeuronName = "1" targetNeuronName = "4" weight = "0.5491065147157839" />
    <synapse sourceNeuronName = "1" targetNeuronName = "5" weight = "0.07535939101487843" />
    <synapse sourceNeuronName = "1" targetNeuronName = "6" weight = "-0.7922112017809835" />
    <synapse sourceNeuronName = "1" targetNeuronName = "7" weight = "0.16891435374544184" />
    <synapse sourceNeuronName = "1" targetNeuronName = "8" weight = "-0.20258820211549344" />
    <synapse sourceNeuronName = "1" targetNeuronName = "9" weight = "-0.4146666293683383" />
    <synapse sourceNeuronName = "1" targetNeuronName = "10" weight = "0.4492062317928929" />
    <synapse sourceNeuronName = "1" targetNeuronName = "11" weight = "-0.7227272809012719" />
    <synapse sourceNeuronName = "1" targetNeuronName = "12" weight = "0.8778813150795977" />
    <synapse sourceNeuronName = "1" targetNeuronName = "13" weight = "-0.513125194007394" />
    <synapse sourceNeuronName = "1" targetNeuronName = "14" weight = "-0.292530040234257" />
    <synapse sourceNeuronName = "1" targetNeuronName = "15" weight = "0.0006411704855646683" />
    <synapse sourceNeuronName = "1" targetNeuronName = "16" weight = "0.6466344372054071" />
    <synapse sourceNeuronName = "1" targetNeuronName = "17" weight = "-0.5501166199846026" />
    <synapse sourceNeuronName = "1" targetNeuronName = "18" weight = "-0.6375553653031723" />
    <synapse sourceNeuronName = "1" targetNeuronName = "19" weight = "0.22108400705832176" />
    <synapse sourceNeuronName = "1" targetNeuronName = "20" weight = "0.7194965356862992" />
    <synapse sourceNeuronName = "1" targetNeuronName = "21" weight = "0.2523275445534223" />
    <synapse sourceNeuronName = "1" targetNeuronName = "22" weight = "-0.9017736696203948" />
    <synapse sourceNeuronName = "1" targetNeuronName = "23" weight = "-0.11031134105900287" />
    <synapse sourceNeuronName = "1" targetNeuronName = "24" weight = "0.7382574875396863" />
    <synapse sourceNeuronName = "1" targetNeuronName = "25" weight = "0.7458279199905387" />
    <synapse sourceNeuronName = "1" targetNeuronName = "26" weight = "0.2244824044014675" />
    <synapse sourceNeuronName = "1" targetNeuronName = "27" weight = "-0.8120856044231712" />
    <synapse sourceNeuronName = "1" targetNeuronName = "28" weight = "-0.14651738866907427" />
    <synapse sourceNeuronName = "1" targetNeuronName = "29" weight = "0.8855116051085208" />
    <synapse sourceNeuronName = "1" targetNeuronName = "30" weight = "0.7307222321376241" />
    <synapse sourceNeuronName = "1" targetNeuronName = "31" weight = "0.12134284221705083" />
    <synapse sourceNeuronName = "1" targetNeuronName = "32" weight = "0.6134645942265629" />
    <synapse sourceNeuronName = "1" targetNeuronName = "33" weight = "0.8492258805518613" />
    <synapse sourceNeuronName = "1" targetNeuronName = "34" weight = "0.8982818016370755" />
    <synapse sourceNeuronName = "1" targetNeuronName = "35" weight = "-0.3513570197102045" />
    <synapse sourceNeuronName = "1" targetNeuronName = "36" weight = "-0.4079779385465414" />
</neuralNetwork>