<neuralNetwork>
    <neuron name = "0" type = "sensor" linkName = "Link0" />
    <neuron name = "1" type = "sensor" linkName = "Link1" />
    <neuron name = "2" type = "sensor" linkName = "Link1" />
    <neuron name = "3" type = "sensor" linkName = "Link2-0" />
    <neuron name = "4" type = "sensor" linkName = "Link2-1" />
    <neuron name = "5" type = "sensor" linkName = "Link2-3" />
    <neuron name = "6" type = "sensor" linkName = "Link2-1-1" />
    <neuron name = "7" type = "sensor" linkName = "Link2-2-0" />
    <neuron name = "8" type = "sensor" linkName = "Link2-2-1" />
    <neuron name = "9" type = "sensor" linkName = "Link2-3-0" />
    <neuron name = "10" type = "sensor" linkName = "Link3-0-0" />
    <neuron name = "11" type = "sensor" linkName = "Link3-2-1" />
    <neuron name = "12" type = "sensor" linkName = "Link3-2-3" />
    <neuron name = "13" type = "motor"  jointName = "Link0_Link1" />
    <neuron name = "14" type = "motor"  jointName = "Link1_Link2" />
    <neuron name = "15" type = "motor"  jointName = "Link2_Link3" />
    <neuron name = "16" type = "motor"  jointName = "Link0_Link1" />
    <neuron name = "17" type = "motor"  jointName = "Link0_Link1" />
    <neuron name = "18" type = "motor"  jointName = "Link0_Link1" />
    <neuron name = "19" type = "motor"  jointName = "Link0_Link1" />
    <neuron name = "20" type = "motor"  jointName = "Link0_Link1" />
    <neuron name = "21" type = "motor"  jointName = "Link0_Link1" />
    <synapse sourceNeuronName = "0" targetNeuronName = "13" weight = "0.5715488492734937" />
    <synapse sourceNeuronName = "0" targetNeuronName = "14" weight = "0.349386493137563" />
    <synapse sourceNeuronName = "0" targetNeuronName = "15" weight = "0.5284242662551581" />
    <synapse sourceNeuronName = "0" targetNeuronName = "16" weight = "-0.8241284930351567" />
    <synapse sourceNeuronName = "0" targetNeuronName = "17" weight = "0.3083313719396621" />
    <synapse sourceNeuronName = "0" targetNeuronName = "18" weight = "0.34771615378889753" />
    <synapse sourceNeuronName = "0" targetNeuronName = "19" weight = "-0.7895044356884373" />
    <synapse sourceNeuronName = "0" targetNeuronName = "20" weight = "-0.5580777406552113" />
    <synapse sourceNeuronName = "0" targetNeuronName = "21" weight = "0.4586525581306984" />
    <synapse sourceNeuronName = "1" targetNeuronName = "13" weight = "0.8385915652776323" />
    <synapse sourceNeuronName = "1" targetNeuronName = "14" weight = "0.9960865747777907" />
    <synapse sourceNeuronName = "1" targetNeuronName = "15" weight = "0.87598479227465" />
    <synapse sourceNeuronName = "1" targetNeuronName = "16" weight = "-0.6216072157487031" />
    <synapse sourceNeuronName = "1" targetNeuronName = "17" weight = "-0.8176867395171041" />
    <synapse sourceNeuronName = "1" targetNeuronName = "18" weight = "0.5007555260549108" />
    <synapse sourceNeuronName = "1" targetNeuronName = "19" weight = "0.5659140626592323" />
    <synapse sourceNeuronName = "1" targetNeuronName = "20" weight = "0.5730300216256263" />
    <synapse sourceNeuronName = "1" targetNeuronName = "21" weight = "0.14027678767696639" />
    <synapse sourceNeuronName = "2" targetNeuronName = "13" weight = "0.5637669366548477" />
    <synapse sourceNeuronName = "2" targetNeuronName = "14" weight = "0.0062603150187134915" />
    <synapse sourceNeuronName = "2" targetNeuronName = "15" weight = "0.8518439682110555" />
    <synapse sourceNeuronName = "2" targetNeuronName = "16" weight = "-0.3536851993279626" />
    <synapse sourceNeuronName = "2" targetNeuronName = "17" weight = "0.14318965328810362" />
    <synapse sourceNeuronName = "2" targetNeuronName = "18" weight = "-0.7772484744316859" />
    <synapse sourceNeuronName = "2" targetNeuronName = "19" weight = "0.6328853709872719" />
    <synapse sourceNeuronName = "2" targetNeuronName = "20" weight = "0.4417143427409531" />
    <synapse sourceNeuronName = "2" targetNeuronName = "21" weight = "0.7986911905452279" />
    <synapse sourceNeuronName = "3" targetNeuronName = "13" weight = "-0.2601027953013222" />
    <synapse sourceNeuronName = "3" targetNeuronName = "14" weight = "0.20252053816204119" />
    <synapse sourceNeuronName = "3" targetNeuronName = "15" weight = "-0.7904254230196781" />
    <synapse sourceNeuronName = "3" targetNeuronName = "16" weight = "-0.7309329483106803" />
    <synapse sourceNeuronName = "3" targetNeuronName = "17" weight = "-0.05534673505833143" />
    <synapse sourceNeuronName = "3" targetNeuronName = "18" weight = "0.2752791613314993" />
    <synapse sourceNeuronName = "3" targetNeuronName = "19" weight = "-0.3509961698928403" />
    <synapse sourceNeuronName = "3" targetNeuronName = "20" weight = "-0.6265414629951882" />
    <synapse sourceNeuronName = "3" targetNeuronName = "21" weight = "-0.4697919786300704" />
    <synapse sourceNeuronName = "4" targetNeuronName = "13" weight = "-0.7365979806230321" />
    <synapse sourceNeuronName = "4" targetNeuronName = "14" weight = "-0.7075970174608064" />
    <synapse sourceNeuronName = "4" targetNeuronName = "15" weight = "0.021212909226561605" />
    <synapse sourceNeuronName = "4" targetNeuronName = "16" weight = "-0.5996335803253903" />
    <synapse sourceNeuronName = "4" targetNeuronName = "17" weight = "0.9310880256705203" />
    <synapse sourceNeuronName = "4" targetNeuronName = "18" weight = "-0.12794077348374744" />
    <synapse sourceNeuronName = "4" targetNeuronName = "19" weight = "0.5966145681436679" />
    <synapse sourceNeuronName = "4" targetNeuronName = "20" weight = "0.13715280813027597" />
    <synapse sourceNeuronName = "4" targetNeuronName = "21" weight = "-0.8822260428850441" />
    <synapse sourceNeuronName = "5" targetNeuronName = "13" weight = "-0.21438864915846412" />
    <synapse sourceNeuronName = "5" targetNeuronName = "14" weight = "0.32918225125044387" />
    <synapse sourceNeuronName = "5" targetNeuronName = "15" weight = "0.7417373894694854" />
    <synapse sourceNeuronName = "5" targetNeuronName = "16" weight = "-0.5654934129120732" />
    <synapse sourceNeuronName = "5" targetNeuronName = "17" weight = "-0.24171599545659128" />
    <synapse sourceNeuronName = "5" targetNeuronName = "18" weight = "-0.550174320725437" />
    <synapse sourceNeuronName = "5" targetNeuronName = "19" weight = "-0.7487179896242622" />
    <synapse sourceNeuronName = "5" targetNeuronName = "20" weight = "0.1979544796713948" />
    <synapse sourceNeuronName = "5" targetNeuronName = "21" weight = "-0.8538717448939661" />
    <synapse sourceNeuronName = "6" targetNeuronName = "13" weight = "0.3156319397227436" />
    <synapse sourceNeuronName = "6" targetNeuronName = "14" weight = "-0.33063022912357964" />
    <synapse sourceNeuronName = "6" targetNeuronName = "15" weight = "0.09709950751209329" />
    <synapse sourceNeuronName = "6" targetNeuronName = "16" weight = "-0.36024797065055836" />
    <synapse sourceNeuronName = "6" targetNeuronName = "17" weight = "-0.27264244292639495" />
    <synapse sourceNeuronName = "6" targetNeuronName = "18" weight = "0.1475289046427659" />
    <synapse sourceNeuronName = "6" targetNeuronName = "19" weight = "0.08092251601250688" />
    <synapse sourceNeuronName = "6" targetNeuronName = "20" weight = "-0.464843934851662" />
    <synapse sourceNeuronName = "6" targetNeuronName = "21" weight = "0.6425675213414441" />
    <synapse sourceNeuronName = "7" targetNeuronName = "13" weight = "-0.23330474316039496" />
    <synapse sourceNeuronName = "7" targetNeuronName = "14" weight = "-0.9108056431260565" />
    <synapse sourceNeuronName = "7" targetNeuronName = "15" weight = "-0.9482987586121914" />
    <synapse sourceNeuronName = "7" targetNeuronName = "16" weight = "0.6032048639594385" />
    <synapse sourceNeuronName = "7" targetNeuronName = "17" weight = "0.9772144981749991" />
    <synapse sourceNeuronName = "7" targetNeuronName = "18" weight = "0.9396359237599248" />
    <synapse sourceNeuronName = "7" targetNeuronName = "19" weight = "0.7016118812411809" />
    <synapse sourceNeuronName = "7" targetNeuronName = "20" weight = "-0.9361727877181247" />
    <synapse sourceNeuronName = "7" targetNeuronName = "21" weight = "0.9190725637984019" />
    <synapse sourceNeuronName = "8" targetNeuronName = "13" weight = "0.9893996303254391" />
    <synapse sourceNeuronName = "8" targetNeuronName = "14" weight = "0.8800947602211364" />
    <synapse sourceNeuronName = "8" targetNeuronName = "15" weight = "0.14932393383250364" />
    <synapse sourceNeuronName = "8" targetNeuronName = "16" weight = "0.6908188429429853" />
    <synapse sourceNeuronName = "8" targetNeuronName = "17" weight = "0.14737595286616867" />
    <synapse sourceNeuronName = "8" targetNeuronName = "18" weight = "-0.1375418822580552" />
    <synapse sourceNeuronName = "8" targetNeuronName = "19" weight = "0.4178675014037543" />
    <synapse sourceNeuronName = "8" targetNeuronName = "20" weight = "-0.6144403835464094" />
    <synapse sourceNeuronName = "8" targetNeuronName = "21" weight = "-0.8225765622881798" />
    <synapse sourceNeuronName = "9" targetNeuronName = "13" weight = "0.8055119360499927" />
    <synapse sourceNeuronName = "9" targetNeuronName = "14" weight = "0.6220959276577371" />
    <synapse sourceNeuronName = "9" targetNeuronName = "15" weight = "0.004894226973307436" />
    <synapse sourceNeuronName = "9" targetNeuronName = "16" weight = "0.5374517064963518" />
    <synapse sourceNeuronName = "9" targetNeuronName = "17" weight = "-0.4366878132577685" />
    <synapse sourceNeuronName = "9" targetNeuronName = "18" weight = "-0.9785035754818785" />
    <synapse sourceNeuronName = "9" targetNeuronName = "19" weight = "0.29862539464744065" />
    <synapse sourceNeuronName = "9" targetNeuronName = "20" weight = "-0.5265490511414432" />
    <synapse sourceNeuronName = "9" targetNeuronName = "21" weight = "-0.8433598783426304" />
    <synapse sourceNeuronName = "10" targetNeuronName = "13" weight = "-0.3790824545969089" />
    <synapse sourceNeuronName = "10" targetNeuronName = "14" weight = "-0.07048193989380835" />
    <synapse sourceNeuronName = "10" targetNeuronName = "15" weight = "-0.36076089017731294" />
    <synapse sourceNeuronName = "10" targetNeuronName = "16" weight = "0.36635870809912796" />
    <synapse sourceNeuronName = "10" targetNeuronName = "17" weight = "0.7634031091877855" />
    <synapse sourceNeuronName = "10" targetNeuronName = "18" weight = "-0.3668908604487682" />
    <synapse sourceNeuronName = "10" targetNeuronName = "19" weight = "0.657335473116738" />
    <synapse sourceNeuronName = "10" targetNeuronName = "20" weight = "-0.09503051651709149" />
    <synapse sourceNeuronName = "10" targetNeuronName = "21" weight = "0.3001815527403522" />
    <synapse sourceNeuronName = "11" targetNeuronName = "13" weight = "0.44229108216225166" />
    <synapse sourceNeuronName = "11" targetNeuronName = "14" weight = "0.6951748647861589" />
    <synapse sourceNeuronName = "11" targetNeuronName = "15" weight = "-0.7705348185295466" />
    <synapse sourceNeuronName = "11" targetNeuronName = "16" weight = "0.5142549851249059" />
    <synapse sourceNeuronName = "11" targetNeuronName = "17" weight = "0.6251038567184231" />
    <synapse sourceNeuronName = "11" targetNeuronName = "18" weight = "-0.9525594363634238" />
    <synapse sourceNeuronName = "11" targetNeuronName = "19" weight = "-0.012759152456035094" />
    <synapse sourceNeuronName = "11" targetNeuronName = "20" weight = "-0.2946197651576805" />
    <synapse sourceNeuronName = "11" targetNeuronName = "21" weight = "0.3016067897907744" />
    <synapse sourceNeuronName = "12" targetNeuronName = "13" weight = "0.1705481123939212" />
    <synapse sourceNeuronName = "12" targetNeuronName = "14" weight = "0.8243576146659786" />
    <synapse sourceNeuronName = "12" targetNeuronName = "15" weight = "-0.4508510065234115" />
    <synapse sourceNeuronName = "12" targetNeuronName = "16" weight = "-0.021935692366050086" />
    <synapse sourceNeuronName = "12" targetNeuronName = "17" weight = "-0.6859586804530933" />
    <synapse sourceNeuronName = "12" targetNeuronName = "18" weight = "0.5075545806411521" />
    <synapse sourceNeuronName = "12" targetNeuronName = "19" weight = "-0.36620446335338386" />
    <synapse sourceNeuronName = "12" targetNeuronName = "20" weight = "-0.0787018770753849" />
    <synapse sourceNeuronName = "12" targetNeuronName = "21" weight = "-0.929925089265599" />
</neuralNetwork>