<neuralNetwork>
    <neuron name = "0" type = "sensor" linkName = "Link0" />
    <neuron name = "1" type = "sensor" linkName = "Link1" />
    <neuron name = "2" type = "sensor" linkName = "Link1" />
    <neuron name = "3" type = "sensor" linkName = "Link2" />
    <neuron name = "4" type = "sensor" linkName = "Link2-0" />
    <neuron name = "5" type = "sensor" linkName = "Link2-1" />
    <neuron name = "6" type = "sensor" linkName = "Link2-3" />
    <neuron name = "7" type = "sensor" linkName = "Link2-2-0" />
    <neuron name = "8" type = "sensor" linkName = "Link2-2-0-1" />
    <neuron name = "9" type = "sensor" linkName = "Link2-3-1" />
    <neuron name = "10" type = "sensor" linkName = "Link2-3-0-0" />
    <neuron name = "11" type = "sensor" linkName = "Link2-3-0-1" />
    <neuron name = "12" type = "sensor" linkName = "Link2-3-0-2" />
    <neuron name = "13" type = "sensor" linkName = "Link2-4-1" />
    <neuron name = "14" type = "motor"  jointName = "Link0_Link1" />
    <neuron name = "15" type = "motor"  jointName = "Link1_Link2" />
    <synapse sourceNeuronName = "0" targetNeuronName = "14" weight = "0.794007895069399" />
    <synapse sourceNeuronName = "0" targetNeuronName = "15" weight = "-0.5229291517875307" />
    <synapse sourceNeuronName = "1" targetNeuronName = "14" weight = "0.9671938127121418" />
    <synapse sourceNeuronName = "1" targetNeuronName = "15" weight = "0.24241442958077664" />
    <synapse sourceNeuronName = "2" targetNeuronName = "14" weight = "-0.5394438159485386" />
    <synapse sourceNeuronName = "2" targetNeuronName = "15" weight = "0.5620044629193097" />
    <synapse sourceNeuronName = "3" targetNeuronName = "14" weight = "-0.6097795468196681" />
    <synapse sourceNeuronName = "3" targetNeuronName = "15" weight = "-0.27452031128191234" />
    <synapse sourceNeuronName = "4" targetNeuronName = "14" weight = "0.41339384737332385" />
    <synapse sourceNeuronName = "4" targetNeuronName = "15" weight = "-0.3117335702064128" />
    <synapse sourceNeuronName = "5" targetNeuronName = "14" weight = "0.5034922792259828" />
    <synapse sourceNeuronName = "5" targetNeuronName = "15" weight = "0.8264562963733266" />
    <synapse sourceNeuronName = "6" targetNeuronName = "14" weight = "0.47535352550002474" />
    <synapse sourceNeuronName = "6" targetNeuronName = "15" weight = "-0.1261788770597294" />
    <synapse sourceNeuronName = "7" targetNeuronName = "14" weight = "0.7674558769442479" />
    <synapse sourceNeuronName = "7" targetNeuronName = "15" weight = "0.6048823086331789" />
    <synapse sourceNeuronName = "8" targetNeuronName = "14" weight = "0.3649544149022441" />
    <synapse sourceNeuronName = "8" targetNeuronName = "15" weight = "-0.9215596603087615" />
    <synapse sourceNeuronName = "9" targetNeuronName = "14" weight = "-0.6069380049169817" />
    <synapse sourceNeuronName = "9" targetNeuronName = "15" weight = "-0.7610092895789367" />
    <synapse sourceNeuronName = "10" targetNeuronName = "14" weight = "0.012306788027822257" />
    <synapse sourceNeuronName = "10" targetNeuronName = "15" weight = "0.6609465161307138" />
    <synapse sourceNeuronName = "11" targetNeuronName = "14" weight = "0.9821732988081397" />
    <synapse sourceNeuronName = "11" targetNeuronName = "15" weight = "0.9003662782163715" />
    <synapse sourceNeuronName = "12" targetNeuronName = "14" weight = "-0.9955211692094765" />
    <synapse sourceNeuronName = "12" targetNeuronName = "15" weight = "0.5295127274217961" />
    <synapse sourceNeuronName = "13" targetNeuronName = "14" weight = "-0.4955054171060911" />
    <synapse sourceNeuronName = "13" targetNeuronName = "15" weight = "0.3452752166861839" />
</neuralNetwork>