<neuralNetwork>
    <neuron name = "0" type = "sensor" linkName = "Link0" />
    <neuron name = "1" type = "sensor" linkName = "Link1" />
    <neuron name = "2" type = "sensor" linkName = "Link1" />
    <neuron name = "3" type = "sensor" linkName = "Link2" />
    <neuron name = "4" type = "sensor" linkName = "Link3" />
    <neuron name = "5" type = "sensor" linkName = "Link3-0" />
    <neuron name = "6" type = "sensor" linkName = "Link3-1" />
    <neuron name = "7" type = "motor"  jointName = "Link0_Link1" />
    <neuron name = "8" type = "motor"  jointName = "Link1_Link2" />
    <neuron name = "9" type = "motor"  jointName = "Link2_Link3" />
    <synapse sourceNeuronName = "0" targetNeuronName = "7" weight = "0.5566121756990268" />
    <synapse sourceNeuronName = "0" targetNeuronName = "8" weight = "0.9153421120137331" />
    <synapse sourceNeuronName = "0" targetNeuronName = "9" weight = "0.7346379686101772" />
    <synapse sourceNeuronName = "1" targetNeuronName = "7" weight = "0.044119689193637734" />
    <synapse sourceNeuronName = "1" targetNeuronName = "8" weight = "0.7500090474615368" />
    <synapse sourceNeuronName = "1" targetNeuronName = "9" weight = "-0.4224437034826318" />
    <synapse sourceNeuronName = "2" targetNeuronName = "7" weight = "-0.6305827300688236" />
    <synapse sourceNeuronName = "2" targetNeuronName = "8" weight = "-0.41767640548058216" />
    <synapse sourceNeuronName = "2" targetNeuronName = "9" weight = "-0.335680947290417" />
    <synapse sourceNeuronName = "3" targetNeuronName = "7" weight = "0.6987607935699034" />
    <synapse sourceNeuronName = "3" targetNeuronName = "8" weight = "0.2664858063554014" />
    <synapse sourceNeuronName = "3" targetNeuronName = "9" weight = "0.16194654067818282" />
    <synapse sourceNeuronName = "4" targetNeuronName = "7" weight = "0.22148466817840884" />
    <synapse sourceNeuronName = "4" targetNeuronName = "8" weight = "-0.2988073158962796" />
    <synapse sourceNeuronName = "4" targetNeuronName = "9" weight = "-0.7340320318836155" />
    <synapse sourceNeuronName = "5" targetNeuronName = "7" weight = "0.7438394620297755" />
    <synapse sourceNeuronName = "5" targetNeuronName = "8" weight = "0.6377888086153329" />
    <synapse sourceNeuronName = "5" targetNeuronName = "9" weight = "-0.1282002500688899" />
    <synapse sourceNeuronName = "6" targetNeuronName = "7" weight = "-0.7039929881875553" />
    <synapse sourceNeuronName = "6" targetNeuronName = "8" weight = "-0.35083318663678886" />
    <synapse sourceNeuronName = "6" targetNeuronName = "9" weight = "-0.7984667556423783" />
</neuralNetwork>