<neuralNetwork>
    <neuron name = "0" type = "sensor" linkName = "Link0" />
    <neuron name = "1" type = "sensor" linkName = "Link1" />
    <neuron name = "2" type = "sensor" linkName = "Link1" />
    <neuron name = "3" type = "sensor" linkName = "Link2" />
    <neuron name = "4" type = "sensor" linkName = "Link3" />
    <neuron name = "5" type = "sensor" linkName = "Link3-0" />
    <neuron name = "6" type = "sensor" linkName = "Link3-1" />
    <neuron name = "7" type = "motor"  jointName = "Link0_Link1" />
    <neuron name = "8" type = "motor"  jointName = "Link1_Link2" />
    <neuron name = "9" type = "motor"  jointName = "Link2_Link3" />
    <neuron name = "10" type = "motor"  jointName = "Link0_Link1" />
    <neuron name = "11" type = "motor"  jointName = "Link0_Link1" />
    <neuron name = "12" type = "motor"  jointName = "Link0_Link1" />
    <synapse sourceNeuronName = "0" targetNeuronName = "7" weight = "-0.12809537377630886" />
    <synapse sourceNeuronName = "0" targetNeuronName = "8" weight = "-0.3734769524094288" />
    <synapse sourceNeuronName = "0" targetNeuronName = "9" weight = "-0.9455664895485876" />
    <synapse sourceNeuronName = "0" targetNeuronName = "10" weight = "-0.4423770896522792" />
    <synapse sourceNeuronName = "0" targetNeuronName = "11" weight = "0.870527305813187" />
    <synapse sourceNeuronName = "0" targetNeuronName = "12" weight = "-0.4372953222000979" />
    <synapse sourceNeuronName = "1" targetNeuronName = "7" weight = "-0.8935193048297279" />
    <synapse sourceNeuronName = "1" targetNeuronName = "8" weight = "0.20737908089845636" />
    <synapse sourceNeuronName = "1" targetNeuronName = "9" weight = "-0.263572571041613" />
    <synapse sourceNeuronName = "1" targetNeuronName = "10" weight = "-0.5955656776077021" />
    <synapse sourceNeuronName = "1" targetNeuronName = "11" weight = "0.7673434269041546" />
    <synapse sourceNeuronName = "1" targetNeuronName = "12" weight = "0.6403695329260932" />
    <synapse sourceNeuronName = "2" targetNeuronName = "7" weight = "0.79343134261234" />
    <synapse sourceNeuronName = "2" targetNeuronName = "8" weight = "-0.9936248912133319" />
    <synapse sourceNeuronName = "2" targetNeuronName = "9" weight = "0.10376216164027219" />
    <synapse sourceNeuronName = "2" targetNeuronName = "10" weight = "0.7622829494697372" />
    <synapse sourceNeuronName = "2" targetNeuronName = "11" weight = "-0.006779351074378548" />
    <synapse sourceNeuronName = "2" targetNeuronName = "12" weight = "0.21121347849372984" />
    <synapse sourceNeuronName = "3" targetNeuronName = "7" weight = "0.8169401797215226" />
    <synapse sourceNeuronName = "3" targetNeuronName = "8" weight = "0.8169710923203688" />
    <synapse sourceNeuronName = "3" targetNeuronName = "9" weight = "-0.4411084692298064" />
    <synapse sourceNeuronName = "3" targetNeuronName = "10" weight = "-0.8280418949723158" />
    <synapse sourceNeuronName = "3" targetNeuronName = "11" weight = "0.3656199496689003" />
    <synapse sourceNeuronName = "3" targetNeuronName = "12" weight = "0.4842247114136191" />
    <synapse sourceNeuronName = "4" targetNeuronName = "7" weight = "0.44432084672990757" />
    <synapse sourceNeuronName = "4" targetNeuronName = "8" weight = "-0.3527523440031435" />
    <synapse sourceNeuronName = "4" targetNeuronName = "9" weight = "-0.5770493314703795" />
    <synapse sourceNeuronName = "4" targetNeuronName = "10" weight = "-0.16781986933999482" />
    <synapse sourceNeuronName = "4" targetNeuronName = "11" weight = "0.7569220385589881" />
    <synapse sourceNeuronName = "4" targetNeuronName = "12" weight = "-0.4633305636447007" />
    <synapse sourceNeuronName = "5" targetNeuronName = "7" weight = "0.707271978334121" />
    <synapse sourceNeuronName = "5" targetNeuronName = "8" weight = "-0.9279232692721389" />
    <synapse sourceNeuronName = "5" targetNeuronName = "9" weight = "-0.49071004004675167" />
    <synapse sourceNeuronName = "5" targetNeuronName = "10" weight = "0.1590744725939377" />
    <synapse sourceNeuronName = "5" targetNeuronName = "11" weight = "-0.7203182318239236" />
    <synapse sourceNeuronName = "5" targetNeuronName = "12" weight = "0.11124643893141362" />
    <synapse sourceNeuronName = "6" targetNeuronName = "7" weight = "-0.5869258655271745" />
    <synapse sourceNeuronName = "6" targetNeuronName = "8" weight = "-0.609672056757985" />
    <synapse sourceNeuronName = "6" targetNeuronName = "9" weight = "0.9889464990481933" />
    <synapse sourceNeuronName = "6" targetNeuronName = "10" weight = "0.6482831555666289" />
    <synapse sourceNeuronName = "6" targetNeuronName = "11" weight = "-0.40188126156345927" />
    <synapse sourceNeuronName = "6" targetNeuronName = "12" weight = "0.9351778704078764" />
</neuralNetwork>