<neuralNetwork>
    <neuron name = "0" type = "sensor" linkName = "Link0" />
    <neuron name = "1" type = "sensor" linkName = "Link1" />
    <neuron name = "2" type = "sensor" linkName = "Link1" />
    <neuron name = "3" type = "sensor" linkName = "Link2-0" />
    <neuron name = "4" type = "sensor" linkName = "Link2-2" />
    <neuron name = "5" type = "sensor" linkName = "Link2-3" />
    <neuron name = "6" type = "sensor" linkName = "Link2-0-1" />
    <neuron name = "7" type = "sensor" linkName = "Link2-0-0-1" />
    <neuron name = "8" type = "sensor" linkName = "Link2-0-0-2" />
    <neuron name = "9" type = "sensor" linkName = "Link2-0-3-0" />
    <neuron name = "10" type = "sensor" linkName = "Link2-0-3-1" />
    <neuron name = "11" type = "sensor" linkName = "Link2-0-3-3" />
    <neuron name = "12" type = "sensor" linkName = "Link2-1-0" />
    <neuron name = "13" type = "sensor" linkName = "Link2-1-1" />
    <neuron name = "14" type = "sensor" linkName = "Link2-1-3" />
    <neuron name = "15" type = "sensor" linkName = "Link2-1-4" />
    <neuron name = "16" type = "sensor" linkName = "Link2-1-1-2" />
    <neuron name = "17" type = "sensor" linkName = "Link2-2-1" />
    <neuron name = "18" type = "sensor" linkName = "Link2-2-3" />
    <neuron name = "19" type = "sensor" linkName = "Link2-3-0" />
    <neuron name = "20" type = "motor"  jointName = "Link0_Link1" />
    <neuron name = "21" type = "motor"  jointName = "Link1_Link2" />
    <synapse sourceNeuronName = "0" targetNeuronName = "20" weight = "-0.21515959244326188" />
    <synapse sourceNeuronName = "0" targetNeuronName = "21" weight = "-0.353140527096093" />
    <synapse sourceNeuronName = "1" targetNeuronName = "20" weight = "-0.6477644564190612" />
    <synapse sourceNeuronName = "1" targetNeuronName = "21" weight = "0.4960592539726012" />
    <synapse sourceNeuronName = "2" targetNeuronName = "20" weight = "0.420820483189287" />
    <synapse sourceNeuronName = "2" targetNeuronName = "21" weight = "0.6355099275771965" />
    <synapse sourceNeuronName = "3" targetNeuronName = "20" weight = "-0.8797493640244367" />
    <synapse sourceNeuronName = "3" targetNeuronName = "21" weight = "-0.4430614405201829" />
    <synapse sourceNeuronName = "4" targetNeuronName = "20" weight = "0.3309524162163191" />
    <synapse sourceNeuronName = "4" targetNeuronName = "21" weight = "-0.7134097674806072" />
    <synapse sourceNeuronName = "5" targetNeuronName = "20" weight = "-0.4122782845939623" />
    <synapse sourceNeuronName = "5" targetNeuronName = "21" weight = "0.8894432814590785" />
    <synapse sourceNeuronName = "6" targetNeuronName = "20" weight = "0.2239905041533683" />
    <synapse sourceNeuronName = "6" targetNeuronName = "21" weight = "0.5466380498862455" />
    <synapse sourceNeuronName = "7" targetNeuronName = "20" weight = "0.9214105363805645" />
    <synapse sourceNeuronName = "7" targetNeuronName = "21" weight = "-0.6007080717810971" />
    <synapse sourceNeuronName = "8" targetNeuronName = "20" weight = "0.7122206631964114" />
    <synapse sourceNeuronName = "8" targetNeuronName = "21" weight = "0.7065250070288416" />
    <synapse sourceNeuronName = "9" targetNeuronName = "20" weight = "-0.27342953082591315" />
    <synapse sourceNeuronName = "9" targetNeuronName = "21" weight = "0.15188771044743055" />
    <synapse sourceNeuronName = "10" targetNeuronName = "20" weight = "-0.33239342160882135" />
    <synapse sourceNeuronName = "10" targetNeuronName = "21" weight = "-0.5619891263519383" />
    <synapse sourceNeuronName = "11" targetNeuronName = "20" weight = "0.3972202727734242" />
    <synapse sourceNeuronName = "11" targetNeuronName = "21" weight = "-0.6467183238074552" />
    <synapse sourceNeuronName = "12" targetNeuronName = "20" weight = "0.11560396244155413" />
    <synapse sourceNeuronName = "12" targetNeuronName = "21" weight = "-0.13811064717110266" />
    <synapse sourceNeuronName = "13" targetNeuronName = "20" weight = "-0.11147186591834735" />
    <synapse sourceNeuronName = "13" targetNeuronName = "21" weight = "0.4293403368673303" />
    <synapse sourceNeuronName = "14" targetNeuronName = "20" weight = "0.18593282797694388" />
    <synapse sourceNeuronName = "14" targetNeuronName = "21" weight = "-0.3266369083046683" />
    <synapse sourceNeuronName = "15" targetNeuronName = "20" weight = "0.6599854917339658" />
    <synapse sourceNeuronName = "15" targetNeuronName = "21" weight = "-0.7760194331025261" />
    <synapse sourceNeuronName = "16" targetNeuronName = "20" weight = "-0.28290988769726355" />
    <synapse sourceNeuronName = "16" targetNeuronName = "21" weight = "-0.9725803973079923" />
    <synapse sourceNeuronName = "17" targetNeuronName = "20" weight = "-0.7716900688310042" />
    <synapse sourceNeuronName = "17" targetNeuronName = "21" weight = "0.37694688935396203" />
    <synapse sourceNeuronName = "18" targetNeuronName = "20" weight = "-0.21448424239131625" />
    <synapse sourceNeuronName = "18" targetNeuronName = "21" weight = "0.2764271626473509" />
    <synapse sourceNeuronName = "19" targetNeuronName = "20" weight = "0.24249183808753694" />
    <synapse sourceNeuronName = "19" targetNeuronName = "21" weight = "-0.5467474454212777" />
</neuralNetwork>