<neuralNetwork>
    <neuron name = "0" type = "sensor" linkName = "Link0" />
    <neuron name = "1" type = "sensor" linkName = "Link2" />
    <neuron name = "2" type = "sensor" linkName = "Link2-1-2" />
    <neuron name = "3" type = "sensor" linkName = "Link2-1-3-3" />
    <neuron name = "4" type = "sensor" linkName = "Link2-1-3-4" />
    <neuron name = "5" type = "sensor" linkName = "Link2-2-1" />
    <neuron name = "6" type = "sensor" linkName = "Link2-3-0" />
    <neuron name = "7" type = "sensor" linkName = "Link2-3-1" />
    <neuron name = "8" type = "sensor" linkName = "Link2-3-3" />
    <neuron name = "9" type = "sensor" linkName = "Link2-4-0-0" />
    <neuron name = "10" type = "sensor" linkName = "Link2-4-0-1" />
    <neuron name = "11" type = "sensor" linkName = "Link2-4-0-2" />
    <neuron name = "12" type = "sensor" linkName = "Link2-4-0-3" />
    <neuron name = "13" type = "motor"  jointName = "Link0_Link1" />
    <neuron name = "14" type = "motor"  jointName = "Link1_Link2" />
    <synapse sourceNeuronName = "0" targetNeuronName = "13" weight = "0.607985773783299" />
    <synapse sourceNeuronName = "0" targetNeuronName = "14" weight = "-0.20712554144788586" />
    <synapse sourceNeuronName = "1" targetNeuronName = "13" weight = "0.515640699680648" />
    <synapse sourceNeuronName = "1" targetNeuronName = "14" weight = "0.8990299085990383" />
    <synapse sourceNeuronName = "2" targetNeuronName = "13" weight = "0.3313766158418894" />
    <synapse sourceNeuronName = "2" targetNeuronName = "14" weight = "-0.7213950432857927" />
    <synapse sourceNeuronName = "3" targetNeuronName = "13" weight = "0.5189776035050209" />
    <synapse sourceNeuronName = "3" targetNeuronName = "14" weight = "0.2796610282648533" />
    <synapse sourceNeuronName = "4" targetNeuronName = "13" weight = "0.34916721963471087" />
    <synapse sourceNeuronName = "4" targetNeuronName = "14" weight = "-0.6729470658584105" />
    <synapse sourceNeuronName = "5" targetNeuronName = "13" weight = "0.906141966587106" />
    <synapse sourceNeuronName = "5" targetNeuronName = "14" weight = "-0.9508608214583214" />
    <synapse sourceNeuronName = "6" targetNeuronName = "13" weight = "-0.47418672051719635" />
    <synapse sourceNeuronName = "6" targetNeuronName = "14" weight = "-0.3954858744861547" />
    <synapse sourceNeuronName = "7" targetNeuronName = "13" weight = "0.382975910237364" />
    <synapse sourceNeuronName = "7" targetNeuronName = "14" weight = "-0.06487221816205557" />
    <synapse sourceNeuronName = "8" targetNeuronName = "13" weight = "0.026069209906853352" />
    <synapse sourceNeuronName = "8" targetNeuronName = "14" weight = "-0.02716289978739117" />
    <synapse sourceNeuronName = "9" targetNeuronName = "13" weight = "0.07533740864160254" />
    <synapse sourceNeuronName = "9" targetNeuronName = "14" weight = "0.1930598710653022" />
    <synapse sourceNeuronName = "10" targetNeuronName = "13" weight = "0.6187926189713877" />
    <synapse sourceNeuronName = "10" targetNeuronName = "14" weight = "0.6782722760789459" />
    <synapse sourceNeuronName = "11" targetNeuronName = "13" weight = "-0.006705195174638856" />
    <synapse sourceNeuronName = "11" targetNeuronName = "14" weight = "0.25956619048409846" />
    <synapse sourceNeuronName = "12" targetNeuronName = "13" weight = "-0.7044015915003625" />
    <synapse sourceNeuronName = "12" targetNeuronName = "14" weight = "-0.6119820757090666" />
</neuralNetwork>