<neuralNetwork>
    <neuron name = "0" type = "sensor" linkName = "Link0" />
    <neuron name = "1" type = "sensor" linkName = "Link1" />
    <neuron name = "2" type = "sensor" linkName = "Link1" />
    <neuron name = "3" type = "sensor" linkName = "Link2-0" />
    <neuron name = "4" type = "sensor" linkName = "Link2-1" />
    <neuron name = "5" type = "sensor" linkName = "Link2-3" />
    <neuron name = "6" type = "sensor" linkName = "Link2-1-1" />
    <neuron name = "7" type = "sensor" linkName = "Link2-2-0" />
    <neuron name = "8" type = "sensor" linkName = "Link2-2-1" />
    <neuron name = "9" type = "sensor" linkName = "Link2-3-0" />
    <neuron name = "10" type = "sensor" linkName = "Link3-0-0" />
    <neuron name = "11" type = "sensor" linkName = "Link3-2-1" />
    <neuron name = "12" type = "sensor" linkName = "Link3-2-3" />
    <neuron name = "13" type = "motor"  jointName = "Link0_Link1" />
    <neuron name = "14" type = "motor"  jointName = "Link1_Link2" />
    <neuron name = "15" type = "motor"  jointName = "Link2_Link3" />
    <synapse sourceNeuronName = "0" targetNeuronName = "13" weight = "-0.9270482145468297" />
    <synapse sourceNeuronName = "0" targetNeuronName = "14" weight = "-0.03230441401860151" />
    <synapse sourceNeuronName = "0" targetNeuronName = "15" weight = "0.15648530227182578" />
    <synapse sourceNeuronName = "1" targetNeuronName = "13" weight = "-0.5862071543719851" />
    <synapse sourceNeuronName = "1" targetNeuronName = "14" weight = "0.6641861177341795" />
    <synapse sourceNeuronName = "1" targetNeuronName = "15" weight = "0.3626267028300276" />
    <synapse sourceNeuronName = "2" targetNeuronName = "13" weight = "-0.2762724143450368" />
    <synapse sourceNeuronName = "2" targetNeuronName = "14" weight = "-0.05893693422174051" />
    <synapse sourceNeuronName = "2" targetNeuronName = "15" weight = "-0.09745376534170269" />
    <synapse sourceNeuronName = "3" targetNeuronName = "13" weight = "-0.7524070257097117" />
    <synapse sourceNeuronName = "3" targetNeuronName = "14" weight = "0.48573956131624896" />
    <synapse sourceNeuronName = "3" targetNeuronName = "15" weight = "-0.6348115565011885" />
    <synapse sourceNeuronName = "4" targetNeuronName = "13" weight = "0.35981484854864654" />
    <synapse sourceNeuronName = "4" targetNeuronName = "14" weight = "-0.6815459474844159" />
    <synapse sourceNeuronName = "4" targetNeuronName = "15" weight = "0.9695504383602158" />
    <synapse sourceNeuronName = "5" targetNeuronName = "13" weight = "-0.653088297860096" />
    <synapse sourceNeuronName = "5" targetNeuronName = "14" weight = "0.23226556027454182" />
    <synapse sourceNeuronName = "5" targetNeuronName = "15" weight = "-0.41377140777032384" />
    <synapse sourceNeuronName = "6" targetNeuronName = "13" weight = "0.7353567015809441" />
    <synapse sourceNeuronName = "6" targetNeuronName = "14" weight = "0.8707267294804628" />
    <synapse sourceNeuronName = "6" targetNeuronName = "15" weight = "-0.8155960246519964" />
    <synapse sourceNeuronName = "7" targetNeuronName = "13" weight = "0.8400756704527677" />
    <synapse sourceNeuronName = "7" targetNeuronName = "14" weight = "0.06656977507630835" />
    <synapse sourceNeuronName = "7" targetNeuronName = "15" weight = "0.900561755340598" />
    <synapse sourceNeuronName = "8" targetNeuronName = "13" weight = "0.5451095632597172" />
    <synapse sourceNeuronName = "8" targetNeuronName = "14" weight = "-0.06837829278616292" />
    <synapse sourceNeuronName = "8" targetNeuronName = "15" weight = "-0.14174913073005913" />
    <synapse sourceNeuronName = "9" targetNeuronName = "13" weight = "0.6512306950063849" />
    <synapse sourceNeuronName = "9" targetNeuronName = "14" weight = "0.36573491328470453" />
    <synapse sourceNeuronName = "9" targetNeuronName = "15" weight = "0.8639191942387847" />
    <synapse sourceNeuronName = "10" targetNeuronName = "13" weight = "0.5044611243570853" />
    <synapse sourceNeuronName = "10" targetNeuronName = "14" weight = "-0.10993181956261977" />
    <synapse sourceNeuronName = "10" targetNeuronName = "15" weight = "-0.6466267162352355" />
    <synapse sourceNeuronName = "11" targetNeuronName = "13" weight = "-0.03644086306007788" />
    <synapse sourceNeuronName = "11" targetNeuronName = "14" weight = "0.6768147114526704" />
    <synapse sourceNeuronName = "11" targetNeuronName = "15" weight = "-0.35203399128873936" />
    <synapse sourceNeuronName = "12" targetNeuronName = "13" weight = "-0.9881363988894005" />
    <synapse sourceNeuronName = "12" targetNeuronName = "14" weight = "0.19491316954511562" />
    <synapse sourceNeuronName = "12" targetNeuronName = "15" weight = "-0.6872066894923912" />
</neuralNetwork>