<neuralNetwork>
    <neuron name = "0" type = "sensor" linkName = "Link0" />
    <neuron name = "1" type = "sensor" linkName = "Link1" />
    <neuron name = "2" type = "sensor" linkName = "Link1" />
    <neuron name = "3" type = "sensor" linkName = "Link2" />
    <neuron name = "4" type = "sensor" linkName = "Link2-0" />
    <neuron name = "5" type = "sensor" linkName = "Link2-1" />
    <neuron name = "6" type = "sensor" linkName = "Link2-3" />
    <neuron name = "7" type = "sensor" linkName = "Link2-2-0" />
    <neuron name = "8" type = "sensor" linkName = "Link2-2-0-1" />
    <neuron name = "9" type = "sensor" linkName = "Link2-3-1" />
    <neuron name = "10" type = "sensor" linkName = "Link2-3-0-0" />
    <neuron name = "11" type = "sensor" linkName = "Link2-3-0-1" />
    <neuron name = "12" type = "sensor" linkName = "Link2-3-0-2" />
    <neuron name = "13" type = "sensor" linkName = "Link2-4-1" />
    <neuron name = "14" type = "motor"  jointName = "Link0_Link1" />
    <neuron name = "15" type = "motor"  jointName = "Link1_Link2" />
    <neuron name = "16" type = "motor"  jointName = "Link0_Link1" />
    <neuron name = "17" type = "motor"  jointName = "Link0_Link1" />
    <neuron name = "18" type = "motor"  jointName = "Link0_Link1" />
    <neuron name = "19" type = "motor"  jointName = "Link0_Link1" />
    <neuron name = "20" type = "motor"  jointName = "Link0_Link1" />
    <neuron name = "21" type = "motor"  jointName = "Link0_Link1" />
    <neuron name = "22" type = "motor"  jointName = "Link0_Link1" />
    <neuron name = "23" type = "motor"  jointName = "Link0_Link1" />
    <neuron name = "24" type = "motor"  jointName = "Link0_Link1" />
    <neuron name = "25" type = "motor"  jointName = "Link0_Link1" />
    <neuron name = "26" type = "motor"  jointName = "Link0_Link1" />
    <neuron name = "27" type = "motor"  jointName = "Link0_Link1" />
    <synapse sourceNeuronName = "0" targetNeuronName = "14" weight = "0.9317377867450349" />
    <synapse sourceNeuronName = "0" targetNeuronName = "15" weight = "-0.13954215017446403" />
    <synapse sourceNeuronName = "0" targetNeuronName = "16" weight = "0.893935961670955" />
    <synapse sourceNeuronName = "0" targetNeuronName = "17" weight = "-0.4258067444941762" />
    <synapse sourceNeuronName = "0" targetNeuronName = "18" weight = "0.30903179363631894" />
    <synapse sourceNeuronName = "0" targetNeuronName = "19" weight = "-0.9817483765226414" />
    <synapse sourceNeuronName = "0" targetNeuronName = "20" weight = "-0.26060223785101533" />
    <synapse sourceNeuronName = "0" targetNeuronName = "21" weight = "-0.3365032960948684" />
    <synapse sourceNeuronName = "0" targetNeuronName = "22" weight = "0.2293872432904056" />
    <synapse sourceNeuronName = "0" targetNeuronName = "23" weight = "-0.09106551663025919" />
    <synapse sourceNeuronName = "0" targetNeuronName = "24" weight = "0.5793064778066395" />
    <synapse sourceNeuronName = "0" targetNeuronName = "25" weight = "0.9094728254811433" />
    <synapse sourceNeuronName = "0" targetNeuronName = "26" weight = "-0.6841832251617905" />
    <synapse sourceNeuronName = "0" targetNeuronName = "27" weight = "0.9993157218640265" />
    <synapse sourceNeuronName = "1" targetNeuronName = "14" weight = "-0.5317259717011669" />
    <synapse sourceNeuronName = "1" targetNeuronName = "15" weight = "-0.32378328351045105" />
    <synapse sourceNeuronName = "1" targetNeuronName = "16" weight = "-0.685495593176167" />
    <synapse sourceNeuronName = "1" targetNeuronName = "17" weight = "0.39125491434437154" />
    <synapse sourceNeuronName = "1" targetNeuronName = "18" weight = "0.29212888387017144" />
    <synapse sourceNeuronName = "1" targetNeuronName = "19" weight = "0.4955070517065805" />
    <synapse sourceNeuronName = "1" targetNeuronName = "20" weight = "-0.978418672238232" />
    <synapse sourceNeuronName = "1" targetNeuronName = "21" weight = "-0.3047188925805573" />
    <synapse sourceNeuronName = "1" targetNeuronName = "22" weight = "-0.4963967587094422" />
    <synapse sourceNeuronName = "1" targetNeuronName = "23" weight = "0.5993200321548893" />
    <synapse sourceNeuronName = "1" targetNeuronName = "24" weight = "-0.40141797410280655" />
    <synapse sourceNeuronName = "1" targetNeuronName = "25" weight = "-0.8065641990832524" />
    <synapse sourceNeuronName = "1" targetNeuronName = "26" weight = "-0.5406956581816045" />
    <synapse sourceNeuronName = "1" targetNeuronName = "27" weight = "0.887658605395923" />
    <synapse sourceNeuronName = "2" targetNeuronName = "14" weight = "0.8931654008111365" />
    <synapse sourceNeuronName = "2" targetNeuronName = "15" weight = "-0.7076202799647016" />
    <synapse sourceNeuronName = "2" targetNeuronName = "16" weight = "0.055516290977191796" />
    <synapse sourceNeuronName = "2" targetNeuronName = "17" weight = "-0.8316598808139524" />
    <synapse sourceNeuronName = "2" targetNeuronName = "18" weight = "0.34877030214961136" />
    <synapse sourceNeuronName = "2" targetNeuronName = "19" weight = "0.7052729765794328" />
    <synapse sourceNeuronName = "2" targetNeuronName = "20" weight = "-0.7636494734477068" />
    <synapse sourceNeuronName = "2" targetNeuronName = "21" weight = "-0.6696261158083927" />
    <synapse sourceNeuronName = "2" targetNeuronName = "22" weight = "0.7164013431259473" />
    <synapse sourceNeuronName = "2" targetNeuronName = "23" weight = "-0.01946279433080189" />
    <synapse sourceNeuronName = "2" targetNeuronName = "24" weight = "-0.5295947325537982" />
    <synapse sourceNeuronName = "2" targetNeuronName = "25" weight = "0.41976192891123" />
    <synapse sourceNeuronName = "2" targetNeuronName = "26" weight = "-0.6446673504240474" />
    <synapse sourceNeuronName = "2" targetNeuronName = "27" weight = "-0.30050760823845213" />
    <synapse sourceNeuronName = "3" targetNeuronName = "14" weight = "-0.682477430800436" />
    <synapse sourceNeuronName = "3" targetNeuronName = "15" weight = "0.5232843612717903" />
    <synapse sourceNeuronName = "3" targetNeuronName = "16" weight = "0.3449229670609226" />
    <synapse sourceNeuronName = "3" targetNeuronName = "17" weight = "0.5226148445915391" />
    <synapse sourceNeuronName = "3" targetNeuronName = "18" weight = "-0.384694308671528" />
    <synapse sourceNeuronName = "3" targetNeuronName = "19" weight = "0.2561765271896397" />
    <synapse sourceNeuronName = "3" targetNeuronName = "20" weight = "0.868764502193911" />
    <synapse sourceNeuronName = "3" targetNeuronName = "21" weight = "-0.9985853531583708" />
    <synapse sourceNeuronName = "3" targetNeuronName = "22" weight = "0.33784123517920506" />
    <synapse sourceNeuronName = "3" targetNeuronName = "23" weight = "0.9929095264171732" />
    <synapse sourceNeuronName = "3" targetNeuronName = "24" weight = "-0.3287614704674209" />
    <synapse sourceNeuronName = "3" targetNeuronName = "25" weight = "-0.11894561879212517" />
    <synapse sourceNeuronName = "3" targetNeuronName = "26" weight = "0.6116715364028009" />
    <synapse sourceNeuronName = "3" targetNeuronName = "27" weight = "-0.8202485902913559" />
    <synapse sourceNeuronName = "4" targetNeuronName = "14" weight = "0.32861430216817755" />
    <synapse sourceNeuronName = "4" targetNeuronName = "15" weight = "-0.8537782849175555" />
    <synapse sourceNeuronName = "4" targetNeuronName = "16" weight = "-0.45130432998380554" />
    <synapse sourceNeuronName = "4" targetNeuronName = "17" weight = "0.5270965486093886" />
    <synapse sourceNeuronName = "4" targetNeuronName = "18" weight = "-0.3144651132464711" />
    <synapse sourceNeuronName = "4" targetNeuronName = "19" weight = "-0.10786695024964876" />
    <synapse sourceNeuronName = "4" targetNeuronName = "20" weight = "0.18668856486799723" />
    <synapse sourceNeuronName = "4" targetNeuronName = "21" weight = "0.035339655858146246" />
    <synapse sourceNeuronName = "4" targetNeuronName = "22" weight = "-0.3121870598873906" />
    <synapse sourceNeuronName = "4" targetNeuronName = "23" weight = "-0.0895667198217962" />
    <synapse sourceNeuronName = "4" targetNeuronName = "24" weight = "-0.044837433057787646" />
    <synapse sourceNeuronName = "4" targetNeuronName = "25" weight = "0.3325320632909028" />
    <synapse sourceNeuronName = "4" targetNeuronName = "26" weight = "0.7647923871392726" />
    <synapse sourceNeuronName = "4" targetNeuronName = "27" weight = "-0.17148608504753726" />
    <synapse sourceNeuronName = "5" targetNeuronName = "14" weight = "-0.7061639224739593" />
    <synapse sourceNeuronName = "5" targetNeuronName = "15" weight = "0.9259116287357438" />
    <synapse sourceNeuronName = "5" targetNeuronName = "16" weight = "0.5334766622022977" />
    <synapse sourceNeuronName = "5" targetNeuronName = "17" weight = "0.2692066237170849" />
    <synapse sourceNeuronName = "5" targetNeuronName = "18" weight = "0.010594318432704863" />
    <synapse sourceNeuronName = "5" targetNeuronName = "19" weight = "0.8355840884825887" />
    <synapse sourceNeuronName = "5" targetNeuronName = "20" weight = "0.6448349308970551" />
    <synapse sourceNeuronName = "5" targetNeuronName = "21" weight = "0.15480226520970297" />
    <synapse sourceNeuronName = "5" targetNeuronName = "22" weight = "-0.11526024926965461" />
    <synapse sourceNeuronName = "5" targetNeuronName = "23" weight = "0.6298026064252131" />
    <synapse sourceNeuronName = "5" targetNeuronName = "24" weight = "-0.19106583529048815" />
    <synapse sourceNeuronName = "5" targetNeuronName = "25" weight = "-0.9617283788920055" />
    <synapse sourceNeuronName = "5" targetNeuronName = "26" weight = "-0.8455567181952237" />
    <synapse sourceNeuronName = "5" targetNeuronName = "27" weight = "0.6271701165219488" />
    <synapse sourceNeuronName = "6" targetNeuronName = "14" weight = "-0.10475507885363111" />
    <synapse sourceNeuronName = "6" targetNeuronName = "15" weight = "-0.6672798897817109" />
    <synapse sourceNeuronName = "6" targetNeuronName = "16" weight = "0.6380926493312173" />
    <synapse sourceNeuronName = "6" targetNeuronName = "17" weight = "-0.4967540429162418" />
    <synapse sourceNeuronName = "6" targetNeuronName = "18" weight = "-0.2713981777017713" />
    <synapse sourceNeuronName = "6" targetNeuronName = "19" weight = "0.7665378016145978" />
    <synapse sourceNeuronName = "6" targetNeuronName = "20" weight = "-0.9912367962112985" />
    <synapse sourceNeuronName = "6" targetNeuronName = "21" weight = "0.7300060872099929" />
    <synapse sourceNeuronName = "6" targetNeuronName = "22" weight = "0.8293192322717013" />
    <synapse sourceNeuronName = "6" targetNeuronName = "23" weight = "-0.39819402835006557" />
    <synapse sourceNeuronName = "6" targetNeuronName = "24" weight = "-0.47620421328757767" />
    <synapse sourceNeuronName = "6" targetNeuronName = "25" weight = "0.44891844474672693" />
    <synapse sourceNeuronName = "6" targetNeuronName = "26" weight = "0.7403828708833893" />
    <synapse sourceNeuronName = "6" targetNeuronName = "27" weight = "-0.8153860834999693" />
    <synapse sourceNeuronName = "7" targetNeuronName = "14" weight = "0.33575114131916073" />
    <synapse sourceNeuronName = "7" targetNeuronName = "15" weight = "0.7108744753929177" />
    <synapse sourceNeuronName = "7" targetNeuronName = "16" weight = "0.9573041743257367" />
    <synapse sourceNeuronName = "7" targetNeuronName = "17" weight = "-0.515273537435545" />
    <synapse sourceNeuronName = "7" targetNeuronName = "18" weight = "-0.809843226122259" />
    <synapse sourceNeuronName = "7" targetNeuronName = "19" weight = "-0.4446477168101417" />
    <synapse sourceNeuronName = "7" targetNeuronName = "20" weight = "0.2086172521998353" />
    <synapse sourceNeuronName = "7" targetNeuronName = "21" weight = "-0.36493184113443977" />
    <synapse sourceNeuronName = "7" targetNeuronName = "22" weight = "0.4033251255660586" />
    <synapse sourceNeuronName = "7" targetNeuronName = "23" weight = "-0.9446331618426003" />
    <synapse sourceNeuronName = "7" targetNeuronName = "24" weight = "0.48303201884149516" />
    <synapse sourceNeuronName = "7" targetNeuronName = "25" weight = "0.09148004032984325" />
    <synapse sourceNeuronName = "7" targetNeuronName = "26" weight = "-0.30581225751457897" />
    <synapse sourceNeuronName = "7" targetNeuronName = "27" weight = "-0.9031283591566981" />
    <synapse sourceNeuronName = "8" targetNeuronName = "14" weight = "0.42936859840417685" />
    <synapse sourceNeuronName = "8" targetNeuronName = "15" weight = "-0.5810697099039124" />
    <synapse sourceNeuronName = "8" targetNeuronName = "16" weight = "-0.43431809828726675" />
    <synapse sourceNeuronName = "8" targetNeuronName = "17" weight = "-0.9570507000579414" />
    <synapse sourceNeuronName = "8" targetNeuronName = "18" weight = "-0.03966400141637472" />
    <synapse sourceNeuronName = "8" targetNeuronName = "19" weight = "-0.16683764959725478" />
    <synapse sourceNeuronName = "8" targetNeuronName = "20" weight = "-0.2317906329905406" />
    <synapse sourceNeuronName = "8" targetNeuronName = "21" weight = "0.7668351836607303" />
    <synapse sourceNeuronName = "8" targetNeuronName = "22" weight = "-0.1396873583596676" />
    <synapse sourceNeuronName = "8" targetNeuronName = "23" weight = "-0.920474364678856" />
    <synapse sourceNeuronName = "8" targetNeuronName = "24" weight = "0.7877260748760211" />
    <synapse sourceNeuronName = "8" targetNeuronName = "25" weight = "-0.5494414348055496" />
    <synapse sourceNeuronName = "8" targetNeuronName = "26" weight = "-0.33270560881088307" />
    <synapse sourceNeuronName = "8" targetNeuronName = "27" weight = "0.6516643665670452" />
    <synapse sourceNeuronName = "9" targetNeuronName = "14" weight = "0.9324043824432287" />
    <synapse sourceNeuronName = "9" targetNeuronName = "15" weight = "-0.9195635770735984" />
    <synapse sourceNeuronName = "9" targetNeuronName = "16" weight = "-0.04116405324118988" />
    <synapse sourceNeuronName = "9" targetNeuronName = "17" weight = "-0.926084898433386" />
    <synapse sourceNeuronName = "9" targetNeuronName = "18" weight = "0.33486589209983997" />
    <synapse sourceNeuronName = "9" targetNeuronName = "19" weight = "-0.5906053569139726" />
    <synapse sourceNeuronName = "9" targetNeuronName = "20" weight = "0.08957517760826028" />
    <synapse sourceNeuronName = "9" targetNeuronName = "21" weight = "0.7748648445519366" />
    <synapse sourceNeuronName = "9" targetNeuronName = "22" weight = "0.4449750301056208" />
    <synapse sourceNeuronName = "9" targetNeuronName = "23" weight = "0.08105972158504993" />
    <synapse sourceNeuronName = "9" targetNeuronName = "24" weight = "0.07579846960705283" />
    <synapse sourceNeuronName = "9" targetNeuronName = "25" weight = "0.4474229870529245" />
    <synapse sourceNeuronName = "9" targetNeuronName = "26" weight = "-0.3395093508575764" />
    <synapse sourceNeuronName = "9" targetNeuronName = "27" weight = "0.7618367491759175" />
    <synapse sourceNeuronName = "10" targetNeuronName = "14" weight = "0.6135265537534609" />
    <synapse sourceNeuronName = "10" targetNeuronName = "15" weight = "0.8114682397998114" />
    <synapse sourceNeuronName = "10" targetNeuronName = "16" weight = "-0.33003658308112604" />
    <synapse sourceNeuronName = "10" targetNeuronName = "17" weight = "-0.4952498196010682" />
    <synapse sourceNeuronName = "10" targetNeuronName = "18" weight = "0.7161314837792081" />
    <synapse sourceNeuronName = "10" targetNeuronName = "19" weight = "0.43070734465318194" />
    <synapse sourceNeuronName = "10" targetNeuronName = "20" weight = "0.5947410605281731" />
    <synapse sourceNeuronName = "10" targetNeuronName = "21" weight = "-0.5948569038805396" />
    <synapse sourceNeuronName = "10" targetNeuronName = "22" weight = "-0.26331508499147915" />
    <synapse sourceNeuronName = "10" targetNeuronName = "23" weight = "-0.5254780085427826" />
    <synapse sourceNeuronName = "10" targetNeuronName = "24" weight = "-0.9281253578513433" />
    <synapse sourceNeuronName = "10" targetNeuronName = "25" weight = "0.8577551768286924" />
    <synapse sourceNeuronName = "10" targetNeuronName = "26" weight = "0.97833620049167" />
    <synapse sourceNeuronName = "10" targetNeuronName = "27" weight = "0.9768895025548445" />
    <synapse sourceNeuronName = "11" targetNeuronName = "14" weight = "0.7683344689408773" />
    <synapse sourceNeuronName = "11" targetNeuronName = "15" weight = "0.6903879789922602" />
    <synapse sourceNeuronName = "11" targetNeuronName = "16" weight = "0.9939674407154533" />
    <synapse sourceNeuronName = "11" targetNeuronName = "17" weight = "-0.32682809537182655" />
    <synapse sourceNeuronName = "11" targetNeuronName = "18" weight = "0.6059532084343746" />
    <synapse sourceNeuronName = "11" targetNeuronName = "19" weight = "0.41056736306665464" />
    <synapse sourceNeuronName = "11" targetNeuronName = "20" weight = "-0.4648578442198723" />
    <synapse sourceNeuronName = "11" targetNeuronName = "21" weight = "0.7479425188798905" />
    <synapse sourceNeuronName = "11" targetNeuronName = "22" weight = "0.3482709202511516" />
    <synapse sourceNeuronName = "11" targetNeuronName = "23" weight = "-0.09145296567730243" />
    <synapse sourceNeuronName = "11" targetNeuronName = "24" weight = "-0.7171424264781461" />
    <synapse sourceNeuronName = "11" targetNeuronName = "25" weight = "-0.9670538569470999" />
    <synapse sourceNeuronName = "11" targetNeuronName = "26" weight = "-0.4077744290724119" />
    <synapse sourceNeuronName = "11" targetNeuronName = "27" weight = "-0.8022870973547112" />
    <synapse sourceNeuronName = "12" targetNeuronName = "14" weight = "0.6210016444685573" />
    <synapse sourceNeuronName = "12" targetNeuronName = "15" weight = "0.32488228758348114" />
    <synapse sourceNeuronName = "12" targetNeuronName = "16" weight = "-0.6636923414350191" />
    <synapse sourceNeuronName = "12" targetNeuronName = "17" weight = "-0.2564793364480442" />
    <synapse sourceNeuronName = "12" targetNeuronName = "18" weight = "0.9303763564292329" />
    <synapse sourceNeuronName = "12" targetNeuronName = "19" weight = "-0.46869446270716963" />
    <synapse sourceNeuronName = "12" targetNeuronName = "20" weight = "0.10961229358062652" />
    <synapse sourceNeuronName = "12" targetNeuronName = "21" weight = "-0.7934478225287829" />
    <synapse sourceNeuronName = "12" targetNeuronName = "22" weight = "-0.18821685579140035" />
    <synapse sourceNeuronName = "12" targetNeuronName = "23" weight = "-0.15968895062794908" />
    <synapse sourceNeuronName = "12" targetNeuronName = "24" weight = "-0.13572073791114625" />
    <synapse sourceNeuronName = "12" targetNeuronName = "25" weight = "0.4869867144689983" />
    <synapse sourceNeuronName = "12" targetNeuronName = "26" weight = "-0.3297002660651145" />
    <synapse sourceNeuronName = "12" targetNeuronName = "27" weight = "-0.8732410452836967" />
    <synapse sourceNeuronName = "13" targetNeuronName = "14" weight = "-0.7775726339101097" />
    <synapse sourceNeuronName = "13" targetNeuronName = "15" weight = "0.7399417000406772" />
    <synapse sourceNeuronName = "13" targetNeuronName = "16" weight = "0.7358495626511661" />
    <synapse sourceNeuronName = "13" targetNeuronName = "17" weight = "0.9375123081289876" />
    <synapse sourceNeuronName = "13" targetNeuronName = "18" weight = "0.1669262245160501" />
    <synapse sourceNeuronName = "13" targetNeuronName = "19" weight = "-0.07369998028695002" />
    <synapse sourceNeuronName = "13" targetNeuronName = "20" weight = "-0.5233456582772105" />
    <synapse sourceNeuronName = "13" targetNeuronName = "21" weight = "0.16666343516887006" />
    <synapse sourceNeuronName = "13" targetNeuronName = "22" weight = "0.14668814332631896" />
    <synapse sourceNeuronName = "13" targetNeuronName = "23" weight = "0.00785100232929925" />
    <synapse sourceNeuronName = "13" targetNeuronName = "24" weight = "0.9038860861624562" />
    <synapse sourceNeuronName = "13" targetNeuronName = "25" weight = "-0.5018218550933864" />
    <synapse sourceNeuronName = "13" targetNeuronName = "26" weight = "0.4840743002520922" />
    <synapse sourceNeuronName = "13" targetNeuronName = "27" weight = "0.32214341696829885" />
</neuralNetwork>