<neuralNetwork>
    <neuron name = "0" type = "sensor" linkName = "Link0" />
    <neuron name = "1" type = "sensor" linkName = "Link2" />
    <neuron name = "2" type = "sensor" linkName = "Link3" />
    <neuron name = "3" type = "motor"  jointName = "Link0_Link1" />
    <neuron name = "4" type = "motor"  jointName = "Link1_Link2" />
    <neuron name = "5" type = "motor"  jointName = "Link2_Link3" />
    <neuron name = "6" type = "motor"  jointName = "Link0_Link1" />
    <neuron name = "7" type = "motor"  jointName = "Link0_Link1" />
    <neuron name = "8" type = "motor"  jointName = "Link0_Link1" />
    <neuron name = "9" type = "motor"  jointName = "Link0_Link1" />
    <neuron name = "10" type = "motor"  jointName = "Link0_Link1" />
    <synapse sourceNeuronName = "0" targetNeuronName = "3" weight = "0.2684823098908218" />
    <synapse sourceNeuronName = "0" targetNeuronName = "4" weight = "-0.3535313941183058" />
    <synapse sourceNeuronName = "0" targetNeuronName = "5" weight = "-0.7168380095787656" />
    <synapse sourceNeuronName = "0" targetNeuronName = "6" weight = "-0.052548471100388294" />
    <synapse sourceNeuronName = "0" targetNeuronName = "7" weight = "-0.22095037023342212" />
    <synapse sourceNeuronName = "0" targetNeuronName = "8" weight = "0.5804091113864851" />
    <synapse sourceNeuronName = "0" targetNeuronName = "9" weight = "0.38514385920344796" />
    <synapse sourceNeuronName = "0" targetNeuronName = "10" weight = "0.09867341412947694" />
    <synapse sourceNeuronName = "1" targetNeuronName = "3" weight = "0.7583458402212302" />
    <synapse sourceNeuronName = "1" targetNeuronName = "4" weight = "-0.8364758225630811" />
    <synapse sourceNeuronName = "1" targetNeuronName = "5" weight = "-0.5596437914932362" />
    <synapse sourceNeuronName = "1" targetNeuronName = "6" weight = "-0.04435734258846269" />
    <synapse sourceNeuronName = "1" targetNeuronName = "7" weight = "0.7658286349212216" />
    <synapse sourceNeuronName = "1" targetNeuronName = "8" weight = "0.8102368334795427" />
    <synapse sourceNeuronName = "1" targetNeuronName = "9" weight = "-0.4996591924260416" />
    <synapse sourceNeuronName = "1" targetNeuronName = "10" weight = "0.8020665387365076" />
    <synapse sourceNeuronName = "2" targetNeuronName = "3" weight = "-0.9537516782248783" />
    <synapse sourceNeuronName = "2" targetNeuronName = "4" weight = "0.04727330561489196" />
    <synapse sourceNeuronName = "2" targetNeuronName = "5" weight = "-0.008495521038512921" />
    <synapse sourceNeuronName = "2" targetNeuronName = "6" weight = "0.2002094473202014" />
    <synapse sourceNeuronName = "2" targetNeuronName = "7" weight = "-0.5281099041385535" />
    <synapse sourceNeuronName = "2" targetNeuronName = "8" weight = "-0.6881023957160965" />
    <synapse sourceNeuronName = "2" targetNeuronName = "9" weight = "0.15302634511499313" />
    <synapse sourceNeuronName = "2" targetNeuronName = "10" weight = "0.36023263508683745" />
</neuralNetwork>