<neuralNetwork>
    <neuron name = "0" type = "sensor" linkName = "Link0" />
    <neuron name = "1" type = "sensor" linkName = "Link2-3" />
    <neuron name = "2" type = "sensor" linkName = "Link2-4" />
    <neuron name = "3" type = "sensor" linkName = "Link2-0-3" />
    <neuron name = "4" type = "sensor" linkName = "Link2-0-3-1" />
    <neuron name = "5" type = "sensor" linkName = "Link2-2-2" />
    <neuron name = "6" type = "sensor" linkName = "Link2-3-0-3" />
    <neuron name = "7" type = "motor"  jointName = "Link0_Link1" />
    <neuron name = "8" type = "motor"  jointName = "Link1_Link2" />
    <neuron name = "9" type = "motor"  jointName = "Link0_Link1" />
    <neuron name = "10" type = "motor"  jointName = "Link0_Link1" />
    <neuron name = "11" type = "motor"  jointName = "Link0_Link1" />
    <neuron name = "12" type = "motor"  jointName = "Link0_Link1" />
    <neuron name = "13" type = "motor"  jointName = "Link0_Link1" />
    <neuron name = "14" type = "motor"  jointName = "Link0_Link1" />
    <neuron name = "15" type = "motor"  jointName = "Link0_Link1" />
    <neuron name = "16" type = "motor"  jointName = "Link0_Link1" />
    <neuron name = "17" type = "motor"  jointName = "Link0_Link1" />
    <synapse sourceNeuronName = "0" targetNeuronName = "7" weight = "-0.2129443269564446" />
    <synapse sourceNeuronName = "0" targetNeuronName = "8" weight = "0.8148693912611944" />
    <synapse sourceNeuronName = "0" targetNeuronName = "9" weight = "-0.9349119948125912" />
    <synapse sourceNeuronName = "0" targetNeuronName = "10" weight = "0.6494427710565012" />
    <synapse sourceNeuronName = "0" targetNeuronName = "11" weight = "0.4173024078611147" />
    <synapse sourceNeuronName = "0" targetNeuronName = "12" weight = "-0.04753640822976446" />
    <synapse sourceNeuronName = "0" targetNeuronName = "13" weight = "-0.35850650896827885" />
    <synapse sourceNeuronName = "0" targetNeuronName = "14" weight = "-0.08406099960220748" />
    <synapse sourceNeuronName = "0" targetNeuronName = "15" weight = "0.5694613675215086" />
    <synapse sourceNeuronName = "0" targetNeuronName = "16" weight = "0.8192121167530402" />
    <synapse sourceNeuronName = "0" targetNeuronName = "17" weight = "-0.10287195115342707" />
    <synapse sourceNeuronName = "1" targetNeuronName = "7" weight = "-0.9091783273867595" />
    <synapse sourceNeuronName = "1" targetNeuronName = "8" weight = "-0.1631052922718852" />
    <synapse sourceNeuronName = "1" targetNeuronName = "9" weight = "-0.14320595752452925" />
    <synapse sourceNeuronName = "1" targetNeuronName = "10" weight = "0.8522662362632987" />
    <synapse sourceNeuronName = "1" targetNeuronName = "11" weight = "0.36051833188922977" />
    <synapse sourceNeuronName = "1" targetNeuronName = "12" weight = "-0.34746943082318005" />
    <synapse sourceNeuronName = "1" targetNeuronName = "13" weight = "-0.02620034442788155" />
    <synapse sourceNeuronName = "1" targetNeuronName = "14" weight = "-0.9167088070882574" />
    <synapse sourceNeuronName = "1" targetNeuronName = "15" weight = "0.7244700153401311" />
    <synapse sourceNeuronName = "1" targetNeuronName = "16" weight = "0.05313733202287474" />
    <synapse sourceNeuronName = "1" targetNeuronName = "17" weight = "0.31038469382488487" />
    <synapse sourceNeuronName = "2" targetNeuronName = "7" weight = "0.26817558657974105" />
    <synapse sourceNeuronName = "2" targetNeuronName = "8" weight = "0.9965503044371009" />
    <synapse sourceNeuronName = "2" targetNeuronName = "9" weight = "0.3614887202983721" />
    <synapse sourceNeuronName = "2" targetNeuronName = "10" weight = "-0.19226058356259323" />
    <synapse sourceNeuronName = "2" targetNeuronName = "11" weight = "-0.24035653247873734" />
    <synapse sourceNeuronName = "2" targetNeuronName = "12" weight = "0.8957090879101397" />
    <synapse sourceNeuronName = "2" targetNeuronName = "13" weight = "0.7195286263348544" />
    <synapse sourceNeuronName = "2" targetNeuronName = "14" weight = "-0.02622920370433568" />
    <synapse sourceNeuronName = "2" targetNeuronName = "15" weight = "0.7791683720549112" />
    <synapse sourceNeuronName = "2" targetNeuronName = "16" weight = "0.17461079352449782" />
    <synapse sourceNeuronName = "2" targetNeuronName = "17" weight = "0.8384381012335527" />
    <synapse sourceNeuronName = "3" targetNeuronName = "7" weight = "0.7024756896527953" />
    <synapse sourceNeuronName = "3" targetNeuronName = "8" weight = "0.08479490699099701" />
    <synapse sourceNeuronName = "3" targetNeuronName = "9" weight = "-0.3882647165428783" />
    <synapse sourceNeuronName = "3" targetNeuronName = "10" weight = "0.441131513689897" />
    <synapse sourceNeuronName = "3" targetNeuronName = "11" weight = "0.3544149731939952" />
    <synapse sourceNeuronName = "3" targetNeuronName = "12" weight = "-0.1084492110979427" />
    <synapse sourceNeuronName = "3" targetNeuronName = "13" weight = "-0.3494492331721608" />
    <synapse sourceNeuronName = "3" targetNeuronName = "14" weight = "0.8733040373459833" />
    <synapse sourceNeuronName = "3" targetNeuronName = "15" weight = "-0.6817764115446538" />
    <synapse sourceNeuronName = "3" targetNeuronName = "16" weight = "0.5559291960705786" />
    <synapse sourceNeuronName = "3" targetNeuronName = "17" weight = "-0.08250811999300489" />
    <synapse sourceNeuronName = "4" targetNeuronName = "7" weight = "-0.7042535970948369" />
    <synapse sourceNeuronName = "4" targetNeuronName = "8" weight = "-0.02139479929014243" />
    <synapse sourceNeuronName = "4" targetNeuronName = "9" weight = "0.8735731223059975" />
    <synapse sourceNeuronName = "4" targetNeuronName = "10" weight = "0.7188361631118054" />
    <synapse sourceNeuronName = "4" targetNeuronName = "11" weight = "-0.49126669419035807" />
    <synapse sourceNeuronName = "4" targetNeuronName = "12" weight = "0.40708821629120595" />
    <synapse sourceNeuronName = "4" targetNeuronName = "13" weight = "0.838633773894317" />
    <synapse sourceNeuronName = "4" targetNeuronName = "14" weight = "-0.8393227992876169" />
    <synapse sourceNeuronName = "4" targetNeuronName = "15" weight = "0.6325787455573959" />
    <synapse sourceNeuronName = "4" targetNeuronName = "16" weight = "-0.8759137678704145" />
    <synapse sourceNeuronName = "4" targetNeuronName = "17" weight = "0.5732141752811706" />
    <synapse sourceNeuronName = "5" targetNeuronName = "7" weight = "0.13350170038741505" />
    <synapse sourceNeuronName = "5" targetNeuronName = "8" weight = "-0.1854350522744148" />
    <synapse sourceNeuronName = "5" targetNeuronName = "9" weight = "-0.8374795145786458" />
    <synapse sourceNeuronName = "5" targetNeuronName = "10" weight = "0.3525761148837805" />
    <synapse sourceNeuronName = "5" targetNeuronName = "11" weight = "0.5419640969417014" />
    <synapse sourceNeuronName = "5" targetNeuronName = "12" weight = "0.727332034541144" />
    <synapse sourceNeuronName = "5" targetNeuronName = "13" weight = "0.1866817046948288" />
    <synapse sourceNeuronName = "5" targetNeuronName = "14" weight = "0.3137824835366563" />
    <synapse sourceNeuronName = "5" targetNeuronName = "15" weight = "0.1400677901131553" />
    <synapse sourceNeuronName = "5" targetNeuronName = "16" weight = "-0.23913684725244133" />
    <synapse sourceNeuronName = "5" targetNeuronName = "17" weight = "0.6084434303875819" />
    <synapse sourceNeuronName = "6" targetNeuronName = "7" weight = "0.36083411457028025" />
    <synapse sourceNeuronName = "6" targetNeuronName = "8" weight = "-0.18233190567771373" />
    <synapse sourceNeuronName = "6" targetNeuronName = "9" weight = "0.9980294738733664" />
    <synapse sourceNeuronName = "6" targetNeuronName = "10" weight = "0.1765840898610238" />
    <synapse sourceNeuronName = "6" targetNeuronName = "11" weight = "0.37262979617446756" />
    <synapse sourceNeuronName = "6" targetNeuronName = "12" weight = "0.009615410749670428" />
    <synapse sourceNeuronName = "6" targetNeuronName = "13" weight = "-0.4216497731685449" />
    <synapse sourceNeuronName = "6" targetNeuronName = "14" weight = "-0.20992049907058008" />
    <synapse sourceNeuronName = "6" targetNeuronName = "15" weight = "-0.8563712023000543" />
    <synapse sourceNeuronName = "6" targetNeuronName = "16" weight = "-0.9137747938264369" />
    <synapse sourceNeuronName = "6" targetNeuronName = "17" weight = "-0.8441973991303287" />
</neuralNetwork>