<neuralNetwork>
    <neuron name = "0" type = "sensor" linkName = "Link0" />
    <neuron name = "1" type = "sensor" linkName = "Link2" />
    <neuron name = "2" type = "sensor" linkName = "Link3" />
    <neuron name = "3" type = "sensor" linkName = "Link2-2" />
    <neuron name = "4" type = "sensor" linkName = "Link2-0-2" />
    <neuron name = "5" type = "sensor" linkName = "Link2-1-2" />
    <neuron name = "6" type = "sensor" linkName = "Link3-0" />
    <neuron name = "7" type = "sensor" linkName = "Link3-1" />
    <neuron name = "8" type = "sensor" linkName = "Link3-2" />
    <neuron name = "9" type = "sensor" linkName = "Link3-1-0" />
    <neuron name = "10" type = "sensor" linkName = "Link3-1-2" />
    <neuron name = "11" type = "sensor" linkName = "Link3-1-3" />
    <neuron name = "12" type = "sensor" linkName = "Link3-2-0" />
    <neuron name = "13" type = "motor"  jointName = "Link0_Link1" />
    <neuron name = "14" type = "motor"  jointName = "Link1_Link2" />
    <neuron name = "15" type = "motor"  jointName = "Link2_Link3" />
    <neuron name = "16" type = "motor"  jointName = "Link0_Link1" />
    <neuron name = "17" type = "motor"  jointName = "Link0_Link1" />
    <neuron name = "18" type = "motor"  jointName = "Link0_Link1" />
    <neuron name = "19" type = "motor"  jointName = "Link0_Link1" />
    <neuron name = "20" type = "motor"  jointName = "Link0_Link1" />
    <neuron name = "21" type = "motor"  jointName = "Link0_Link1" />
    <neuron name = "22" type = "motor"  jointName = "Link0_Link1" />
    <neuron name = "23" type = "motor"  jointName = "Link0_Link1" />
    <neuron name = "24" type = "motor"  jointName = "Link0_Link1" />
    <neuron name = "25" type = "motor"  jointName = "Link0_Link1" />
    <synapse sourceNeuronName = "0" targetNeuronName = "13" weight = "0.5724196320468826" />
    <synapse sourceNeuronName = "0" targetNeuronName = "14" weight = "-0.7541926202938407" />
    <synapse sourceNeuronName = "0" targetNeuronName = "15" weight = "-0.10978173850774509" />
    <synapse sourceNeuronName = "0" targetNeuronName = "16" weight = "-0.6732862939229587" />
    <synapse sourceNeuronName = "0" targetNeuronName = "17" weight = "0.5718278101742897" />
    <synapse sourceNeuronName = "0" targetNeuronName = "18" weight = "-0.10306408132295175" />
    <synapse sourceNeuronName = "0" targetNeuronName = "19" weight = "-0.23763980619243452" />
    <synapse sourceNeuronName = "0" targetNeuronName = "20" weight = "0.29150744174909105" />
    <synapse sourceNeuronName = "0" targetNeuronName = "21" weight = "0.9289316991975711" />
    <synapse sourceNeuronName = "0" targetNeuronName = "22" weight = "0.18651570418229313" />
    <synapse sourceNeuronName = "0" targetNeuronName = "23" weight = "-0.5522449423170817" />
    <synapse sourceNeuronName = "0" targetNeuronName = "24" weight = "0.042654349867190966" />
    <synapse sourceNeuronName = "0" targetNeuronName = "25" weight = "-0.8846364563465161" />
    <synapse sourceNeuronName = "1" targetNeuronName = "13" weight = "0.6810775561526485" />
    <synapse sourceNeuronName = "1" targetNeuronName = "14" weight = "-0.4574149077340339" />
    <synapse sourceNeuronName = "1" targetNeuronName = "15" weight = "-0.9623168394898531" />
    <synapse sourceNeuronName = "1" targetNeuronName = "16" weight = "0.36488228311961923" />
    <synapse sourceNeuronName = "1" targetNeuronName = "17" weight = "-0.39972508033615783" />
    <synapse sourceNeuronName = "1" targetNeuronName = "18" weight = "-0.08153307379620123" />
    <synapse sourceNeuronName = "1" targetNeuronName = "19" weight = "0.7745663883957745" />
    <synapse sourceNeuronName = "1" targetNeuronName = "20" weight = "0.13798101563560583" />
    <synapse sourceNeuronName = "1" targetNeuronName = "21" weight = "-0.32124463820622684" />
    <synapse sourceNeuronName = "1" targetNeuronName = "22" weight = "0.06278202461703386" />
    <synapse sourceNeuronName = "1" targetNeuronName = "23" weight = "0.08006968191603647" />
    <synapse sourceNeuronName = "1" targetNeuronName = "24" weight = "-0.4783543098752894" />
    <synapse sourceNeuronName = "1" targetNeuronName = "25" weight = "0.3310734317841013" />
    <synapse sourceNeuronName = "2" targetNeuronName = "13" weight = "0.3023608030950513" />
    <synapse sourceNeuronName = "2" targetNeuronName = "14" weight = "0.22715187058817765" />
    <synapse sourceNeuronName = "2" targetNeuronName = "15" weight = "-0.6818328671266873" />
    <synapse sourceNeuronName = "2" targetNeuronName = "16" weight = "0.5777170073774285" />
    <synapse sourceNeuronName = "2" targetNeuronName = "17" weight = "0.8674811502691491" />
    <synapse sourceNeuronName = "2" targetNeuronName = "18" weight = "-0.8122769833838777" />
    <synapse sourceNeuronName = "2" targetNeuronName = "19" weight = "0.9120317069421069" />
    <synapse sourceNeuronName = "2" targetNeuronName = "20" weight = "-0.7223275862506231" />
    <synapse sourceNeuronName = "2" targetNeuronName = "21" weight = "0.46054389488901215" />
    <synapse sourceNeuronName = "2" targetNeuronName = "22" weight = "-0.5251543500315099" />
    <synapse sourceNeuronName = "2" targetNeuronName = "23" weight = "-0.09156508094881688" />
    <synapse sourceNeuronName = "2" targetNeuronName = "24" weight = "0.708305398199826" />
    <synapse sourceNeuronName = "2" targetNeuronName = "25" weight = "0.8638063111047658" />
    <synapse sourceNeuronName = "3" targetNeuronName = "13" weight = "0.49731721864053235" />
    <synapse sourceNeuronName = "3" targetNeuronName = "14" weight = "0.14037766951220898" />
    <synapse sourceNeuronName = "3" targetNeuronName = "15" weight = "0.09372412828844912" />
    <synapse sourceNeuronName = "3" targetNeuronName = "16" weight = "-0.9692296991477984" />
    <synapse sourceNeuronName = "3" targetNeuronName = "17" weight = "-0.4142860098002781" />
    <synapse sourceNeuronName = "3" targetNeuronName = "18" weight = "0.646969398051596" />
    <synapse sourceNeuronName = "3" targetNeuronName = "19" weight = "0.8797946251364215" />
    <synapse sourceNeuronName = "3" targetNeuronName = "20" weight = "0.026298920358268862" />
    <synapse sourceNeuronName = "3" targetNeuronName = "21" weight = "-0.34770827393415304" />
    <synapse sourceNeuronName = "3" targetNeuronName = "22" weight = "0.1551389305687496" />
    <synapse sourceNeuronName = "3" targetNeuronName = "23" weight = "-0.3535714053385406" />
    <synapse sourceNeuronName = "3" targetNeuronName = "24" weight = "0.6312079055034803" />
    <synapse sourceNeuronName = "3" targetNeuronName = "25" weight = "0.455429496515261" />
    <synapse sourceNeuronName = "4" targetNeuronName = "13" weight = "0.009613749302635144" />
    <synapse sourceNeuronName = "4" targetNeuronName = "14" weight = "-0.9137892085598527" />
    <synapse sourceNeuronName = "4" targetNeuronName = "15" weight = "0.1734911852343215" />
    <synapse sourceNeuronName = "4" targetNeuronName = "16" weight = "0.5677211148230079" />
    <synapse sourceNeuronName = "4" targetNeuronName = "17" weight = "-0.49156232283019796" />
    <synapse sourceNeuronName = "4" targetNeuronName = "18" weight = "0.6373722657794934" />
    <synapse sourceNeuronName = "4" targetNeuronName = "19" weight = "0.4013083858535349" />
    <synapse sourceNeuronName = "4" targetNeuronName = "20" weight = "-0.7049505191097822" />
    <synapse sourceNeuronName = "4" targetNeuronName = "21" weight = "0.08858687125714337" />
    <synapse sourceNeuronName = "4" targetNeuronName = "22" weight = "0.26883569365690496" />
    <synapse sourceNeuronName = "4" targetNeuronName = "23" weight = "-0.4991604846827691" />
    <synapse sourceNeuronName = "4" targetNeuronName = "24" weight = "0.7236826723837995" />
    <synapse sourceNeuronName = "4" targetNeuronName = "25" weight = "0.03618004030208932" />
    <synapse sourceNeuronName = "5" targetNeuronName = "13" weight = "0.4394399462989462" />
    <synapse sourceNeuronName = "5" targetNeuronName = "14" weight = "-0.694808030580049" />
    <synapse sourceNeuronName = "5" targetNeuronName = "15" weight = "-0.03219767291485476" />
    <synapse sourceNeuronName = "5" targetNeuronName = "16" weight = "-0.5860436920069902" />
    <synapse sourceNeuronName = "5" targetNeuronName = "17" weight = "0.15198959385397126" />
    <synapse sourceNeuronName = "5" targetNeuronName = "18" weight = "0.05417101211574327" />
    <synapse sourceNeuronName = "5" targetNeuronName = "19" weight = "0.42723591194643906" />
    <synapse sourceNeuronName = "5" targetNeuronName = "20" weight = "-0.23313724947304149" />
    <synapse sourceNeuronName = "5" targetNeuronName = "21" weight = "-0.09293512082278221" />
    <synapse sourceNeuronName = "5" targetNeuronName = "22" weight = "0.2949486213641048" />
    <synapse sourceNeuronName = "5" targetNeuronName = "23" weight = "0.7501861498864208" />
    <synapse sourceNeuronName = "5" targetNeuronName = "24" weight = "0.4932110388449997" />
    <synapse sourceNeuronName = "5" targetNeuronName = "25" weight = "-0.0029385406772983735" />
    <synapse sourceNeuronName = "6" targetNeuronName = "13" weight = "-0.4654101508568138" />
    <synapse sourceNeuronName = "6" targetNeuronName = "14" weight = "-0.41133733785600124" />
    <synapse sourceNeuronName = "6" targetNeuronName = "15" weight = "0.8642852372248024" />
    <synapse sourceNeuronName = "6" targetNeuronName = "16" weight = "-0.8353690511601795" />
    <synapse sourceNeuronName = "6" targetNeuronName = "17" weight = "0.8162425708371788" />
    <synapse sourceNeuronName = "6" targetNeuronName = "18" weight = "-0.16197444373939573" />
    <synapse sourceNeuronName = "6" targetNeuronName = "19" weight = "-0.49412634277543943" />
    <synapse sourceNeuronName = "6" targetNeuronName = "20" weight = "0.6766314597135232" />
    <synapse sourceNeuronName = "6" targetNeuronName = "21" weight = "0.5394434767868683" />
    <synapse sourceNeuronName = "6" targetNeuronName = "22" weight = "0.43172469520936163" />
    <synapse sourceNeuronName = "6" targetNeuronName = "23" weight = "0.14634098074102586" />
    <synapse sourceNeuronName = "6" targetNeuronName = "24" weight = "0.8386062004267705" />
    <synapse sourceNeuronName = "6" targetNeuronName = "25" weight = "0.03412554647784316" />
    <synapse sourceNeuronName = "7" targetNeuronName = "13" weight = "-0.12560481957065317" />
    <synapse sourceNeuronName = "7" targetNeuronName = "14" weight = "-0.9940167830270257" />
    <synapse sourceNeuronName = "7" targetNeuronName = "15" weight = "0.3336568433470719" />
    <synapse sourceNeuronName = "7" targetNeuronName = "16" weight = "-0.553642707531409" />
    <synapse sourceNeuronName = "7" targetNeuronName = "17" weight = "0.4049999765272847" />
    <synapse sourceNeuronName = "7" targetNeuronName = "18" weight = "0.3739775534273402" />
    <synapse sourceNeuronName = "7" targetNeuronName = "19" weight = "-0.5000102066168757" />
    <synapse sourceNeuronName = "7" targetNeuronName = "20" weight = "0.4315807810373318" />
    <synapse sourceNeuronName = "7" targetNeuronName = "21" weight = "-0.13272960844047965" />
    <synapse sourceNeuronName = "7" targetNeuronName = "22" weight = "0.07896121264550815" />
    <synapse sourceNeuronName = "7" targetNeuronName = "23" weight = "0.16596315884458246" />
    <synapse sourceNeuronName = "7" targetNeuronName = "24" weight = "0.9720156655525731" />
    <synapse sourceNeuronName = "7" targetNeuronName = "25" weight = "0.7900820944719611" />
    <synapse sourceNeuronName = "8" targetNeuronName = "13" weight = "0.17162200791873428" />
    <synapse sourceNeuronName = "8" targetNeuronName = "14" weight = "0.27495848177698834" />
    <synapse sourceNeuronName = "8" targetNeuronName = "15" weight = "-0.6528313727714539" />
    <synapse sourceNeuronName = "8" targetNeuronName = "16" weight = "0.2601441805177698" />
    <synapse sourceNeuronName = "8" targetNeuronName = "17" weight = "0.02057481800996852" />
    <synapse sourceNeuronName = "8" targetNeuronName = "18" weight = "0.5731923143734869" />
    <synapse sourceNeuronName = "8" targetNeuronName = "19" weight = "0.45203384694499005" />
    <synapse sourceNeuronName = "8" targetNeuronName = "20" weight = "0.5122603444220906" />
    <synapse sourceNeuronName = "8" targetNeuronName = "21" weight = "0.09785798657605449" />
    <synapse sourceNeuronName = "8" targetNeuronName = "22" weight = "-0.9546581257806126" />
    <synapse sourceNeuronName = "8" targetNeuronName = "23" weight = "-0.8149186091660667" />
    <synapse sourceNeuronName = "8" targetNeuronName = "24" weight = "-0.6141496464149163" />
    <synapse sourceNeuronName = "8" targetNeuronName = "25" weight = "-0.6946990666776947" />
    <synapse sourceNeuronName = "9" targetNeuronName = "13" weight = "-0.9767395481223358" />
    <synapse sourceNeuronName = "9" targetNeuronName = "14" weight = "0.6071972896294755" />
    <synapse sourceNeuronName = "9" targetNeuronName = "15" weight = "-0.7094244926984168" />
    <synapse sourceNeuronName = "9" targetNeuronName = "16" weight = "-0.73787381917789" />
    <synapse sourceNeuronName = "9" targetNeuronName = "17" weight = "-0.38053979092702495" />
    <synapse sourceNeuronName = "9" targetNeuronName = "18" weight = "-0.8247216076013486" />
    <synapse sourceNeuronName = "9" targetNeuronName = "19" weight = "0.08964037555999993" />
    <synapse sourceNeuronName = "9" targetNeuronName = "20" weight = "0.9893764524215605" />
    <synapse sourceNeuronName = "9" targetNeuronName = "21" weight = "0.676662604609213" />
    <synapse sourceNeuronName = "9" targetNeuronName = "22" weight = "-0.164822579568771" />
    <synapse sourceNeuronName = "9" targetNeuronName = "23" weight = "0.8401291520535017" />
    <synapse sourceNeuronName = "9" targetNeuronName = "24" weight = "0.2638041518828682" />
    <synapse sourceNeuronName = "9" targetNeuronName = "25" weight = "-0.3701711881238723" />
    <synapse sourceNeuronName = "10" targetNeuronName = "13" weight = "0.4339796902199222" />
    <synapse sourceNeuronName = "10" targetNeuronName = "14" weight = "0.748216820024642" />
    <synapse sourceNeuronName = "10" targetNeuronName = "15" weight = "0.6315980923148681" />
    <synapse sourceNeuronName = "10" targetNeuronName = "16" weight = "-0.742804228691752" />
    <synapse sourceNeuronName = "10" targetNeuronName = "17" weight = "0.017979450552859433" />
    <synapse sourceNeuronName = "10" targetNeuronName = "18" weight = "-0.3618496073283184" />
    <synapse sourceNeuronName = "10" targetNeuronName = "19" weight = "0.057626311296585575" />
    <synapse sourceNeuronName = "10" targetNeuronName = "20" weight = "-0.7446350901923233" />
    <synapse sourceNeuronName = "10" targetNeuronName = "21" weight = "-0.30886288695046793" />
    <synapse sourceNeuronName = "10" targetNeuronName = "22" weight = "-0.6595919426163745" />
    <synapse sourceNeuronName = "10" targetNeuronName = "23" weight = "0.9563541370744892" />
    <synapse sourceNeuronName = "10" targetNeuronName = "24" weight = "-0.9440681973977183" />
    <synapse sourceNeuronName = "10" targetNeuronName = "25" weight = "0.6948950951229667" />
    <synapse sourceNeuronName = "11" targetNeuronName = "13" weight = "-0.9052076877221185" />
    <synapse sourceNeuronName = "11" targetNeuronName = "14" weight = "-0.18317472698500326" />
    <synapse sourceNeuronName = "11" targetNeuronName = "15" weight = "0.8010666306987251" />
    <synapse sourceNeuronName = "11" targetNeuronName = "16" weight = "0.6189900762248866" />
    <synapse sourceNeuronName = "11" targetNeuronName = "17" weight = "-0.8338319132410168" />
    <synapse sourceNeuronName = "11" targetNeuronName = "18" weight = "0.7429615824021303" />
    <synapse sourceNeuronName = "11" targetNeuronName = "19" weight = "0.7301123799649416" />
    <synapse sourceNeuronName = "11" targetNeuronName = "20" weight = "0.8121675148316785" />
    <synapse sourceNeuronName = "11" targetNeuronName = "21" weight = "0.34730661238400495" />
    <synapse sourceNeuronName = "11" targetNeuronName = "22" weight = "-0.783083294464163" />
    <synapse sourceNeuronName = "11" targetNeuronName = "23" weight = "0.9915108060773985" />
    <synapse sourceNeuronName = "11" targetNeuronName = "24" weight = "0.9475923761464449" />
    <synapse sourceNeuronName = "11" targetNeuronName = "25" weight = "-0.9113838530060163" />
    <synapse sourceNeuronName = "12" targetNeuronName = "13" weight = "-0.8133906129685766" />
    <synapse sourceNeuronName = "12" targetNeuronName = "14" weight = "-0.1908268654557086" />
    <synapse sourceNeuronName = "12" targetNeuronName = "15" weight = "0.12748828926627231" />
    <synapse sourceNeuronName = "12" targetNeuronName = "16" weight = "-0.060706642656644716" />
    <synapse sourceNeuronName = "12" targetNeuronName = "17" weight = "-0.9868262801946457" />
    <synapse sourceNeuronName = "12" targetNeuronName = "18" weight = "0.2416014544848537" />
    <synapse sourceNeuronName = "12" targetNeuronName = "19" weight = "0.357822059787384" />
    <synapse sourceNeuronName = "12" targetNeuronName = "20" weight = "-0.1629215148238612" />
    <synapse sourceNeuronName = "12" targetNeuronName = "21" weight = "0.32937621595801625" />
    <synapse sourceNeuronName = "12" targetNeuronName = "22" weight = "-0.38337845740723364" />
    <synapse sourceNeuronName = "12" targetNeuronName = "23" weight = "-0.2501187789067494" />
    <synapse sourceNeuronName = "12" targetNeuronName = "24" weight = "-0.7267468525330201" />
    <synapse sourceNeuronName = "12" targetNeuronName = "25" weight = "0.705922368225619" />
</neuralNetwork>