<neuralNetwork>
    <neuron name = "0" type = "sensor" linkName = "Link0" />
    <neuron name = "1" type = "sensor" linkName = "Link1" />
    <neuron name = "2" type = "sensor" linkName = "Link1" />
    <neuron name = "3" type = "sensor" linkName = "Link2" />
    <neuron name = "4" type = "sensor" linkName = "Link2-1" />
    <neuron name = "5" type = "sensor" linkName = "Link2-2-0" />
    <neuron name = "6" type = "sensor" linkName = "Link2-2-1" />
    <neuron name = "7" type = "sensor" linkName = "Link3-0" />
    <neuron name = "8" type = "sensor" linkName = "Link3-1" />
    <neuron name = "9" type = "motor"  jointName = "Link0_Link1" />
    <neuron name = "10" type = "motor"  jointName = "Link1_Link2" />
    <neuron name = "11" type = "motor"  jointName = "Link2_Link3" />
    <neuron name = "12" type = "motor"  jointName = "Link0_Link1" />
    <neuron name = "13" type = "motor"  jointName = "Link0_Link1" />
    <synapse sourceNeuronName = "0" targetNeuronName = "9" weight = "-0.5622931210244939" />
    <synapse sourceNeuronName = "0" targetNeuronName = "10" weight = "-0.021732189032625415" />
    <synapse sourceNeuronName = "0" targetNeuronName = "11" weight = "0.4363911414183985" />
    <synapse sourceNeuronName = "0" targetNeuronName = "12" weight = "0.6167502712455437" />
    <synapse sourceNeuronName = "0" targetNeuronName = "13" weight = "-0.6040263206489795" />
    <synapse sourceNeuronName = "1" targetNeuronName = "9" weight = "0.12497539402848057" />
    <synapse sourceNeuronName = "1" targetNeuronName = "10" weight = "-0.10118787835853715" />
    <synapse sourceNeuronName = "1" targetNeuronName = "11" weight = "0.7044661587858738" />
    <synapse sourceNeuronName = "1" targetNeuronName = "12" weight = "0.6960857705505636" />
    <synapse sourceNeuronName = "1" targetNeuronName = "13" weight = "0.2783436547587317" />
    <synapse sourceNeuronName = "2" targetNeuronName = "9" weight = "0.9047570047773899" />
    <synapse sourceNeuronName = "2" targetNeuronName = "10" weight = "0.8367432311947718" />
    <synapse sourceNeuronName = "2" targetNeuronName = "11" weight = "-0.6635104074097389" />
    <synapse sourceNeuronName = "2" targetNeuronName = "12" weight = "-0.2880062226447093" />
    <synapse sourceNeuronName = "2" targetNeuronName = "13" weight = "0.37682115987864795" />
    <synapse sourceNeuronName = "3" targetNeuronName = "9" weight = "-0.6351663483771437" />
    <synapse sourceNeuronName = "3" targetNeuronName = "10" weight = "-0.8331846972611079" />
    <synapse sourceNeuronName = "3" targetNeuronName = "11" weight = "0.9771057588771375" />
    <synapse sourceNeuronName = "3" targetNeuronName = "12" weight = "-0.8639455136628562" />
    <synapse sourceNeuronName = "3" targetNeuronName = "13" weight = "0.9971210401257615" />
    <synapse sourceNeuronName = "4" targetNeuronName = "9" weight = "-0.09236535730127793" />
    <synapse sourceNeuronName = "4" targetNeuronName = "10" weight = "0.9828854967639684" />
    <synapse sourceNeuronName = "4" targetNeuronName = "11" weight = "0.7871871668135302" />
    <synapse sourceNeuronName = "4" targetNeuronName = "12" weight = "0.6715847462487068" />
    <synapse sourceNeuronName = "4" targetNeuronName = "13" weight = "-0.18808041881378945" />
    <synapse sourceNeuronName = "5" targetNeuronName = "9" weight = "0.9351170309260368" />
    <synapse sourceNeuronName = "5" targetNeuronName = "10" weight = "-0.9777055616614256" />
    <synapse sourceNeuronName = "5" targetNeuronName = "11" weight = "0.7660236621577021" />
    <synapse sourceNeuronName = "5" targetNeuronName = "12" weight = "-0.8550310061830977" />
    <synapse sourceNeuronName = "5" targetNeuronName = "13" weight = "0.512093309587635" />
    <synapse sourceNeuronName = "6" targetNeuronName = "9" weight = "0.659733502731771" />
    <synapse sourceNeuronName = "6" targetNeuronName = "10" weight = "0.08603944520426432" />
    <synapse sourceNeuronName = "6" targetNeuronName = "11" weight = "-0.02416348652509881" />
    <synapse sourceNeuronName = "6" targetNeuronName = "12" weight = "0.49214803394897855" />
    <synapse sourceNeuronName = "6" targetNeuronName = "13" weight = "0.3858115396707471" />
    <synapse sourceNeuronName = "7" targetNeuronName = "9" weight = "-0.945324942927666" />
    <synapse sourceNeuronName = "7" targetNeuronName = "10" weight = "0.924971798404624" />
    <synapse sourceNeuronName = "7" targetNeuronName = "11" weight = "-0.6346569889422455" />
    <synapse sourceNeuronName = "7" targetNeuronName = "12" weight = "0.20542415762784372" />
    <synapse sourceNeuronName = "7" targetNeuronName = "13" weight = "0.4271292156837787" />
    <synapse sourceNeuronName = "8" targetNeuronName = "9" weight = "0.10040111801372364" />
    <synapse sourceNeuronName = "8" targetNeuronName = "10" weight = "0.4525068019047298" />
    <synapse sourceNeuronName = "8" targetNeuronName = "11" weight = "-0.7366026930445302" />
    <synapse sourceNeuronName = "8" targetNeuronName = "12" weight = "-0.8056817848864537" />
    <synapse sourceNeuronName = "8" targetNeuronName = "13" weight = "0.07763799427290308" />
</neuralNetwork>