<neuralNetwork>
    <neuron name = "0" type = "sensor" linkName = "Link0" />
    <neuron name = "1" type = "sensor" linkName = "Link1" />
    <neuron name = "2" type = "sensor" linkName = "Link1" />
    <neuron name = "3" type = "sensor" linkName = "Link2-0" />
    <neuron name = "4" type = "sensor" linkName = "Link2-1" />
    <neuron name = "5" type = "sensor" linkName = "Link2-0-0" />
    <neuron name = "6" type = "sensor" linkName = "Link2-0-1" />
    <neuron name = "7" type = "sensor" linkName = "Link2-0-2" />
    <neuron name = "8" type = "sensor" linkName = "Link2-0-1-1" />
    <neuron name = "9" type = "sensor" linkName = "Link2-1-0" />
    <neuron name = "10" type = "sensor" linkName = "Link2-1-1" />
    <neuron name = "11" type = "motor"  jointName = "Link0_Link1" />
    <neuron name = "12" type = "motor"  jointName = "Link1_Link2" />
    <synapse sourceNeuronName = "0" targetNeuronName = "11" weight = "0.030602108805942718" />
    <synapse sourceNeuronName = "0" targetNeuronName = "12" weight = "-0.87375160293814" />
    <synapse sourceNeuronName = "1" targetNeuronName = "11" weight = "0.09006096217443171" />
    <synapse sourceNeuronName = "1" targetNeuronName = "12" weight = "-0.089021496545588" />
    <synapse sourceNeuronName = "2" targetNeuronName = "11" weight = "-0.7532115860537238" />
    <synapse sourceNeuronName = "2" targetNeuronName = "12" weight = "-0.8674854240629626" />
    <synapse sourceNeuronName = "3" targetNeuronName = "11" weight = "-0.7151219379118476" />
    <synapse sourceNeuronName = "3" targetNeuronName = "12" weight = "0.26686090503928983" />
    <synapse sourceNeuronName = "4" targetNeuronName = "11" weight = "0.9406958007010187" />
    <synapse sourceNeuronName = "4" targetNeuronName = "12" weight = "0.6668744668442841" />
    <synapse sourceNeuronName = "5" targetNeuronName = "11" weight = "-0.9284317582688757" />
    <synapse sourceNeuronName = "5" targetNeuronName = "12" weight = "0.23449823882343046" />
    <synapse sourceNeuronName = "6" targetNeuronName = "11" weight = "0.13700393422303936" />
    <synapse sourceNeuronName = "6" targetNeuronName = "12" weight = "-0.5567197793329419" />
    <synapse sourceNeuronName = "7" targetNeuronName = "11" weight = "0.3398405884464244" />
    <synapse sourceNeuronName = "7" targetNeuronName = "12" weight = "0.274335370735177" />
    <synapse sourceNeuronName = "8" targetNeuronName = "11" weight = "-0.9513354445299729" />
    <synapse sourceNeuronName = "8" targetNeuronName = "12" weight = "0.347269607765619" />
    <synapse sourceNeuronName = "9" targetNeuronName = "11" weight = "-0.47352159985831155" />
    <synapse sourceNeuronName = "9" targetNeuronName = "12" weight = "0.8487297273710077" />
    <synapse sourceNeuronName = "10" targetNeuronName = "11" weight = "0.5592630549181836" />
    <synapse sourceNeuronName = "10" targetNeuronName = "12" weight = "0.8578058748804607" />
</neuralNetwork>