<neuralNetwork>
    <neuron name = "0" type = "sensor" linkName = "Link0" />
    <neuron name = "1" type = "sensor" linkName = "Link1" />
    <neuron name = "2" type = "sensor" linkName = "Link1" />
    <neuron name = "3" type = "sensor" linkName = "Link2" />
    <neuron name = "4" type = "sensor" linkName = "Link3" />
    <neuron name = "5" type = "sensor" linkName = "Link2-1" />
    <neuron name = "6" type = "sensor" linkName = "Link2-1-0" />
    <neuron name = "7" type = "sensor" linkName = "Link3-1-2" />
    <neuron name = "8" type = "motor"  jointName = "Link0_Link1" />
    <neuron name = "9" type = "motor"  jointName = "Link1_Link2" />
    <neuron name = "10" type = "motor"  jointName = "Link2_Link3" />
    <neuron name = "11" type = "motor"  jointName = "Link0_Link1" />
    <neuron name = "12" type = "motor"  jointName = "Link0_Link1" />
    <neuron name = "13" type = "motor"  jointName = "Link0_Link1" />
    <synapse sourceNeuronName = "0" targetNeuronName = "8" weight = "0.6757509785911144" />
    <synapse sourceNeuronName = "0" targetNeuronName = "9" weight = "-0.7996696853420104" />
    <synapse sourceNeuronName = "0" targetNeuronName = "10" weight = "-0.4704842774601721" />
    <synapse sourceNeuronName = "0" targetNeuronName = "11" weight = "0.2914073050135535" />
    <synapse sourceNeuronName = "0" targetNeuronName = "12" weight = "-0.1759333485646175" />
    <synapse sourceNeuronName = "0" targetNeuronName = "13" weight = "0.3051328772783628" />
    <synapse sourceNeuronName = "1" targetNeuronName = "8" weight = "-0.21558043377047853" />
    <synapse sourceNeuronName = "1" targetNeuronName = "9" weight = "0.32505763468918514" />
    <synapse sourceNeuronName = "1" targetNeuronName = "10" weight = "0.8379884416841292" />
    <synapse sourceNeuronName = "1" targetNeuronName = "11" weight = "0.8789178272423863" />
    <synapse sourceNeuronName = "1" targetNeuronName = "12" weight = "-0.9110938556053003" />
    <synapse sourceNeuronName = "1" targetNeuronName = "13" weight = "0.9867478558686982" />
    <synapse sourceNeuronName = "2" targetNeuronName = "8" weight = "-0.685084408717956" />
    <synapse sourceNeuronName = "2" targetNeuronName = "9" weight = "0.4641074316777314" />
    <synapse sourceNeuronName = "2" targetNeuronName = "10" weight = "-0.544472304408206" />
    <synapse sourceNeuronName = "2" targetNeuronName = "11" weight = "0.6389135350592405" />
    <synapse sourceNeuronName = "2" targetNeuronName = "12" weight = "0.734431974981083" />
    <synapse sourceNeuronName = "2" targetNeuronName = "13" weight = "-0.8652735484902674" />
    <synapse sourceNeuronName = "3" targetNeuronName = "8" weight = "-0.09231235326476406" />
    <synapse sourceNeuronName = "3" targetNeuronName = "9" weight = "0.6115028158068783" />
    <synapse sourceNeuronName = "3" targetNeuronName = "10" weight = "-0.5813435792501955" />
    <synapse sourceNeuronName = "3" targetNeuronName = "11" weight = "0.5608260824847866" />
    <synapse sourceNeuronName = "3" targetNeuronName = "12" weight = "-0.5536246588605442" />
    <synapse sourceNeuronName = "3" targetNeuronName = "13" weight = "0.8495119927770032" />
    <synapse sourceNeuronName = "4" targetNeuronName = "8" weight = "-0.30722369990009546" />
    <synapse sourceNeuronName = "4" targetNeuronName = "9" weight = "0.007060779140461104" />
    <synapse sourceNeuronName = "4" targetNeuronName = "10" weight = "-0.9347808405213847" />
    <synapse sourceNeuronName = "4" targetNeuronName = "11" weight = "0.7542200082942903" />
    <synapse sourceNeuronName = "4" targetNeuronName = "12" weight = "-0.36558628140299" />
    <synapse sourceNeuronName = "4" targetNeuronName = "13" weight = "0.7604324436984344" />
    <synapse sourceNeuronName = "5" targetNeuronName = "8" weight = "0.5407209009837726" />
    <synapse sourceNeuronName = "5" targetNeuronName = "9" weight = "-0.07496419428756851" />
    <synapse sourceNeuronName = "5" targetNeuronName = "10" weight = "-0.09332836866035787" />
    <synapse sourceNeuronName = "5" targetNeuronName = "11" weight = "0.3145599165910806" />
    <synapse sourceNeuronName = "5" targetNeuronName = "12" weight = "0.7426528716819096" />
    <synapse sourceNeuronName = "5" targetNeuronName = "13" weight = "-0.5860359157792145" />
    <synapse sourceNeuronName = "6" targetNeuronName = "8" weight = "0.45646013742020886" />
    <synapse sourceNeuronName = "6" targetNeuronName = "9" weight = "-0.5052008075350249" />
    <synapse sourceNeuronName = "6" targetNeuronName = "10" weight = "-0.9640380637410886" />
    <synapse sourceNeuronName = "6" targetNeuronName = "11" weight = "-0.05762550950287282" />
    <synapse sourceNeuronName = "6" targetNeuronName = "12" weight = "-0.7227684460822297" />
    <synapse sourceNeuronName = "6" targetNeuronName = "13" weight = "0.2599195594676078" />
    <synapse sourceNeuronName = "7" targetNeuronName = "8" weight = "0.2974412845053296" />
    <synapse sourceNeuronName = "7" targetNeuronName = "9" weight = "0.058788154365898126" />
    <synapse sourceNeuronName = "7" targetNeuronName = "10" weight = "0.14444499519492449" />
    <synapse sourceNeuronName = "7" targetNeuronName = "11" weight = "-0.7187251055160615" />
    <synapse sourceNeuronName = "7" targetNeuronName = "12" weight = "0.2796220623945309" />
    <synapse sourceNeuronName = "7" targetNeuronName = "13" weight = "0.8229888985935832" />
</neuralNetwork>