<neuralNetwork>
    <neuron name = "0" type = "sensor" linkName = "Link0" />
    <neuron name = "1" type = "sensor" linkName = "Link2" />
    <neuron name = "2" type = "sensor" linkName = "Link3" />
    <neuron name = "3" type = "sensor" linkName = "Link2-0" />
    <neuron name = "4" type = "sensor" linkName = "Link2-2" />
    <neuron name = "5" type = "sensor" linkName = "Link2-2-0" />
    <neuron name = "6" type = "sensor" linkName = "Link2-2-3" />
    <neuron name = "7" type = "sensor" linkName = "Link3-2" />
    <neuron name = "8" type = "sensor" linkName = "Link3-0-0" />
    <neuron name = "9" type = "sensor" linkName = "Link3-1-1" />
    <neuron name = "10" type = "sensor" linkName = "Link3-1-2" />
    <neuron name = "11" type = "sensor" linkName = "Link3-2-2" />
    <neuron name = "12" type = "sensor" linkName = "Link3-2-3" />
    <neuron name = "13" type = "sensor" linkName = "Link3-3-1" />
    <neuron name = "14" type = "motor"  jointName = "Link0_Link1" />
    <neuron name = "15" type = "motor"  jointName = "Link1_Link2" />
    <neuron name = "16" type = "motor"  jointName = "Link2_Link3" />
    <neuron name = "17" type = "motor"  jointName = "Link0_Link1" />
    <neuron name = "18" type = "motor"  jointName = "Link0_Link1" />
    <neuron name = "19" type = "motor"  jointName = "Link0_Link1" />
    <neuron name = "20" type = "motor"  jointName = "Link0_Link1" />
    <neuron name = "21" type = "motor"  jointName = "Link0_Link1" />
    <neuron name = "22" type = "motor"  jointName = "Link0_Link1" />
    <synapse sourceNeuronName = "0" targetNeuronName = "14" weight = "0.939371055380219" />
    <synapse sourceNeuronName = "0" targetNeuronName = "15" weight = "0.9764307873441198" />
    <synapse sourceNeuronName = "0" targetNeuronName = "16" weight = "-0.8014692383127398" />
    <synapse sourceNeuronName = "0" targetNeuronName = "17" weight = "-0.39299473043440947" />
    <synapse sourceNeuronName = "0" targetNeuronName = "18" weight = "-0.3962553496288357" />
    <synapse sourceNeuronName = "0" targetNeuronName = "19" weight = "0.9119141203807184" />
    <synapse sourceNeuronName = "0" targetNeuronName = "20" weight = "-0.08936472650856175" />
    <synapse sourceNeuronName = "0" targetNeuronName = "21" weight = "-0.18847460510937308" />
    <synapse sourceNeuronName = "0" targetNeuronName = "22" weight = "-0.529970823349361" />
    <synapse sourceNeuronName = "1" targetNeuronName = "14" weight = "0.18064202475165292" />
    <synapse sourceNeuronName = "1" targetNeuronName = "15" weight = "0.8346045505702144" />
    <synapse sourceNeuronName = "1" targetNeuronName = "16" weight = "0.8661963943174935" />
    <synapse sourceNeuronName = "1" targetNeuronName = "17" weight = "0.6059203547666765" />
    <synapse sourceNeuronName = "1" targetNeuronName = "18" weight = "-0.9778365137272114" />
    <synapse sourceNeuronName = "1" targetNeuronName = "19" weight = "0.32712734069605287" />
    <synapse sourceNeuronName = "1" targetNeuronName = "20" weight = "-0.03736838799669062" />
    <synapse sourceNeuronName = "1" targetNeuronName = "21" weight = "0.2721371245889044" />
    <synapse sourceNeuronName = "1" targetNeuronName = "22" weight = "-0.2586452921151807" />
    <synapse sourceNeuronName = "2" targetNeuronName = "14" weight = "-0.6038717880236824" />
    <synapse sourceNeuronName = "2" targetNeuronName = "15" weight = "-0.41228924155036406" />
    <synapse sourceNeuronName = "2" targetNeuronName = "16" weight = "-0.5928325652878068" />
    <synapse sourceNeuronName = "2" targetNeuronName = "17" weight = "-0.8739171875109595" />
    <synapse sourceNeuronName = "2" targetNeuronName = "18" weight = "-0.7968538726130794" />
    <synapse sourceNeuronName = "2" targetNeuronName = "19" weight = "0.6550422230668487" />
    <synapse sourceNeuronName = "2" targetNeuronName = "20" weight = "-0.39665196338844777" />
    <synapse sourceNeuronName = "2" targetNeuronName = "21" weight = "-0.924171222021209" />
    <synapse sourceNeuronName = "2" targetNeuronName = "22" weight = "-0.600146764558944" />
    <synapse sourceNeuronName = "3" targetNeuronName = "14" weight = "-0.22810358471736025" />
    <synapse sourceNeuronName = "3" targetNeuronName = "15" weight = "-0.9870857132891835" />
    <synapse sourceNeuronName = "3" targetNeuronName = "16" weight = "0.9865560541044096" />
    <synapse sourceNeuronName = "3" targetNeuronName = "17" weight = "-0.727300234558254" />
    <synapse sourceNeuronName = "3" targetNeuronName = "18" weight = "-0.7485635114244615" />
    <synapse sourceNeuronName = "3" targetNeuronName = "19" weight = "0.04965152303646714" />
    <synapse sourceNeuronName = "3" targetNeuronName = "20" weight = "-0.20570769901299868" />
    <synapse sourceNeuronName = "3" targetNeuronName = "21" weight = "0.8101375407821383" />
    <synapse sourceNeuronName = "3" targetNeuronName = "22" weight = "0.4169573776643105" />
    <synapse sourceNeuronName = "4" targetNeuronName = "14" weight = "-0.019647918956080312" />
    <synapse sourceNeuronName = "4" targetNeuronName = "15" weight = "0.014353856693540612" />
    <synapse sourceNeuronName = "4" targetNeuronName = "16" weight = "0.8694163787472644" />
    <synapse sourceNeuronName = "4" targetNeuronName = "17" weight = "0.01987206046219514" />
    <synapse sourceNeuronName = "4" targetNeuronName = "18" weight = "0.5461589662202273" />
    <synapse sourceNeuronName = "4" targetNeuronName = "19" weight = "-0.8410391414193501" />
    <synapse sourceNeuronName = "4" targetNeuronName = "20" weight = "-0.26506106076117186" />
    <synapse sourceNeuronName = "4" targetNeuronName = "21" weight = "0.30955403820781724" />
    <synapse sourceNeuronName = "4" targetNeuronName = "22" weight = "0.27700542411483875" />
    <synapse sourceNeuronName = "5" targetNeuronName = "14" weight = "0.5575666036370699" />
    <synapse sourceNeuronName = "5" targetNeuronName = "15" weight = "0.8133664531403673" />
    <synapse sourceNeuronName = "5" targetNeuronName = "16" weight = "0.5336251333608741" />
    <synapse sourceNeuronName = "5" targetNeuronName = "17" weight = "-0.6155656099855358" />
    <synapse sourceNeuronName = "5" targetNeuronName = "18" weight = "-0.2947477911092866" />
    <synapse sourceNeuronName = "5" targetNeuronName = "19" weight = "0.5598483313012856" />
    <synapse sourceNeuronName = "5" targetNeuronName = "20" weight = "-0.9357124937858157" />
    <synapse sourceNeuronName = "5" targetNeuronName = "21" weight = "0.6065496530722401" />
    <synapse sourceNeuronName = "5" targetNeuronName = "22" weight = "0.6604162043841746" />
    <synapse sourceNeuronName = "6" targetNeuronName = "14" weight = "0.03350404404269125" />
    <synapse sourceNeuronName = "6" targetNeuronName = "15" weight = "0.6935650487740144" />
    <synapse sourceNeuronName = "6" targetNeuronName = "16" weight = "0.3738973964421015" />
    <synapse sourceNeuronName = "6" targetNeuronName = "17" weight = "0.6223786664350464" />
    <synapse sourceNeuronName = "6" targetNeuronName = "18" weight = "-0.06005618754875863" />
    <synapse sourceNeuronName = "6" targetNeuronName = "19" weight = "0.33935636843929196" />
    <synapse sourceNeuronName = "6" targetNeuronName = "20" weight = "-0.07767084341830333" />
    <synapse sourceNeuronName = "6" targetNeuronName = "21" weight = "-0.7599153243650161" />
    <synapse sourceNeuronName = "6" targetNeuronName = "22" weight = "-0.0821877369566637" />
    <synapse sourceNeuronName = "7" targetNeuronName = "14" weight = "-0.33898755977382233" />
    <synapse sourceNeuronName = "7" targetNeuronName = "15" weight = "-0.1887358349142645" />
    <synapse sourceNeuronName = "7" targetNeuronName = "16" weight = "0.5011960426897433" />
    <synapse sourceNeuronName = "7" targetNeuronName = "17" weight = "-0.8799455328425312" />
    <synapse sourceNeuronName = "7" targetNeuronName = "18" weight = "0.11666812164943074" />
    <synapse sourceNeuronName = "7" targetNeuronName = "19" weight = "-0.5853423438139347" />
    <synapse sourceNeuronName = "7" targetNeuronName = "20" weight = "0.9801389870514232" />
    <synapse sourceNeuronName = "7" targetNeuronName = "21" weight = "-0.49899967875455453" />
    <synapse sourceNeuronName = "7" targetNeuronName = "22" weight = "0.03949234254203149" />
    <synapse sourceNeuronName = "8" targetNeuronName = "14" weight = "0.17663466191000188" />
    <synapse sourceNeuronName = "8" targetNeuronName = "15" weight = "0.809066340513459" />
    <synapse sourceNeuronName = "8" targetNeuronName = "16" weight = "-0.8522199794656298" />
    <synapse sourceNeuronName = "8" targetNeuronName = "17" weight = "-0.6576914532557923" />
    <synapse sourceNeuronName = "8" targetNeuronName = "18" weight = "0.7269885846932127" />
    <synapse sourceNeuronName = "8" targetNeuronName = "19" weight = "-0.4986943648695561" />
    <synapse sourceNeuronName = "8" targetNeuronName = "20" weight = "0.0861698964139539" />
    <synapse sourceNeuronName = "8" targetNeuronName = "21" weight = "-0.5261259283737001" />
    <synapse sourceNeuronName = "8" targetNeuronName = "22" weight = "0.08114458166985039" />
    <synapse sourceNeuronName = "9" targetNeuronName = "14" weight = "0.15864302292341192" />
    <synapse sourceNeuronName = "9" targetNeuronName = "15" weight = "-0.708235502960237" />
    <synapse sourceNeuronName = "9" targetNeuronName = "16" weight = "-0.20266716758726044" />
    <synapse sourceNeuronName = "9" targetNeuronName = "17" weight = "0.022605089009174684" />
    <synapse sourceNeuronName = "9" targetNeuronName = "18" weight = "-0.8463715274678727" />
    <synapse sourceNeuronName = "9" targetNeuronName = "19" weight = "0.4246625039187093" />
    <synapse sourceNeuronName = "9" targetNeuronName = "20" weight = "-0.7240449058626466" />
    <synapse sourceNeuronName = "9" targetNeuronName = "21" weight = "0.3972971708250088" />
    <synapse sourceNeuronName = "9" targetNeuronName = "22" weight = "-0.3103000692317255" />
    <synapse sourceNeuronName = "10" targetNeuronName = "14" weight = "-0.6626490961251161" />
    <synapse sourceNeuronName = "10" targetNeuronName = "15" weight = "0.02392807725969437" />
    <synapse sourceNeuronName = "10" targetNeuronName = "16" weight = "-0.299884653019429" />
    <synapse sourceNeuronName = "10" targetNeuronName = "17" weight = "-0.880184747144164" />
    <synapse sourceNeuronName = "10" targetNeuronName = "18" weight = "0.27166563867343374" />
    <synapse sourceNeuronName = "10" targetNeuronName = "19" weight = "-0.6284048892161616" />
    <synapse sourceNeuronName = "10" targetNeuronName = "20" weight = "-0.6039223674567753" />
    <synapse sourceNeuronName = "10" targetNeuronName = "21" weight = "0.3434497038365727" />
    <synapse sourceNeuronName = "10" targetNeuronName = "22" weight = "-0.8552986380498149" />
    <synapse sourceNeuronName = "11" targetNeuronName = "14" weight = "-0.9010372578689001" />
    <synapse sourceNeuronName = "11" targetNeuronName = "15" weight = "-0.7356180244485422" />
    <synapse sourceNeuronName = "11" targetNeuronName = "16" weight = "0.6052599624148098" />
    <synapse sourceNeuronName = "11" targetNeuronName = "17" weight = "-0.853887092510955" />
    <synapse sourceNeuronName = "11" targetNeuronName = "18" weight = "0.6519353230835561" />
    <synapse sourceNeuronName = "11" targetNeuronName = "19" weight = "0.8701513550796147" />
    <synapse sourceNeuronName = "11" targetNeuronName = "20" weight = "-0.7869991506569127" />
    <synapse sourceNeuronName = "11" targetNeuronName = "21" weight = "-0.6046726884802016" />
    <synapse sourceNeuronName = "11" targetNeuronName = "22" weight = "0.5530794076844181" />
    <synapse sourceNeuronName = "12" targetNeuronName = "14" weight = "0.7654089165568878" />
    <synapse sourceNeuronName = "12" targetNeuronName = "15" weight = "-0.9538917723593079" />
    <synapse sourceNeuronName = "12" targetNeuronName = "16" weight = "0.027115004822672706" />
    <synapse sourceNeuronName = "12" targetNeuronName = "17" weight = "-0.19362063017169495" />
    <synapse sourceNeuronName = "12" targetNeuronName = "18" weight = "0.7292074887380169" />
    <synapse sourceNeuronName = "12" targetNeuronName = "19" weight = "-0.8505757072867546" />
    <synapse sourceNeuronName = "12" targetNeuronName = "20" weight = "-0.30410482642084635" />
    <synapse sourceNeuronName = "12" targetNeuronName = "21" weight = "-0.6938840345630135" />
    <synapse sourceNeuronName = "12" targetNeuronName = "22" weight = "0.8299414148195596" />
    <synapse sourceNeuronName = "13" targetNeuronName = "14" weight = "0.7517319196042802" />
    <synapse sourceNeuronName = "13" targetNeuronName = "15" weight = "0.5412119886773161" />
    <synapse sourceNeuronName = "13" targetNeuronName = "16" weight = "-0.34600851815903955" />
    <synapse sourceNeuronName = "13" targetNeuronName = "17" weight = "-0.5138951797301403" />
    <synapse sourceNeuronName = "13" targetNeuronName = "18" weight = "-0.27769325172196746" />
    <synapse sourceNeuronName = "13" targetNeuronName = "19" weight = "-0.717232037711077" />
    <synapse sourceNeuronName = "13" targetNeuronName = "20" weight = "0.011408142013329625" />
    <synapse sourceNeuronName = "13" targetNeuronName = "21" weight = "0.5575878237645906" />
    <synapse sourceNeuronName = "13" targetNeuronName = "22" weight = "0.04432974598802697" />
</neuralNetwork>