<neuralNetwork>
    <neuron name = "0" type = "sensor" linkName = "Link0" />
    <neuron name = "1" type = "sensor" linkName = "Link1" />
    <neuron name = "2" type = "sensor" linkName = "Link1" />
    <neuron name = "3" type = "sensor" linkName = "Link2" />
    <neuron name = "4" type = "sensor" linkName = "Link2-1" />
    <neuron name = "5" type = "sensor" linkName = "Link2-2-0" />
    <neuron name = "6" type = "sensor" linkName = "Link2-2-1" />
    <neuron name = "7" type = "sensor" linkName = "Link3-0" />
    <neuron name = "8" type = "sensor" linkName = "Link3-1" />
    <neuron name = "9" type = "motor"  jointName = "Link0_Link1" />
    <neuron name = "10" type = "motor"  jointName = "Link1_Link2" />
    <neuron name = "11" type = "motor"  jointName = "Link2_Link3" />
    <synapse sourceNeuronName = "0" targetNeuronName = "9" weight = "0.49905607262411" />
    <synapse sourceNeuronName = "0" targetNeuronName = "10" weight = "0.07349529713455549" />
    <synapse sourceNeuronName = "0" targetNeuronName = "11" weight = "0.6470418415899652" />
    <synapse sourceNeuronName = "1" targetNeuronName = "9" weight = "0.12871098485974053" />
    <synapse sourceNeuronName = "1" targetNeuronName = "10" weight = "0.46282944672496185" />
    <synapse sourceNeuronName = "1" targetNeuronName = "11" weight = "0.7241766327480297" />
    <synapse sourceNeuronName = "2" targetNeuronName = "9" weight = "0.3317616878151717" />
    <synapse sourceNeuronName = "2" targetNeuronName = "10" weight = "0.36221358598765985" />
    <synapse sourceNeuronName = "2" targetNeuronName = "11" weight = "0.8692292650743505" />
    <synapse sourceNeuronName = "3" targetNeuronName = "9" weight = "-0.2935830447160097" />
    <synapse sourceNeuronName = "3" targetNeuronName = "10" weight = "-0.4527167473356364" />
    <synapse sourceNeuronName = "3" targetNeuronName = "11" weight = "-0.16438987075366707" />
    <synapse sourceNeuronName = "4" targetNeuronName = "9" weight = "0.17524864121207995" />
    <synapse sourceNeuronName = "4" targetNeuronName = "10" weight = "-0.487224417019684" />
    <synapse sourceNeuronName = "4" targetNeuronName = "11" weight = "0.7234085453465902" />
    <synapse sourceNeuronName = "5" targetNeuronName = "9" weight = "0.9886881651605337" />
    <synapse sourceNeuronName = "5" targetNeuronName = "10" weight = "0.6739250242205577" />
    <synapse sourceNeuronName = "5" targetNeuronName = "11" weight = "0.2741708825817981" />
    <synapse sourceNeuronName = "6" targetNeuronName = "9" weight = "-0.5855350438646225" />
    <synapse sourceNeuronName = "6" targetNeuronName = "10" weight = "0.45921714472293895" />
    <synapse sourceNeuronName = "6" targetNeuronName = "11" weight = "0.9883202667358546" />
    <synapse sourceNeuronName = "7" targetNeuronName = "9" weight = "-0.2426790403717609" />
    <synapse sourceNeuronName = "7" targetNeuronName = "10" weight = "-0.04001631400843508" />
    <synapse sourceNeuronName = "7" targetNeuronName = "11" weight = "0.2872546363217767" />
    <synapse sourceNeuronName = "8" targetNeuronName = "9" weight = "0.7590497646171195" />
    <synapse sourceNeuronName = "8" targetNeuronName = "10" weight = "0.61135358753032" />
    <synapse sourceNeuronName = "8" targetNeuronName = "11" weight = "0.06347888357924591" />
</neuralNetwork>