<neuralNetwork>
    <neuron name = "0" type = "sensor" linkName = "Link0" />
    <neuron name = "1" type = "sensor" linkName = "Link1" />
    <neuron name = "2" type = "sensor" linkName = "Link1" />
    <neuron name = "3" type = "sensor" linkName = "Link2" />
    <neuron name = "4" type = "sensor" linkName = "Link3" />
    <neuron name = "5" type = "sensor" linkName = "Link3-1" />
    <neuron name = "6" type = "sensor" linkName = "Link3-2" />
    <neuron name = "7" type = "sensor" linkName = "Link3-4" />
    <neuron name = "8" type = "motor"  jointName = "Link0_Link1" />
    <neuron name = "9" type = "motor"  jointName = "Link1_Link2" />
    <neuron name = "10" type = "motor"  jointName = "Link2_Link3" />
    <neuron name = "11" type = "motor"  jointName = "Link0_Link1" />
    <neuron name = "12" type = "motor"  jointName = "Link0_Link1" />
    <neuron name = "13" type = "motor"  jointName = "Link0_Link1" />
    <neuron name = "14" type = "motor"  jointName = "Link0_Link1" />
    <synapse sourceNeuronName = "0" targetNeuronName = "8" weight = "0.738492030901944" />
    <synapse sourceNeuronName = "0" targetNeuronName = "9" weight = "0.5958722152542812" />
    <synapse sourceNeuronName = "0" targetNeuronName = "10" weight = "-0.4654490213326459" />
    <synapse sourceNeuronName = "0" targetNeuronName = "11" weight = "0.7403754822841857" />
    <synapse sourceNeuronName = "0" targetNeuronName = "12" weight = "-0.992208947879138" />
    <synapse sourceNeuronName = "0" targetNeuronName = "13" weight = "-0.10578704587314425" />
    <synapse sourceNeuronName = "0" targetNeuronName = "14" weight = "-0.2595959336863993" />
    <synapse sourceNeuronName = "1" targetNeuronName = "8" weight = "0.6065949297147601" />
    <synapse sourceNeuronName = "1" targetNeuronName = "9" weight = "0.5683671377425503" />
    <synapse sourceNeuronName = "1" targetNeuronName = "10" weight = "-0.14544714470376396" />
    <synapse sourceNeuronName = "1" targetNeuronName = "11" weight = "0.03900669558462022" />
    <synapse sourceNeuronName = "1" targetNeuronName = "12" weight = "0.24000210513273879" />
    <synapse sourceNeuronName = "1" targetNeuronName = "13" weight = "0.42248740599035406" />
    <synapse sourceNeuronName = "1" targetNeuronName = "14" weight = "0.6783011125314675" />
    <synapse sourceNeuronName = "2" targetNeuronName = "8" weight = "-0.7652326849804869" />
    <synapse sourceNeuronName = "2" targetNeuronName = "9" weight = "0.4295951080532163" />
    <synapse sourceNeuronName = "2" targetNeuronName = "10" weight = "-0.40505426210925766" />
    <synapse sourceNeuronName = "2" targetNeuronName = "11" weight = "-0.026275940890550853" />
    <synapse sourceNeuronName = "2" targetNeuronName = "12" weight = "-0.7383087955729775" />
    <synapse sourceNeuronName = "2" targetNeuronName = "13" weight = "-0.8900489874706969" />
    <synapse sourceNeuronName = "2" targetNeuronName = "14" weight = "0.25144707558704815" />
    <synapse sourceNeuronName = "3" targetNeuronName = "8" weight = "0.6254542212441996" />
    <synapse sourceNeuronName = "3" targetNeuronName = "9" weight = "0.990481241987605" />
    <synapse sourceNeuronName = "3" targetNeuronName = "10" weight = "-0.5815881094088353" />
    <synapse sourceNeuronName = "3" targetNeuronName = "11" weight = "0.06747781713474832" />
    <synapse sourceNeuronName = "3" targetNeuronName = "12" weight = "-0.21206184758556224" />
    <synapse sourceNeuronName = "3" targetNeuronName = "13" weight = "0.17004844529600494" />
    <synapse sourceNeuronName = "3" targetNeuronName = "14" weight = "0.675044188005266" />
    <synapse sourceNeuronName = "4" targetNeuronName = "8" weight = "0.881287052621242" />
    <synapse sourceNeuronName = "4" targetNeuronName = "9" weight = "0.01251011773807953" />
    <synapse sourceNeuronName = "4" targetNeuronName = "10" weight = "0.8016840229738218" />
    <synapse sourceNeuronName = "4" targetNeuronName = "11" weight = "0.4966006343334777" />
    <synapse sourceNeuronName = "4" targetNeuronName = "12" weight = "-0.29137937523811774" />
    <synapse sourceNeuronName = "4" targetNeuronName = "13" weight = "0.8453711862634687" />
    <synapse sourceNeuronName = "4" targetNeuronName = "14" weight = "-0.8458589892023163" />
    <synapse sourceNeuronName = "5" targetNeuronName = "8" weight = "-0.7135957815154597" />
    <synapse sourceNeuronName = "5" targetNeuronName = "9" weight = "-0.15975690523663277" />
    <synapse sourceNeuronName = "5" targetNeuronName = "10" weight = "0.6159534589543563" />
    <synapse sourceNeuronName = "5" targetNeuronName = "11" weight = "-0.9771587054136224" />
    <synapse sourceNeuronName = "5" targetNeuronName = "12" weight = "-0.975262570964132" />
    <synapse sourceNeuronName = "5" targetNeuronName = "13" weight = "0.29986350700984166" />
    <synapse sourceNeuronName = "5" targetNeuronName = "14" weight = "-0.4666090246964225" />
    <synapse sourceNeuronName = "6" targetNeuronName = "8" weight = "0.41836036634121165" />
    <synapse sourceNeuronName = "6" targetNeuronName = "9" weight = "-0.948351656002538" />
    <synapse sourceNeuronName = "6" targetNeuronName = "10" weight = "0.3087243909552766" />
    <synapse sourceNeuronName = "6" targetNeuronName = "11" weight = "-0.12623486057383015" />
    <synapse sourceNeuronName = "6" targetNeuronName = "12" weight = "0.5872270945462046" />
    <synapse sourceNeuronName = "6" targetNeuronName = "13" weight = "0.2459503326665935" />
    <synapse sourceNeuronName = "6" targetNeuronName = "14" weight = "-0.7885454145882282" />
    <synapse sourceNeuronName = "7" targetNeuronName = "8" weight = "-0.667263197487129" />
    <synapse sourceNeuronName = "7" targetNeuronName = "9" weight = "0.813721285878114" />
    <synapse sourceNeuronName = "7" targetNeuronName = "10" weight = "0.7661983829984114" />
    <synapse sourceNeuronName = "7" targetNeuronName = "11" weight = "-0.6744861395488757" />
    <synapse sourceNeuronName = "7" targetNeuronName = "12" weight = "-0.5630680115023476" />
    <synapse sourceNeuronName = "7" targetNeuronName = "13" weight = "0.4301659327453211" />
    <synapse sourceNeuronName = "7" targetNeuronName = "14" weight = "-0.9873449386752005" />
</neuralNetwork>