<neuralNetwork>
    <neuron name = "0" type = "sensor" linkName = "Link0" />
    <neuron name = "1" type = "sensor" linkName = "Link1" />
    <neuron name = "2" type = "sensor" linkName = "Link1" />
    <neuron name = "3" type = "sensor" linkName = "Link2" />
    <neuron name = "4" type = "sensor" linkName = "Link2-1" />
    <neuron name = "5" type = "sensor" linkName = "Link2-2" />
    <neuron name = "6" type = "sensor" linkName = "Link2-1-0" />
    <neuron name = "7" type = "motor"  jointName = "Link0_Link1" />
    <neuron name = "8" type = "motor"  jointName = "Link1_Link2" />
    <neuron name = "9" type = "motor"  jointName = "Link2_Link3" />
    <neuron name = "10" type = "motor"  jointName = "Link0_Link1" />
    <neuron name = "11" type = "motor"  jointName = "Link0_Link1" />
    <neuron name = "12" type = "motor"  jointName = "Link0_Link1" />
    <neuron name = "13" type = "motor"  jointName = "Link0_Link1" />
    <neuron name = "14" type = "motor"  jointName = "Link0_Link1" />
    <neuron name = "15" type = "motor"  jointName = "Link0_Link1" />
    <synapse sourceNeuronName = "0" targetNeuronName = "7" weight = "0.6428393789799738" />
    <synapse sourceNeuronName = "0" targetNeuronName = "8" weight = "-0.15566231497517813" />
    <synapse sourceNeuronName = "0" targetNeuronName = "9" weight = "-0.08053101154112197" />
    <synapse sourceNeuronName = "0" targetNeuronName = "10" weight = "-0.7881115451183041" />
    <synapse sourceNeuronName = "0" targetNeuronName = "11" weight = "0.8935337324219066" />
    <synapse sourceNeuronName = "0" targetNeuronName = "12" weight = "0.09991001385173748" />
    <synapse sourceNeuronName = "0" targetNeuronName = "13" weight = "-0.14196872151060824" />
    <synapse sourceNeuronName = "0" targetNeuronName = "14" weight = "0.44398344718391747" />
    <synapse sourceNeuronName = "0" targetNeuronName = "15" weight = "-0.17931368924863533" />
    <synapse sourceNeuronName = "1" targetNeuronName = "7" weight = "-0.48529543546623644" />
    <synapse sourceNeuronName = "1" targetNeuronName = "8" weight = "-0.25116398862015266" />
    <synapse sourceNeuronName = "1" targetNeuronName = "9" weight = "0.8472087646986504" />
    <synapse sourceNeuronName = "1" targetNeuronName = "10" weight = "0.5556418496631315" />
    <synapse sourceNeuronName = "1" targetNeuronName = "11" weight = "-0.9421468908756514" />
    <synapse sourceNeuronName = "1" targetNeuronName = "12" weight = "-0.7050280101075017" />
    <synapse sourceNeuronName = "1" targetNeuronName = "13" weight = "0.4210803537307497" />
    <synapse sourceNeuronName = "1" targetNeuronName = "14" weight = "0.9569829421972673" />
    <synapse sourceNeuronName = "1" targetNeuronName = "15" weight = "0.40585691289663184" />
    <synapse sourceNeuronName = "2" targetNeuronName = "7" weight = "0.5128846233105973" />
    <synapse sourceNeuronName = "2" targetNeuronName = "8" weight = "-0.23300842736235228" />
    <synapse sourceNeuronName = "2" targetNeuronName = "9" weight = "-0.6824751776532958" />
    <synapse sourceNeuronName = "2" targetNeuronName = "10" weight = "0.3657998589474025" />
    <synapse sourceNeuronName = "2" targetNeuronName = "11" weight = "0.933451244802376" />
    <synapse sourceNeuronName = "2" targetNeuronName = "12" weight = "0.2959484539361237" />
    <synapse sourceNeuronName = "2" targetNeuronName = "13" weight = "0.8269906831207015" />
    <synapse sourceNeuronName = "2" targetNeuronName = "14" weight = "-0.09608867367198903" />
    <synapse sourceNeuronName = "2" targetNeuronName = "15" weight = "0.04510153381400883" />
    <synapse sourceNeuronName = "3" targetNeuronName = "7" weight = "0.19177791352649387" />
    <synapse sourceNeuronName = "3" targetNeuronName = "8" weight = "0.8649296223311751" />
    <synapse sourceNeuronName = "3" targetNeuronName = "9" weight = "0.7540966767070814" />
    <synapse sourceNeuronName = "3" targetNeuronName = "10" weight = "-0.015093374059064635" />
    <synapse sourceNeuronName = "3" targetNeuronName = "11" weight = "-0.402495884066173" />
    <synapse sourceNeuronName = "3" targetNeuronName = "12" weight = "0.42407184967798206" />
    <synapse sourceNeuronName = "3" targetNeuronName = "13" weight = "0.9832766819099608" />
    <synapse sourceNeuronName = "3" targetNeuronName = "14" weight = "-0.8100273034327066" />
    <synapse sourceNeuronName = "3" targetNeuronName = "15" weight = "0.7680598656227415" />
    <synapse sourceNeuronName = "4" targetNeuronName = "7" weight = "0.17408021973111687" />
    <synapse sourceNeuronName = "4" targetNeuronName = "8" weight = "0.02784394403236412" />
    <synapse sourceNeuronName = "4" targetNeuronName = "9" weight = "-0.49299983751653387" />
    <synapse sourceNeuronName = "4" targetNeuronName = "10" weight = "0.9730266669243812" />
    <synapse sourceNeuronName = "4" targetNeuronName = "11" weight = "-0.19685044180458133" />
    <synapse sourceNeuronName = "4" targetNeuronName = "12" weight = "-0.937996736468824" />
    <synapse sourceNeuronName = "4" targetNeuronName = "13" weight = "-0.3644703090224759" />
    <synapse sourceNeuronName = "4" targetNeuronName = "14" weight = "0.6962659059015104" />
    <synapse sourceNeuronName = "4" targetNeuronName = "15" weight = "-0.5808755697316947" />
    <synapse sourceNeuronName = "5" targetNeuronName = "7" weight = "0.05309871518544251" />
    <synapse sourceNeuronName = "5" targetNeuronName = "8" weight = "0.35904825301825594" />
    <synapse sourceNeuronName = "5" targetNeuronName = "9" weight = "-0.37933626478377414" />
    <synapse sourceNeuronName = "5" targetNeuronName = "10" weight = "0.6298022034714497" />
    <synapse sourceNeuronName = "5" targetNeuronName = "11" weight = "-0.657419021935236" />
    <synapse sourceNeuronName = "5" targetNeuronName = "12" weight = "0.21218344250989496" />
    <synapse sourceNeuronName = "5" targetNeuronName = "13" weight = "-0.6099603913364546" />
    <synapse sourceNeuronName = "5" targetNeuronName = "14" weight = "-0.05184809444845384" />
    <synapse sourceNeuronName = "5" targetNeuronName = "15" weight = "0.28342837800326404" />
    <synapse sourceNeuronName = "6" targetNeuronName = "7" weight = "-0.9993949784458944" />
    <synapse sourceNeuronName = "6" targetNeuronName = "8" weight = "-0.8715131620424006" />
    <synapse sourceNeuronName = "6" targetNeuronName = "9" weight = "0.3960262651794242" />
    <synapse sourceNeuronName = "6" targetNeuronName = "10" weight = "0.1433343177189026" />
    <synapse sourceNeuronName = "6" targetNeuronName = "11" weight = "-0.24281220436831474" />
    <synapse sourceNeuronName = "6" targetNeuronName = "12" weight = "0.09615912408849647" />
    <synapse sourceNeuronName = "6" targetNeuronName = "13" weight = "0.7844885984093666" />
    <synapse sourceNeuronName = "6" targetNeuronName = "14" weight = "-0.27357363648637967" />
    <synapse sourceNeuronName = "6" targetNeuronName = "15" weight = "-0.40949273113481444" />
</neuralNetwork>