<neuralNetwork>
    <neuron name = "0" type = "sensor" linkName = "Link0" />
    <neuron name = "1" type = "sensor" linkName = "Link1" />
    <neuron name = "2" type = "sensor" linkName = "Link1" />
    <neuron name = "3" type = "sensor" linkName = "Link2-0" />
    <neuron name = "4" type = "motor"  jointName = "Link0_Link1" />
    <neuron name = "5" type = "motor"  jointName = "Link1_Link2" />
    <neuron name = "6" type = "motor"  jointName = "Link2_Link3" />
    <neuron name = "7" type = "motor"  jointName = "Link0_Link1" />
    <neuron name = "8" type = "motor"  jointName = "Link0_Link1" />
    <neuron name = "9" type = "motor"  jointName = "Link0_Link1" />
    <neuron name = "10" type = "motor"  jointName = "Link0_Link1" />
    <neuron name = "11" type = "motor"  jointName = "Link0_Link1" />
    <neuron name = "12" type = "motor"  jointName = "Link0_Link1" />
    <neuron name = "13" type = "motor"  jointName = "Link0_Link1" />
    <neuron name = "14" type = "motor"  jointName = "Link0_Link1" />
    <neuron name = "15" type = "motor"  jointName = "Link0_Link1" />
    <synapse sourceNeuronName = "0" targetNeuronName = "4" weight = "-0.43807329079161605" />
    <synapse sourceNeuronName = "0" targetNeuronName = "5" weight = "0.5428661051516854" />
    <synapse sourceNeuronName = "0" targetNeuronName = "6" weight = "-0.3611304289281585" />
    <synapse sourceNeuronName = "0" targetNeuronName = "7" weight = "0.7708895958585233" />
    <synapse sourceNeuronName = "0" targetNeuronName = "8" weight = "0.7414962094137314" />
    <synapse sourceNeuronName = "0" targetNeuronName = "9" weight = "0.910182637183087" />
    <synapse sourceNeuronName = "0" targetNeuronName = "10" weight = "0.3892507108717933" />
    <synapse sourceNeuronName = "0" targetNeuronName = "11" weight = "0.07736118179313367" />
    <synapse sourceNeuronName = "0" targetNeuronName = "12" weight = "0.6412935681732541" />
    <synapse sourceNeuronName = "0" targetNeuronName = "13" weight = "0.2116695479043884" />
    <synapse sourceNeuronName = "0" targetNeuronName = "14" weight = "0.947026766338404" />
    <synapse sourceNeuronName = "0" targetNeuronName = "15" weight = "-0.7150070610253842" />
    <synapse sourceNeuronName = "1" targetNeuronName = "4" weight = "-0.13997895159616558" />
    <synapse sourceNeuronName = "1" targetNeuronName = "5" weight = "-0.8857234677816472" />
    <synapse sourceNeuronName = "1" targetNeuronName = "6" weight = "-0.8758445174107872" />
    <synapse sourceNeuronName = "1" targetNeuronName = "7" weight = "0.728831795407636" />
    <synapse sourceNeuronName = "1" targetNeuronName = "8" weight = "-0.2583243440163987" />
    <synapse sourceNeuronName = "1" targetNeuronName = "9" weight = "0.3316896978875745" />
    <synapse sourceNeuronName = "1" targetNeuronName = "10" weight = "-0.8548458163370858" />
    <synapse sourceNeuronName = "1" targetNeuronName = "11" weight = "-0.6301938480189153" />
    <synapse sourceNeuronName = "1" targetNeuronName = "12" weight = "0.5015470326535538" />
    <synapse sourceNeuronName = "1" targetNeuronName = "13" weight = "0.4304108829769704" />
    <synapse sourceNeuronName = "1" targetNeuronName = "14" weight = "-0.1468656498166645" />
    <synapse sourceNeuronName = "1" targetNeuronName = "15" weight = "-0.5391401480213807" />
    <synapse sourceNeuronName = "2" targetNeuronName = "4" weight = "0.844653808197009" />
    <synapse sourceNeuronName = "2" targetNeuronName = "5" weight = "-0.12574703985024782" />
    <synapse sourceNeuronName = "2" targetNeuronName = "6" weight = "-0.41230518991523235" />
    <synapse sourceNeuronName = "2" targetNeuronName = "7" weight = "-0.8989627416933967" />
    <synapse sourceNeuronName = "2" targetNeuronName = "8" weight = "0.10132494295805805" />
    <synapse sourceNeuronName = "2" targetNeuronName = "9" weight = "0.1504714871975954" />
    <synapse sourceNeuronName = "2" targetNeuronName = "10" weight = "-0.34411056565077724" />
    <synapse sourceNeuronName = "2" targetNeuronName = "11" weight = "0.7768925573283054" />
    <synapse sourceNeuronName = "2" targetNeuronName = "12" weight = "0.6239371774520681" />
    <synapse sourceNeuronName = "2" targetNeuronName = "13" weight = "-0.0217218061654445" />
    <synapse sourceNeuronName = "2" targetNeuronName = "14" weight = "0.7278700807697283" />
    <synapse sourceNeuronName = "2" targetNeuronName = "15" weight = "-0.7467574659896494" />
    <synapse sourceNeuronName = "3" targetNeuronName = "4" weight = "-0.016259322421378064" />
    <synapse sourceNeuronName = "3" targetNeuronName = "5" weight = "-0.5570160761371912" />
    <synapse sourceNeuronName = "3" targetNeuronName = "6" weight = "0.663880339760641" />
    <synapse sourceNeuronName = "3" targetNeuronName = "7" weight = "-0.6943163082776678" />
    <synapse sourceNeuronName = "3" targetNeuronName = "8" weight = "0.7092026860961842" />
    <synapse sourceNeuronName = "3" targetNeuronName = "9" weight = "0.9627158692500795" />
    <synapse sourceNeuronName = "3" targetNeuronName = "10" weight = "-0.3759359083240206" />
    <synapse sourceNeuronName = "3" targetNeuronName = "11" weight = "-0.5032098987043465" />
    <synapse sourceNeuronName = "3" targetNeuronName = "12" weight = "-0.19169486419805803" />
    <synapse sourceNeuronName = "3" targetNeuronName = "13" weight = "-0.056225660589940496" />
    <synapse sourceNeuronName = "3" targetNeuronName = "14" weight = "-0.4923523100462499" />
    <synapse sourceNeuronName = "3" targetNeuronName = "15" weight = "-0.4086265703050562" />
</neuralNetwork>