<neuralNetwork>
    <neuron name = "0" type = "sensor" linkName = "Link0" />
    <neuron name = "1" type = "sensor" linkName = "Link2-1" />
    <neuron name = "2" type = "sensor" linkName = "Link2-0-0" />
    <neuron name = "3" type = "sensor" linkName = "Link2-0-1" />
    <neuron name = "4" type = "sensor" linkName = "Link2-0-2" />
    <neuron name = "5" type = "sensor" linkName = "Link2-0-3" />
    <neuron name = "6" type = "sensor" linkName = "Link2-0-2-0" />
    <neuron name = "7" type = "sensor" linkName = "Link2-0-4-0" />
    <neuron name = "8" type = "sensor" linkName = "Link2-0-4-2" />
    <neuron name = "9" type = "sensor" linkName = "Link2-0-4-4" />
    <neuron name = "10" type = "sensor" linkName = "Link2-1-0" />
    <neuron name = "11" type = "sensor" linkName = "Link2-2-0" />
    <neuron name = "12" type = "sensor" linkName = "Link2-2-1" />
    <neuron name = "13" type = "sensor" linkName = "Link2-2-2" />
    <neuron name = "14" type = "sensor" linkName = "Link2-2-3" />
    <neuron name = "15" type = "sensor" linkName = "Link2-2-1-1" />
    <neuron name = "16" type = "sensor" linkName = "Link2-2-4-2" />
    <neuron name = "17" type = "sensor" linkName = "Link2-3-2" />
    <neuron name = "18" type = "sensor" linkName = "Link2-3-0-0" />
    <neuron name = "19" type = "motor"  jointName = "Link0_Link1" />
    <neuron name = "20" type = "motor"  jointName = "Link1_Link2" />
    <neuron name = "21" type = "motor"  jointName = "Link0_Link1" />
    <neuron name = "22" type = "motor"  jointName = "Link0_Link1" />
    <synapse sourceNeuronName = "0" targetNeuronName = "19" weight = "0.9208806370155793" />
    <synapse sourceNeuronName = "0" targetNeuronName = "20" weight = "-0.991007268825083" />
    <synapse sourceNeuronName = "0" targetNeuronName = "21" weight = "0.5583730541505809" />
    <synapse sourceNeuronName = "0" targetNeuronName = "22" weight = "-0.8301100955477378" />
    <synapse sourceNeuronName = "1" targetNeuronName = "19" weight = "-0.8149123272748662" />
    <synapse sourceNeuronName = "1" targetNeuronName = "20" weight = "-0.9381425630655211" />
    <synapse sourceNeuronName = "1" targetNeuronName = "21" weight = "0.18491275790641892" />
    <synapse sourceNeuronName = "1" targetNeuronName = "22" weight = "0.427435779740041" />
    <synapse sourceNeuronName = "2" targetNeuronName = "19" weight = "0.5452998088310574" />
    <synapse sourceNeuronName = "2" targetNeuronName = "20" weight = "0.6051679357177511" />
    <synapse sourceNeuronName = "2" targetNeuronName = "21" weight = "-0.7115543199330525" />
    <synapse sourceNeuronName = "2" targetNeuronName = "22" weight = "-0.8354817580706346" />
    <synapse sourceNeuronName = "3" targetNeuronName = "19" weight = "0.15728622435609196" />
    <synapse sourceNeuronName = "3" targetNeuronName = "20" weight = "0.27602099857452456" />
    <synapse sourceNeuronName = "3" targetNeuronName = "21" weight = "0.6322641942565792" />
    <synapse sourceNeuronName = "3" targetNeuronName = "22" weight = "0.188837147475998" />
    <synapse sourceNeuronName = "4" targetNeuronName = "19" weight = "-0.5967542181734573" />
    <synapse sourceNeuronName = "4" targetNeuronName = "20" weight = "0.3306674264024745" />
    <synapse sourceNeuronName = "4" targetNeuronName = "21" weight = "0.5849612918492517" />
    <synapse sourceNeuronName = "4" targetNeuronName = "22" weight = "0.2649384731182862" />
    <synapse sourceNeuronName = "5" targetNeuronName = "19" weight = "-0.3700899600986507" />
    <synapse sourceNeuronName = "5" targetNeuronName = "20" weight = "0.870894368276792" />
    <synapse sourceNeuronName = "5" targetNeuronName = "21" weight = "-0.6097894644151975" />
    <synapse sourceNeuronName = "5" targetNeuronName = "22" weight = "0.2809290634335593" />
    <synapse sourceNeuronName = "6" targetNeuronName = "19" weight = "0.019206731606282945" />
    <synapse sourceNeuronName = "6" targetNeuronName = "20" weight = "-0.9521643513701126" />
    <synapse sourceNeuronName = "6" targetNeuronName = "21" weight = "0.555175907714553" />
    <synapse sourceNeuronName = "6" targetNeuronName = "22" weight = "0.526321220154627" />
    <synapse sourceNeuronName = "7" targetNeuronName = "19" weight = "-0.11124574822670419" />
    <synapse sourceNeuronName = "7" targetNeuronName = "20" weight = "0.9066289010923159" />
    <synapse sourceNeuronName = "7" targetNeuronName = "21" weight = "-0.11842900453130167" />
    <synapse sourceNeuronName = "7" targetNeuronName = "22" weight = "0.12140488487816192" />
    <synapse sourceNeuronName = "8" targetNeuronName = "19" weight = "0.7088067490562053" />
    <synapse sourceNeuronName = "8" targetNeuronName = "20" weight = "-0.7905188366967839" />
    <synapse sourceNeuronName = "8" targetNeuronName = "21" weight = "0.6094759260788032" />
    <synapse sourceNeuronName = "8" targetNeuronName = "22" weight = "0.939644464345327" />
    <synapse sourceNeuronName = "9" targetNeuronName = "19" weight = "0.37397444679233005" />
    <synapse sourceNeuronName = "9" targetNeuronName = "20" weight = "-0.9870525354639745" />
    <synapse sourceNeuronName = "9" targetNeuronName = "21" weight = "-0.25787096475863924" />
    <synapse sourceNeuronName = "9" targetNeuronName = "22" weight = "0.5941875739718632" />
    <synapse sourceNeuronName = "10" targetNeuronName = "19" weight = "-0.4686167552148166" />
    <synapse sourceNeuronName = "10" targetNeuronName = "20" weight = "-0.36676890757142644" />
    <synapse sourceNeuronName = "10" targetNeuronName = "21" weight = "0.7262196936470855" />
    <synapse sourceNeuronName = "10" targetNeuronName = "22" weight = "-0.634731041405074" />
    <synapse sourceNeuronName = "11" targetNeuronName = "19" weight = "-0.7492165233692776" />
    <synapse sourceNeuronName = "11" targetNeuronName = "20" weight = "-0.05746004797547721" />
    <synapse sourceNeuronName = "11" targetNeuronName = "21" weight = "0.09293704208647569" />
    <synapse sourceNeuronName = "11" targetNeuronName = "22" weight = "-0.3435883830604971" />
    <synapse sourceNeuronName = "12" targetNeuronName = "19" weight = "0.33071141594211917" />
    <synapse sourceNeuronName = "12" targetNeuronName = "20" weight = "-0.5830612995888289" />
    <synapse sourceNeuronName = "12" targetNeuronName = "21" weight = "0.808617513636664" />
    <synapse sourceNeuronName = "12" targetNeuronName = "22" weight = "0.6466320078296754" />
    <synapse sourceNeuronName = "13" targetNeuronName = "19" weight = "-0.8021536117286054" />
    <synapse sourceNeuronName = "13" targetNeuronName = "20" weight = "0.491841983822876" />
    <synapse sourceNeuronName = "13" targetNeuronName = "21" weight = "-0.014009318132639281" />
    <synapse sourceNeuronName = "13" targetNeuronName = "22" weight = "-0.23685882541036718" />
    <synapse sourceNeuronName = "14" targetNeuronName = "19" weight = "-0.06656500709548041" />
    <synapse sourceNeuronName = "14" targetNeuronName = "20" weight = "-0.23926332820428908" />
    <synapse sourceNeuronName = "14" targetNeuronName = "21" weight = "0.2988789224034467" />
    <synapse sourceNeuronName = "14" targetNeuronName = "22" weight = "-0.15562677780631318" />
    <synapse sourceNeuronName = "15" targetNeuronName = "19" weight = "0.5105761271174805" />
    <synapse sourceNeuronName = "15" targetNeuronName = "20" weight = "0.35710587918945724" />
    <synapse sourceNeuronName = "15" targetNeuronName = "21" weight = "-0.1310217894979968" />
    <synapse sourceNeuronName = "15" targetNeuronName = "22" weight = "0.36512815606529925" />
    <synapse sourceNeuronName = "16" targetNeuronName = "19" weight = "0.21429542500726328" />
    <synapse sourceNeuronName = "16" targetNeuronName = "20" weight = "0.6102759638191451" />
    <synapse sourceNeuronName = "16" targetNeuronName = "21" weight = "0.6688353382944248" />
    <synapse sourceNeuronName = "16" targetNeuronName = "22" weight = "0.4878479665625899" />
    <synapse sourceNeuronName = "17" targetNeuronName = "19" weight = "-0.7255115227254385" />
    <synapse sourceNeuronName = "17" targetNeuronName = "20" weight = "-0.1438562835913575" />
    <synapse sourceNeuronName = "17" targetNeuronName = "21" weight = "-0.6016613043877697" />
    <synapse sourceNeuronName = "17" targetNeuronName = "22" weight = "-0.7743173551224718" />
    <synapse sourceNeuronName = "18" targetNeuronName = "19" weight = "-0.9745242077721767" />
    <synapse sourceNeuronName = "18" targetNeuronName = "20" weight = "0.9073434746484428" />
    <synapse sourceNeuronName = "18" targetNeuronName = "21" weight = "0.27065833106407555" />
    <synapse sourceNeuronName = "18" targetNeuronName = "22" weight = "0.43367434375961045" />
</neuralNetwork>