<neuralNetwork>
    <neuron name = "0" type = "sensor" linkName = "Link0" />
    <neuron name = "1" type = "sensor" linkName = "Link2-0" />
    <neuron name = "2" type = "sensor" linkName = "Link2-0-0" />
    <neuron name = "3" type = "sensor" linkName = "Link2-0-2" />
    <neuron name = "4" type = "sensor" linkName = "Link2-0-1-0" />
    <neuron name = "5" type = "sensor" linkName = "Link2-0-1-3" />
    <neuron name = "6" type = "sensor" linkName = "Link2-0-1-4" />
    <neuron name = "7" type = "motor"  jointName = "Link0_Link1" />
    <neuron name = "8" type = "motor"  jointName = "Link1_Link2" />
    <neuron name = "9" type = "motor"  jointName = "Link0_Link1" />
    <neuron name = "10" type = "motor"  jointName = "Link0_Link1" />
    <neuron name = "11" type = "motor"  jointName = "Link0_Link1" />
    <neuron name = "12" type = "motor"  jointName = "Link0_Link1" />
    <neuron name = "13" type = "motor"  jointName = "Link0_Link1" />
    <neuron name = "14" type = "motor"  jointName = "Link0_Link1" />
    <neuron name = "15" type = "motor"  jointName = "Link0_Link1" />
    <neuron name = "16" type = "motor"  jointName = "Link0_Link1" />
    <neuron name = "17" type = "motor"  jointName = "Link0_Link1" />
    <neuron name = "18" type = "motor"  jointName = "Link0_Link1" />
    <synapse sourceNeuronName = "0" targetNeuronName = "7" weight = "-0.8354821819407954" />
    <synapse sourceNeuronName = "0" targetNeuronName = "8" weight = "-0.8884075909520828" />
    <synapse sourceNeuronName = "0" targetNeuronName = "9" weight = "0.34432948837674604" />
    <synapse sourceNeuronName = "0" targetNeuronName = "10" weight = "0.4358461321479399" />
    <synapse sourceNeuronName = "0" targetNeuronName = "11" weight = "-0.9303485370896107" />
    <synapse sourceNeuronName = "0" targetNeuronName = "12" weight = "0.7524400388077994" />
    <synapse sourceNeuronName = "0" targetNeuronName = "13" weight = "0.5733180390619472" />
    <synapse sourceNeuronName = "0" targetNeuronName = "14" weight = "-0.8837610941556153" />
    <synapse sourceNeuronName = "0" targetNeuronName = "15" weight = "-0.7618937105065207" />
    <synapse sourceNeuronName = "0" targetNeuronName = "16" weight = "0.28307146786640924" />
    <synapse sourceNeuronName = "0" targetNeuronName = "17" weight = "0.42582363551903946" />
    <synapse sourceNeuronName = "0" targetNeuronName = "18" weight = "-0.39531748038084724" />
    <synapse sourceNeuronName = "1" targetNeuronName = "7" weight = "-0.2242121823437313" />
    <synapse sourceNeuronName = "1" targetNeuronName = "8" weight = "-0.3964915545492451" />
    <synapse sourceNeuronName = "1" targetNeuronName = "9" weight = "0.7762036314596279" />
    <synapse sourceNeuronName = "1" targetNeuronName = "10" weight = "0.8658703278025903" />
    <synapse sourceNeuronName = "1" targetNeuronName = "11" weight = "-0.8861425161749414" />
    <synapse sourceNeuronName = "1" targetNeuronName = "12" weight = "0.135010058017913" />
    <synapse sourceNeuronName = "1" targetNeuronName = "13" weight = "0.1957413449613581" />
    <synapse sourceNeuronName = "1" targetNeuronName = "14" weight = "0.7536486123570003" />
    <synapse sourceNeuronName = "1" targetNeuronName = "15" weight = "-0.1755582192843239" />
    <synapse sourceNeuronName = "1" targetNeuronName = "16" weight = "0.7938408367491949" />
    <synapse sourceNeuronName = "1" targetNeuronName = "17" weight = "-0.23088754804064937" />
    <synapse sourceNeuronName = "1" targetNeuronName = "18" weight = "0.04893930043125683" />
    <synapse sourceNeuronName = "2" targetNeuronName = "7" weight = "-0.06798401517814856" />
    <synapse sourceNeuronName = "2" targetNeuronName = "8" weight = "-0.3337430089884714" />
    <synapse sourceNeuronName = "2" targetNeuronName = "9" weight = "0.6414923132418184" />
    <synapse sourceNeuronName = "2" targetNeuronName = "10" weight = "0.4276712740469575" />
    <synapse sourceNeuronName = "2" targetNeuronName = "11" weight = "-0.9675098188862983" />
    <synapse sourceNeuronName = "2" targetNeuronName = "12" weight = "-0.3766268759363045" />
    <synapse sourceNeuronName = "2" targetNeuronName = "13" weight = "0.17073012471383464" />
    <synapse sourceNeuronName = "2" targetNeuronName = "14" weight = "0.014200496102995785" />
    <synapse sourceNeuronName = "2" targetNeuronName = "15" weight = "0.9346727701308053" />
    <synapse sourceNeuronName = "2" targetNeuronName = "16" weight = "-0.14686418201367135" />
    <synapse sourceNeuronName = "2" targetNeuronName = "17" weight = "-0.23481058690442547" />
    <synapse sourceNeuronName = "2" targetNeuronName = "18" weight = "0.4216067233976186" />
    <synapse sourceNeuronName = "3" targetNeuronName = "7" weight = "-0.4089422156820388" />
    <synapse sourceNeuronName = "3" targetNeuronName = "8" weight = "0.05833748560867025" />
    <synapse sourceNeuronName = "3" targetNeuronName = "9" weight = "0.5516669480345084" />
    <synapse sourceNeuronName = "3" targetNeuronName = "10" weight = "-0.8596497410109001" />
    <synapse sourceNeuronName = "3" targetNeuronName = "11" weight = "0.5918041644728635" />
    <synapse sourceNeuronName = "3" targetNeuronName = "12" weight = "0.3789676321367985" />
    <synapse sourceNeuronName = "3" targetNeuronName = "13" weight = "-0.9055251177820565" />
    <synapse sourceNeuronName = "3" targetNeuronName = "14" weight = "-0.48494919873862363" />
    <synapse sourceNeuronName = "3" targetNeuronName = "15" weight = "-0.5647179298057012" />
    <synapse sourceNeuronName = "3" targetNeuronName = "16" weight = "-0.23249244625345455" />
    <synapse sourceNeuronName = "3" targetNeuronName = "17" weight = "0.5534219431265093" />
    <synapse sourceNeuronName = "3" targetNeuronName = "18" weight = "0.9196127936017406" />
    <synapse sourceNeuronName = "4" targetNeuronName = "7" weight = "-0.6601323951555049" />
    <synapse sourceNeuronName = "4" targetNeuronName = "8" weight = "0.0919844558942613" />
    <synapse sourceNeuronName = "4" targetNeuronName = "9" weight = "0.6194038401338013" />
    <synapse sourceNeuronName = "4" targetNeuronName = "10" weight = "-0.16133744197964162" />
    <synapse sourceNeuronName = "4" targetNeuronName = "11" weight = "-0.14634008146028976" />
    <synapse sourceNeuronName = "4" targetNeuronName = "12" weight = "-0.3220388249897497" />
    <synapse sourceNeuronName = "4" targetNeuronName = "13" weight = "-0.4606741590433614" />
    <synapse sourceNeuronName = "4" targetNeuronName = "14" weight = "0.90770928528576" />
    <synapse sourceNeuronName = "4" targetNeuronName = "15" weight = "0.8716380878501566" />
    <synapse sourceNeuronName = "4" targetNeuronName = "16" weight = "-0.3432579853024402" />
    <synapse sourceNeuronName = "4" targetNeuronName = "17" weight = "-0.08756348356456312" />
    <synapse sourceNeuronName = "4" targetNeuronName = "18" weight = "-0.40585822945659666" />
    <synapse sourceNeuronName = "5" targetNeuronName = "7" weight = "0.9126517004829351" />
    <synapse sourceNeuronName = "5" targetNeuronName = "8" weight = "-0.71412689741129" />
    <synapse sourceNeuronName = "5" targetNeuronName = "9" weight = "-0.44113088391889455" />
    <synapse sourceNeuronName = "5" targetNeuronName = "10" weight = "-0.08305304999777707" />
    <synapse sourceNeuronName = "5" targetNeuronName = "11" weight = "-0.5181018136158415" />
    <synapse sourceNeuronName = "5" targetNeuronName = "12" weight = "0.9880947719996243" />
    <synapse sourceNeuronName = "5" targetNeuronName = "13" weight = "0.7532843159098979" />
    <synapse sourceNeuronName = "5" targetNeuronName = "14" weight = "0.055383091862714506" />
    <synapse sourceNeuronName = "5" targetNeuronName = "15" weight = "-0.30397451691386523" />
    <synapse sourceNeuronName = "5" targetNeuronName = "16" weight = "-0.9475971726741195" />
    <synapse sourceNeuronName = "5" targetNeuronName = "17" weight = "-0.8975405170956148" />
    <synapse sourceNeuronName = "5" targetNeuronName = "18" weight = "-0.7705467028825252" />
    <synapse sourceNeuronName = "6" targetNeuronName = "7" weight = "-0.768961313034999" />
    <synapse sourceNeuronName = "6" targetNeuronName = "8" weight = "-0.22072449933985272" />
    <synapse sourceNeuronName = "6" targetNeuronName = "9" weight = "0.842713288578637" />
    <synapse sourceNeuronName = "6" targetNeuronName = "10" weight = "-0.2586254139023163" />
    <synapse sourceNeuronName = "6" targetNeuronName = "11" weight = "-0.9022426171564197" />
    <synapse sourceNeuronName = "6" targetNeuronName = "12" weight = "0.22146851778147658" />
    <synapse sourceNeuronName = "6" targetNeuronName = "13" weight = "-0.8813312727534939" />
    <synapse sourceNeuronName = "6" targetNeuronName = "14" weight = "-0.3327630401036026" />
    <synapse sourceNeuronName = "6" targetNeuronName = "15" weight = "-0.13607898011517228" />
    <synapse sourceNeuronName = "6" targetNeuronName = "16" weight = "-0.8408287640068492" />
    <synapse sourceNeuronName = "6" targetNeuronName = "17" weight = "-0.3431305625126124" />
    <synapse sourceNeuronName = "6" targetNeuronName = "18" weight = "0.2647996321155359" />
</neuralNetwork>