<neuralNetwork>
    <neuron name = "0" type = "sensor" linkName = "Link0" />
    <neuron name = "1" type = "sensor" linkName = "Link2" />
    <neuron name = "2" type = "sensor" linkName = "Link3" />
    <neuron name = "3" type = "sensor" linkName = "Link2-0" />
    <neuron name = "4" type = "sensor" linkName = "Link2-2" />
    <neuron name = "5" type = "sensor" linkName = "Link2-3" />
    <neuron name = "6" type = "sensor" linkName = "Link2-4" />
    <neuron name = "7" type = "sensor" linkName = "Link2-2-0" />
    <neuron name = "8" type = "sensor" linkName = "Link2-2-2" />
    <neuron name = "9" type = "sensor" linkName = "Link3-0" />
    <neuron name = "10" type = "motor"  jointName = "Link0_Link1" />
    <neuron name = "11" type = "motor"  jointName = "Link1_Link2" />
    <neuron name = "12" type = "motor"  jointName = "Link2_Link3" />
    <neuron name = "13" type = "motor"  jointName = "Link0_Link1" />
    <neuron name = "14" type = "motor"  jointName = "Link0_Link1" />
    <neuron name = "15" type = "motor"  jointName = "Link0_Link1" />
    <neuron name = "16" type = "motor"  jointName = "Link0_Link1" />
    <neuron name = "17" type = "motor"  jointName = "Link0_Link1" />
    <neuron name = "18" type = "motor"  jointName = "Link0_Link1" />
    <neuron name = "19" type = "motor"  jointName = "Link0_Link1" />
    <neuron name = "20" type = "motor"  jointName = "Link0_Link1" />
    <neuron name = "21" type = "motor"  jointName = "Link0_Link1" />
    <neuron name = "22" type = "motor"  jointName = "Link0_Link1" />
    <synapse sourceNeuronName = "0" targetNeuronName = "10" weight = "0.18647420370584644" />
    <synapse sourceNeuronName = "0" targetNeuronName = "11" weight = "0.914326965271276" />
    <synapse sourceNeuronName = "0" targetNeuronName = "12" weight = "-0.4018575752579312" />
    <synapse sourceNeuronName = "0" targetNeuronName = "13" weight = "0.3931942698286033" />
    <synapse sourceNeuronName = "0" targetNeuronName = "14" weight = "0.5997602703044027" />
    <synapse sourceNeuronName = "0" targetNeuronName = "15" weight = "-0.015585609856025862" />
    <synapse sourceNeuronName = "0" targetNeuronName = "16" weight = "-0.6844963205256156" />
    <synapse sourceNeuronName = "0" targetNeuronName = "17" weight = "-0.20333622055375744" />
    <synapse sourceNeuronName = "0" targetNeuronName = "18" weight = "0.688364170330505" />
    <synapse sourceNeuronName = "0" targetNeuronName = "19" weight = "-0.7051757383893766" />
    <synapse sourceNeuronName = "0" targetNeuronName = "20" weight = "0.28447353492447003" />
    <synapse sourceNeuronName = "0" targetNeuronName = "21" weight = "-0.8008656537644663" />
    <synapse sourceNeuronName = "0" targetNeuronName = "22" weight = "0.04510403679709096" />
    <synapse sourceNeuronName = "1" targetNeuronName = "10" weight = "0.37783707821432544" />
    <synapse sourceNeuronName = "1" targetNeuronName = "11" weight = "0.5832837504990216" />
    <synapse sourceNeuronName = "1" targetNeuronName = "12" weight = "0.6972607584291579" />
    <synapse sourceNeuronName = "1" targetNeuronName = "13" weight = "-0.6893863653096823" />
    <synapse sourceNeuronName = "1" targetNeuronName = "14" weight = "-0.8417146297206484" />
    <synapse sourceNeuronName = "1" targetNeuronName = "15" weight = "-0.5383751142645765" />
    <synapse sourceNeuronName = "1" targetNeuronName = "16" weight = "-0.6421696904271055" />
    <synapse sourceNeuronName = "1" targetNeuronName = "17" weight = "0.6541797857013738" />
    <synapse sourceNeuronName = "1" targetNeuronName = "18" weight = "-0.2631635269036221" />
    <synapse sourceNeuronName = "1" targetNeuronName = "19" weight = "0.8060227470845762" />
    <synapse sourceNeuronName = "1" targetNeuronName = "20" weight = "-0.02581622074646539" />
    <synapse sourceNeuronName = "1" targetNeuronName = "21" weight = "-0.24009409979734797" />
    <synapse sourceNeuronName = "1" targetNeuronName = "22" weight = "-0.2902718764735408" />
    <synapse sourceNeuronName = "2" targetNeuronName = "10" weight = "0.009185116703006813" />
    <synapse sourceNeuronName = "2" targetNeuronName = "11" weight = "-0.8175981546302327" />
    <synapse sourceNeuronName = "2" targetNeuronName = "12" weight = "0.09183823354258691" />
    <synapse sourceNeuronName = "2" targetNeuronName = "13" weight = "0.44679800783905743" />
    <synapse sourceNeuronName = "2" targetNeuronName = "14" weight = "-0.6577620069694607" />
    <synapse sourceNeuronName = "2" targetNeuronName = "15" weight = "-0.17736358727575263" />
    <synapse sourceNeuronName = "2" targetNeuronName = "16" weight = "0.16588331949594903" />
    <synapse sourceNeuronName = "2" targetNeuronName = "17" weight = "-0.2277433633306507" />
    <synapse sourceNeuronName = "2" targetNeuronName = "18" weight = "-0.3201990802659691" />
    <synapse sourceNeuronName = "2" targetNeuronName = "19" weight = "-0.7393390864413498" />
    <synapse sourceNeuronName = "2" targetNeuronName = "20" weight = "0.05204614827474341" />
    <synapse sourceNeuronName = "2" targetNeuronName = "21" weight = "-0.16744312762784674" />
    <synapse sourceNeuronName = "2" targetNeuronName = "22" weight = "-0.30263798825736665" />
    <synapse sourceNeuronName = "3" targetNeuronName = "10" weight = "-0.9222849514089886" />
    <synapse sourceNeuronName = "3" targetNeuronName = "11" weight = "-0.5668169522623785" />
    <synapse sourceNeuronName = "3" targetNeuronName = "12" weight = "-0.19820595923745565" />
    <synapse sourceNeuronName = "3" targetNeuronName = "13" weight = "0.856873333505332" />
    <synapse sourceNeuronName = "3" targetNeuronName = "14" weight = "0.5975621820762858" />
    <synapse sourceNeuronName = "3" targetNeuronName = "15" weight = "-0.5354431000997386" />
    <synapse sourceNeuronName = "3" targetNeuronName = "16" weight = "0.30854655808985054" />
    <synapse sourceNeuronName = "3" targetNeuronName = "17" weight = "-0.6991717264804806" />
    <synapse sourceNeuronName = "3" targetNeuronName = "18" weight = "-0.011178751806114384" />
    <synapse sourceNeuronName = "3" targetNeuronName = "19" weight = "-0.9552062349891555" />
    <synapse sourceNeuronName = "3" targetNeuronName = "20" weight = "0.08269887136664722" />
    <synapse sourceNeuronName = "3" targetNeuronName = "21" weight = "0.6694752246738633" />
    <synapse sourceNeuronName = "3" targetNeuronName = "22" weight = "0.08846204093720944" />
    <synapse sourceNeuronName = "4" targetNeuronName = "10" weight = "-0.3893304292310338" />
    <synapse sourceNeuronName = "4" targetNeuronName = "11" weight = "0.9133306518404036" />
    <synapse sourceNeuronName = "4" targetNeuronName = "12" weight = "-0.4129284577987389" />
    <synapse sourceNeuronName = "4" targetNeuronName = "13" weight = "-0.835004556944781" />
    <synapse sourceNeuronName = "4" targetNeuronName = "14" weight = "-0.9395848721128848" />
    <synapse sourceNeuronName = "4" targetNeuronName = "15" weight = "-0.5636457359490759" />
    <synapse sourceNeuronName = "4" targetNeuronName = "16" weight = "0.4945152484685711" />
    <synapse sourceNeuronName = "4" targetNeuronName = "17" weight = "-0.2516374478305943" />
    <synapse sourceNeuronName = "4" targetNeuronName = "18" weight = "0.8499484688456018" />
    <synapse sourceNeuronName = "4" targetNeuronName = "19" weight = "0.8691390059989907" />
    <synapse sourceNeuronName = "4" targetNeuronName = "20" weight = "0.7672035250336404" />
    <synapse sourceNeuronName = "4" targetNeuronName = "21" weight = "0.8341575462170256" />
    <synapse sourceNeuronName = "4" targetNeuronName = "22" weight = "0.923500982960545" />
    <synapse sourceNeuronName = "5" targetNeuronName = "10" weight = "0.5318140468658208" />
    <synapse sourceNeuronName = "5" targetNeuronName = "11" weight = "0.7763463349344473" />
    <synapse sourceNeuronName = "5" targetNeuronName = "12" weight = "0.6872523383040001" />
    <synapse sourceNeuronName = "5" targetNeuronName = "13" weight = "0.4971369324668877" />
    <synapse sourceNeuronName = "5" targetNeuronName = "14" weight = "-0.7223561937449889" />
    <synapse sourceNeuronName = "5" targetNeuronName = "15" weight = "-0.12161259127485424" />
    <synapse sourceNeuronName = "5" targetNeuronName = "16" weight = "0.5854501618521473" />
    <synapse sourceNeuronName = "5" targetNeuronName = "17" weight = "0.057773354515265885" />
    <synapse sourceNeuronName = "5" targetNeuronName = "18" weight = "-0.8638490279651823" />
    <synapse sourceNeuronName = "5" targetNeuronName = "19" weight = "0.1665165706669871" />
    <synapse sourceNeuronName = "5" targetNeuronName = "20" weight = "0.741749885093117" />
    <synapse sourceNeuronName = "5" targetNeuronName = "21" weight = "0.8755424894647463" />
    <synapse sourceNeuronName = "5" targetNeuronName = "22" weight = "-0.4424531086695116" />
    <synapse sourceNeuronName = "6" targetNeuronName = "10" weight = "-0.30797073391057705" />
    <synapse sourceNeuronName = "6" targetNeuronName = "11" weight = "-0.7457961678017755" />
    <synapse sourceNeuronName = "6" targetNeuronName = "12" weight = "-0.4424445031042017" />
    <synapse sourceNeuronName = "6" targetNeuronName = "13" weight = "-0.8058282015726688" />
    <synapse sourceNeuronName = "6" targetNeuronName = "14" weight = "0.5136860873960292" />
    <synapse sourceNeuronName = "6" targetNeuronName = "15" weight = "-0.49702971031181287" />
    <synapse sourceNeuronName = "6" targetNeuronName = "16" weight = "-0.24972626610261983" />
    <synapse sourceNeuronName = "6" targetNeuronName = "17" weight = "-0.06402273105482537" />
    <synapse sourceNeuronName = "6" targetNeuronName = "18" weight = "0.18645977623951304" />
    <synapse sourceNeuronName = "6" targetNeuronName = "19" weight = "0.8396874489370563" />
    <synapse sourceNeuronName = "6" targetNeuronName = "20" weight = "0.047453639902614864" />
    <synapse sourceNeuronName = "6" targetNeuronName = "21" weight = "-0.45623365477501276" />
    <synapse sourceNeuronName = "6" targetNeuronName = "22" weight = "0.2476014574719183" />
    <synapse sourceNeuronName = "7" targetNeuronName = "10" weight = "0.7628915461179966" />
    <synapse sourceNeuronName = "7" targetNeuronName = "11" weight = "-0.8197399330863502" />
    <synapse sourceNeuronName = "7" targetNeuronName = "12" weight = "0.7468631358063629" />
    <synapse sourceNeuronName = "7" targetNeuronName = "13" weight = "0.6184005587270323" />
    <synapse sourceNeuronName = "7" targetNeuronName = "14" weight = "-0.17269443451284872" />
    <synapse sourceNeuronName = "7" targetNeuronName = "15" weight = "-0.6729460850310727" />
    <synapse sourceNeuronName = "7" targetNeuronName = "16" weight = "-0.27414881181933515" />
    <synapse sourceNeuronName = "7" targetNeuronName = "17" weight = "-0.8734934300967514" />
    <synapse sourceNeuronName = "7" targetNeuronName = "18" weight = "-0.7026204565742271" />
    <synapse sourceNeuronName = "7" targetNeuronName = "19" weight = "-0.5937577429093965" />
    <synapse sourceNeuronName = "7" targetNeuronName = "20" weight = "0.30200042665949045" />
    <synapse sourceNeuronName = "7" targetNeuronName = "21" weight = "0.7635808479866155" />
    <synapse sourceNeuronName = "7" targetNeuronName = "22" weight = "-0.6412168222239056" />
    <synapse sourceNeuronName = "8" targetNeuronName = "10" weight = "0.8830932101227338" />
    <synapse sourceNeuronName = "8" targetNeuronName = "11" weight = "0.8800339955687166" />
    <synapse sourceNeuronName = "8" targetNeuronName = "12" weight = "-0.3646071730898195" />
    <synapse sourceNeuronName = "8" targetNeuronName = "13" weight = "-0.21938206167066765" />
    <synapse sourceNeuronName = "8" targetNeuronName = "14" weight = "0.4970681129290675" />
    <synapse sourceNeuronName = "8" targetNeuronName = "15" weight = "-0.6962833067075229" />
    <synapse sourceNeuronName = "8" targetNeuronName = "16" weight = "-0.4149826126817564" />
    <synapse sourceNeuronName = "8" targetNeuronName = "17" weight = "-0.42993552005155755" />
    <synapse sourceNeuronName = "8" targetNeuronName = "18" weight = "0.7093164475397462" />
    <synapse sourceNeuronName = "8" targetNeuronName = "19" weight = "0.09028126945549086" />
    <synapse sourceNeuronName = "8" targetNeuronName = "20" weight = "0.254821659589195" />
    <synapse sourceNeuronName = "8" targetNeuronName = "21" weight = "-0.7167227159039311" />
    <synapse sourceNeuronName = "8" targetNeuronName = "22" weight = "-0.54450171759893" />
    <synapse sourceNeuronName = "9" targetNeuronName = "10" weight = "0.5411284500664515" />
    <synapse sourceNeuronName = "9" targetNeuronName = "11" weight = "-0.6241630458547394" />
    <synapse sourceNeuronName = "9" targetNeuronName = "12" weight = "0.6653327602054973" />
    <synapse sourceNeuronName = "9" targetNeuronName = "13" weight = "0.40836180793641375" />
    <synapse sourceNeuronName = "9" targetNeuronName = "14" weight = "-0.06583360281687578" />
    <synapse sourceNeuronName = "9" targetNeuronName = "15" weight = "-0.20800127852419315" />
    <synapse sourceNeuronName = "9" targetNeuronName = "16" weight = "-0.7075165240871366" />
    <synapse sourceNeuronName = "9" targetNeuronName = "17" weight = "-0.5936011923678466" />
    <synapse sourceNeuronName = "9" targetNeuronName = "18" weight = "0.28674690862647534" />
    <synapse sourceNeuronName = "9" targetNeuronName = "19" weight = "-0.7576911906933632" />
    <synapse sourceNeuronName = "9" targetNeuronName = "20" weight = "0.3965826120094058" />
    <synapse sourceNeuronName = "9" targetNeuronName = "21" weight = "-0.8040816130181248" />
    <synapse sourceNeuronName = "9" targetNeuronName = "22" weight = "-0.7757566568921168" />
</neuralNetwork>