<neuralNetwork>
    <neuron name = "0" type = "sensor" linkName = "Link0" />
    <neuron name = "1" type = "sensor" linkName = "Link1" />
    <neuron name = "2" type = "sensor" linkName = "Link1" />
    <neuron name = "3" type = "sensor" linkName = "Link2-0" />
    <neuron name = "4" type = "sensor" linkName = "Link2-1" />
    <neuron name = "5" type = "sensor" linkName = "Link2-0-0" />
    <neuron name = "6" type = "sensor" linkName = "Link2-0-1" />
    <neuron name = "7" type = "sensor" linkName = "Link2-0-2" />
    <neuron name = "8" type = "sensor" linkName = "Link2-0-1-1" />
    <neuron name = "9" type = "sensor" linkName = "Link2-1-0" />
    <neuron name = "10" type = "sensor" linkName = "Link2-1-1" />
    <neuron name = "11" type = "motor"  jointName = "Link0_Link1" />
    <neuron name = "12" type = "motor"  jointName = "Link1_Link2" />
    <neuron name = "13" type = "motor"  jointName = "Link0_Link1" />
    <neuron name = "14" type = "motor"  jointName = "Link0_Link1" />
    <neuron name = "15" type = "motor"  jointName = "Link0_Link1" />
    <neuron name = "16" type = "motor"  jointName = "Link0_Link1" />
    <synapse sourceNeuronName = "0" targetNeuronName = "11" weight = "0.7573793635350907" />
    <synapse sourceNeuronName = "0" targetNeuronName = "12" weight = "0.06861346031810744" />
    <synapse sourceNeuronName = "0" targetNeuronName = "13" weight = "-0.5435312237324945" />
    <synapse sourceNeuronName = "0" targetNeuronName = "14" weight = "-0.47564230292250853" />
    <synapse sourceNeuronName = "0" targetNeuronName = "15" weight = "-0.05191069732805742" />
    <synapse sourceNeuronName = "0" targetNeuronName = "16" weight = "-0.7937229954380149" />
    <synapse sourceNeuronName = "1" targetNeuronName = "11" weight = "-0.3297706498207478" />
    <synapse sourceNeuronName = "1" targetNeuronName = "12" weight = "-0.9035132223920406" />
    <synapse sourceNeuronName = "1" targetNeuronName = "13" weight = "-0.395154260762109" />
    <synapse sourceNeuronName = "1" targetNeuronName = "14" weight = "-0.340540602579275" />
    <synapse sourceNeuronName = "1" targetNeuronName = "15" weight = "0.8583355211495765" />
    <synapse sourceNeuronName = "1" targetNeuronName = "16" weight = "0.08947760641594793" />
    <synapse sourceNeuronName = "2" targetNeuronName = "11" weight = "-0.6967635469456126" />
    <synapse sourceNeuronName = "2" targetNeuronName = "12" weight = "-0.17217025776181405" />
    <synapse sourceNeuronName = "2" targetNeuronName = "13" weight = "0.4052363176692231" />
    <synapse sourceNeuronName = "2" targetNeuronName = "14" weight = "-0.3874498748403352" />
    <synapse sourceNeuronName = "2" targetNeuronName = "15" weight = "-0.5089105515398769" />
    <synapse sourceNeuronName = "2" targetNeuronName = "16" weight = "-0.546913180241954" />
    <synapse sourceNeuronName = "3" targetNeuronName = "11" weight = "-0.11254918314508866" />
    <synapse sourceNeuronName = "3" targetNeuronName = "12" weight = "-0.9174697734663264" />
    <synapse sourceNeuronName = "3" targetNeuronName = "13" weight = "-0.023043410395929387" />
    <synapse sourceNeuronName = "3" targetNeuronName = "14" weight = "-0.996018659285097" />
    <synapse sourceNeuronName = "3" targetNeuronName = "15" weight = "0.4380446652973933" />
    <synapse sourceNeuronName = "3" targetNeuronName = "16" weight = "-0.61754581036247" />
    <synapse sourceNeuronName = "4" targetNeuronName = "11" weight = "0.6258577153219251" />
    <synapse sourceNeuronName = "4" targetNeuronName = "12" weight = "-0.15140880261765588" />
    <synapse sourceNeuronName = "4" targetNeuronName = "13" weight = "-0.859098766340922" />
    <synapse sourceNeuronName = "4" targetNeuronName = "14" weight = "-0.407236903189677" />
    <synapse sourceNeuronName = "4" targetNeuronName = "15" weight = "0.8705649119097307" />
    <synapse sourceNeuronName = "4" targetNeuronName = "16" weight = "0.882580574018293" />
    <synapse sourceNeuronName = "5" targetNeuronName = "11" weight = "0.9225924809296184" />
    <synapse sourceNeuronName = "5" targetNeuronName = "12" weight = "0.660920626731639" />
    <synapse sourceNeuronName = "5" targetNeuronName = "13" weight = "0.40919881180655127" />
    <synapse sourceNeuronName = "5" targetNeuronName = "14" weight = "-0.12705591126085958" />
    <synapse sourceNeuronName = "5" targetNeuronName = "15" weight = "0.7459761890226377" />
    <synapse sourceNeuronName = "5" targetNeuronName = "16" weight = "-0.9145011879543758" />
    <synapse sourceNeuronName = "6" targetNeuronName = "11" weight = "0.10984592538761051" />
    <synapse sourceNeuronName = "6" targetNeuronName = "12" weight = "0.3031166856833838" />
    <synapse sourceNeuronName = "6" targetNeuronName = "13" weight = "-0.3883988870847572" />
    <synapse sourceNeuronName = "6" targetNeuronName = "14" weight = "-0.06453991013275351" />
    <synapse sourceNeuronName = "6" targetNeuronName = "15" weight = "0.8387185867333837" />
    <synapse sourceNeuronName = "6" targetNeuronName = "16" weight = "0.6013003442366616" />
    <synapse sourceNeuronName = "7" targetNeuronName = "11" weight = "0.39847269858919354" />
    <synapse sourceNeuronName = "7" targetNeuronName = "12" weight = "-0.6474761453914626" />
    <synapse sourceNeuronName = "7" targetNeuronName = "13" weight = "-0.5513448561345604" />
    <synapse sourceNeuronName = "7" targetNeuronName = "14" weight = "0.7203562561579662" />
    <synapse sourceNeuronName = "7" targetNeuronName = "15" weight = "-0.2929346348037485" />
    <synapse sourceNeuronName = "7" targetNeuronName = "16" weight = "0.7291736239891311" />
    <synapse sourceNeuronName = "8" targetNeuronName = "11" weight = "-0.2232356680138965" />
    <synapse sourceNeuronName = "8" targetNeuronName = "12" weight = "-0.12010167593272758" />
    <synapse sourceNeuronName = "8" targetNeuronName = "13" weight = "0.7144222428159239" />
    <synapse sourceNeuronName = "8" targetNeuronName = "14" weight = "0.013062994818747065" />
    <synapse sourceNeuronName = "8" targetNeuronName = "15" weight = "0.7992834893027085" />
    <synapse sourceNeuronName = "8" targetNeuronName = "16" weight = "-0.10691882899272875" />
    <synapse sourceNeuronName = "9" targetNeuronName = "11" weight = "-0.1781110000008388" />
    <synapse sourceNeuronName = "9" targetNeuronName = "12" weight = "-0.45897034257822855" />
    <synapse sourceNeuronName = "9" targetNeuronName = "13" weight = "0.08656637838625647" />
    <synapse sourceNeuronName = "9" targetNeuronName = "14" weight = "-0.5039947451805815" />
    <synapse sourceNeuronName = "9" targetNeuronName = "15" weight = "0.7145034158287455" />
    <synapse sourceNeuronName = "9" targetNeuronName = "16" weight = "0.5116695135286782" />
    <synapse sourceNeuronName = "10" targetNeuronName = "11" weight = "-0.19947587067705252" />
    <synapse sourceNeuronName = "10" targetNeuronName = "12" weight = "0.16443066549470986" />
    <synapse sourceNeuronName = "10" targetNeuronName = "13" weight = "0.6673839061971114" />
    <synapse sourceNeuronName = "10" targetNeuronName = "14" weight = "-0.15480340354022948" />
    <synapse sourceNeuronName = "10" targetNeuronName = "15" weight = "-0.9148589959647979" />
    <synapse sourceNeuronName = "10" targetNeuronName = "16" weight = "0.03292914603291108" />
</neuralNetwork>