<neuralNetwork>
    <neuron name = "0" type = "sensor" linkName = "Link0" />
    <neuron name = "1" type = "sensor" linkName = "Link2-1" />
    <neuron name = "2" type = "sensor" linkName = "Link2-4-0" />
    <neuron name = "3" type = "sensor" linkName = "Link3-2" />
    <neuron name = "4" type = "sensor" linkName = "Link3-3" />
    <neuron name = "5" type = "sensor" linkName = "Link3-4" />
    <neuron name = "6" type = "motor"  jointName = "Link0_Link1" />
    <neuron name = "7" type = "motor"  jointName = "Link1_Link2" />
    <neuron name = "8" type = "motor"  jointName = "Link2_Link3" />
    <neuron name = "9" type = "motor"  jointName = "Link0_Link1" />
    <neuron name = "10" type = "motor"  jointName = "Link0_Link1" />
    <neuron name = "11" type = "motor"  jointName = "Link0_Link1" />
    <neuron name = "12" type = "motor"  jointName = "Link0_Link1" />
    <synapse sourceNeuronName = "0" targetNeuronName = "6" weight = "0.7990166575790474" />
    <synapse sourceNeuronName = "0" targetNeuronName = "7" weight = "-0.9604154601226254" />
    <synapse sourceNeuronName = "0" targetNeuronName = "8" weight = "-0.1556575668304232" />
    <synapse sourceNeuronName = "0" targetNeuronName = "9" weight = "-0.2370924529755396" />
    <synapse sourceNeuronName = "0" targetNeuronName = "10" weight = "-0.7542521589722093" />
    <synapse sourceNeuronName = "0" targetNeuronName = "11" weight = "-0.41188121504794806" />
    <synapse sourceNeuronName = "0" targetNeuronName = "12" weight = "-0.6962242904689093" />
    <synapse sourceNeuronName = "1" targetNeuronName = "6" weight = "-0.7592250498918096" />
    <synapse sourceNeuronName = "1" targetNeuronName = "7" weight = "0.9002276886570875" />
    <synapse sourceNeuronName = "1" targetNeuronName = "8" weight = "-0.07054278015988769" />
    <synapse sourceNeuronName = "1" targetNeuronName = "9" weight = "-0.20292308953132743" />
    <synapse sourceNeuronName = "1" targetNeuronName = "10" weight = "-0.014111782655378713" />
    <synapse sourceNeuronName = "1" targetNeuronName = "11" weight = "0.24264976822348383" />
    <synapse sourceNeuronName = "1" targetNeuronName = "12" weight = "0.3388485914904338" />
    <synapse sourceNeuronName = "2" targetNeuronName = "6" weight = "-0.22640453622388756" />
    <synapse sourceNeuronName = "2" targetNeuronName = "7" weight = "0.29721762518143313" />
    <synapse sourceNeuronName = "2" targetNeuronName = "8" weight = "-0.9144510819292033" />
    <synapse sourceNeuronName = "2" targetNeuronName = "9" weight = "-0.19116258724176793" />
    <synapse sourceNeuronName = "2" targetNeuronName = "10" weight = "0.026101295688145898" />
    <synapse sourceNeuronName = "2" targetNeuronName = "11" weight = "0.722494652712417" />
    <synapse sourceNeuronName = "2" targetNeuronName = "12" weight = "0.6324253991294009" />
    <synapse sourceNeuronName = "3" targetNeuronName = "6" weight = "0.47366555604853144" />
    <synapse sourceNeuronName = "3" targetNeuronName = "7" weight = "-0.9076487971867195" />
    <synapse sourceNeuronName = "3" targetNeuronName = "8" weight = "-0.8071354683834466" />
    <synapse sourceNeuronName = "3" targetNeuronName = "9" weight = "-0.8565103578242328" />
    <synapse sourceNeuronName = "3" targetNeuronName = "10" weight = "-0.7182831250389106" />
    <synapse sourceNeuronName = "3" targetNeuronName = "11" weight = "0.1637150803754659" />
    <synapse sourceNeuronName = "3" targetNeuronName = "12" weight = "0.5603999957891588" />
    <synapse sourceNeuronName = "4" targetNeuronName = "6" weight = "0.6476805094991207" />
    <synapse sourceNeuronName = "4" targetNeuronName = "7" weight = "0.35138914455951187" />
    <synapse sourceNeuronName = "4" targetNeuronName = "8" weight = "0.12325694073910176" />
    <synapse sourceNeuronName = "4" targetNeuronName = "9" weight = "0.5481195563578192" />
    <synapse sourceNeuronName = "4" targetNeuronName = "10" weight = "0.03770281564170408" />
    <synapse sourceNeuronName = "4" targetNeuronName = "11" weight = "-0.8877142671916181" />
    <synapse sourceNeuronName = "4" targetNeuronName = "12" weight = "0.154034305655256" />
    <synapse sourceNeuronName = "5" targetNeuronName = "6" weight = "-0.03586647088073058" />
    <synapse sourceNeuronName = "5" targetNeuronName = "7" weight = "0.34952241063079303" />
    <synapse sourceNeuronName = "5" targetNeuronName = "8" weight = "0.49989306522799803" />
    <synapse sourceNeuronName = "5" targetNeuronName = "9" weight = "0.22549820327854242" />
    <synapse sourceNeuronName = "5" targetNeuronName = "10" weight = "0.360932792539719" />
    <synapse sourceNeuronName = "5" targetNeuronName = "11" weight = "0.6947997719583083" />
    <synapse sourceNeuronName = "5" targetNeuronName = "12" weight = "0.4660876901533051" />
</neuralNetwork>