<neuralNetwork>
    <neuron name = "0" type = "sensor" linkName = "Link0" />
    <neuron name = "1" type = "sensor" linkName = "Link1" />
    <neuron name = "2" type = "sensor" linkName = "Link1" />
    <neuron name = "3" type = "sensor" linkName = "Link2-2" />
    <neuron name = "4" type = "sensor" linkName = "Link2-3" />
    <neuron name = "5" type = "sensor" linkName = "Link2-4" />
    <neuron name = "6" type = "sensor" linkName = "Link2-3-0" />
    <neuron name = "7" type = "sensor" linkName = "Link2-3-1" />
    <neuron name = "8" type = "sensor" linkName = "Link2-3-2" />
    <neuron name = "9" type = "sensor" linkName = "Link2-3-2-0" />
    <neuron name = "10" type = "sensor" linkName = "Link2-3-2-1" />
    <neuron name = "11" type = "sensor" linkName = "Link2-3-2-2" />
    <neuron name = "12" type = "sensor" linkName = "Link2-3-2-3" />
    <neuron name = "13" type = "motor"  jointName = "Link0_Link1" />
    <neuron name = "14" type = "motor"  jointName = "Link1_Link2" />
    <synapse sourceNeuronName = "0" targetNeuronName = "13" weight = "-0.20364318484032884" />
    <synapse sourceNeuronName = "0" targetNeuronName = "14" weight = "-0.37664102994311377" />
    <synapse sourceNeuronName = "1" targetNeuronName = "13" weight = "-0.11469006404855708" />
    <synapse sourceNeuronName = "1" targetNeuronName = "14" weight = "0.37463471296558826" />
    <synapse sourceNeuronName = "2" targetNeuronName = "13" weight = "-0.4106549491046225" />
    <synapse sourceNeuronName = "2" targetNeuronName = "14" weight = "-0.566563913358419" />
    <synapse sourceNeuronName = "3" targetNeuronName = "13" weight = "0.30967725957993864" />
    <synapse sourceNeuronName = "3" targetNeuronName = "14" weight = "-0.6465259016914837" />
    <synapse sourceNeuronName = "4" targetNeuronName = "13" weight = "0.18691616403175404" />
    <synapse sourceNeuronName = "4" targetNeuronName = "14" weight = "-0.4946898229406025" />
    <synapse sourceNeuronName = "5" targetNeuronName = "13" weight = "-0.20854559268243644" />
    <synapse sourceNeuronName = "5" targetNeuronName = "14" weight = "-0.6051474961721013" />
    <synapse sourceNeuronName = "6" targetNeuronName = "13" weight = "-0.47548724594929404" />
    <synapse sourceNeuronName = "6" targetNeuronName = "14" weight = "0.0866351970963879" />
    <synapse sourceNeuronName = "7" targetNeuronName = "13" weight = "0.780121684013096" />
    <synapse sourceNeuronName = "7" targetNeuronName = "14" weight = "0.007157810548581001" />
    <synapse sourceNeuronName = "8" targetNeuronName = "13" weight = "0.3316620200452798" />
    <synapse sourceNeuronName = "8" targetNeuronName = "14" weight = "-0.024817231048347654" />
    <synapse sourceNeuronName = "9" targetNeuronName = "13" weight = "0.6180682874808601" />
    <synapse sourceNeuronName = "9" targetNeuronName = "14" weight = "-0.7865762347865695" />
    <synapse sourceNeuronName = "10" targetNeuronName = "13" weight = "0.36373799170406595" />
    <synapse sourceNeuronName = "10" targetNeuronName = "14" weight = "-0.3504369198467554" />
    <synapse sourceNeuronName = "11" targetNeuronName = "13" weight = "-0.8862903270190341" />
    <synapse sourceNeuronName = "11" targetNeuronName = "14" weight = "-0.5732828489740152" />
    <synapse sourceNeuronName = "12" targetNeuronName = "13" weight = "0.4805452457536783" />
    <synapse sourceNeuronName = "12" targetNeuronName = "14" weight = "0.11891933498217133" />
</neuralNetwork>