<neuralNetwork>
    <neuron name = "0" type = "sensor" linkName = "Link0" />
    <neuron name = "1" type = "sensor" linkName = "Link3-0" />
    <neuron name = "2" type = "sensor" linkName = "Link3-1-0" />
    <neuron name = "3" type = "sensor" linkName = "Link3-1-1" />
    <neuron name = "4" type = "sensor" linkName = "Link3-1-2" />
    <neuron name = "5" type = "sensor" linkName = "Link3-1-3" />
    <neuron name = "6" type = "motor"  jointName = "Link0_Link1" />
    <neuron name = "7" type = "motor"  jointName = "Link1_Link2" />
    <neuron name = "8" type = "motor"  jointName = "Link2_Link3" />
    <neuron name = "9" type = "motor"  jointName = "Link0_Link1" />
    <neuron name = "10" type = "motor"  jointName = "Link0_Link1" />
    <neuron name = "11" type = "motor"  jointName = "Link0_Link1" />
    <neuron name = "12" type = "motor"  jointName = "Link0_Link1" />
    <synapse sourceNeuronName = "0" targetNeuronName = "6" weight = "-0.9268634480870805" />
    <synapse sourceNeuronName = "0" targetNeuronName = "7" weight = "0.5797467690342297" />
    <synapse sourceNeuronName = "0" targetNeuronName = "8" weight = "0.40372059000834026" />
    <synapse sourceNeuronName = "0" targetNeuronName = "9" weight = "-0.05089626229744293" />
    <synapse sourceNeuronName = "0" targetNeuronName = "10" weight = "0.031833660960869814" />
    <synapse sourceNeuronName = "0" targetNeuronName = "11" weight = "-0.9363100843126886" />
    <synapse sourceNeuronName = "0" targetNeuronName = "12" weight = "0.8529193260822328" />
    <synapse sourceNeuronName = "1" targetNeuronName = "6" weight = "0.3004728169909743" />
    <synapse sourceNeuronName = "1" targetNeuronName = "7" weight = "-0.3267131028537482" />
    <synapse sourceNeuronName = "1" targetNeuronName = "8" weight = "-0.43409024459570666" />
    <synapse sourceNeuronName = "1" targetNeuronName = "9" weight = "0.2803312575792578" />
    <synapse sourceNeuronName = "1" targetNeuronName = "10" weight = "0.2216142094829625" />
    <synapse sourceNeuronName = "1" targetNeuronName = "11" weight = "0.3164751407933639" />
    <synapse sourceNeuronName = "1" targetNeuronName = "12" weight = "0.5078315192959937" />
    <synapse sourceNeuronName = "2" targetNeuronName = "6" weight = "-0.663457624217882" />
    <synapse sourceNeuronName = "2" targetNeuronName = "7" weight = "-0.5567065666010567" />
    <synapse sourceNeuronName = "2" targetNeuronName = "8" weight = "0.05878960364911423" />
    <synapse sourceNeuronName = "2" targetNeuronName = "9" weight = "-0.17240904587206174" />
    <synapse sourceNeuronName = "2" targetNeuronName = "10" weight = "0.8583167231769107" />
    <synapse sourceNeuronName = "2" targetNeuronName = "11" weight = "-0.541061656046137" />
    <synapse sourceNeuronName = "2" targetNeuronName = "12" weight = "0.33815388823520176" />
    <synapse sourceNeuronName = "3" targetNeuronName = "6" weight = "-0.8478590588792325" />
    <synapse sourceNeuronName = "3" targetNeuronName = "7" weight = "0.33696043768938866" />
    <synapse sourceNeuronName = "3" targetNeuronName = "8" weight = "0.9927285833519519" />
    <synapse sourceNeuronName = "3" targetNeuronName = "9" weight = "0.9138664967401533" />
    <synapse sourceNeuronName = "3" targetNeuronName = "10" weight = "-0.9979837017406867" />
    <synapse sourceNeuronName = "3" targetNeuronName = "11" weight = "-0.7844709583561904" />
    <synapse sourceNeuronName = "3" targetNeuronName = "12" weight = "-0.2504494414074647" />
    <synapse sourceNeuronName = "4" targetNeuronName = "6" weight = "0.5329482713689615" />
    <synapse sourceNeuronName = "4" targetNeuronName = "7" weight = "-0.19278138195384242" />
    <synapse sourceNeuronName = "4" targetNeuronName = "8" weight = "-0.063980051630808" />
    <synapse sourceNeuronName = "4" targetNeuronName = "9" weight = "0.6920532901964727" />
    <synapse sourceNeuronName = "4" targetNeuronName = "10" weight = "0.0900539565904439" />
    <synapse sourceNeuronName = "4" targetNeuronName = "11" weight = "0.5280335921267367" />
    <synapse sourceNeuronName = "4" targetNeuronName = "12" weight = "0.5237602961806422" />
    <synapse sourceNeuronName = "5" targetNeuronName = "6" weight = "0.500787610961714" />
    <synapse sourceNeuronName = "5" targetNeuronName = "7" weight = "-0.7140642549491996" />
    <synapse sourceNeuronName = "5" targetNeuronName = "8" weight = "0.45002000467345415" />
    <synapse sourceNeuronName = "5" targetNeuronName = "9" weight = "0.4022780659173735" />
    <synapse sourceNeuronName = "5" targetNeuronName = "10" weight = "-0.2032246349981912" />
    <synapse sourceNeuronName = "5" targetNeuronName = "11" weight = "0.28561485110087226" />
    <synapse sourceNeuronName = "5" targetNeuronName = "12" weight = "0.5712145388506231" />
</neuralNetwork>