<neuralNetwork>
    <neuron name = "0" type = "sensor" linkName = "Link0" />
    <neuron name = "1" type = "sensor" linkName = "Link2" />
    <neuron name = "2" type = "sensor" linkName = "Link2-0" />
    <neuron name = "3" type = "sensor" linkName = "Link2-1" />
    <neuron name = "4" type = "sensor" linkName = "Link2-0-0" />
    <neuron name = "5" type = "sensor" linkName = "Link2-0-1" />
    <neuron name = "6" type = "sensor" linkName = "Link2-0-2" />
    <neuron name = "7" type = "sensor" linkName = "Link2-2-0" />
    <neuron name = "8" type = "sensor" linkName = "Link2-2-1" />
    <neuron name = "9" type = "sensor" linkName = "Link2-2-2" />
    <neuron name = "10" type = "sensor" linkName = "Link2-2-4" />
    <neuron name = "11" type = "sensor" linkName = "Link3-1" />
    <neuron name = "12" type = "sensor" linkName = "Link3-2" />
    <neuron name = "13" type = "motor"  jointName = "Link0_Link1" />
    <neuron name = "14" type = "motor"  jointName = "Link1_Link2" />
    <neuron name = "15" type = "motor"  jointName = "Link2_Link3" />
    <neuron name = "16" type = "motor"  jointName = "Link0_Link1" />
    <neuron name = "17" type = "motor"  jointName = "Link0_Link1" />
    <neuron name = "18" type = "motor"  jointName = "Link0_Link1" />
    <neuron name = "19" type = "motor"  jointName = "Link0_Link1" />
    <neuron name = "20" type = "motor"  jointName = "Link0_Link1" />
    <synapse sourceNeuronName = "0" targetNeuronName = "13" weight = "-0.9871640130464963" />
    <synapse sourceNeuronName = "0" targetNeuronName = "14" weight = "-0.07049581388563175" />
    <synapse sourceNeuronName = "0" targetNeuronName = "15" weight = "-0.770717244551733" />
    <synapse sourceNeuronName = "0" targetNeuronName = "16" weight = "0.039635804734946545" />
    <synapse sourceNeuronName = "0" targetNeuronName = "17" weight = "0.3018514296445105" />
    <synapse sourceNeuronName = "0" targetNeuronName = "18" weight = "0.4199210494436847" />
    <synapse sourceNeuronName = "0" targetNeuronName = "19" weight = "0.5880205163184307" />
    <synapse sourceNeuronName = "0" targetNeuronName = "20" weight = "-0.39685262702967794" />
    <synapse sourceNeuronName = "1" targetNeuronName = "13" weight = "-0.9359114796301797" />
    <synapse sourceNeuronName = "1" targetNeuronName = "14" weight = "-0.0655028132168658" />
    <synapse sourceNeuronName = "1" targetNeuronName = "15" weight = "0.05406902714256301" />
    <synapse sourceNeuronName = "1" targetNeuronName = "16" weight = "0.1047923793345864" />
    <synapse sourceNeuronName = "1" targetNeuronName = "17" weight = "-0.565766952278258" />
    <synapse sourceNeuronName = "1" targetNeuronName = "18" weight = "0.3065753947212908" />
    <synapse sourceNeuronName = "1" targetNeuronName = "19" weight = "0.5587607859574526" />
    <synapse sourceNeuronName = "1" targetNeuronName = "20" weight = "-0.45321769284813795" />
    <synapse sourceNeuronName = "2" targetNeuronName = "13" weight = "0.030867971971031638" />
    <synapse sourceNeuronName = "2" targetNeuronName = "14" weight = "0.5784180529619078" />
    <synapse sourceNeuronName = "2" targetNeuronName = "15" weight = "0.05878482792753781" />
    <synapse sourceNeuronName = "2" targetNeuronName = "16" weight = "0.7165454210995439" />
    <synapse sourceNeuronName = "2" targetNeuronName = "17" weight = "0.8925800506783539" />
    <synapse sourceNeuronName = "2" targetNeuronName = "18" weight = "-0.8687886883614153" />
    <synapse sourceNeuronName = "2" targetNeuronName = "19" weight = "-0.5481148080888099" />
    <synapse sourceNeuronName = "2" targetNeuronName = "20" weight = "-0.037244176944610574" />
    <synapse sourceNeuronName = "3" targetNeuronName = "13" weight = "0.20725320763612798" />
    <synapse sourceNeuronName = "3" targetNeuronName = "14" weight = "0.1681707422990646" />
    <synapse sourceNeuronName = "3" targetNeuronName = "15" weight = "-0.5712908882350882" />
    <synapse sourceNeuronName = "3" targetNeuronName = "16" weight = "-0.016254999133424652" />
    <synapse sourceNeuronName = "3" targetNeuronName = "17" weight = "0.1570765494264763" />
    <synapse sourceNeuronName = "3" targetNeuronName = "18" weight = "0.010364494583823713" />
    <synapse sourceNeuronName = "3" targetNeuronName = "19" weight = "-0.5612070745739723" />
    <synapse sourceNeuronName = "3" targetNeuronName = "20" weight = "-0.5885510111876011" />
    <synapse sourceNeuronName = "4" targetNeuronName = "13" weight = "-0.1599021080583456" />
    <synapse sourceNeuronName = "4" targetNeuronName = "14" weight = "-0.2762213083598577" />
    <synapse sourceNeuronName = "4" targetNeuronName = "15" weight = "0.2726491902408372" />
    <synapse sourceNeuronName = "4" targetNeuronName = "16" weight = "0.0031143075369655104" />
    <synapse sourceNeuronName = "4" targetNeuronName = "17" weight = "-0.6961166153954672" />
    <synapse sourceNeuronName = "4" targetNeuronName = "18" weight = "0.5777314535535367" />
    <synapse sourceNeuronName = "4" targetNeuronName = "19" weight = "0.8683530724123687" />
    <synapse sourceNeuronName = "4" targetNeuronName = "20" weight = "-0.5687982936010516" />
    <synapse sourceNeuronName = "5" targetNeuronName = "13" weight = "0.8503217283123983" />
    <synapse sourceNeuronName = "5" targetNeuronName = "14" weight = "-0.9168189007020364" />
    <synapse sourceNeuronName = "5" targetNeuronName = "15" weight = "-0.2921641890857414" />
    <synapse sourceNeuronName = "5" targetNeuronName = "16" weight = "-0.7788765189874811" />
    <synapse sourceNeuronName = "5" targetNeuronName = "17" weight = "0.03288473738637632" />
    <synapse sourceNeuronName = "5" targetNeuronName = "18" weight = "-0.2896682432460329" />
    <synapse sourceNeuronName = "5" targetNeuronName = "19" weight = "0.5285751747145748" />
    <synapse sourceNeuronName = "5" targetNeuronName = "20" weight = "-0.019483420600627133" />
    <synapse sourceNeuronName = "6" targetNeuronName = "13" weight = "-0.8236481071090447" />
    <synapse sourceNeuronName = "6" targetNeuronName = "14" weight = "0.16180185611583275" />
    <synapse sourceNeuronName = "6" targetNeuronName = "15" weight = "0.4044100298250506" />
    <synapse sourceNeuronName = "6" targetNeuronName = "16" weight = "0.5076927982189012" />
    <synapse sourceNeuronName = "6" targetNeuronName = "17" weight = "0.09008935312172994" />
    <synapse sourceNeuronName = "6" targetNeuronName = "18" weight = "0.5257407237771459" />
    <synapse sourceNeuronName = "6" targetNeuronName = "19" weight = "0.9756048521032135" />
    <synapse sourceNeuronName = "6" targetNeuronName = "20" weight = "0.5359913213976697" />
    <synapse sourceNeuronName = "7" targetNeuronName = "13" weight = "-0.26058026372591625" />
    <synapse sourceNeuronName = "7" targetNeuronName = "14" weight = "-0.2784154623631432" />
    <synapse sourceNeuronName = "7" targetNeuronName = "15" weight = "0.8503676751034797" />
    <synapse sourceNeuronName = "7" targetNeuronName = "16" weight = "0.5035967040226319" />
    <synapse sourceNeuronName = "7" targetNeuronName = "17" weight = "0.9871323391917108" />
    <synapse sourceNeuronName = "7" targetNeuronName = "18" weight = "-0.2869740278793007" />
    <synapse sourceNeuronName = "7" targetNeuronName = "19" weight = "-0.6344485954197892" />
    <synapse sourceNeuronName = "7" targetNeuronName = "20" weight = "0.2677425478144684" />
    <synapse sourceNeuronName = "8" targetNeuronName = "13" weight = "0.14594687749362545" />
    <synapse sourceNeuronName = "8" targetNeuronName = "14" weight = "0.4663415829925974" />
    <synapse sourceNeuronName = "8" targetNeuronName = "15" weight = "-0.709518331388481" />
    <synapse sourceNeuronName = "8" targetNeuronName = "16" weight = "-0.5658089286377712" />
    <synapse sourceNeuronName = "8" targetNeuronName = "17" weight = "-0.576531507377211" />
    <synapse sourceNeuronName = "8" targetNeuronName = "18" weight = "-0.9183297180093601" />
    <synapse sourceNeuronName = "8" targetNeuronName = "19" weight = "0.7969697257492954" />
    <synapse sourceNeuronName = "8" targetNeuronName = "20" weight = "-0.09618787493482928" />
    <synapse sourceNeuronName = "9" targetNeuronName = "13" weight = "-0.1556403620684894" />
    <synapse sourceNeuronName = "9" targetNeuronName = "14" weight = "-0.1969288090899275" />
    <synapse sourceNeuronName = "9" targetNeuronName = "15" weight = "-0.45924502940564316" />
    <synapse sourceNeuronName = "9" targetNeuronName = "16" weight = "-0.813887828636225" />
    <synapse sourceNeuronName = "9" targetNeuronName = "17" weight = "-0.7575473458204507" />
    <synapse sourceNeuronName = "9" targetNeuronName = "18" weight = "-0.19092055554043763" />
    <synapse sourceNeuronName = "9" targetNeuronName = "19" weight = "-0.32155293158658105" />
    <synapse sourceNeuronName = "9" targetNeuronName = "20" weight = "0.46260138340297097" />
    <synapse sourceNeuronName = "10" targetNeuronName = "13" weight = "0.45863352840128235" />
    <synapse sourceNeuronName = "10" targetNeuronName = "14" weight = "0.6535167520957708" />
    <synapse sourceNeuronName = "10" targetNeuronName = "15" weight = "-0.9786130743859793" />
    <synapse sourceNeuronName = "10" targetNeuronName = "16" weight = "-0.18005161607776143" />
    <synapse sourceNeuronName = "10" targetNeuronName = "17" weight = "0.8984379866157453" />
    <synapse sourceNeuronName = "10" targetNeuronName = "18" weight = "0.9588360486806695" />
    <synapse sourceNeuronName = "10" targetNeuronName = "19" weight = "-0.46370045601343546" />
    <synapse sourceNeuronName = "10" targetNeuronName = "20" weight = "-0.7220973424752" />
    <synapse sourceNeuronName = "11" targetNeuronName = "13" weight = "-0.2983504654665794" />
    <synapse sourceNeuronName = "11" targetNeuronName = "14" weight = "0.17425410957136744" />
    <synapse sourceNeuronName = "11" targetNeuronName = "15" weight = "-0.3943990452217785" />
    <synapse sourceNeuronName = "11" targetNeuronName = "16" weight = "-0.3790516957775045" />
    <synapse sourceNeuronName = "11" targetNeuronName = "17" weight = "0.8100201296887113" />
    <synapse sourceNeuronName = "11" targetNeuronName = "18" weight = "-0.2876969952275785" />
    <synapse sourceNeuronName = "11" targetNeuronName = "19" weight = "-0.7323228713984793" />
    <synapse sourceNeuronName = "11" targetNeuronName = "20" weight = "0.9535467980686589" />
    <synapse sourceNeuronName = "12" targetNeuronName = "13" weight = "-0.52550012675072" />
    <synapse sourceNeuronName = "12" targetNeuronName = "14" weight = "-0.6892713143992999" />
    <synapse sourceNeuronName = "12" targetNeuronName = "15" weight = "-0.2678897615065523" />
    <synapse sourceNeuronName = "12" targetNeuronName = "16" weight = "0.7798802536876677" />
    <synapse sourceNeuronName = "12" targetNeuronName = "17" weight = "0.4334633262242764" />
    <synapse sourceNeuronName = "12" targetNeuronName = "18" weight = "-0.3035758767901897" />
    <synapse sourceNeuronName = "12" targetNeuronName = "19" weight = "-0.9531750102988588" />
    <synapse sourceNeuronName = "12" targetNeuronName = "20" weight = "-0.39407503682856726" />
</neuralNetwork>