<neuralNetwork>
    <neuron name = "0" type = "sensor" linkName = "Link0" />
    <neuron name = "1" type = "sensor" linkName = "Link1" />
    <neuron name = "2" type = "sensor" linkName = "Link1" />
    <neuron name = "3" type = "sensor" linkName = "Link2" />
    <neuron name = "4" type = "sensor" linkName = "Link3" />
    <neuron name = "5" type = "sensor" linkName = "Link3-1" />
    <neuron name = "6" type = "sensor" linkName = "Link3-2" />
    <neuron name = "7" type = "sensor" linkName = "Link3-4" />
    <neuron name = "8" type = "motor"  jointName = "Link0_Link1" />
    <neuron name = "9" type = "motor"  jointName = "Link1_Link2" />
    <neuron name = "10" type = "motor"  jointName = "Link2_Link3" />
    <synapse sourceNeuronName = "0" targetNeuronName = "8" weight = "0.14914528034753283" />
    <synapse sourceNeuronName = "0" targetNeuronName = "9" weight = "0.17757353653152363" />
    <synapse sourceNeuronName = "0" targetNeuronName = "10" weight = "0.851768292253732" />
    <synapse sourceNeuronName = "1" targetNeuronName = "8" weight = "-0.39435707274640697" />
    <synapse sourceNeuronName = "1" targetNeuronName = "9" weight = "-0.05365915634478946" />
    <synapse sourceNeuronName = "1" targetNeuronName = "10" weight = "0.22257021942260047" />
    <synapse sourceNeuronName = "2" targetNeuronName = "8" weight = "-0.31420927329706316" />
    <synapse sourceNeuronName = "2" targetNeuronName = "9" weight = "-0.13317942202134736" />
    <synapse sourceNeuronName = "2" targetNeuronName = "10" weight = "-0.5390992356032738" />
    <synapse sourceNeuronName = "3" targetNeuronName = "8" weight = "0.9779155511503752" />
    <synapse sourceNeuronName = "3" targetNeuronName = "9" weight = "-0.8848914845155158" />
    <synapse sourceNeuronName = "3" targetNeuronName = "10" weight = "0.3322293763644866" />
    <synapse sourceNeuronName = "4" targetNeuronName = "8" weight = "0.04731188035142142" />
    <synapse sourceNeuronName = "4" targetNeuronName = "9" weight = "-0.9043664248630869" />
    <synapse sourceNeuronName = "4" targetNeuronName = "10" weight = "-0.19876523545985747" />
    <synapse sourceNeuronName = "5" targetNeuronName = "8" weight = "-0.9426432203981265" />
    <synapse sourceNeuronName = "5" targetNeuronName = "9" weight = "0.8280976008618977" />
    <synapse sourceNeuronName = "5" targetNeuronName = "10" weight = "-0.5574925189743476" />
    <synapse sourceNeuronName = "6" targetNeuronName = "8" weight = "-0.6539184933896001" />
    <synapse sourceNeuronName = "6" targetNeuronName = "9" weight = "0.35753143988741387" />
    <synapse sourceNeuronName = "6" targetNeuronName = "10" weight = "-0.04119927870555973" />
    <synapse sourceNeuronName = "7" targetNeuronName = "8" weight = "-0.9759604123900207" />
    <synapse sourceNeuronName = "7" targetNeuronName = "9" weight = "-0.940703741884849" />
    <synapse sourceNeuronName = "7" targetNeuronName = "10" weight = "0.668690327816404" />
</neuralNetwork>