<neuralNetwork>
    <neuron name = "0" type = "sensor" linkName = "Link0" />
    <neuron name = "1" type = "sensor" linkName = "Link2" />
    <neuron name = "2" type = "sensor" linkName = "Link3" />
    <neuron name = "3" type = "sensor" linkName = "Link2-0" />
    <neuron name = "4" type = "sensor" linkName = "Link2-1" />
    <neuron name = "5" type = "sensor" linkName = "Link3-0" />
    <neuron name = "6" type = "sensor" linkName = "Link3-2-0" />
    <neuron name = "7" type = "sensor" linkName = "Link3-2-1" />
    <neuron name = "8" type = "motor"  jointName = "Link0_Link1" />
    <neuron name = "9" type = "motor"  jointName = "Link1_Link2" />
    <neuron name = "10" type = "motor"  jointName = "Link2_Link3" />
    <neuron name = "11" type = "motor"  jointName = "Link0_Link1" />
    <neuron name = "12" type = "motor"  jointName = "Link0_Link1" />
    <neuron name = "13" type = "motor"  jointName = "Link0_Link1" />
    <neuron name = "14" type = "motor"  jointName = "Link0_Link1" />
    <neuron name = "15" type = "motor"  jointName = "Link0_Link1" />
    <neuron name = "16" type = "motor"  jointName = "Link0_Link1" />
    <neuron name = "17" type = "motor"  jointName = "Link0_Link1" />
    <synapse sourceNeuronName = "0" targetNeuronName = "8" weight = "0.6926299873275943" />
    <synapse sourceNeuronName = "0" targetNeuronName = "9" weight = "-0.24075512159759294" />
    <synapse sourceNeuronName = "0" targetNeuronName = "10" weight = "-0.1377273557469345" />
    <synapse sourceNeuronName = "0" targetNeuronName = "11" weight = "-0.3393203945295309" />
    <synapse sourceNeuronName = "0" targetNeuronName = "12" weight = "-0.8983695631407957" />
    <synapse sourceNeuronName = "0" targetNeuronName = "13" weight = "0.21637288649745834" />
    <synapse sourceNeuronName = "0" targetNeuronName = "14" weight = "-0.04819271163769279" />
    <synapse sourceNeuronName = "0" targetNeuronName = "15" weight = "-0.3663745038499908" />
    <synapse sourceNeuronName = "0" targetNeuronName = "16" weight = "-0.8035637058674814" />
    <synapse sourceNeuronName = "0" targetNeuronName = "17" weight = "-0.4983005653485313" />
    <synapse sourceNeuronName = "1" targetNeuronName = "8" weight = "0.9453432610048891" />
    <synapse sourceNeuronName = "1" targetNeuronName = "9" weight = "0.3024389542933139" />
    <synapse sourceNeuronName = "1" targetNeuronName = "10" weight = "0.038805608521459645" />
    <synapse sourceNeuronName = "1" targetNeuronName = "11" weight = "0.5651479595105067" />
    <synapse sourceNeuronName = "1" targetNeuronName = "12" weight = "0.6449929745383107" />
    <synapse sourceNeuronName = "1" targetNeuronName = "13" weight = "0.9416456115781378" />
    <synapse sourceNeuronName = "1" targetNeuronName = "14" weight = "0.006669221946663528" />
    <synapse sourceNeuronName = "1" targetNeuronName = "15" weight = "-0.9585410419405127" />
    <synapse sourceNeuronName = "1" targetNeuronName = "16" weight = "-0.4220593859171482" />
    <synapse sourceNeuronName = "1" targetNeuronName = "17" weight = "0.3886359381898652" />
    <synapse sourceNeuronName = "2" targetNeuronName = "8" weight = "0.8160197442145625" />
    <synapse sourceNeuronName = "2" targetNeuronName = "9" weight = "-0.37450124215140335" />
    <synapse sourceNeuronName = "2" targetNeuronName = "10" weight = "0.9595545385165993" />
    <synapse sourceNeuronName = "2" targetNeuronName = "11" weight = "-0.597365595884072" />
    <synapse sourceNeuronName = "2" targetNeuronName = "12" weight = "-0.18345071457738804" />
    <synapse sourceNeuronName = "2" targetNeuronName = "13" weight = "0.8878464722849153" />
    <synapse sourceNeuronName = "2" targetNeuronName = "14" weight = "0.8165740543359956" />
    <synapse sourceNeuronName = "2" targetNeuronName = "15" weight = "0.8152010408647854" />
    <synapse sourceNeuronName = "2" targetNeuronName = "16" weight = "-0.8544862953899273" />
    <synapse sourceNeuronName = "2" targetNeuronName = "17" weight = "0.5360606295139845" />
    <synapse sourceNeuronName = "3" targetNeuronName = "8" weight = "0.7762194587243576" />
    <synapse sourceNeuronName = "3" targetNeuronName = "9" weight = "0.11507119950896305" />
    <synapse sourceNeuronName = "3" targetNeuronName = "10" weight = "-0.48519675108087457" />
    <synapse sourceNeuronName = "3" targetNeuronName = "11" weight = "-0.20842831269922946" />
    <synapse sourceNeuronName = "3" targetNeuronName = "12" weight = "0.8597821982472562" />
    <synapse sourceNeuronName = "3" targetNeuronName = "13" weight = "0.7491719274489077" />
    <synapse sourceNeuronName = "3" targetNeuronName = "14" weight = "-0.7358108490281017" />
    <synapse sourceNeuronName = "3" targetNeuronName = "15" weight = "0.7348109259694513" />
    <synapse sourceNeuronName = "3" targetNeuronName = "16" weight = "-0.061099501606925566" />
    <synapse sourceNeuronName = "3" targetNeuronName = "17" weight = "0.6867814668906458" />
    <synapse sourceNeuronName = "4" targetNeuronName = "8" weight = "-0.4350128714988495" />
    <synapse sourceNeuronName = "4" targetNeuronName = "9" weight = "-0.5061497229084473" />
    <synapse sourceNeuronName = "4" targetNeuronName = "10" weight = "0.36848398394007464" />
    <synapse sourceNeuronName = "4" targetNeuronName = "11" weight = "-0.34639227164459485" />
    <synapse sourceNeuronName = "4" targetNeuronName = "12" weight = "0.562819805104239" />
    <synapse sourceNeuronName = "4" targetNeuronName = "13" weight = "-0.5901537539025583" />
    <synapse sourceNeuronName = "4" targetNeuronName = "14" weight = "-0.5333747239041333" />
    <synapse sourceNeuronName = "4" targetNeuronName = "15" weight = "-0.6693801781186595" />
    <synapse sourceNeuronName = "4" targetNeuronName = "16" weight = "-0.3987381513807977" />
    <synapse sourceNeuronName = "4" targetNeuronName = "17" weight = "0.04910827505202908" />
    <synapse sourceNeuronName = "5" targetNeuronName = "8" weight = "-0.2210322042329056" />
    <synapse sourceNeuronName = "5" targetNeuronName = "9" weight = "0.3754184696256484" />
    <synapse sourceNeuronName = "5" targetNeuronName = "10" weight = "0.3253295774040841" />
    <synapse sourceNeuronName = "5" targetNeuronName = "11" weight = "0.1500714504023246" />
    <synapse sourceNeuronName = "5" targetNeuronName = "12" weight = "-0.1859737646833104" />
    <synapse sourceNeuronName = "5" targetNeuronName = "13" weight = "-0.07772631474029779" />
    <synapse sourceNeuronName = "5" targetNeuronName = "14" weight = "-0.19898984424770183" />
    <synapse sourceNeuronName = "5" targetNeuronName = "15" weight = "-0.5321173194506448" />
    <synapse sourceNeuronName = "5" targetNeuronName = "16" weight = "0.3453901224003568" />
    <synapse sourceNeuronName = "5" targetNeuronName = "17" weight = "0.35272834182562485" />
    <synapse sourceNeuronName = "6" targetNeuronName = "8" weight = "0.6400195657095891" />
    <synapse sourceNeuronName = "6" targetNeuronName = "9" weight = "0.5786581469345711" />
    <synapse sourceNeuronName = "6" targetNeuronName = "10" weight = "0.8364083052459825" />
    <synapse sourceNeuronName = "6" targetNeuronName = "11" weight = "-0.9259462858380823" />
    <synapse sourceNeuronName = "6" targetNeuronName = "12" weight = "0.5423373582608031" />
    <synapse sourceNeuronName = "6" targetNeuronName = "13" weight = "0.43480294395603547" />
    <synapse sourceNeuronName = "6" targetNeuronName = "14" weight = "-0.5495938086541337" />
    <synapse sourceNeuronName = "6" targetNeuronName = "15" weight = "-0.6517967074565354" />
    <synapse sourceNeuronName = "6" targetNeuronName = "16" weight = "0.7381993786321148" />
    <synapse sourceNeuronName = "6" targetNeuronName = "17" weight = "0.18609698824221566" />
    <synapse sourceNeuronName = "7" targetNeuronName = "8" weight = "0.9134123116176904" />
    <synapse sourceNeuronName = "7" targetNeuronName = "9" weight = "0.1771115537813277" />
    <synapse sourceNeuronName = "7" targetNeuronName = "10" weight = "-0.11326575223619884" />
    <synapse sourceNeuronName = "7" targetNeuronName = "11" weight = "0.8105690152786797" />
    <synapse sourceNeuronName = "7" targetNeuronName = "12" weight = "-0.5821051790661758" />
    <synapse sourceNeuronName = "7" targetNeuronName = "13" weight = "-0.5666440054433148" />
    <synapse sourceNeuronName = "7" targetNeuronName = "14" weight = "-0.5158567916198324" />
    <synapse sourceNeuronName = "7" targetNeuronName = "15" weight = "0.2865383448945096" />
    <synapse sourceNeuronName = "7" targetNeuronName = "16" weight = "-0.30730541203882944" />
    <synapse sourceNeuronName = "7" targetNeuronName = "17" weight = "-0.024076986846470305" />
</neuralNetwork>