<neuralNetwork>
    <neuron name = "0" type = "sensor" linkName = "Link0" />
    <neuron name = "1" type = "sensor" linkName = "Link1" />
    <neuron name = "2" type = "sensor" linkName = "Link1" />
    <neuron name = "3" type = "sensor" linkName = "Link2-2" />
    <neuron name = "4" type = "sensor" linkName = "Link2-1-0" />
    <neuron name = "5" type = "motor"  jointName = "Link0_Link1" />
    <neuron name = "6" type = "motor"  jointName = "Link1_Link2" />
    <neuron name = "7" type = "motor"  jointName = "Link2_Link3" />
    <neuron name = "8" type = "motor"  jointName = "Link0_Link1" />
    <neuron name = "9" type = "motor"  jointName = "Link0_Link1" />
    <neuron name = "10" type = "motor"  jointName = "Link0_Link1" />
    <neuron name = "11" type = "motor"  jointName = "Link0_Link1" />
    <neuron name = "12" type = "motor"  jointName = "Link0_Link1" />
    <synapse sourceNeuronName = "0" targetNeuronName = "5" weight = "-0.8152711475724987" />
    <synapse sourceNeuronName = "0" targetNeuronName = "6" weight = "0.16293559802254154" />
    <synapse sourceNeuronName = "0" targetNeuronName = "7" weight = "-0.8704147575377754" />
    <synapse sourceNeuronName = "0" targetNeuronName = "8" weight = "-0.2823991290497816" />
    <synapse sourceNeuronName = "0" targetNeuronName = "9" weight = "-0.2736459174331072" />
    <synapse sourceNeuronName = "0" targetNeuronName = "10" weight = "0.27785351450285556" />
    <synapse sourceNeuronName = "0" targetNeuronName = "11" weight = "0.23001011657910908" />
    <synapse sourceNeuronName = "0" targetNeuronName = "12" weight = "-0.40790052149478195" />
    <synapse sourceNeuronName = "1" targetNeuronName = "5" weight = "0.3140074759363449" />
    <synapse sourceNeuronName = "1" targetNeuronName = "6" weight = "0.8427080109914449" />
    <synapse sourceNeuronName = "1" targetNeuronName = "7" weight = "-0.05725711631372632" />
    <synapse sourceNeuronName = "1" targetNeuronName = "8" weight = "-0.31130550133718216" />
    <synapse sourceNeuronName = "1" targetNeuronName = "9" weight = "-0.01462476750045183" />
    <synapse sourceNeuronName = "1" targetNeuronName = "10" weight = "0.34359543455415675" />
    <synapse sourceNeuronName = "1" targetNeuronName = "11" weight = "0.05984731446827185" />
    <synapse sourceNeuronName = "1" targetNeuronName = "12" weight = "0.6811420014660774" />
    <synapse sourceNeuronName = "2" targetNeuronName = "5" weight = "-0.6739842716910238" />
    <synapse sourceNeuronName = "2" targetNeuronName = "6" weight = "-0.40163201225199985" />
    <synapse sourceNeuronName = "2" targetNeuronName = "7" weight = "-0.24320781851361595" />
    <synapse sourceNeuronName = "2" targetNeuronName = "8" weight = "-0.16580385283825483" />
    <synapse sourceNeuronName = "2" targetNeuronName = "9" weight = "-0.3933334795258121" />
    <synapse sourceNeuronName = "2" targetNeuronName = "10" weight = "0.43931100047681015" />
    <synapse sourceNeuronName = "2" targetNeuronName = "11" weight = "0.4816669212655642" />
    <synapse sourceNeuronName = "2" targetNeuronName = "12" weight = "0.0016889819400600636" />
    <synapse sourceNeuronName = "3" targetNeuronName = "5" weight = "-0.11551969869898437" />
    <synapse sourceNeuronName = "3" targetNeuronName = "6" weight = "0.8743138300003321" />
    <synapse sourceNeuronName = "3" targetNeuronName = "7" weight = "-0.4802170606607805" />
    <synapse sourceNeuronName = "3" targetNeuronName = "8" weight = "-0.6198798855527607" />
    <synapse sourceNeuronName = "3" targetNeuronName = "9" weight = "-0.8708003562445177" />
    <synapse sourceNeuronName = "3" targetNeuronName = "10" weight = "0.6490577832335702" />
    <synapse sourceNeuronName = "3" targetNeuronName = "11" weight = "0.5961147350605518" />
    <synapse sourceNeuronName = "3" targetNeuronName = "12" weight = "0.9697308297060263" />
    <synapse sourceNeuronName = "4" targetNeuronName = "5" weight = "0.8059326228607855" />
    <synapse sourceNeuronName = "4" targetNeuronName = "6" weight = "-0.2979748227667405" />
    <synapse sourceNeuronName = "4" targetNeuronName = "7" weight = "0.5393586861640678" />
    <synapse sourceNeuronName = "4" targetNeuronName = "8" weight = "-0.09323616371218013" />
    <synapse sourceNeuronName = "4" targetNeuronName = "9" weight = "-0.9759355050460707" />
    <synapse sourceNeuronName = "4" targetNeuronName = "10" weight = "0.33283679928548104" />
    <synapse sourceNeuronName = "4" targetNeuronName = "11" weight = "-0.9737102804179738" />
    <synapse sourceNeuronName = "4" targetNeuronName = "12" weight = "-0.06825980213974114" />
</neuralNetwork>