<neuralNetwork>
    <neuron name = "0" type = "sensor" linkName = "Link0" />
    <neuron name = "1" type = "sensor" linkName = "Link2" />
    <neuron name = "2" type = "sensor" linkName = "Link2-0" />
    <neuron name = "3" type = "sensor" linkName = "Link2-2-1" />
    <neuron name = "4" type = "motor"  jointName = "Link0_Link1" />
    <neuron name = "5" type = "motor"  jointName = "Link1_Link2" />
    <neuron name = "6" type = "motor"  jointName = "Link0_Link1" />
    <neuron name = "7" type = "motor"  jointName = "Link0_Link1" />
    <neuron name = "8" type = "motor"  jointName = "Link0_Link1" />
    <neuron name = "9" type = "motor"  jointName = "Link0_Link1" />
    <neuron name = "10" type = "motor"  jointName = "Link0_Link1" />
    <neuron name = "11" type = "motor"  jointName = "Link0_Link1" />
    <synapse sourceNeuronName = "0" targetNeuronName = "4" weight = "0.41517598848988246" />
    <synapse sourceNeuronName = "0" targetNeuronName = "5" weight = "-0.31579287038131487" />
    <synapse sourceNeuronName = "0" targetNeuronName = "6" weight = "-0.3289471113699216" />
    <synapse sourceNeuronName = "0" targetNeuronName = "7" weight = "0.9997489574363752" />
    <synapse sourceNeuronName = "0" targetNeuronName = "8" weight = "0.006573335426504068" />
    <synapse sourceNeuronName = "0" targetNeuronName = "9" weight = "-0.7786248635238313" />
    <synapse sourceNeuronName = "0" targetNeuronName = "10" weight = "0.1568460581448563" />
    <synapse sourceNeuronName = "0" targetNeuronName = "11" weight = "0.41871378263102255" />
    <synapse sourceNeuronName = "1" targetNeuronName = "4" weight = "0.32791441816229705" />
    <synapse sourceNeuronName = "1" targetNeuronName = "5" weight = "-0.5997621421075368" />
    <synapse sourceNeuronName = "1" targetNeuronName = "6" weight = "-0.9213854303346136" />
    <synapse sourceNeuronName = "1" targetNeuronName = "7" weight = "0.3995463431373143" />
    <synapse sourceNeuronName = "1" targetNeuronName = "8" weight = "-0.6432234271461328" />
    <synapse sourceNeuronName = "1" targetNeuronName = "9" weight = "0.6290633295808055" />
    <synapse sourceNeuronName = "1" targetNeuronName = "10" weight = "-0.20993908819324258" />
    <synapse sourceNeuronName = "1" targetNeuronName = "11" weight = "-0.45523479694123004" />
    <synapse sourceNeuronName = "2" targetNeuronName = "4" weight = "-0.15744680633379993" />
    <synapse sourceNeuronName = "2" targetNeuronName = "5" weight = "-0.29716504969906965" />
    <synapse sourceNeuronName = "2" targetNeuronName = "6" weight = "-0.23791688205460404" />
    <synapse sourceNeuronName = "2" targetNeuronName = "7" weight = "0.599477754098539" />
    <synapse sourceNeuronName = "2" targetNeuronName = "8" weight = "-0.6951166948481053" />
    <synapse sourceNeuronName = "2" targetNeuronName = "9" weight = "-0.05414809278582999" />
    <synapse sourceNeuronName = "2" targetNeuronName = "10" weight = "-0.5675779483346828" />
    <synapse sourceNeuronName = "2" targetNeuronName = "11" weight = "0.2167077536733215" />
    <synapse sourceNeuronName = "3" targetNeuronName = "4" weight = "0.06016670487632192" />
    <synapse sourceNeuronName = "3" targetNeuronName = "5" weight = "0.19551737256649937" />
    <synapse sourceNeuronName = "3" targetNeuronName = "6" weight = "0.7274481751015835" />
    <synapse sourceNeuronName = "3" targetNeuronName = "7" weight = "-0.6417578079595858" />
    <synapse sourceNeuronName = "3" targetNeuronName = "8" weight = "0.5304902717752089" />
    <synapse sourceNeuronName = "3" targetNeuronName = "9" weight = "0.24395494209391733" />
    <synapse sourceNeuronName = "3" targetNeuronName = "10" weight = "0.736538966623361" />
    <synapse sourceNeuronName = "3" targetNeuronName = "11" weight = "0.16294799074688715" />
</neuralNetwork>