<neuralNetwork>
    <neuron name = "0" type = "sensor" linkName = "Link0" />
    <neuron name = "1" type = "sensor" linkName = "Link2-0" />
    <neuron name = "2" type = "sensor" linkName = "Link2-1" />
    <neuron name = "3" type = "sensor" linkName = "Link2-3" />
    <neuron name = "4" type = "motor"  jointName = "Link0_Link1" />
    <neuron name = "5" type = "motor"  jointName = "Link1_Link2" />
    <neuron name = "6" type = "motor"  jointName = "Link0_Link1" />
    <neuron name = "7" type = "motor"  jointName = "Link0_Link1" />
    <neuron name = "8" type = "motor"  jointName = "Link0_Link1" />
    <neuron name = "9" type = "motor"  jointName = "Link0_Link1" />
    <neuron name = "10" type = "motor"  jointName = "Link0_Link1" />
    <neuron name = "11" type = "motor"  jointName = "Link0_Link1" />
    <neuron name = "12" type = "motor"  jointName = "Link0_Link1" />
    <neuron name = "13" type = "motor"  jointName = "Link0_Link1" />
    <neuron name = "14" type = "motor"  jointName = "Link0_Link1" />
    <neuron name = "15" type = "motor"  jointName = "Link0_Link1" />
    <synapse sourceNeuronName = "0" targetNeuronName = "4" weight = "0.8277778052789577" />
    <synapse sourceNeuronName = "0" targetNeuronName = "5" weight = "-0.0639541536504149" />
    <synapse sourceNeuronName = "0" targetNeuronName = "6" weight = "0.7340174864074578" />
    <synapse sourceNeuronName = "0" targetNeuronName = "7" weight = "0.8273198007672589" />
    <synapse sourceNeuronName = "0" targetNeuronName = "8" weight = "-0.670311881208453" />
    <synapse sourceNeuronName = "0" targetNeuronName = "9" weight = "-0.9574146073067908" />
    <synapse sourceNeuronName = "0" targetNeuronName = "10" weight = "-0.8089799816337102" />
    <synapse sourceNeuronName = "0" targetNeuronName = "11" weight = "0.21174469992396605" />
    <synapse sourceNeuronName = "0" targetNeuronName = "12" weight = "-0.8835420541325876" />
    <synapse sourceNeuronName = "0" targetNeuronName = "13" weight = "0.1922308123420733" />
    <synapse sourceNeuronName = "0" targetNeuronName = "14" weight = "-0.564593070515347" />
    <synapse sourceNeuronName = "0" targetNeuronName = "15" weight = "-0.4720500944307031" />
    <synapse sourceNeuronName = "1" targetNeuronName = "4" weight = "0.2529312480565489" />
    <synapse sourceNeuronName = "1" targetNeuronName = "5" weight = "-0.35521488633816767" />
    <synapse sourceNeuronName = "1" targetNeuronName = "6" weight = "0.29600347669160665" />
    <synapse sourceNeuronName = "1" targetNeuronName = "7" weight = "-0.13888989892856984" />
    <synapse sourceNeuronName = "1" targetNeuronName = "8" weight = "0.36969928854386547" />
    <synapse sourceNeuronName = "1" targetNeuronName = "9" weight = "0.5392073289852333" />
    <synapse sourceNeuronName = "1" targetNeuronName = "10" weight = "-0.13177471318671485" />
    <synapse sourceNeuronName = "1" targetNeuronName = "11" weight = "-0.594363411156799" />
    <synapse sourceNeuronName = "1" targetNeuronName = "12" weight = "-0.8495472919573668" />
    <synapse sourceNeuronName = "1" targetNeuronName = "13" weight = "-0.460385549832669" />
    <synapse sourceNeuronName = "1" targetNeuronName = "14" weight = "0.12070624190122836" />
    <synapse sourceNeuronName = "1" targetNeuronName = "15" weight = "-0.6958217122123627" />
    <synapse sourceNeuronName = "2" targetNeuronName = "4" weight = "0.8876399229089242" />
    <synapse sourceNeuronName = "2" targetNeuronName = "5" weight = "-0.3343238051600652" />
    <synapse sourceNeuronName = "2" targetNeuronName = "6" weight = "-0.23157220389156952" />
    <synapse sourceNeuronName = "2" targetNeuronName = "7" weight = "-0.49051898435659336" />
    <synapse sourceNeuronName = "2" targetNeuronName = "8" weight = "0.4029402603644252" />
    <synapse sourceNeuronName = "2" targetNeuronName = "9" weight = "-0.8020407583699432" />
    <synapse sourceNeuronName = "2" targetNeuronName = "10" weight = "-0.08993595369393126" />
    <synapse sourceNeuronName = "2" targetNeuronName = "11" weight = "0.7603350874871209" />
    <synapse sourceNeuronName = "2" targetNeuronName = "12" weight = "0.1403606491550955" />
    <synapse sourceNeuronName = "2" targetNeuronName = "13" weight = "0.39347359983669383" />
    <synapse sourceNeuronName = "2" targetNeuronName = "14" weight = "0.37827729274006705" />
    <synapse sourceNeuronName = "2" targetNeuronName = "15" weight = "-0.9742961329170288" />
    <synapse sourceNeuronName = "3" targetNeuronName = "4" weight = "-0.22868737342792755" />
    <synapse sourceNeuronName = "3" targetNeuronName = "5" weight = "0.1542536199750022" />
    <synapse sourceNeuronName = "3" targetNeuronName = "6" weight = "0.872889687019835" />
    <synapse sourceNeuronName = "3" targetNeuronName = "7" weight = "-0.3430648653955106" />
    <synapse sourceNeuronName = "3" targetNeuronName = "8" weight = "-0.3826542145566241" />
    <synapse sourceNeuronName = "3" targetNeuronName = "9" weight = "0.08638850406586873" />
    <synapse sourceNeuronName = "3" targetNeuronName = "10" weight = "-0.2865375329655222" />
    <synapse sourceNeuronName = "3" targetNeuronName = "11" weight = "0.6069673684274643" />
    <synapse sourceNeuronName = "3" targetNeuronName = "12" weight = "-0.632179863473717" />
    <synapse sourceNeuronName = "3" targetNeuronName = "13" weight = "-0.5964973290303779" />
    <synapse sourceNeuronName = "3" targetNeuronName = "14" weight = "-0.5492156368717167" />
    <synapse sourceNeuronName = "3" targetNeuronName = "15" weight = "0.838272399517459" />
</neuralNetwork>