<neuralNetwork>
    <neuron name = "0" type = "sensor" linkName = "Link0" />
    <neuron name = "1" type = "sensor" linkName = "Link1" />
    <neuron name = "2" type = "sensor" linkName = "Link1" />
    <neuron name = "3" type = "sensor" linkName = "Link2-0" />
    <neuron name = "4" type = "sensor" linkName = "Link2-2" />
    <neuron name = "5" type = "sensor" linkName = "Link2-3" />
    <neuron name = "6" type = "sensor" linkName = "Link2-0-1" />
    <neuron name = "7" type = "sensor" linkName = "Link2-0-0-1" />
    <neuron name = "8" type = "sensor" linkName = "Link2-0-0-2" />
    <neuron name = "9" type = "sensor" linkName = "Link2-0-3-0" />
    <neuron name = "10" type = "sensor" linkName = "Link2-0-3-1" />
    <neuron name = "11" type = "sensor" linkName = "Link2-0-3-3" />
    <neuron name = "12" type = "sensor" linkName = "Link2-1-0" />
    <neuron name = "13" type = "sensor" linkName = "Link2-1-1" />
    <neuron name = "14" type = "sensor" linkName = "Link2-1-3" />
    <neuron name = "15" type = "sensor" linkName = "Link2-1-4" />
    <neuron name = "16" type = "sensor" linkName = "Link2-1-1-2" />
    <neuron name = "17" type = "sensor" linkName = "Link2-2-1" />
    <neuron name = "18" type = "sensor" linkName = "Link2-2-3" />
    <neuron name = "19" type = "sensor" linkName = "Link2-3-0" />
    <neuron name = "20" type = "motor"  jointName = "Link0_Link1" />
    <neuron name = "21" type = "motor"  jointName = "Link1_Link2" />
    <neuron name = "22" type = "motor"  jointName = "Link0_Link1" />
    <neuron name = "23" type = "motor"  jointName = "Link0_Link1" />
    <neuron name = "24" type = "motor"  jointName = "Link0_Link1" />
    <neuron name = "25" type = "motor"  jointName = "Link0_Link1" />
    <neuron name = "26" type = "motor"  jointName = "Link0_Link1" />
    <neuron name = "27" type = "motor"  jointName = "Link0_Link1" />
    <neuron name = "28" type = "motor"  jointName = "Link0_Link1" />
    <synapse sourceNeuronName = "0" targetNeuronName = "20" weight = "-0.5938752599275792" />
    <synapse sourceNeuronName = "0" targetNeuronName = "21" weight = "-0.778624621585164" />
    <synapse sourceNeuronName = "0" targetNeuronName = "22" weight = "0.9468438759862154" />
    <synapse sourceNeuronName = "0" targetNeuronName = "23" weight = "-0.9871342413946924" />
    <synapse sourceNeuronName = "0" targetNeuronName = "24" weight = "-0.20282428272845476" />
    <synapse sourceNeuronName = "0" targetNeuronName = "25" weight = "0.9110591394933454" />
    <synapse sourceNeuronName = "0" targetNeuronName = "26" weight = "0.22399153486421097" />
    <synapse sourceNeuronName = "0" targetNeuronName = "27" weight = "0.025550233813257828" />
    <synapse sourceNeuronName = "0" targetNeuronName = "28" weight = "0.39012265821221015" />
    <synapse sourceNeuronName = "1" targetNeuronName = "20" weight = "0.48548803857132095" />
    <synapse sourceNeuronName = "1" targetNeuronName = "21" weight = "0.018420408111894604" />
    <synapse sourceNeuronName = "1" targetNeuronName = "22" weight = "-0.3395160294567201" />
    <synapse sourceNeuronName = "1" targetNeuronName = "23" weight = "0.564804504109039" />
    <synapse sourceNeuronName = "1" targetNeuronName = "24" weight = "-0.730119742108577" />
    <synapse sourceNeuronName = "1" targetNeuronName = "25" weight = "-0.5449283250319266" />
    <synapse sourceNeuronName = "1" targetNeuronName = "26" weight = "-0.8227233987858684" />
    <synapse sourceNeuronName = "1" targetNeuronName = "27" weight = "-0.34541201179236447" />
    <synapse sourceNeuronName = "1" targetNeuronName = "28" weight = "-0.8768237325556678" />
    <synapse sourceNeuronName = "2" targetNeuronName = "20" weight = "-0.5384757710600512" />
    <synapse sourceNeuronName = "2" targetNeuronName = "21" weight = "-0.11170404771082265" />
    <synapse sourceNeuronName = "2" targetNeuronName = "22" weight = "0.809798396052084" />
    <synapse sourceNeuronName = "2" targetNeuronName = "23" weight = "0.8278735292649604" />
    <synapse sourceNeuronName = "2" targetNeuronName = "24" weight = "0.5606757425185491" />
    <synapse sourceNeuronName = "2" targetNeuronName = "25" weight = "-0.07184985370527452" />
    <synapse sourceNeuronName = "2" targetNeuronName = "26" weight = "0.3402950978083845" />
    <synapse sourceNeuronName = "2" targetNeuronName = "27" weight = "-0.538906580028151" />
    <synapse sourceNeuronName = "2" targetNeuronName = "28" weight = "-0.24630440235366868" />
    <synapse sourceNeuronName = "3" targetNeuronName = "20" weight = "-0.6887549839205864" />
    <synapse sourceNeuronName = "3" targetNeuronName = "21" weight = "0.17798256982681493" />
    <synapse sourceNeuronName = "3" targetNeuronName = "22" weight = "0.921868456131002" />
    <synapse sourceNeuronName = "3" targetNeuronName = "23" weight = "0.03261049838529617" />
    <synapse sourceNeuronName = "3" targetNeuronName = "24" weight = "-0.20070160092455702" />
    <synapse sourceNeuronName = "3" targetNeuronName = "25" weight = "-0.4744113942905819" />
    <synapse sourceNeuronName = "3" targetNeuronName = "26" weight = "-0.16752867457555665" />
    <synapse sourceNeuronName = "3" targetNeuronName = "27" weight = "0.9733201237427165" />
    <synapse sourceNeuronName = "3" targetNeuronName = "28" weight = "0.5955074565789023" />
    <synapse sourceNeuronName = "4" targetNeuronName = "20" weight = "-0.8802083852365128" />
    <synapse sourceNeuronName = "4" targetNeuronName = "21" weight = "0.10350112821917401" />
    <synapse sourceNeuronName = "4" targetNeuronName = "22" weight = "0.8636864746895938" />
    <synapse sourceNeuronName = "4" targetNeuronName = "23" weight = "0.8579058951543097" />
    <synapse sourceNeuronName = "4" targetNeuronName = "24" weight = "-0.023839807702519256" />
    <synapse sourceNeuronName = "4" targetNeuronName = "25" weight = "0.6842755693932578" />
    <synapse sourceNeuronName = "4" targetNeuronName = "26" weight = "0.8914930838773982" />
    <synapse sourceNeuronName = "4" targetNeuronName = "27" weight = "0.48663290306542284" />
    <synapse sourceNeuronName = "4" targetNeuronName = "28" weight = "-0.08013911918667405" />
    <synapse sourceNeuronName = "5" targetNeuronName = "20" weight = "-0.9600494330486331" />
    <synapse sourceNeuronName = "5" targetNeuronName = "21" weight = "-0.6123027444479727" />
    <synapse sourceNeuronName = "5" targetNeuronName = "22" weight = "-0.39345806014678786" />
    <synapse sourceNeuronName = "5" targetNeuronName = "23" weight = "-0.41889523352892266" />
    <synapse sourceNeuronName = "5" targetNeuronName = "24" weight = "-0.8838127477715367" />
    <synapse sourceNeuronName = "5" targetNeuronName = "25" weight = "-0.8739515601165144" />
    <synapse sourceNeuronName = "5" targetNeuronName = "26" weight = "0.16210965031425228" />
    <synapse sourceNeuronName = "5" targetNeuronName = "27" weight = "-0.9747837756476299" />
    <synapse sourceNeuronName = "5" targetNeuronName = "28" weight = "0.6198850496181678" />
    <synapse sourceNeuronName = "6" targetNeuronName = "20" weight = "-0.1439007333423099" />
    <synapse sourceNeuronName = "6" targetNeuronName = "21" weight = "-0.3465212333847356" />
    <synapse sourceNeuronName = "6" targetNeuronName = "22" weight = "0.8394381389355847" />
    <synapse sourceNeuronName = "6" targetNeuronName = "23" weight = "0.3330665743612815" />
    <synapse sourceNeuronName = "6" targetNeuronName = "24" weight = "-0.8546629733315878" />
    <synapse sourceNeuronName = "6" targetNeuronName = "25" weight = "0.7011773948972373" />
    <synapse sourceNeuronName = "6" targetNeuronName = "26" weight = "-0.29455101945228845" />
    <synapse sourceNeuronName = "6" targetNeuronName = "27" weight = "0.5953373940313822" />
    <synapse sourceNeuronName = "6" targetNeuronName = "28" weight = "-0.5765200012385656" />
    <synapse sourceNeuronName = "7" targetNeuronName = "20" weight = "0.1947479633419804" />
    <synapse sourceNeuronName = "7" targetNeuronName = "21" weight = "-0.9797791185363676" />
    <synapse sourceNeuronName = "7" targetNeuronName = "22" weight = "-0.7937787091428865" />
    <synapse sourceNeuronName = "7" targetNeuronName = "23" weight = "0.29751242160681723" />
    <synapse sourceNeuronName = "7" targetNeuronName = "24" weight = "-0.7538746620880492" />
    <synapse sourceNeuronName = "7" targetNeuronName = "25" weight = "-0.21474641394017757" />
    <synapse sourceNeuronName = "7" targetNeuronName = "26" weight = "-0.4142897005689081" />
    <synapse sourceNeuronName = "7" targetNeuronName = "27" weight = "0.4780816174797624" />
    <synapse sourceNeuronName = "7" targetNeuronName = "28" weight = "-0.6757382046276859" />
    <synapse sourceNeuronName = "8" targetNeuronName = "20" weight = "-0.7975158350319054" />
    <synapse sourceNeuronName = "8" targetNeuronName = "21" weight = "0.6491316591464706" />
    <synapse sourceNeuronName = "8" targetNeuronName = "22" weight = "-0.1389785713313112" />
    <synapse sourceNeuronName = "8" targetNeuronName = "23" weight = "0.38454118791934055" />
    <synapse sourceNeuronName = "8" targetNeuronName = "24" weight = "0.6647942302672016" />
    <synapse sourceNeuronName = "8" targetNeuronName = "25" weight = "0.32713390578524004" />
    <synapse sourceNeuronName = "8" targetNeuronName = "26" weight = "-0.4508785553910324" />
    <synapse sourceNeuronName = "8" targetNeuronName = "27" weight = "0.03067733514368176" />
    <synapse sourceNeuronName = "8" targetNeuronName = "28" weight = "0.525863941211941" />
    <synapse sourceNeuronName = "9" targetNeuronName = "20" weight = "0.7963729423717776" />
    <synapse sourceNeuronName = "9" targetNeuronName = "21" weight = "0.22766402648691964" />
    <synapse sourceNeuronName = "9" targetNeuronName = "22" weight = "-0.2541128924475431" />
    <synapse sourceNeuronName = "9" targetNeuronName = "23" weight = "0.02745581268108177" />
    <synapse sourceNeuronName = "9" targetNeuronName = "24" weight = "-0.618567997897826" />
    <synapse sourceNeuronName = "9" targetNeuronName = "25" weight = "0.9344027465243012" />
    <synapse sourceNeuronName = "9" targetNeuronName = "26" weight = "-0.2719834253558546" />
    <synapse sourceNeuronName = "9" targetNeuronName = "27" weight = "0.4744432989864673" />
    <synapse sourceNeuronName = "9" targetNeuronName = "28" weight = "-0.3171504722458651" />
    <synapse sourceNeuronName = "10" targetNeuronName = "20" weight = "0.28175897923913795" />
    <synapse sourceNeuronName = "10" targetNeuronName = "21" weight = "-0.8585991465235439" />
    <synapse sourceNeuronName = "10" targetNeuronName = "22" weight = "0.49096637484729744" />
    <synapse sourceNeuronName = "10" targetNeuronName = "23" weight = "-0.968339683966382" />
    <synapse sourceNeuronName = "10" targetNeuronName = "24" weight = "0.7122573539468664" />
    <synapse sourceNeuronName = "10" targetNeuronName = "25" weight = "-0.3161475123944395" />
    <synapse sourceNeuronName = "10" targetNeuronName = "26" weight = "0.0534024855666142" />
    <synapse sourceNeuronName = "10" targetNeuronName = "27" weight = "0.5120406509684958" />
    <synapse sourceNeuronName = "10" targetNeuronName = "28" weight = "0.5149684624103776" />
    <synapse sourceNeuronName = "11" targetNeuronName = "20" weight = "0.8595811257083921" />
    <synapse sourceNeuronName = "11" targetNeuronName = "21" weight = "0.9817219928733785" />
    <synapse sourceNeuronName = "11" targetNeuronName = "22" weight = "0.7648783023704266" />
    <synapse sourceNeuronName = "11" targetNeuronName = "23" weight = "0.1918572555660234" />
    <synapse sourceNeuronName = "11" targetNeuronName = "24" weight = "-0.5484156002379281" />
    <synapse sourceNeuronName = "11" targetNeuronName = "25" weight = "0.19334622046527783" />
    <synapse sourceNeuronName = "11" targetNeuronName = "26" weight = "-0.9501406645074444" />
    <synapse sourceNeuronName = "11" targetNeuronName = "27" weight = "-0.3832150019008167" />
    <synapse sourceNeuronName = "11" targetNeuronName = "28" weight = "0.24220375190562926" />
    <synapse sourceNeuronName = "12" targetNeuronName = "20" weight = "-0.7020690313616804" />
    <synapse sourceNeuronName = "12" targetNeuronName = "21" weight = "0.9413400115764015" />
    <synapse sourceNeuronName = "12" targetNeuronName = "22" weight = "-0.6835539897439187" />
    <synapse sourceNeuronName = "12" targetNeuronName = "23" weight = "-0.2931776098211898" />
    <synapse sourceNeuronName = "12" targetNeuronName = "24" weight = "0.9627453781308171" />
    <synapse sourceNeuronName = "12" targetNeuronName = "25" weight = "-0.3841042698949324" />
    <synapse sourceNeuronName = "12" targetNeuronName = "26" weight = "0.4757014380388731" />
    <synapse sourceNeuronName = "12" targetNeuronName = "27" weight = "0.6660417329367609" />
    <synapse sourceNeuronName = "12" targetNeuronName = "28" weight = "0.8392942402646273" />
    <synapse sourceNeuronName = "13" targetNeuronName = "20" weight = "0.4076297376258313" />
    <synapse sourceNeuronName = "13" targetNeuronName = "21" weight = "-0.5614605383529634" />
    <synapse sourceNeuronName = "13" targetNeuronName = "22" weight = "0.07006879401277422" />
    <synapse sourceNeuronName = "13" targetNeuronName = "23" weight = "-0.1293885066151681" />
    <synapse sourceNeuronName = "13" targetNeuronName = "24" weight = "-0.07253230784483011" />
    <synapse sourceNeuronName = "13" targetNeuronName = "25" weight = "0.16498671483094052" />
    <synapse sourceNeuronName = "13" targetNeuronName = "26" weight = "0.05719027125539511" />
    <synapse sourceNeuronName = "13" targetNeuronName = "27" weight = "-0.2962387164230964" />
    <synapse sourceNeuronName = "13" targetNeuronName = "28" weight = "0.60978865389511" />
    <synapse sourceNeuronName = "14" targetNeuronName = "20" weight = "0.30580073394225904" />
    <synapse sourceNeuronName = "14" targetNeuronName = "21" weight = "-0.2812522650693112" />
    <synapse sourceNeuronName = "14" targetNeuronName = "22" weight = "0.8995046366018071" />
    <synapse sourceNeuronName = "14" targetNeuronName = "23" weight = "-0.49246716180605876" />
    <synapse sourceNeuronName = "14" targetNeuronName = "24" weight = "0.6769815879589853" />
    <synapse sourceNeuronName = "14" targetNeuronName = "25" weight = "0.4556555384728056" />
    <synapse sourceNeuronName = "14" targetNeuronName = "26" weight = "-0.3891953288683705" />
    <synapse sourceNeuronName = "14" targetNeuronName = "27" weight = "0.14698614703009283" />
    <synapse sourceNeuronName = "14" targetNeuronName = "28" weight = "0.3746598254575517" />
    <synapse sourceNeuronName = "15" targetNeuronName = "20" weight = "0.8446995716100851" />
    <synapse sourceNeuronName = "15" targetNeuronName = "21" weight = "-0.05428059727682388" />
    <synapse sourceNeuronName = "15" targetNeuronName = "22" weight = "0.996295607203209" />
    <synapse sourceNeuronName = "15" targetNeuronName = "23" weight = "0.11607107871389188" />
    <synapse sourceNeuronName = "15" targetNeuronName = "24" weight = "0.761332515478433" />
    <synapse sourceNeuronName = "15" targetNeuronName = "25" weight = "-0.1005447280374483" />
    <synapse sourceNeuronName = "15" targetNeuronName = "26" weight = "0.9990310428835234" />
    <synapse sourceNeuronName = "15" targetNeuronName = "27" weight = "0.8730873230910103" />
    <synapse sourceNeuronName = "15" targetNeuronName = "28" weight = "-0.5615202110801116" />
    <synapse sourceNeuronName = "16" targetNeuronName = "20" weight = "0.43002012499641373" />
    <synapse sourceNeuronName = "16" targetNeuronName = "21" weight = "-0.4471520353011833" />
    <synapse sourceNeuronName = "16" targetNeuronName = "22" weight = "-0.9050717029546371" />
    <synapse sourceNeuronName = "16" targetNeuronName = "23" weight = "0.08850710263235251" />
    <synapse sourceNeuronName = "16" targetNeuronName = "24" weight = "0.8034820260067661" />
    <synapse sourceNeuronName = "16" targetNeuronName = "25" weight = "-0.11106043548655942" />
    <synapse sourceNeuronName = "16" targetNeuronName = "26" weight = "0.7751757860000636" />
    <synapse sourceNeuronName = "16" targetNeuronName = "27" weight = "-0.8035375518753198" />
    <synapse sourceNeuronName = "16" targetNeuronName = "28" weight = "0.9743045220915667" />
    <synapse sourceNeuronName = "17" targetNeuronName = "20" weight = "-0.4704094884358301" />
    <synapse sourceNeuronName = "17" targetNeuronName = "21" weight = "0.957339314597494" />
    <synapse sourceNeuronName = "17" targetNeuronName = "22" weight = "0.5653847687974443" />
    <synapse sourceNeuronName = "17" targetNeuronName = "23" weight = "-0.8522354600608177" />
    <synapse sourceNeuronName = "17" targetNeuronName = "24" weight = "-0.019176193897912697" />
    <synapse sourceNeuronName = "17" targetNeuronName = "25" weight = "-0.10689795530792812" />
    <synapse sourceNeuronName = "17" targetNeuronName = "26" weight = "0.7447166595169503" />
    <synapse sourceNeuronName = "17" targetNeuronName = "27" weight = "0.5875341872034481" />
    <synapse sourceNeuronName = "17" targetNeuronName = "28" weight = "-0.6296195086382057" />
    <synapse sourceNeuronName = "18" targetNeuronName = "20" weight = "-0.8120776035302533" />
    <synapse sourceNeuronName = "18" targetNeuronName = "21" weight = "0.2615327758825121" />
    <synapse sourceNeuronName = "18" targetNeuronName = "22" weight = "0.26480664547412336" />
    <synapse sourceNeuronName = "18" targetNeuronName = "23" weight = "-0.689169871165034" />
    <synapse sourceNeuronName = "18" targetNeuronName = "24" weight = "-0.764859766365475" />
    <synapse sourceNeuronName = "18" targetNeuronName = "25" weight = "0.14574663102468777" />
    <synapse sourceNeuronName = "18" targetNeuronName = "26" weight = "-0.07862300339719663" />
    <synapse sourceNeuronName = "18" targetNeuronName = "27" weight = "0.21297693689467656" />
    <synapse sourceNeuronName = "18" targetNeuronName = "28" weight = "-0.30270314659074593" />
    <synapse sourceNeuronName = "19" targetNeuronName = "20" weight = "-0.5435339941292492" />
    <synapse sourceNeuronName = "19" targetNeuronName = "21" weight = "-0.71655257392957" />
    <synapse sourceNeuronName = "19" targetNeuronName = "22" weight = "-0.4828867787922999" />
    <synapse sourceNeuronName = "19" targetNeuronName = "23" weight = "0.7722387948550415" />
    <synapse sourceNeuronName = "19" targetNeuronName = "24" weight = "0.8274355121074226" />
    <synapse sourceNeuronName = "19" targetNeuronName = "25" weight = "0.8429400952246864" />
    <synapse sourceNeuronName = "19" targetNeuronName = "26" weight = "-0.2746588006124169" />
    <synapse sourceNeuronName = "19" targetNeuronName = "27" weight = "-0.5382136274070071" />
    <synapse sourceNeuronName = "19" targetNeuronName = "28" weight = "0.031187345354498186" />
</neuralNetwork>