<neuralNetwork>
    <neuron name = "0" type = "sensor" linkName = "Link0" />
    <neuron name = "1" type = "sensor" linkName = "Link2" />
    <neuron name = "2" type = "sensor" linkName = "Link3" />
    <neuron name = "3" type = "sensor" linkName = "Link2-0" />
    <neuron name = "4" type = "sensor" linkName = "Link2-2" />
    <neuron name = "5" type = "sensor" linkName = "Link2-3" />
    <neuron name = "6" type = "sensor" linkName = "Link2-4" />
    <neuron name = "7" type = "sensor" linkName = "Link2-2-0" />
    <neuron name = "8" type = "sensor" linkName = "Link2-2-2" />
    <neuron name = "9" type = "sensor" linkName = "Link3-0" />
    <neuron name = "10" type = "motor"  jointName = "Link0_Link1" />
    <neuron name = "11" type = "motor"  jointName = "Link1_Link2" />
    <neuron name = "12" type = "motor"  jointName = "Link2_Link3" />
    <synapse sourceNeuronName = "0" targetNeuronName = "10" weight = "0.6352819819901685" />
    <synapse sourceNeuronName = "0" targetNeuronName = "11" weight = "0.9427681426259422" />
    <synapse sourceNeuronName = "0" targetNeuronName = "12" weight = "-0.294269420197383" />
    <synapse sourceNeuronName = "1" targetNeuronName = "10" weight = "0.5722829105944103" />
    <synapse sourceNeuronName = "1" targetNeuronName = "11" weight = "0.5015195824266052" />
    <synapse sourceNeuronName = "1" targetNeuronName = "12" weight = "0.2751481860516365" />
    <synapse sourceNeuronName = "2" targetNeuronName = "10" weight = "0.5664949137405673" />
    <synapse sourceNeuronName = "2" targetNeuronName = "11" weight = "0.343044945564716" />
    <synapse sourceNeuronName = "2" targetNeuronName = "12" weight = "0.2292672926728263" />
    <synapse sourceNeuronName = "3" targetNeuronName = "10" weight = "-0.9341759773767893" />
    <synapse sourceNeuronName = "3" targetNeuronName = "11" weight = "0.34033811610698717" />
    <synapse sourceNeuronName = "3" targetNeuronName = "12" weight = "-0.35971336241092966" />
    <synapse sourceNeuronName = "4" targetNeuronName = "10" weight = "-0.889992980863622" />
    <synapse sourceNeuronName = "4" targetNeuronName = "11" weight = "0.8224127711506108" />
    <synapse sourceNeuronName = "4" targetNeuronName = "12" weight = "-0.14311668039940972" />
    <synapse sourceNeuronName = "5" targetNeuronName = "10" weight = "0.6615346178487647" />
    <synapse sourceNeuronName = "5" targetNeuronName = "11" weight = "0.8275276768453745" />
    <synapse sourceNeuronName = "5" targetNeuronName = "12" weight = "-0.29459993550344565" />
    <synapse sourceNeuronName = "6" targetNeuronName = "10" weight = "0.5831546731450339" />
    <synapse sourceNeuronName = "6" targetNeuronName = "11" weight = "0.8452345560914454" />
    <synapse sourceNeuronName = "6" targetNeuronName = "12" weight = "-0.4475024577773421" />
    <synapse sourceNeuronName = "7" targetNeuronName = "10" weight = "0.750623613059467" />
    <synapse sourceNeuronName = "7" targetNeuronName = "11" weight = "-0.617964080956537" />
    <synapse sourceNeuronName = "7" targetNeuronName = "12" weight = "-0.7990354943793732" />
    <synapse sourceNeuronName = "8" targetNeuronName = "10" weight = "0.6844752067533129" />
    <synapse sourceNeuronName = "8" targetNeuronName = "11" weight = "-0.24268634008244305" />
    <synapse sourceNeuronName = "8" targetNeuronName = "12" weight = "0.11288010404541393" />
    <synapse sourceNeuronName = "9" targetNeuronName = "10" weight = "0.19424398340313642" />
    <synapse sourceNeuronName = "9" targetNeuronName = "11" weight = "-0.7767818056563991" />
    <synapse sourceNeuronName = "9" targetNeuronName = "12" weight = "0.6737328820955757" />
</neuralNetwork>