<neuralNetwork>
    <neuron name = "0" type = "sensor" linkName = "Link0" />
    <neuron name = "1" type = "sensor" linkName = "Link3" />
    <neuron name = "2" type = "sensor" linkName = "Link3-0" />
    <neuron name = "3" type = "sensor" linkName = "Link3-1-0" />
    <neuron name = "4" type = "sensor" linkName = "Link3-1-2" />
    <neuron name = "5" type = "sensor" linkName = "Link3-1-3" />
    <neuron name = "6" type = "motor"  jointName = "Link0_Link1" />
    <neuron name = "7" type = "motor"  jointName = "Link1_Link2" />
    <neuron name = "8" type = "motor"  jointName = "Link2_Link3" />
    <neuron name = "9" type = "motor"  jointName = "Link0_Link1" />
    <neuron name = "10" type = "motor"  jointName = "Link0_Link1" />
    <neuron name = "11" type = "motor"  jointName = "Link0_Link1" />
    <neuron name = "12" type = "motor"  jointName = "Link0_Link1" />
    <synapse sourceNeuronName = "0" targetNeuronName = "6" weight = "0.8382816032430331" />
    <synapse sourceNeuronName = "0" targetNeuronName = "7" weight = "0.4366653079417253" />
    <synapse sourceNeuronName = "0" targetNeuronName = "8" weight = "-0.3520665172876909" />
    <synapse sourceNeuronName = "0" targetNeuronName = "9" weight = "-0.2902234737620881" />
    <synapse sourceNeuronName = "0" targetNeuronName = "10" weight = "0.12865087671989173" />
    <synapse sourceNeuronName = "0" targetNeuronName = "11" weight = "0.4873311986833673" />
    <synapse sourceNeuronName = "0" targetNeuronName = "12" weight = "-0.8911833642749927" />
    <synapse sourceNeuronName = "1" targetNeuronName = "6" weight = "0.8476896252984361" />
    <synapse sourceNeuronName = "1" targetNeuronName = "7" weight = "-0.473749760637836" />
    <synapse sourceNeuronName = "1" targetNeuronName = "8" weight = "-0.875889087375697" />
    <synapse sourceNeuronName = "1" targetNeuronName = "9" weight = "0.29140392146330063" />
    <synapse sourceNeuronName = "1" targetNeuronName = "10" weight = "0.27443288846487746" />
    <synapse sourceNeuronName = "1" targetNeuronName = "11" weight = "-0.8878483195347544" />
    <synapse sourceNeuronName = "1" targetNeuronName = "12" weight = "-0.06013677551203478" />
    <synapse sourceNeuronName = "2" targetNeuronName = "6" weight = "0.021974119108110424" />
    <synapse sourceNeuronName = "2" targetNeuronName = "7" weight = "0.7426853234602151" />
    <synapse sourceNeuronName = "2" targetNeuronName = "8" weight = "0.6982480295309579" />
    <synapse sourceNeuronName = "2" targetNeuronName = "9" weight = "0.3893879125606301" />
    <synapse sourceNeuronName = "2" targetNeuronName = "10" weight = "-0.5413869527083122" />
    <synapse sourceNeuronName = "2" targetNeuronName = "11" weight = "0.23938155142793738" />
    <synapse sourceNeuronName = "2" targetNeuronName = "12" weight = "-0.4646561856375655" />
    <synapse sourceNeuronName = "3" targetNeuronName = "6" weight = "0.40695973150547693" />
    <synapse sourceNeuronName = "3" targetNeuronName = "7" weight = "-0.013465582151214184" />
    <synapse sourceNeuronName = "3" targetNeuronName = "8" weight = "0.6783089121347488" />
    <synapse sourceNeuronName = "3" targetNeuronName = "9" weight = "-0.9500153852180377" />
    <synapse sourceNeuronName = "3" targetNeuronName = "10" weight = "0.18622370235320984" />
    <synapse sourceNeuronName = "3" targetNeuronName = "11" weight = "-0.4371633377100177" />
    <synapse sourceNeuronName = "3" targetNeuronName = "12" weight = "0.3805247010997195" />
    <synapse sourceNeuronName = "4" targetNeuronName = "6" weight = "0.7867306653967403" />
    <synapse sourceNeuronName = "4" targetNeuronName = "7" weight = "0.09871300583243259" />
    <synapse sourceNeuronName = "4" targetNeuronName = "8" weight = "0.421022109596652" />
    <synapse sourceNeuronName = "4" targetNeuronName = "9" weight = "0.6478557437761554" />
    <synapse sourceNeuronName = "4" targetNeuronName = "10" weight = "-0.9493109281367476" />
    <synapse sourceNeuronName = "4" targetNeuronName = "11" weight = "-0.37614917629535993" />
    <synapse sourceNeuronName = "4" targetNeuronName = "12" weight = "0.9675251037140218" />
    <synapse sourceNeuronName = "5" targetNeuronName = "6" weight = "-0.16908239729315566" />
    <synapse sourceNeuronName = "5" targetNeuronName = "7" weight = "-0.6661282436315008" />
    <synapse sourceNeuronName = "5" targetNeuronName = "8" weight = "-0.9958108689655305" />
    <synapse sourceNeuronName = "5" targetNeuronName = "9" weight = "-0.879245180856012" />
    <synapse sourceNeuronName = "5" targetNeuronName = "10" weight = "0.8097216695908913" />
    <synapse sourceNeuronName = "5" targetNeuronName = "11" weight = "0.7182386575879876" />
    <synapse sourceNeuronName = "5" targetNeuronName = "12" weight = "0.9012464274282739" />
</neuralNetwork>