<neuralNetwork>
    <neuron name = "0" type = "sensor" linkName = "Link0" />
    <neuron name = "1" type = "sensor" linkName = "Link2" />
    <neuron name = "2" type = "sensor" linkName = "Link3-1" />
    <neuron name = "3" type = "motor"  jointName = "Link0_Link1" />
    <neuron name = "4" type = "motor"  jointName = "Link1_Link2" />
    <neuron name = "5" type = "motor"  jointName = "Link2_Link3" />
    <neuron name = "6" type = "motor"  jointName = "Link0_Link1" />
    <neuron name = "7" type = "motor"  jointName = "Link0_Link1" />
    <neuron name = "8" type = "motor"  jointName = "Link0_Link1" />
    <neuron name = "9" type = "motor"  jointName = "Link0_Link1" />
    <neuron name = "10" type = "motor"  jointName = "Link0_Link1" />
    <neuron name = "11" type = "motor"  jointName = "Link0_Link1" />
    <neuron name = "12" type = "motor"  jointName = "Link0_Link1" />
    <neuron name = "13" type = "motor"  jointName = "Link0_Link1" />
    <synapse sourceNeuronName = "0" targetNeuronName = "3" weight = "-0.429218600111716" />
    <synapse sourceNeuronName = "0" targetNeuronName = "4" weight = "-0.7528767775157414" />
    <synapse sourceNeuronName = "0" targetNeuronName = "5" weight = "-0.5760451791355545" />
    <synapse sourceNeuronName = "0" targetNeuronName = "6" weight = "-0.6765067257510455" />
    <synapse sourceNeuronName = "0" targetNeuronName = "7" weight = "0.5542163381807599" />
    <synapse sourceNeuronName = "0" targetNeuronName = "8" weight = "0.09416273753826832" />
    <synapse sourceNeuronName = "0" targetNeuronName = "9" weight = "-0.2779517103555402" />
    <synapse sourceNeuronName = "0" targetNeuronName = "10" weight = "-0.2966475784561844" />
    <synapse sourceNeuronName = "0" targetNeuronName = "11" weight = "-0.17169739528755934" />
    <synapse sourceNeuronName = "0" targetNeuronName = "12" weight = "0.3464544552843716" />
    <synapse sourceNeuronName = "0" targetNeuronName = "13" weight = "0.12789659236217732" />
    <synapse sourceNeuronName = "1" targetNeuronName = "3" weight = "-0.12864338434966793" />
    <synapse sourceNeuronName = "1" targetNeuronName = "4" weight = "-0.9253411237094891" />
    <synapse sourceNeuronName = "1" targetNeuronName = "5" weight = "0.8829690777181933" />
    <synapse sourceNeuronName = "1" targetNeuronName = "6" weight = "-0.026631486095808565" />
    <synapse sourceNeuronName = "1" targetNeuronName = "7" weight = "-0.3467814711134136" />
    <synapse sourceNeuronName = "1" targetNeuronName = "8" weight = "-0.774951252844635" />
    <synapse sourceNeuronName = "1" targetNeuronName = "9" weight = "0.8535096192124763" />
    <synapse sourceNeuronName = "1" targetNeuronName = "10" weight = "-0.7755253301365079" />
    <synapse sourceNeuronName = "1" targetNeuronName = "11" weight = "0.6427312599105282" />
    <synapse sourceNeuronName = "1" targetNeuronName = "12" weight = "-0.9522730146527574" />
    <synapse sourceNeuronName = "1" targetNeuronName = "13" weight = "-0.0359094117696066" />
    <synapse sourceNeuronName = "2" targetNeuronName = "3" weight = "0.9673786254014041" />
    <synapse sourceNeuronName = "2" targetNeuronName = "4" weight = "0.11547330674150591" />
    <synapse sourceNeuronName = "2" targetNeuronName = "5" weight = "0.9684948670028428" />
    <synapse sourceNeuronName = "2" targetNeuronName = "6" weight = "0.8936666187403997" />
    <synapse sourceNeuronName = "2" targetNeuronName = "7" weight = "0.32563535787652187" />
    <synapse sourceNeuronName = "2" targetNeuronName = "8" weight = "-0.8372644613102265" />
    <synapse sourceNeuronName = "2" targetNeuronName = "9" weight = "-0.7393903670794044" />
    <synapse sourceNeuronName = "2" targetNeuronName = "10" weight = "0.9545600165110437" />
    <synapse sourceNeuronName = "2" targetNeuronName = "11" weight = "-0.45942648445708967" />
    <synapse sourceNeuronName = "2" targetNeuronName = "12" weight = "0.9508060804564149" />
    <synapse sourceNeuronName = "2" targetNeuronName = "13" weight = "0.27422675561637844" />
</neuralNetwork>