<neuralNetwork>
    <neuron name = "0" type = "sensor" linkName = "Link0" />
    <neuron name = "1" type = "sensor" linkName = "Link1" />
    <neuron name = "2" type = "sensor" linkName = "Link1" />
    <neuron name = "3" type = "sensor" linkName = "Link2-2" />
    <neuron name = "4" type = "sensor" linkName = "Link2-3" />
    <neuron name = "5" type = "sensor" linkName = "Link2-4" />
    <neuron name = "6" type = "sensor" linkName = "Link2-3-0" />
    <neuron name = "7" type = "sensor" linkName = "Link2-3-1" />
    <neuron name = "8" type = "sensor" linkName = "Link2-3-2" />
    <neuron name = "9" type = "sensor" linkName = "Link2-3-2-0" />
    <neuron name = "10" type = "sensor" linkName = "Link2-3-2-1" />
    <neuron name = "11" type = "sensor" linkName = "Link2-3-2-2" />
    <neuron name = "12" type = "sensor" linkName = "Link2-3-2-3" />
    <neuron name = "13" type = "motor"  jointName = "Link0_Link1" />
    <neuron name = "14" type = "motor"  jointName = "Link1_Link2" />
    <neuron name = "15" type = "motor"  jointName = "Link0_Link1" />
    <neuron name = "16" type = "motor"  jointName = "Link0_Link1" />
    <neuron name = "17" type = "motor"  jointName = "Link0_Link1" />
    <neuron name = "18" type = "motor"  jointName = "Link0_Link1" />
    <neuron name = "19" type = "motor"  jointName = "Link0_Link1" />
    <synapse sourceNeuronName = "0" targetNeuronName = "13" weight = "0.3099853789668976" />
    <synapse sourceNeuronName = "0" targetNeuronName = "14" weight = "-0.579719449086628" />
    <synapse sourceNeuronName = "0" targetNeuronName = "15" weight = "-0.4879052044746437" />
    <synapse sourceNeuronName = "0" targetNeuronName = "16" weight = "-0.8028571433048408" />
    <synapse sourceNeuronName = "0" targetNeuronName = "17" weight = "0.4146462020423405" />
    <synapse sourceNeuronName = "0" targetNeuronName = "18" weight = "-0.5125464111791567" />
    <synapse sourceNeuronName = "0" targetNeuronName = "19" weight = "-0.6815864933001576" />
    <synapse sourceNeuronName = "1" targetNeuronName = "13" weight = "0.2650532835698918" />
    <synapse sourceNeuronName = "1" targetNeuronName = "14" weight = "-0.1913520836306164" />
    <synapse sourceNeuronName = "1" targetNeuronName = "15" weight = "-0.2875745421333109" />
    <synapse sourceNeuronName = "1" targetNeuronName = "16" weight = "0.3325834725518062" />
    <synapse sourceNeuronName = "1" targetNeuronName = "17" weight = "0.6408947129668854" />
    <synapse sourceNeuronName = "1" targetNeuronName = "18" weight = "-0.7988878453484769" />
    <synapse sourceNeuronName = "1" targetNeuronName = "19" weight = "0.20391293436248792" />
    <synapse sourceNeuronName = "2" targetNeuronName = "13" weight = "-0.2986325050531231" />
    <synapse sourceNeuronName = "2" targetNeuronName = "14" weight = "-0.6823771413916333" />
    <synapse sourceNeuronName = "2" targetNeuronName = "15" weight = "0.6190896853344878" />
    <synapse sourceNeuronName = "2" targetNeuronName = "16" weight = "-0.4865661551685567" />
    <synapse sourceNeuronName = "2" targetNeuronName = "17" weight = "-0.9537475994172098" />
    <synapse sourceNeuronName = "2" targetNeuronName = "18" weight = "-0.5274354309335714" />
    <synapse sourceNeuronName = "2" targetNeuronName = "19" weight = "-0.6290103881103344" />
    <synapse sourceNeuronName = "3" targetNeuronName = "13" weight = "-0.39476575993874485" />
    <synapse sourceNeuronName = "3" targetNeuronName = "14" weight = "-0.22389958912924612" />
    <synapse sourceNeuronName = "3" targetNeuronName = "15" weight = "0.1002717714704282" />
    <synapse sourceNeuronName = "3" targetNeuronName = "16" weight = "-0.7286982865090679" />
    <synapse sourceNeuronName = "3" targetNeuronName = "17" weight = "0.05982024112755302" />
    <synapse sourceNeuronName = "3" targetNeuronName = "18" weight = "-0.8476153306032732" />
    <synapse sourceNeuronName = "3" targetNeuronName = "19" weight = "0.9975050136006507" />
    <synapse sourceNeuronName = "4" targetNeuronName = "13" weight = "0.09065696999978723" />
    <synapse sourceNeuronName = "4" targetNeuronName = "14" weight = "0.3342882094759183" />
    <synapse sourceNeuronName = "4" targetNeuronName = "15" weight = "-0.5096216611066431" />
    <synapse sourceNeuronName = "4" targetNeuronName = "16" weight = "-0.09252870026624915" />
    <synapse sourceNeuronName = "4" targetNeuronName = "17" weight = "-0.5922456558016205" />
    <synapse sourceNeuronName = "4" targetNeuronName = "18" weight = "0.8772767060399151" />
    <synapse sourceNeuronName = "4" targetNeuronName = "19" weight = "-0.5098090321347488" />
    <synapse sourceNeuronName = "5" targetNeuronName = "13" weight = "0.9095613057053196" />
    <synapse sourceNeuronName = "5" targetNeuronName = "14" weight = "-0.7537679823724164" />
    <synapse sourceNeuronName = "5" targetNeuronName = "15" weight = "-0.8283778164506621" />
    <synapse sourceNeuronName = "5" targetNeuronName = "16" weight = "0.09218409503273572" />
    <synapse sourceNeuronName = "5" targetNeuronName = "17" weight = "0.04497071071578396" />
    <synapse sourceNeuronName = "5" targetNeuronName = "18" weight = "0.8294771333827324" />
    <synapse sourceNeuronName = "5" targetNeuronName = "19" weight = "0.11740375485200305" />
    <synapse sourceNeuronName = "6" targetNeuronName = "13" weight = "-0.6440827160205629" />
    <synapse sourceNeuronName = "6" targetNeuronName = "14" weight = "-0.3373372541023498" />
    <synapse sourceNeuronName = "6" targetNeuronName = "15" weight = "-0.2843071858907318" />
    <synapse sourceNeuronName = "6" targetNeuronName = "16" weight = "0.8296984442598931" />
    <synapse sourceNeuronName = "6" targetNeuronName = "17" weight = "-0.1054318273539474" />
    <synapse sourceNeuronName = "6" targetNeuronName = "18" weight = "0.5508271454014235" />
    <synapse sourceNeuronName = "6" targetNeuronName = "19" weight = "-0.439508559496961" />
    <synapse sourceNeuronName = "7" targetNeuronName = "13" weight = "-0.45710275548568213" />
    <synapse sourceNeuronName = "7" targetNeuronName = "14" weight = "0.8229881327711008" />
    <synapse sourceNeuronName = "7" targetNeuronName = "15" weight = "0.049986429659478526" />
    <synapse sourceNeuronName = "7" targetNeuronName = "16" weight = "0.5425911779396939" />
    <synapse sourceNeuronName = "7" targetNeuronName = "17" weight = "-0.9401036845663424" />
    <synapse sourceNeuronName = "7" targetNeuronName = "18" weight = "-0.4247948585797494" />
    <synapse sourceNeuronName = "7" targetNeuronName = "19" weight = "-0.2808274645355373" />
    <synapse sourceNeuronName = "8" targetNeuronName = "13" weight = "-0.4421284236534462" />
    <synapse sourceNeuronName = "8" targetNeuronName = "14" weight = "0.4975866316344957" />
    <synapse sourceNeuronName = "8" targetNeuronName = "15" weight = "0.34962534526657385" />
    <synapse sourceNeuronName = "8" targetNeuronName = "16" weight = "0.03153013026330065" />
    <synapse sourceNeuronName = "8" targetNeuronName = "17" weight = "-0.29951778302040144" />
    <synapse sourceNeuronName = "8" targetNeuronName = "18" weight = "0.7830905032812818" />
    <synapse sourceNeuronName = "8" targetNeuronName = "19" weight = "0.6002839912513454" />
    <synapse sourceNeuronName = "9" targetNeuronName = "13" weight = "-0.07802692035610947" />
    <synapse sourceNeuronName = "9" targetNeuronName = "14" weight = "0.03957381106953051" />
    <synapse sourceNeuronName = "9" targetNeuronName = "15" weight = "-0.20142873178006182" />
    <synapse sourceNeuronName = "9" targetNeuronName = "16" weight = "-0.6428204289838029" />
    <synapse sourceNeuronName = "9" targetNeuronName = "17" weight = "-0.5082404297479148" />
    <synapse sourceNeuronName = "9" targetNeuronName = "18" weight = "-0.8534399150895811" />
    <synapse sourceNeuronName = "9" targetNeuronName = "19" weight = "0.407097764222758" />
    <synapse sourceNeuronName = "10" targetNeuronName = "13" weight = "0.9659015148853387" />
    <synapse sourceNeuronName = "10" targetNeuronName = "14" weight = "-0.8802467941006864" />
    <synapse sourceNeuronName = "10" targetNeuronName = "15" weight = "-0.9851737922407777" />
    <synapse sourceNeuronName = "10" targetNeuronName = "16" weight = "-0.32842955872411417" />
    <synapse sourceNeuronName = "10" targetNeuronName = "17" weight = "-0.4507920247666144" />
    <synapse sourceNeuronName = "10" targetNeuronName = "18" weight = "0.8073417953552966" />
    <synapse sourceNeuronName = "10" targetNeuronName = "19" weight = "0.4463164383182918" />
    <synapse sourceNeuronName = "11" targetNeuronName = "13" weight = "0.24032926694270884" />
    <synapse sourceNeuronName = "11" targetNeuronName = "14" weight = "-0.5260488181313068" />
    <synapse sourceNeuronName = "11" targetNeuronName = "15" weight = "0.5954049532584238" />
    <synapse sourceNeuronName = "11" targetNeuronName = "16" weight = "-0.991339279991682" />
    <synapse sourceNeuronName = "11" targetNeuronName = "17" weight = "0.3443640817358653" />
    <synapse sourceNeuronName = "11" targetNeuronName = "18" weight = "-0.5970656529764167" />
    <synapse sourceNeuronName = "11" targetNeuronName = "19" weight = "0.8407438085583221" />
    <synapse sourceNeuronName = "12" targetNeuronName = "13" weight = "-0.2907756146433851" />
    <synapse sourceNeuronName = "12" targetNeuronName = "14" weight = "-0.9906057429729225" />
    <synapse sourceNeuronName = "12" targetNeuronName = "15" weight = "-0.8033977361452964" />
    <synapse sourceNeuronName = "12" targetNeuronName = "16" weight = "0.5526136501679695" />
    <synapse sourceNeuronName = "12" targetNeuronName = "17" weight = "-0.010294977039531528" />
    <synapse sourceNeuronName = "12" targetNeuronName = "18" weight = "0.9250087108842902" />
    <synapse sourceNeuronName = "12" targetNeuronName = "19" weight = "-0.2629827052202345" />
</neuralNetwork>