<neuralNetwork>
    <neuron name = "0" type = "sensor" linkName = "Link0" />
    <neuron name = "1" type = "sensor" linkName = "Link2-0" />
    <neuron name = "2" type = "sensor" linkName = "Link2-0-1" />
    <neuron name = "3" type = "sensor" linkName = "Link2-0-2" />
    <neuron name = "4" type = "sensor" linkName = "Link2-0-3" />
    <neuron name = "5" type = "motor"  jointName = "Link0_Link1" />
    <neuron name = "6" type = "motor"  jointName = "Link1_Link2" />
    <neuron name = "7" type = "motor"  jointName = "Link0_Link1" />
    <neuron name = "8" type = "motor"  jointName = "Link0_Link1" />
    <neuron name = "9" type = "motor"  jointName = "Link0_Link1" />
    <neuron name = "10" type = "motor"  jointName = "Link0_Link1" />
    <neuron name = "11" type = "motor"  jointName = "Link0_Link1" />
    <neuron name = "12" type = "motor"  jointName = "Link0_Link1" />
    <synapse sourceNeuronName = "0" targetNeuronName = "5" weight = "0.21179188511662272" />
    <synapse sourceNeuronName = "0" targetNeuronName = "6" weight = "0.4101501601207276" />
    <synapse sourceNeuronName = "0" targetNeuronName = "7" weight = "0.628816453981843" />
    <synapse sourceNeuronName = "0" targetNeuronName = "8" weight = "0.2983976464268787" />
    <synapse sourceNeuronName = "0" targetNeuronName = "9" weight = "-0.06408484415738203" />
    <synapse sourceNeuronName = "0" targetNeuronName = "10" weight = "-0.32597746940765093" />
    <synapse sourceNeuronName = "0" targetNeuronName = "11" weight = "0.46397421487822266" />
    <synapse sourceNeuronName = "0" targetNeuronName = "12" weight = "0.7590395863168908" />
    <synapse sourceNeuronName = "1" targetNeuronName = "5" weight = "0.14964283648762344" />
    <synapse sourceNeuronName = "1" targetNeuronName = "6" weight = "-0.9239511852376694" />
    <synapse sourceNeuronName = "1" targetNeuronName = "7" weight = "0.05757041871282742" />
    <synapse sourceNeuronName = "1" targetNeuronName = "8" weight = "-0.10518965277936587" />
    <synapse sourceNeuronName = "1" targetNeuronName = "9" weight = "-0.3111705402632734" />
    <synapse sourceNeuronName = "1" targetNeuronName = "10" weight = "-0.9115941928488063" />
    <synapse sourceNeuronName = "1" targetNeuronName = "11" weight = "0.2329327519311215" />
    <synapse sourceNeuronName = "1" targetNeuronName = "12" weight = "0.5366450748898823" />
    <synapse sourceNeuronName = "2" targetNeuronName = "5" weight = "-0.4894571354647106" />
    <synapse sourceNeuronName = "2" targetNeuronName = "6" weight = "0.7234641259719441" />
    <synapse sourceNeuronName = "2" targetNeuronName = "7" weight = "-0.40919312636952765" />
    <synapse sourceNeuronName = "2" targetNeuronName = "8" weight = "0.07977387098180122" />
    <synapse sourceNeuronName = "2" targetNeuronName = "9" weight = "-0.8458665161518317" />
    <synapse sourceNeuronName = "2" targetNeuronName = "10" weight = "0.48225631944054115" />
    <synapse sourceNeuronName = "2" targetNeuronName = "11" weight = "-0.004494480470273343" />
    <synapse sourceNeuronName = "2" targetNeuronName = "12" weight = "0.05114865034780269" />
    <synapse sourceNeuronName = "3" targetNeuronName = "5" weight = "0.6088401630676805" />
    <synapse sourceNeuronName = "3" targetNeuronName = "6" weight = "-0.395040133413338" />
    <synapse sourceNeuronName = "3" targetNeuronName = "7" weight = "0.8725374215402302" />
    <synapse sourceNeuronName = "3" targetNeuronName = "8" weight = "0.16660548480606563" />
    <synapse sourceNeuronName = "3" targetNeuronName = "9" weight = "0.2949529237595854" />
    <synapse sourceNeuronName = "3" targetNeuronName = "10" weight = "0.6278707274117621" />
    <synapse sourceNeuronName = "3" targetNeuronName = "11" weight = "-0.2553686682396443" />
    <synapse sourceNeuronName = "3" targetNeuronName = "12" weight = "-0.7699670796078417" />
    <synapse sourceNeuronName = "4" targetNeuronName = "5" weight = "-0.4113923061579452" />
    <synapse sourceNeuronName = "4" targetNeuronName = "6" weight = "-0.9494663570379263" />
    <synapse sourceNeuronName = "4" targetNeuronName = "7" weight = "0.012432960939460447" />
    <synapse sourceNeuronName = "4" targetNeuronName = "8" weight = "-0.9694009071986611" />
    <synapse sourceNeuronName = "4" targetNeuronName = "9" weight = "-0.5528962809551146" />
    <synapse sourceNeuronName = "4" targetNeuronName = "10" weight = "0.5152496204950308" />
    <synapse sourceNeuronName = "4" targetNeuronName = "11" weight = "0.3829614405782338" />
    <synapse sourceNeuronName = "4" targetNeuronName = "12" weight = "0.359997138834391" />
</neuralNetwork>