<neuralNetwork>
    <neuron name = "0" type = "sensor" linkName = "Link0" />
    <neuron name = "1" type = "sensor" linkName = "Link2" />
    <neuron name = "2" type = "sensor" linkName = "Link2-0" />
    <neuron name = "3" type = "sensor" linkName = "Link2-1" />
    <neuron name = "4" type = "sensor" linkName = "Link2-0-0" />
    <neuron name = "5" type = "sensor" linkName = "Link2-0-1" />
    <neuron name = "6" type = "sensor" linkName = "Link2-0-2" />
    <neuron name = "7" type = "sensor" linkName = "Link2-2-0" />
    <neuron name = "8" type = "sensor" linkName = "Link2-2-1" />
    <neuron name = "9" type = "sensor" linkName = "Link2-2-2" />
    <neuron name = "10" type = "sensor" linkName = "Link2-2-4" />
    <neuron name = "11" type = "sensor" linkName = "Link3-1" />
    <neuron name = "12" type = "sensor" linkName = "Link3-2" />
    <neuron name = "13" type = "motor"  jointName = "Link0_Link1" />
    <neuron name = "14" type = "motor"  jointName = "Link1_Link2" />
    <neuron name = "15" type = "motor"  jointName = "Link2_Link3" />
    <synapse sourceNeuronName = "0" targetNeuronName = "13" weight = "-0.9127942816411356" />
    <synapse sourceNeuronName = "0" targetNeuronName = "14" weight = "-0.7591943569200221" />
    <synapse sourceNeuronName = "0" targetNeuronName = "15" weight = "-0.9933963513772401" />
    <synapse sourceNeuronName = "1" targetNeuronName = "13" weight = "0.4060251657108709" />
    <synapse sourceNeuronName = "1" targetNeuronName = "14" weight = "-0.6248237265513981" />
    <synapse sourceNeuronName = "1" targetNeuronName = "15" weight = "0.8166129613765691" />
    <synapse sourceNeuronName = "2" targetNeuronName = "13" weight = "-0.26681701249896417" />
    <synapse sourceNeuronName = "2" targetNeuronName = "14" weight = "-0.38214713340974793" />
    <synapse sourceNeuronName = "2" targetNeuronName = "15" weight = "0.6919450948507999" />
    <synapse sourceNeuronName = "3" targetNeuronName = "13" weight = "-0.9807426447489462" />
    <synapse sourceNeuronName = "3" targetNeuronName = "14" weight = "-0.002890963985588746" />
    <synapse sourceNeuronName = "3" targetNeuronName = "15" weight = "0.2105181836243697" />
    <synapse sourceNeuronName = "4" targetNeuronName = "13" weight = "-0.8008979438263091" />
    <synapse sourceNeuronName = "4" targetNeuronName = "14" weight = "-0.6616089771746858" />
    <synapse sourceNeuronName = "4" targetNeuronName = "15" weight = "0.6648144320222267" />
    <synapse sourceNeuronName = "5" targetNeuronName = "13" weight = "-0.17849037658361322" />
    <synapse sourceNeuronName = "5" targetNeuronName = "14" weight = "0.2904631849494208" />
    <synapse sourceNeuronName = "5" targetNeuronName = "15" weight = "0.12420801175353713" />
    <synapse sourceNeuronName = "6" targetNeuronName = "13" weight = "0.23862335474584806" />
    <synapse sourceNeuronName = "6" targetNeuronName = "14" weight = "-0.7651451185388778" />
    <synapse sourceNeuronName = "6" targetNeuronName = "15" weight = "0.21633631575201928" />
    <synapse sourceNeuronName = "7" targetNeuronName = "13" weight = "-0.7864239233426609" />
    <synapse sourceNeuronName = "7" targetNeuronName = "14" weight = "-0.2882573946239704" />
    <synapse sourceNeuronName = "7" targetNeuronName = "15" weight = "0.06185912559206019" />
    <synapse sourceNeuronName = "8" targetNeuronName = "13" weight = "-0.7513645587374707" />
    <synapse sourceNeuronName = "8" targetNeuronName = "14" weight = "-0.5712715351570274" />
    <synapse sourceNeuronName = "8" targetNeuronName = "15" weight = "0.5917378057187919" />
    <synapse sourceNeuronName = "9" targetNeuronName = "13" weight = "0.25564487907471434" />
    <synapse sourceNeuronName = "9" targetNeuronName = "14" weight = "-0.11036689687102297" />
    <synapse sourceNeuronName = "9" targetNeuronName = "15" weight = "-0.26168325925416713" />
    <synapse sourceNeuronName = "10" targetNeuronName = "13" weight = "-0.559055482341825" />
    <synapse sourceNeuronName = "10" targetNeuronName = "14" weight = "0.7142932434980718" />
    <synapse sourceNeuronName = "10" targetNeuronName = "15" weight = "-0.8146971381951069" />
    <synapse sourceNeuronName = "11" targetNeuronName = "13" weight = "-0.4224300277024666" />
    <synapse sourceNeuronName = "11" targetNeuronName = "14" weight = "-0.0015948410916966083" />
    <synapse sourceNeuronName = "11" targetNeuronName = "15" weight = "-0.5312721761775236" />
    <synapse sourceNeuronName = "12" targetNeuronName = "13" weight = "-0.02082248932352626" />
    <synapse sourceNeuronName = "12" targetNeuronName = "14" weight = "-0.15879698071728732" />
    <synapse sourceNeuronName = "12" targetNeuronName = "15" weight = "0.34376205908059654" />
</neuralNetwork>