<neuralNetwork>
    <neuron name = "0" type = "sensor" linkName = "Link0" />
    <neuron name = "1" type = "sensor" linkName = "Link2" />
    <neuron name = "2" type = "sensor" linkName = "Link3" />
    <neuron name = "3" type = "sensor" linkName = "Link2-0" />
    <neuron name = "4" type = "sensor" linkName = "Link2-2" />
    <neuron name = "5" type = "sensor" linkName = "Link2-2-0" />
    <neuron name = "6" type = "sensor" linkName = "Link2-2-3" />
    <neuron name = "7" type = "sensor" linkName = "Link3-2" />
    <neuron name = "8" type = "sensor" linkName = "Link3-0-0" />
    <neuron name = "9" type = "sensor" linkName = "Link3-1-1" />
    <neuron name = "10" type = "sensor" linkName = "Link3-1-2" />
    <neuron name = "11" type = "sensor" linkName = "Link3-2-2" />
    <neuron name = "12" type = "sensor" linkName = "Link3-2-3" />
    <neuron name = "13" type = "sensor" linkName = "Link3-3-1" />
    <neuron name = "14" type = "motor"  jointName = "Link0_Link1" />
    <neuron name = "15" type = "motor"  jointName = "Link1_Link2" />
    <neuron name = "16" type = "motor"  jointName = "Link2_Link3" />
    <synapse sourceNeuronName = "0" targetNeuronName = "14" weight = "0.9726366442666057" />
    <synapse sourceNeuronName = "0" targetNeuronName = "15" weight = "-0.21857438688593112" />
    <synapse sourceNeuronName = "0" targetNeuronName = "16" weight = "-0.2003606883923139" />
    <synapse sourceNeuronName = "1" targetNeuronName = "14" weight = "0.06561020785723026" />
    <synapse sourceNeuronName = "1" targetNeuronName = "15" weight = "0.03187154391284497" />
    <synapse sourceNeuronName = "1" targetNeuronName = "16" weight = "-0.07733528783427435" />
    <synapse sourceNeuronName = "2" targetNeuronName = "14" weight = "0.4073424000006074" />
    <synapse sourceNeuronName = "2" targetNeuronName = "15" weight = "0.7611383478612577" />
    <synapse sourceNeuronName = "2" targetNeuronName = "16" weight = "-0.9611052560022382" />
    <synapse sourceNeuronName = "3" targetNeuronName = "14" weight = "-0.5218349487214007" />
    <synapse sourceNeuronName = "3" targetNeuronName = "15" weight = "-0.7707093182734452" />
    <synapse sourceNeuronName = "3" targetNeuronName = "16" weight = "-0.32011585502951734" />
    <synapse sourceNeuronName = "4" targetNeuronName = "14" weight = "-0.2651964256552284" />
    <synapse sourceNeuronName = "4" targetNeuronName = "15" weight = "0.8049743803992806" />
    <synapse sourceNeuronName = "4" targetNeuronName = "16" weight = "0.7122957820079572" />
    <synapse sourceNeuronName = "5" targetNeuronName = "14" weight = "0.999808797795156" />
    <synapse sourceNeuronName = "5" targetNeuronName = "15" weight = "-0.1461948213401636" />
    <synapse sourceNeuronName = "5" targetNeuronName = "16" weight = "0.8203226471255212" />
    <synapse sourceNeuronName = "6" targetNeuronName = "14" weight = "0.25775148499873524" />
    <synapse sourceNeuronName = "6" targetNeuronName = "15" weight = "0.14407549252878082" />
    <synapse sourceNeuronName = "6" targetNeuronName = "16" weight = "0.6001864750671142" />
    <synapse sourceNeuronName = "7" targetNeuronName = "14" weight = "0.5791392137642297" />
    <synapse sourceNeuronName = "7" targetNeuronName = "15" weight = "0.8367948343035818" />
    <synapse sourceNeuronName = "7" targetNeuronName = "16" weight = "0.5927326011988818" />
    <synapse sourceNeuronName = "8" targetNeuronName = "14" weight = "0.5546186875101446" />
    <synapse sourceNeuronName = "8" targetNeuronName = "15" weight = "-0.8800675265235807" />
    <synapse sourceNeuronName = "8" targetNeuronName = "16" weight = "-0.7146441710705971" />
    <synapse sourceNeuronName = "9" targetNeuronName = "14" weight = "0.39745395029591246" />
    <synapse sourceNeuronName = "9" targetNeuronName = "15" weight = "0.3124352427396788" />
    <synapse sourceNeuronName = "9" targetNeuronName = "16" weight = "0.09437837439055907" />
    <synapse sourceNeuronName = "10" targetNeuronName = "14" weight = "-0.11350165085360886" />
    <synapse sourceNeuronName = "10" targetNeuronName = "15" weight = "-0.3269543646039874" />
    <synapse sourceNeuronName = "10" targetNeuronName = "16" weight = "-0.4304448874639357" />
    <synapse sourceNeuronName = "11" targetNeuronName = "14" weight = "-0.26077751187792386" />
    <synapse sourceNeuronName = "11" targetNeuronName = "15" weight = "0.9611441434370593" />
    <synapse sourceNeuronName = "11" targetNeuronName = "16" weight = "0.580235722485732" />
    <synapse sourceNeuronName = "12" targetNeuronName = "14" weight = "0.01601590807209008" />
    <synapse sourceNeuronName = "12" targetNeuronName = "15" weight = "0.2240267992504288" />
    <synapse sourceNeuronName = "12" targetNeuronName = "16" weight = "-0.15986088965138712" />
    <synapse sourceNeuronName = "13" targetNeuronName = "14" weight = "0.0359286631301996" />
    <synapse sourceNeuronName = "13" targetNeuronName = "15" weight = "-0.6859563768527712" />
    <synapse sourceNeuronName = "13" targetNeuronName = "16" weight = "-0.6187724831237607" />
</neuralNetwork>