<neuralNetwork>
    <neuron name = "0" type = "sensor" linkName = "Link0" />
    <neuron name = "1" type = "sensor" linkName = "Link1" />
    <neuron name = "2" type = "sensor" linkName = "Link1" />
    <neuron name = "3" type = "sensor" linkName = "Link2-0" />
    <neuron name = "4" type = "sensor" linkName = "Link2-0-0" />
    <neuron name = "5" type = "motor"  jointName = "Link0_Link1" />
    <neuron name = "6" type = "motor"  jointName = "Link1_Link2" />
    <neuron name = "7" type = "motor"  jointName = "Link0_Link1" />
    <neuron name = "8" type = "motor"  jointName = "Link0_Link1" />
    <neuron name = "9" type = "motor"  jointName = "Link0_Link1" />
    <neuron name = "10" type = "motor"  jointName = "Link0_Link1" />
    <neuron name = "11" type = "motor"  jointName = "Link0_Link1" />
    <neuron name = "12" type = "motor"  jointName = "Link0_Link1" />
    <synapse sourceNeuronName = "0" targetNeuronName = "5" weight = "0.39041448329611717" />
    <synapse sourceNeuronName = "0" targetNeuronName = "6" weight = "0.41820141623736107" />
    <synapse sourceNeuronName = "0" targetNeuronName = "7" weight = "-0.3137395078881844" />
    <synapse sourceNeuronName = "0" targetNeuronName = "8" weight = "-0.018554617075842605" />
    <synapse sourceNeuronName = "0" targetNeuronName = "9" weight = "-0.6363807126778225" />
    <synapse sourceNeuronName = "0" targetNeuronName = "10" weight = "-0.2273229564521302" />
    <synapse sourceNeuronName = "0" targetNeuronName = "11" weight = "0.6802931293187862" />
    <synapse sourceNeuronName = "0" targetNeuronName = "12" weight = "0.7056296927861774" />
    <synapse sourceNeuronName = "1" targetNeuronName = "5" weight = "0.8048350121749741" />
    <synapse sourceNeuronName = "1" targetNeuronName = "6" weight = "-0.1909267527394125" />
    <synapse sourceNeuronName = "1" targetNeuronName = "7" weight = "-0.563179853384465" />
    <synapse sourceNeuronName = "1" targetNeuronName = "8" weight = "0.3878835787167061" />
    <synapse sourceNeuronName = "1" targetNeuronName = "9" weight = "-0.9533080140178984" />
    <synapse sourceNeuronName = "1" targetNeuronName = "10" weight = "0.16445262058578147" />
    <synapse sourceNeuronName = "1" targetNeuronName = "11" weight = "0.6782642823291529" />
    <synapse sourceNeuronName = "1" targetNeuronName = "12" weight = "0.07058015091208314" />
    <synapse sourceNeuronName = "2" targetNeuronName = "5" weight = "-0.20502877041867085" />
    <synapse sourceNeuronName = "2" targetNeuronName = "6" weight = "-0.2485959144253962" />
    <synapse sourceNeuronName = "2" targetNeuronName = "7" weight = "-0.8899449002429973" />
    <synapse sourceNeuronName = "2" targetNeuronName = "8" weight = "0.020393664528469246" />
    <synapse sourceNeuronName = "2" targetNeuronName = "9" weight = "0.4627001160139199" />
    <synapse sourceNeuronName = "2" targetNeuronName = "10" weight = "0.6349011572439913" />
    <synapse sourceNeuronName = "2" targetNeuronName = "11" weight = "-0.24463444086403263" />
    <synapse sourceNeuronName = "2" targetNeuronName = "12" weight = "-0.3706285433655385" />
    <synapse sourceNeuronName = "3" targetNeuronName = "5" weight = "-0.1798448213263395" />
    <synapse sourceNeuronName = "3" targetNeuronName = "6" weight = "-0.882267216067073" />
    <synapse sourceNeuronName = "3" targetNeuronName = "7" weight = "-0.8469886970772582" />
    <synapse sourceNeuronName = "3" targetNeuronName = "8" weight = "0.8894613676852177" />
    <synapse sourceNeuronName = "3" targetNeuronName = "9" weight = "-0.7038650594818978" />
    <synapse sourceNeuronName = "3" targetNeuronName = "10" weight = "0.18293064004882553" />
    <synapse sourceNeuronName = "3" targetNeuronName = "11" weight = "-0.2215321688748879" />
    <synapse sourceNeuronName = "3" targetNeuronName = "12" weight = "0.42360103226301304" />
    <synapse sourceNeuronName = "4" targetNeuronName = "5" weight = "-0.21472408968840995" />
    <synapse sourceNeuronName = "4" targetNeuronName = "6" weight = "-0.549156611212521" />
    <synapse sourceNeuronName = "4" targetNeuronName = "7" weight = "-0.44341588919555086" />
    <synapse sourceNeuronName = "4" targetNeuronName = "8" weight = "-0.49988318346069116" />
    <synapse sourceNeuronName = "4" targetNeuronName = "9" weight = "-0.8832934504922136" />
    <synapse sourceNeuronName = "4" targetNeuronName = "10" weight = "0.31928738264291945" />
    <synapse sourceNeuronName = "4" targetNeuronName = "11" weight = "0.19446669275688144" />
    <synapse sourceNeuronName = "4" targetNeuronName = "12" weight = "0.9302370296260387" />
</neuralNetwork>