<neuralNetwork>
    <neuron name = "0" type = "sensor" linkName = "Link0" />
    <neuron name = "1" type = "sensor" linkName = "Link2" />
    <neuron name = "2" type = "sensor" linkName = "Link3" />
    <neuron name = "3" type = "sensor" linkName = "Link3-0" />
    <neuron name = "4" type = "sensor" linkName = "Link3-1" />
    <neuron name = "5" type = "sensor" linkName = "Link3-0-2" />
    <neuron name = "6" type = "sensor" linkName = "Link3-0-3" />
    <neuron name = "7" type = "sensor" linkName = "Link3-0-4" />
    <neuron name = "8" type = "sensor" linkName = "Link3-1-0" />
    <neuron name = "9" type = "sensor" linkName = "Link3-1-1" />
    <neuron name = "10" type = "motor"  jointName = "Link0_Link1" />
    <neuron name = "11" type = "motor"  jointName = "Link1_Link2" />
    <neuron name = "12" type = "motor"  jointName = "Link2_Link3" />
    <synapse sourceNeuronName = "0" targetNeuronName = "10" weight = "0.9741931689847685" />
    <synapse sourceNeuronName = "0" targetNeuronName = "11" weight = "0.22700172584996103" />
    <synapse sourceNeuronName = "0" targetNeuronName = "12" weight = "-0.007963680423819897" />
    <synapse sourceNeuronName = "1" targetNeuronName = "10" weight = "-0.4323453147374232" />
    <synapse sourceNeuronName = "1" targetNeuronName = "11" weight = "-0.0416236642453387" />
    <synapse sourceNeuronName = "1" targetNeuronName = "12" weight = "-0.5010310466345165" />
    <synapse sourceNeuronName = "2" targetNeuronName = "10" weight = "-0.23653971071098834" />
    <synapse sourceNeuronName = "2" targetNeuronName = "11" weight = "0.5577955042606413" />
    <synapse sourceNeuronName = "2" targetNeuronName = "12" weight = "-0.1549908793474588" />
    <synapse sourceNeuronName = "3" targetNeuronName = "10" weight = "0.16067221955420075" />
    <synapse sourceNeuronName = "3" targetNeuronName = "11" weight = "-0.15951809292265207" />
    <synapse sourceNeuronName = "3" targetNeuronName = "12" weight = "0.5982947844446338" />
    <synapse sourceNeuronName = "4" targetNeuronName = "10" weight = "0.9794089472756362" />
    <synapse sourceNeuronName = "4" targetNeuronName = "11" weight = "-0.04279346871252154" />
    <synapse sourceNeuronName = "4" targetNeuronName = "12" weight = "-0.9294039779842538" />
    <synapse sourceNeuronName = "5" targetNeuronName = "10" weight = "-0.5983319781099528" />
    <synapse sourceNeuronName = "5" targetNeuronName = "11" weight = "0.3769355518758042" />
    <synapse sourceNeuronName = "5" targetNeuronName = "12" weight = "0.8422967791156135" />
    <synapse sourceNeuronName = "6" targetNeuronName = "10" weight = "0.17118878177282348" />
    <synapse sourceNeuronName = "6" targetNeuronName = "11" weight = "0.8485044626697293" />
    <synapse sourceNeuronName = "6" targetNeuronName = "12" weight = "-0.10164115836481757" />
    <synapse sourceNeuronName = "7" targetNeuronName = "10" weight = "-0.9383796395046748" />
    <synapse sourceNeuronName = "7" targetNeuronName = "11" weight = "0.7182654307682346" />
    <synapse sourceNeuronName = "7" targetNeuronName = "12" weight = "0.09113488790274515" />
    <synapse sourceNeuronName = "8" targetNeuronName = "10" weight = "-0.8061226076096146" />
    <synapse sourceNeuronName = "8" targetNeuronName = "11" weight = "-0.28945372734280483" />
    <synapse sourceNeuronName = "8" targetNeuronName = "12" weight = "-0.22942071823997168" />
    <synapse sourceNeuronName = "9" targetNeuronName = "10" weight = "-0.1634599193981474" />
    <synapse sourceNeuronName = "9" targetNeuronName = "11" weight = "0.5952725339824723" />
    <synapse sourceNeuronName = "9" targetNeuronName = "12" weight = "-0.5033342966567289" />
</neuralNetwork>