<neuralNetwork>
    <neuron name = "0" type = "sensor" linkName = "Link0" />
    <neuron name = "1" type = "sensor" linkName = "Link2-1" />
    <neuron name = "2" type = "sensor" linkName = "Link2-3-0" />
    <neuron name = "3" type = "motor"  jointName = "Link0_Link1" />
    <neuron name = "4" type = "motor"  jointName = "Link1_Link2" />
    <neuron name = "5" type = "motor"  jointName = "Link0_Link1" />
    <neuron name = "6" type = "motor"  jointName = "Link0_Link1" />
    <neuron name = "7" type = "motor"  jointName = "Link0_Link1" />
    <neuron name = "8" type = "motor"  jointName = "Link0_Link1" />
    <neuron name = "9" type = "motor"  jointName = "Link0_Link1" />
    <neuron name = "10" type = "motor"  jointName = "Link0_Link1" />
    <neuron name = "11" type = "motor"  jointName = "Link0_Link1" />
    <neuron name = "12" type = "motor"  jointName = "Link0_Link1" />
    <neuron name = "13" type = "motor"  jointName = "Link0_Link1" />
    <neuron name = "14" type = "motor"  jointName = "Link0_Link1" />
    <neuron name = "15" type = "motor"  jointName = "Link0_Link1" />
    <neuron name = "16" type = "motor"  jointName = "Link0_Link1" />
    <neuron name = "17" type = "motor"  jointName = "Link0_Link1" />
    <neuron name = "18" type = "motor"  jointName = "Link0_Link1" />
    <neuron name = "19" type = "motor"  jointName = "Link0_Link1" />
    <synapse sourceNeuronName = "0" targetNeuronName = "3" weight = "-0.12065403127139329" />
    <synapse sourceNeuronName = "0" targetNeuronName = "4" weight = "-0.7561433670988862" />
    <synapse sourceNeuronName = "0" targetNeuronName = "5" weight = "-0.8553703406080972" />
    <synapse sourceNeuronName = "0" targetNeuronName = "6" weight = "-0.32165052349977463" />
    <synapse sourceNeuronName = "0" targetNeuronName = "7" weight = "-0.6575297112371778" />
    <synapse sourceNeuronName = "0" targetNeuronName = "8" weight = "0.25477249058607754" />
    <synapse sourceNeuronName = "0" targetNeuronName = "9" weight = "-0.9805901029492301" />
    <synapse sourceNeuronName = "0" targetNeuronName = "10" weight = "0.26939085697227383" />
    <synapse sourceNeuronName = "0" targetNeuronName = "11" weight = "0.03220806569658774" />
    <synapse sourceNeuronName = "0" targetNeuronName = "12" weight = "0.5352059307910129" />
    <synapse sourceNeuronName = "0" targetNeuronName = "13" weight = "-0.7668601412377711" />
    <synapse sourceNeuronName = "0" targetNeuronName = "14" weight = "-0.45418068762659347" />
    <synapse sourceNeuronName = "0" targetNeuronName = "15" weight = "-0.9428248660224043" />
    <synapse sourceNeuronName = "0" targetNeuronName = "16" weight = "-0.8711080176638515" />
    <synapse sourceNeuronName = "0" targetNeuronName = "17" weight = "-0.6044154495030247" />
    <synapse sourceNeuronName = "0" targetNeuronName = "18" weight = "-0.09065014113810466" />
    <synapse sourceNeuronName = "0" targetNeuronName = "19" weight = "-0.9540574618087909" />
    <synapse sourceNeuronName = "1" targetNeuronName = "3" weight = "0.16755416295690906" />
    <synapse sourceNeuronName = "1" targetNeuronName = "4" weight = "-0.1045435927270355" />
    <synapse sourceNeuronName = "1" targetNeuronName = "5" weight = "0.2654806810570418" />
    <synapse sourceNeuronName = "1" targetNeuronName = "6" weight = "0.3463426991323595" />
    <synapse sourceNeuronName = "1" targetNeuronName = "7" weight = "-0.25604649486622666" />
    <synapse sourceNeuronName = "1" targetNeuronName = "8" weight = "-0.11340680386676705" />
    <synapse sourceNeuronName = "1" targetNeuronName = "9" weight = "-0.507558791644882" />
    <synapse sourceNeuronName = "1" targetNeuronName = "10" weight = "0.38007431728309937" />
    <synapse sourceNeuronName = "1" targetNeuronName = "11" weight = "0.8529397270152708" />
    <synapse sourceNeuronName = "1" targetNeuronName = "12" weight = "0.2978866510623719" />
    <synapse sourceNeuronName = "1" targetNeuronName = "13" weight = "0.33890371080266823" />
    <synapse sourceNeuronName = "1" targetNeuronName = "14" weight = "-0.8627271597820223" />
    <synapse sourceNeuronName = "1" targetNeuronName = "15" weight = "-0.8223022544910412" />
    <synapse sourceNeuronName = "1" targetNeuronName = "16" weight = "-0.7593206993391164" />
    <synapse sourceNeuronName = "1" targetNeuronName = "17" weight = "0.07287319496250899" />
    <synapse sourceNeuronName = "1" targetNeuronName = "18" weight = "0.8108369088285803" />
    <synapse sourceNeuronName = "1" targetNeuronName = "19" weight = "-0.3257993554719627" />
    <synapse sourceNeuronName = "2" targetNeuronName = "3" weight = "0.11359718183452028" />
    <synapse sourceNeuronName = "2" targetNeuronName = "4" weight = "-0.7355516265248501" />
    <synapse sourceNeuronName = "2" targetNeuronName = "5" weight = "-0.7686804839549111" />
    <synapse sourceNeuronName = "2" targetNeuronName = "6" weight = "-0.9753213616997187" />
    <synapse sourceNeuronName = "2" targetNeuronName = "7" weight = "0.5599139088844429" />
    <synapse sourceNeuronName = "2" targetNeuronName = "8" weight = "-0.7500782876545908" />
    <synapse sourceNeuronName = "2" targetNeuronName = "9" weight = "-0.07878094561805349" />
    <synapse sourceNeuronName = "2" targetNeuronName = "10" weight = "-0.3141231659931347" />
    <synapse sourceNeuronName = "2" targetNeuronName = "11" weight = "-0.10311765195182288" />
    <synapse sourceNeuronName = "2" targetNeuronName = "12" weight = "-0.7712694110872209" />
    <synapse sourceNeuronName = "2" targetNeuronName = "13" weight = "0.2950646580604217" />
    <synapse sourceNeuronName = "2" targetNeuronName = "14" weight = "-0.9234970535580624" />
    <synapse sourceNeuronName = "2" targetNeuronName = "15" weight = "-0.5152805889733774" />
    <synapse sourceNeuronName = "2" targetNeuronName = "16" weight = "0.08897734611012975" />
    <synapse sourceNeuronName = "2" targetNeuronName = "17" weight = "0.3399259638319112" />
    <synapse sourceNeuronName = "2" targetNeuronName = "18" weight = "0.23315792485251974" />
    <synapse sourceNeuronName = "2" targetNeuronName = "19" weight = "-0.4116939485430988" />
</neuralNetwork>