<neuralNetwork>
    <neuron name = "0" type = "sensor" linkName = "Link0" />
    <neuron name = "1" type = "sensor" linkName = "Link1" />
    <neuron name = "2" type = "sensor" linkName = "Link1" />
    <neuron name = "3" type = "sensor" linkName = "Link2" />
    <neuron name = "4" type = "sensor" linkName = "Link2-0" />
    <neuron name = "5" type = "sensor" linkName = "Link2-0-1" />
    <neuron name = "6" type = "sensor" linkName = "Link2-0-2" />
    <neuron name = "7" type = "sensor" linkName = "Link2-0-4" />
    <neuron name = "8" type = "motor"  jointName = "Link0_Link1" />
    <neuron name = "9" type = "motor"  jointName = "Link1_Link2" />
    <neuron name = "10" type = "motor"  jointName = "Link0_Link1" />
    <neuron name = "11" type = "motor"  jointName = "Link0_Link1" />
    <neuron name = "12" type = "motor"  jointName = "Link0_Link1" />
    <neuron name = "13" type = "motor"  jointName = "Link0_Link1" />
    <synapse sourceNeuronName = "0" targetNeuronName = "8" weight = "-0.9568224066154949" />
    <synapse sourceNeuronName = "0" targetNeuronName = "9" weight = "-0.25011696215107126" />
    <synapse sourceNeuronName = "0" targetNeuronName = "10" weight = "0.15583235076299107" />
    <synapse sourceNeuronName = "0" targetNeuronName = "11" weight = "0.3814000120692156" />
    <synapse sourceNeuronName = "0" targetNeuronName = "12" weight = "-0.6253478572736022" />
    <synapse sourceNeuronName = "0" targetNeuronName = "13" weight = "-0.798504928533063" />
    <synapse sourceNeuronName = "1" targetNeuronName = "8" weight = "0.6602202764045688" />
    <synapse sourceNeuronName = "1" targetNeuronName = "9" weight = "0.12162724222329335" />
    <synapse sourceNeuronName = "1" targetNeuronName = "10" weight = "-0.45824302993319144" />
    <synapse sourceNeuronName = "1" targetNeuronName = "11" weight = "0.22188321844944503" />
    <synapse sourceNeuronName = "1" targetNeuronName = "12" weight = "0.9650176992552042" />
    <synapse sourceNeuronName = "1" targetNeuronName = "13" weight = "-0.7469446053310076" />
    <synapse sourceNeuronName = "2" targetNeuronName = "8" weight = "0.024841560374270655" />
    <synapse sourceNeuronName = "2" targetNeuronName = "9" weight = "0.5195276794404675" />
    <synapse sourceNeuronName = "2" targetNeuronName = "10" weight = "-0.15387591358898045" />
    <synapse sourceNeuronName = "2" targetNeuronName = "11" weight = "-0.5765983367792271" />
    <synapse sourceNeuronName = "2" targetNeuronName = "12" weight = "0.33814907736220245" />
    <synapse sourceNeuronName = "2" targetNeuronName = "13" weight = "-0.8313579513398417" />
    <synapse sourceNeuronName = "3" targetNeuronName = "8" weight = "-0.6121787596144788" />
    <synapse sourceNeuronName = "3" targetNeuronName = "9" weight = "-0.6723394218912908" />
    <synapse sourceNeuronName = "3" targetNeuronName = "10" weight = "0.5337958544910821" />
    <synapse sourceNeuronName = "3" targetNeuronName = "11" weight = "-0.14238617688466304" />
    <synapse sourceNeuronName = "3" targetNeuronName = "12" weight = "-0.6191814224941894" />
    <synapse sourceNeuronName = "3" targetNeuronName = "13" weight = "-0.9375364505483732" />
    <synapse sourceNeuronName = "4" targetNeuronName = "8" weight = "0.12386798175871339" />
    <synapse sourceNeuronName = "4" targetNeuronName = "9" weight = "0.688007048155088" />
    <synapse sourceNeuronName = "4" targetNeuronName = "10" weight = "-0.5429266748621715" />
    <synapse sourceNeuronName = "4" targetNeuronName = "11" weight = "-0.8691330582809755" />
    <synapse sourceNeuronName = "4" targetNeuronName = "12" weight = "-0.1729660718098418" />
    <synapse sourceNeuronName = "4" targetNeuronName = "13" weight = "0.8136642926674293" />
    <synapse sourceNeuronName = "5" targetNeuronName = "8" weight = "0.9903951911429629" />
    <synapse sourceNeuronName = "5" targetNeuronName = "9" weight = "0.9688444390895212" />
    <synapse sourceNeuronName = "5" targetNeuronName = "10" weight = "0.9576609834168912" />
    <synapse sourceNeuronName = "5" targetNeuronName = "11" weight = "0.27223455582280054" />
    <synapse sourceNeuronName = "5" targetNeuronName = "12" weight = "-0.8083029478062076" />
    <synapse sourceNeuronName = "5" targetNeuronName = "13" weight = "0.24009241277509052" />
    <synapse sourceNeuronName = "6" targetNeuronName = "8" weight = "-0.5270700611605386" />
    <synapse sourceNeuronName = "6" targetNeuronName = "9" weight = "-0.39878871468006727" />
    <synapse sourceNeuronName = "6" targetNeuronName = "10" weight = "-0.6744022485448815" />
    <synapse sourceNeuronName = "6" targetNeuronName = "11" weight = "0.5849081590270073" />
    <synapse sourceNeuronName = "6" targetNeuronName = "12" weight = "0.8032432651516688" />
    <synapse sourceNeuronName = "6" targetNeuronName = "13" weight = "0.37863929395540596" />
    <synapse sourceNeuronName = "7" targetNeuronName = "8" weight = "-0.05191593099673053" />
    <synapse sourceNeuronName = "7" targetNeuronName = "9" weight = "-0.027832430404773012" />
    <synapse sourceNeuronName = "7" targetNeuronName = "10" weight = "0.18534695473256835" />
    <synapse sourceNeuronName = "7" targetNeuronName = "11" weight = "-0.8446381517375157" />
    <synapse sourceNeuronName = "7" targetNeuronName = "12" weight = "0.20424512020441643" />
    <synapse sourceNeuronName = "7" targetNeuronName = "13" weight = "-0.9234662457626914" />
</neuralNetwork>