<neuralNetwork>
    <neuron name = "0" type = "sensor" linkName = "Link0" />
    <neuron name = "1" type = "sensor" linkName = "Link1" />
    <neuron name = "2" type = "sensor" linkName = "Link1" />
    <neuron name = "3" type = "sensor" linkName = "Link2" />
    <neuron name = "4" type = "motor"  jointName = "Link0_Link1" />
    <neuron name = "5" type = "motor"  jointName = "Link1_Link2" />
    <neuron name = "6" type = "motor"  jointName = "Link0_Link1" />
    <neuron name = "7" type = "motor"  jointName = "Link0_Link1" />
    <neuron name = "8" type = "motor"  jointName = "Link0_Link1" />
    <neuron name = "9" type = "motor"  jointName = "Link0_Link1" />
    <neuron name = "10" type = "motor"  jointName = "Link0_Link1" />
    <neuron name = "11" type = "motor"  jointName = "Link0_Link1" />
    <synapse sourceNeuronName = "0" targetNeuronName = "4" weight = "-0.19926025927218372" />
    <synapse sourceNeuronName = "0" targetNeuronName = "5" weight = "0.2640023058416774" />
    <synapse sourceNeuronName = "0" targetNeuronName = "6" weight = "-0.11652161354469781" />
    <synapse sourceNeuronName = "0" targetNeuronName = "7" weight = "0.1197050109861082" />
    <synapse sourceNeuronName = "0" targetNeuronName = "8" weight = "0.9901200183967871" />
    <synapse sourceNeuronName = "0" targetNeuronName = "9" weight = "-0.5690591705172152" />
    <synapse sourceNeuronName = "0" targetNeuronName = "10" weight = "0.03741389464635003" />
    <synapse sourceNeuronName = "0" targetNeuronName = "11" weight = "-0.5652242544237023" />
    <synapse sourceNeuronName = "1" targetNeuronName = "4" weight = "0.22114121289472544" />
    <synapse sourceNeuronName = "1" targetNeuronName = "5" weight = "0.0396936051241894" />
    <synapse sourceNeuronName = "1" targetNeuronName = "6" weight = "-0.3928538765615681" />
    <synapse sourceNeuronName = "1" targetNeuronName = "7" weight = "-0.2586656294148786" />
    <synapse sourceNeuronName = "1" targetNeuronName = "8" weight = "-0.14128262079866238" />
    <synapse sourceNeuronName = "1" targetNeuronName = "9" weight = "-0.12187831666224302" />
    <synapse sourceNeuronName = "1" targetNeuronName = "10" weight = "0.8754014463045505" />
    <synapse sourceNeuronName = "1" targetNeuronName = "11" weight = "-0.3944745324761201" />
    <synapse sourceNeuronName = "2" targetNeuronName = "4" weight = "0.9990791835582014" />
    <synapse sourceNeuronName = "2" targetNeuronName = "5" weight = "0.18882743008853087" />
    <synapse sourceNeuronName = "2" targetNeuronName = "6" weight = "0.6747999300901897" />
    <synapse sourceNeuronName = "2" targetNeuronName = "7" weight = "-0.8105461349925829" />
    <synapse sourceNeuronName = "2" targetNeuronName = "8" weight = "0.988974507611647" />
    <synapse sourceNeuronName = "2" targetNeuronName = "9" weight = "-0.7073933739569791" />
    <synapse sourceNeuronName = "2" targetNeuronName = "10" weight = "-0.6906914592967801" />
    <synapse sourceNeuronName = "2" targetNeuronName = "11" weight = "0.6317909460951456" />
    <synapse sourceNeuronName = "3" targetNeuronName = "4" weight = "-0.11893815279238118" />
    <synapse sourceNeuronName = "3" targetNeuronName = "5" weight = "-0.8524944405761614" />
    <synapse sourceNeuronName = "3" targetNeuronName = "6" weight = "-0.0021232865927156563" />
    <synapse sourceNeuronName = "3" targetNeuronName = "7" weight = "-0.1501117598598254" />
    <synapse sourceNeuronName = "3" targetNeuronName = "8" weight = "0.08591012837738932" />
    <synapse sourceNeuronName = "3" targetNeuronName = "9" weight = "-0.8428718449698245" />
    <synapse sourceNeuronName = "3" targetNeuronName = "10" weight = "0.28247219067129214" />
    <synapse sourceNeuronName = "3" targetNeuronName = "11" weight = "0.7977701478335981" />
</neuralNetwork>