<neuralNetwork>
    <neuron name = "0" type = "sensor" linkName = "Link0" />
    <neuron name = "1" type = "sensor" linkName = "Link1" />
    <neuron name = "2" type = "sensor" linkName = "Link1" />
    <neuron name = "3" type = "sensor" linkName = "Link2" />
    <neuron name = "4" type = "motor"  jointName = "Link0_Link1" />
    <neuron name = "5" type = "motor"  jointName = "Link1_Link2" />
    <neuron name = "6" type = "motor"  jointName = "Link0_Link1" />
    <neuron name = "7" type = "motor"  jointName = "Link0_Link1" />
    <neuron name = "8" type = "motor"  jointName = "Link0_Link1" />
    <synapse sourceNeuronName = "0" targetNeuronName = "4" weight = "0.7566873743267315" />
    <synapse sourceNeuronName = "0" targetNeuronName = "5" weight = "0.007746615198601647" />
    <synapse sourceNeuronName = "0" targetNeuronName = "6" weight = "0.5170490419141154" />
    <synapse sourceNeuronName = "0" targetNeuronName = "7" weight = "0.047325785216163485" />
    <synapse sourceNeuronName = "0" targetNeuronName = "8" weight = "0.018898734836099385" />
    <synapse sourceNeuronName = "1" targetNeuronName = "4" weight = "0.583577894794669" />
    <synapse sourceNeuronName = "1" targetNeuronName = "5" weight = "0.8455326696272434" />
    <synapse sourceNeuronName = "1" targetNeuronName = "6" weight = "-0.9287552767959955" />
    <synapse sourceNeuronName = "1" targetNeuronName = "7" weight = "0.6700043816408914" />
    <synapse sourceNeuronName = "1" targetNeuronName = "8" weight = "0.05790764607418186" />
    <synapse sourceNeuronName = "2" targetNeuronName = "4" weight = "0.8957280903089262" />
    <synapse sourceNeuronName = "2" targetNeuronName = "5" weight = "-0.40337433308037607" />
    <synapse sourceNeuronName = "2" targetNeuronName = "6" weight = "0.366275788674699" />
    <synapse sourceNeuronName = "2" targetNeuronName = "7" weight = "0.12040631626919684" />
    <synapse sourceNeuronName = "2" targetNeuronName = "8" weight = "-0.6652067730903777" />
    <synapse sourceNeuronName = "3" targetNeuronName = "4" weight = "-0.1107107778325378" />
    <synapse sourceNeuronName = "3" targetNeuronName = "5" weight = "-0.32084168405391433" />
    <synapse sourceNeuronName = "3" targetNeuronName = "6" weight = "0.275086705075013" />
    <synapse sourceNeuronName = "3" targetNeuronName = "7" weight = "0.9034196766986222" />
    <synapse sourceNeuronName = "3" targetNeuronName = "8" weight = "-0.7265953547764368" />
</neuralNetwork>