<neuralNetwork>
    <neuron name = "0" type = "sensor" linkName = "Link0" />
    <neuron name = "1" type = "sensor" linkName = "Link1" />
    <neuron name = "2" type = "sensor" linkName = "Link1" />
    <neuron name = "3" type = "motor"  jointName = "Link0_Link1" />
    <neuron name = "4" type = "motor"  jointName = "Link1_Link2" />
    <neuron name = "5" type = "motor"  jointName = "Link0_Link1" />
    <neuron name = "6" type = "motor"  jointName = "Link0_Link1" />
    <neuron name = "7" type = "motor"  jointName = "Link0_Link1" />
    <neuron name = "8" type = "motor"  jointName = "Link0_Link1" />
    <neuron name = "9" type = "motor"  jointName = "Link0_Link1" />
    <neuron name = "10" type = "motor"  jointName = "Link0_Link1" />
    <neuron name = "11" type = "motor"  jointName = "Link0_Link1" />
    <synapse sourceNeuronName = "0" targetNeuronName = "3" weight = "-0.38298076001995174" />
    <synapse sourceNeuronName = "0" targetNeuronName = "4" weight = "0.8159841968985808" />
    <synapse sourceNeuronName = "0" targetNeuronName = "5" weight = "0.9762003918296587" />
    <synapse sourceNeuronName = "0" targetNeuronName = "6" weight = "-0.7457326629765559" />
    <synapse sourceNeuronName = "0" targetNeuronName = "7" weight = "0.6273519290736806" />
    <synapse sourceNeuronName = "0" targetNeuronName = "8" weight = "-0.9468630698112992" />
    <synapse sourceNeuronName = "0" targetNeuronName = "9" weight = "-0.4561028828091831" />
    <synapse sourceNeuronName = "0" targetNeuronName = "10" weight = "-0.607677219166773" />
    <synapse sourceNeuronName = "0" targetNeuronName = "11" weight = "0.5670058669665912" />
    <synapse sourceNeuronName = "1" targetNeuronName = "3" weight = "0.15700819941671873" />
    <synapse sourceNeuronName = "1" targetNeuronName = "4" weight = "0.20436642479689215" />
    <synapse sourceNeuronName = "1" targetNeuronName = "5" weight = "-0.9081984829683729" />
    <synapse sourceNeuronName = "1" targetNeuronName = "6" weight = "0.19475184665275336" />
    <synapse sourceNeuronName = "1" targetNeuronName = "7" weight = "-0.02310298461957183" />
    <synapse sourceNeuronName = "1" targetNeuronName = "8" weight = "0.6249312685343313" />
    <synapse sourceNeuronName = "1" targetNeuronName = "9" weight = "-0.3772441584148267" />
    <synapse sourceNeuronName = "1" targetNeuronName = "10" weight = "0.03966918659552432" />
    <synapse sourceNeuronName = "1" targetNeuronName = "11" weight = "0.8053114133123835" />
    <synapse sourceNeuronName = "2" targetNeuronName = "3" weight = "0.6734945987496392" />
    <synapse sourceNeuronName = "2" targetNeuronName = "4" weight = "0.7268816813545076" />
    <synapse sourceNeuronName = "2" targetNeuronName = "5" weight = "0.19390085451067018" />
    <synapse sourceNeuronName = "2" targetNeuronName = "6" weight = "0.9043288587838196" />
    <synapse sourceNeuronName = "2" targetNeuronName = "7" weight = "0.31479592329499817" />
    <synapse sourceNeuronName = "2" targetNeuronName = "8" weight = "-0.778323316522356" />
    <synapse sourceNeuronName = "2" targetNeuronName = "9" weight = "-0.7283865900013324" />
    <synapse sourceNeuronName = "2" targetNeuronName = "10" weight = "0.3317536520473783" />
    <synapse sourceNeuronName = "2" targetNeuronName = "11" weight = "0.45203036554060194" />
</neuralNetwork>