<neuralNetwork>
    <neuron name = "0" type = "sensor" linkName = "Link0" />
    <neuron name = "1" type = "sensor" linkName = "Link1" />
    <neuron name = "2" type = "sensor" linkName = "Link1" />
    <neuron name = "3" type = "sensor" linkName = "Link2" />
    <neuron name = "4" type = "motor"  jointName = "Link0_Link1" />
    <neuron name = "5" type = "motor"  jointName = "Link1_Link2" />
    <neuron name = "6" type = "motor"  jointName = "Link0_Link1" />
    <neuron name = "7" type = "motor"  jointName = "Link0_Link1" />
    <neuron name = "8" type = "motor"  jointName = "Link0_Link1" />
    <neuron name = "9" type = "motor"  jointName = "Link0_Link1" />
    <neuron name = "10" type = "motor"  jointName = "Link0_Link1" />
    <synapse sourceNeuronName = "0" targetNeuronName = "4" weight = "0.5633063913836129" />
    <synapse sourceNeuronName = "0" targetNeuronName = "5" weight = "-0.8744930833988342" />
    <synapse sourceNeuronName = "0" targetNeuronName = "6" weight = "-0.043344699711707735" />
    <synapse sourceNeuronName = "0" targetNeuronName = "7" weight = "-0.6656342435576041" />
    <synapse sourceNeuronName = "0" targetNeuronName = "8" weight = "-0.8177756679237522" />
    <synapse sourceNeuronName = "0" targetNeuronName = "9" weight = "0.7098579680572801" />
    <synapse sourceNeuronName = "0" targetNeuronName = "10" weight = "0.6445234703132814" />
    <synapse sourceNeuronName = "1" targetNeuronName = "4" weight = "0.8719396584702426" />
    <synapse sourceNeuronName = "1" targetNeuronName = "5" weight = "-0.5410726269045747" />
    <synapse sourceNeuronName = "1" targetNeuronName = "6" weight = "-0.7334050701644306" />
    <synapse sourceNeuronName = "1" targetNeuronName = "7" weight = "-0.8766917255869231" />
    <synapse sourceNeuronName = "1" targetNeuronName = "8" weight = "0.41498949116578143" />
    <synapse sourceNeuronName = "1" targetNeuronName = "9" weight = "0.5864048714025243" />
    <synapse sourceNeuronName = "1" targetNeuronName = "10" weight = "-0.9199284773515028" />
    <synapse sourceNeuronName = "2" targetNeuronName = "4" weight = "-0.14989188133090692" />
    <synapse sourceNeuronName = "2" targetNeuronName = "5" weight = "-0.03388460141142691" />
    <synapse sourceNeuronName = "2" targetNeuronName = "6" weight = "-0.649388601320463" />
    <synapse sourceNeuronName = "2" targetNeuronName = "7" weight = "0.002698309677823918" />
    <synapse sourceNeuronName = "2" targetNeuronName = "8" weight = "-0.6593392763823234" />
    <synapse sourceNeuronName = "2" targetNeuronName = "9" weight = "-0.8698680497548441" />
    <synapse sourceNeuronName = "2" targetNeuronName = "10" weight = "-0.22227862157097844" />
    <synapse sourceNeuronName = "3" targetNeuronName = "4" weight = "0.6438666955332844" />
    <synapse sourceNeuronName = "3" targetNeuronName = "5" weight = "-0.3222318795713719" />
    <synapse sourceNeuronName = "3" targetNeuronName = "6" weight = "-0.3601000623043371" />
    <synapse sourceNeuronName = "3" targetNeuronName = "7" weight = "0.978194306553759" />
    <synapse sourceNeuronName = "3" targetNeuronName = "8" weight = "-0.1353239309878953" />
    <synapse sourceNeuronName = "3" targetNeuronName = "9" weight = "0.8122999014456698" />
    <synapse sourceNeuronName = "3" targetNeuronName = "10" weight = "-0.8040411911321459" />
</neuralNetwork>