<neuralNetwork>
    <neuron name = "0" type = "sensor" linkName = "Link0" />
    <neuron name = "1" type = "sensor" linkName = "Link2" />
    <neuron name = "2" type = "sensor" linkName = "Link3" />
    <neuron name = "3" type = "motor"  jointName = "Link0_Link1" />
    <neuron name = "4" type = "motor"  jointName = "Link1_Link2" />
    <neuron name = "5" type = "motor"  jointName = "Link2_Link3" />
    <neuron name = "6" type = "motor"  jointName = "Link0_Link1" />
    <neuron name = "7" type = "motor"  jointName = "Link0_Link1" />
    <neuron name = "8" type = "motor"  jointName = "Link0_Link1" />
    <neuron name = "9" type = "motor"  jointName = "Link0_Link1" />
    <neuron name = "10" type = "motor"  jointName = "Link0_Link1" />
    <neuron name = "11" type = "motor"  jointName = "Link0_Link1" />
    <synapse sourceNeuronName = "0" targetNeuronName = "3" weight = "-0.6707111772687591" />
    <synapse sourceNeuronName = "0" targetNeuronName = "4" weight = "-0.7223529020171373" />
    <synapse sourceNeuronName = "0" targetNeuronName = "5" weight = "0.636724088189534" />
    <synapse sourceNeuronName = "0" targetNeuronName = "6" weight = "0.8635850835466679" />
    <synapse sourceNeuronName = "0" targetNeuronName = "7" weight = "-0.16394121518785632" />
    <synapse sourceNeuronName = "0" targetNeuronName = "8" weight = "0.6202653224887644" />
    <synapse sourceNeuronName = "0" targetNeuronName = "9" weight = "0.2565327848840142" />
    <synapse sourceNeuronName = "0" targetNeuronName = "10" weight = "-0.7725502112739884" />
    <synapse sourceNeuronName = "0" targetNeuronName = "11" weight = "0.3263742930872393" />
    <synapse sourceNeuronName = "1" targetNeuronName = "3" weight = "0.8333085931411961" />
    <synapse sourceNeuronName = "1" targetNeuronName = "4" weight = "0.34232975262578735" />
    <synapse sourceNeuronName = "1" targetNeuronName = "5" weight = "0.4206691537744438" />
    <synapse sourceNeuronName = "1" targetNeuronName = "6" weight = "-0.9171198691930933" />
    <synapse sourceNeuronName = "1" targetNeuronName = "7" weight = "0.2532669951229012" />
    <synapse sourceNeuronName = "1" targetNeuronName = "8" weight = "0.30711662783715776" />
    <synapse sourceNeuronName = "1" targetNeuronName = "9" weight = "0.5800627393762072" />
    <synapse sourceNeuronName = "1" targetNeuronName = "10" weight = "0.49070482840284635" />
    <synapse sourceNeuronName = "1" targetNeuronName = "11" weight = "-0.7255131218235791" />
    <synapse sourceNeuronName = "2" targetNeuronName = "3" weight = "-0.46369496686495526" />
    <synapse sourceNeuronName = "2" targetNeuronName = "4" weight = "-0.6200812927989605" />
    <synapse sourceNeuronName = "2" targetNeuronName = "5" weight = "0.13344452686374186" />
    <synapse sourceNeuronName = "2" targetNeuronName = "6" weight = "-0.8516453731463174" />
    <synapse sourceNeuronName = "2" targetNeuronName = "7" weight = "0.29433765687376057" />
    <synapse sourceNeuronName = "2" targetNeuronName = "8" weight = "-0.6760578797897434" />
    <synapse sourceNeuronName = "2" targetNeuronName = "9" weight = "0.4918136798642836" />
    <synapse sourceNeuronName = "2" targetNeuronName = "10" weight = "-0.2804281472463841" />
    <synapse sourceNeuronName = "2" targetNeuronName = "11" weight = "-0.5153533195053805" />
</neuralNetwork>