<neuralNetwork>
    <neuron name = "0" type = "sensor" linkName = "Link0" />
    <neuron name = "1" type = "sensor" linkName = "Link1" />
    <neuron name = "2" type = "sensor" linkName = "Link1" />
    <neuron name = "3" type = "motor"  jointName = "Link0_Link1" />
    <neuron name = "4" type = "motor"  jointName = "Link1_Link2" />
    <neuron name = "5" type = "motor"  jointName = "Link0_Link1" />
    <neuron name = "6" type = "motor"  jointName = "Link0_Link1" />
    <neuron name = "7" type = "motor"  jointName = "Link0_Link1" />
    <neuron name = "8" type = "motor"  jointName = "Link0_Link1" />
    <neuron name = "9" type = "motor"  jointName = "Link0_Link1" />
    <neuron name = "10" type = "motor"  jointName = "Link0_Link1" />
    <neuron name = "11" type = "motor"  jointName = "Link0_Link1" />
    <neuron name = "12" type = "motor"  jointName = "Link0_Link1" />
    <neuron name = "13" type = "motor"  jointName = "Link0_Link1" />
    <neuron name = "14" type = "motor"  jointName = "Link0_Link1" />
    <synapse sourceNeuronName = "0" targetNeuronName = "3" weight = "-0.7212029805268674" />
    <synapse sourceNeuronName = "0" targetNeuronName = "4" weight = "0.658716766195818" />
    <synapse sourceNeuronName = "0" targetNeuronName = "5" weight = "0.32812774133020084" />
    <synapse sourceNeuronName = "0" targetNeuronName = "6" weight = "0.0763779358397576" />
    <synapse sourceNeuronName = "0" targetNeuronName = "7" weight = "0.5372795546274813" />
    <synapse sourceNeuronName = "0" targetNeuronName = "8" weight = "-0.7770517393876868" />
    <synapse sourceNeuronName = "0" targetNeuronName = "9" weight = "0.25053888367445754" />
    <synapse sourceNeuronName = "0" targetNeuronName = "10" weight = "-0.7899112375357153" />
    <synapse sourceNeuronName = "0" targetNeuronName = "11" weight = "0.3148682851998541" />
    <synapse sourceNeuronName = "0" targetNeuronName = "12" weight = "-0.6107229341370302" />
    <synapse sourceNeuronName = "0" targetNeuronName = "13" weight = "0.6870140509206644" />
    <synapse sourceNeuronName = "0" targetNeuronName = "14" weight = "0.7816262363690534" />
    <synapse sourceNeuronName = "1" targetNeuronName = "3" weight = "-0.7804031476517501" />
    <synapse sourceNeuronName = "1" targetNeuronName = "4" weight = "0.4387600743894977" />
    <synapse sourceNeuronName = "1" targetNeuronName = "5" weight = "-0.6606798057767498" />
    <synapse sourceNeuronName = "1" targetNeuronName = "6" weight = "-0.6938463256805925" />
    <synapse sourceNeuronName = "1" targetNeuronName = "7" weight = "0.005993095640196122" />
    <synapse sourceNeuronName = "1" targetNeuronName = "8" weight = "-0.14721382521888193" />
    <synapse sourceNeuronName = "1" targetNeuronName = "9" weight = "-0.04032525469519732" />
    <synapse sourceNeuronName = "1" targetNeuronName = "10" weight = "0.7638160142978092" />
    <synapse sourceNeuronName = "1" targetNeuronName = "11" weight = "-0.5857460725252261" />
    <synapse sourceNeuronName = "1" targetNeuronName = "12" weight = "0.3241153022050578" />
    <synapse sourceNeuronName = "1" targetNeuronName = "13" weight = "-0.40085910059370966" />
    <synapse sourceNeuronName = "1" targetNeuronName = "14" weight = "0.02384157605577064" />
    <synapse sourceNeuronName = "2" targetNeuronName = "3" weight = "-0.876117043992432" />
    <synapse sourceNeuronName = "2" targetNeuronName = "4" weight = "-0.0330873989660192" />
    <synapse sourceNeuronName = "2" targetNeuronName = "5" weight = "0.4091577906631845" />
    <synapse sourceNeuronName = "2" targetNeuronName = "6" weight = "-0.7228314592601484" />
    <synapse sourceNeuronName = "2" targetNeuronName = "7" weight = "0.17834548790341787" />
    <synapse sourceNeuronName = "2" targetNeuronName = "8" weight = "0.5892035088907543" />
    <synapse sourceNeuronName = "2" targetNeuronName = "9" weight = "-0.9758672764921654" />
    <synapse sourceNeuronName = "2" targetNeuronName = "10" weight = "-0.7400005613356111" />
    <synapse sourceNeuronName = "2" targetNeuronName = "11" weight = "0.33127458596894166" />
    <synapse sourceNeuronName = "2" targetNeuronName = "12" weight = "-0.9775584890614961" />
    <synapse sourceNeuronName = "2" targetNeuronName = "13" weight = "0.4777917972655046" />
    <synapse sourceNeuronName = "2" targetNeuronName = "14" weight = "-0.19279589275627185" />
</neuralNetwork>