<neuralNetwork>
    <neuron name = "0" type = "sensor" linkName = "Link0" />
    <neuron name = "1" type = "sensor" linkName = "Link1" />
    <neuron name = "2" type = "sensor" linkName = "Link1" />
    <neuron name = "3" type = "sensor" linkName = "Link3" />
    <neuron name = "4" type = "motor"  jointName = "Link0_Link1" />
    <neuron name = "5" type = "motor"  jointName = "Link1_Link2" />
    <neuron name = "6" type = "motor"  jointName = "Link2_Link3" />
    <neuron name = "7" type = "motor"  jointName = "Link0_Link1" />
    <neuron name = "8" type = "motor"  jointName = "Link0_Link1" />
    <neuron name = "9" type = "motor"  jointName = "Link0_Link1" />
    <neuron name = "10" type = "motor"  jointName = "Link0_Link1" />
    <synapse sourceNeuronName = "0" targetNeuronName = "4" weight = "-0.26172351096949553" />
    <synapse sourceNeuronName = "0" targetNeuronName = "5" weight = "-0.9422818362753713" />
    <synapse sourceNeuronName = "0" targetNeuronName = "6" weight = "0.8307517440859453" />
    <synapse sourceNeuronName = "0" targetNeuronName = "7" weight = "0.2604860176560333" />
    <synapse sourceNeuronName = "0" targetNeuronName = "8" weight = "-0.00922544793480462" />
    <synapse sourceNeuronName = "0" targetNeuronName = "9" weight = "-0.4509892162818876" />
    <synapse sourceNeuronName = "0" targetNeuronName = "10" weight = "0.5934825748245829" />
    <synapse sourceNeuronName = "1" targetNeuronName = "4" weight = "-0.19337053206532762" />
    <synapse sourceNeuronName = "1" targetNeuronName = "5" weight = "0.10765000843365802" />
    <synapse sourceNeuronName = "1" targetNeuronName = "6" weight = "-0.2175265148696357" />
    <synapse sourceNeuronName = "1" targetNeuronName = "7" weight = "-0.9250422675425456" />
    <synapse sourceNeuronName = "1" targetNeuronName = "8" weight = "-0.8977729051795507" />
    <synapse sourceNeuronName = "1" targetNeuronName = "9" weight = "-0.19371550986065889" />
    <synapse sourceNeuronName = "1" targetNeuronName = "10" weight = "-0.6206913557769074" />
    <synapse sourceNeuronName = "2" targetNeuronName = "4" weight = "0.13446657828631747" />
    <synapse sourceNeuronName = "2" targetNeuronName = "5" weight = "-0.4370366639175238" />
    <synapse sourceNeuronName = "2" targetNeuronName = "6" weight = "-0.7508529570445588" />
    <synapse sourceNeuronName = "2" targetNeuronName = "7" weight = "0.1355722903500034" />
    <synapse sourceNeuronName = "2" targetNeuronName = "8" weight = "-0.5247378821614186" />
    <synapse sourceNeuronName = "2" targetNeuronName = "9" weight = "0.6971215052344655" />
    <synapse sourceNeuronName = "2" targetNeuronName = "10" weight = "0.013621047896811955" />
    <synapse sourceNeuronName = "3" targetNeuronName = "4" weight = "0.9928721408119241" />
    <synapse sourceNeuronName = "3" targetNeuronName = "5" weight = "-0.9577125324230011" />
    <synapse sourceNeuronName = "3" targetNeuronName = "6" weight = "0.48248127230434235" />
    <synapse sourceNeuronName = "3" targetNeuronName = "7" weight = "0.39158493351153134" />
    <synapse sourceNeuronName = "3" targetNeuronName = "8" weight = "0.15596554637300786" />
    <synapse sourceNeuronName = "3" targetNeuronName = "9" weight = "0.20579872051240833" />
    <synapse sourceNeuronName = "3" targetNeuronName = "10" weight = "0.12529380733710882" />
</neuralNetwork>