<neuralNetwork>
    <neuron name = "0" type = "sensor" linkName = "Link0" />
    <neuron name = "1" type = "sensor" linkName = "Link1" />
    <neuron name = "2" type = "sensor" linkName = "Link1" />
    <neuron name = "3" type = "sensor" linkName = "Link2" />
    <neuron name = "4" type = "motor"  jointName = "Link0_Link1" />
    <neuron name = "5" type = "motor"  jointName = "Link1_Link2" />
    <neuron name = "6" type = "motor"  jointName = "Link2_Link3" />
    <neuron name = "7" type = "motor"  jointName = "Link0_Link1" />
    <neuron name = "8" type = "motor"  jointName = "Link0_Link1" />
    <neuron name = "9" type = "motor"  jointName = "Link0_Link1" />
    <neuron name = "10" type = "motor"  jointName = "Link0_Link1" />
    <neuron name = "11" type = "motor"  jointName = "Link0_Link1" />
    <neuron name = "12" type = "motor"  jointName = "Link0_Link1" />
    <synapse sourceNeuronName = "0" targetNeuronName = "4" weight = "0.036737442911726204" />
    <synapse sourceNeuronName = "0" targetNeuronName = "5" weight = "0.21909231088327208" />
    <synapse sourceNeuronName = "0" targetNeuronName = "6" weight = "0.7581750068966706" />
    <synapse sourceNeuronName = "0" targetNeuronName = "7" weight = "0.6020758308885121" />
    <synapse sourceNeuronName = "0" targetNeuronName = "8" weight = "-0.3862487013115323" />
    <synapse sourceNeuronName = "0" targetNeuronName = "9" weight = "0.23721786306130355" />
    <synapse sourceNeuronName = "0" targetNeuronName = "10" weight = "0.364097572207734" />
    <synapse sourceNeuronName = "0" targetNeuronName = "11" weight = "-0.7158803148286557" />
    <synapse sourceNeuronName = "0" targetNeuronName = "12" weight = "0.7213274232878648" />
    <synapse sourceNeuronName = "1" targetNeuronName = "4" weight = "0.9800311446483314" />
    <synapse sourceNeuronName = "1" targetNeuronName = "5" weight = "-0.5924120161530748" />
    <synapse sourceNeuronName = "1" targetNeuronName = "6" weight = "-0.39859413795075604" />
    <synapse sourceNeuronName = "1" targetNeuronName = "7" weight = "-0.596128960333564" />
    <synapse sourceNeuronName = "1" targetNeuronName = "8" weight = "0.4094418504986064" />
    <synapse sourceNeuronName = "1" targetNeuronName = "9" weight = "-0.3170283299376331" />
    <synapse sourceNeuronName = "1" targetNeuronName = "10" weight = "-0.2802027563733551" />
    <synapse sourceNeuronName = "1" targetNeuronName = "11" weight = "-0.08579507579410284" />
    <synapse sourceNeuronName = "1" targetNeuronName = "12" weight = "0.048318676242855574" />
    <synapse sourceNeuronName = "2" targetNeuronName = "4" weight = "-0.713077525623866" />
    <synapse sourceNeuronName = "2" targetNeuronName = "5" weight = "0.6775351276778632" />
    <synapse sourceNeuronName = "2" targetNeuronName = "6" weight = "-0.3189935385209419" />
    <synapse sourceNeuronName = "2" targetNeuronName = "7" weight = "0.5320785033445432" />
    <synapse sourceNeuronName = "2" targetNeuronName = "8" weight = "0.4834790616059421" />
    <synapse sourceNeuronName = "2" targetNeuronName = "9" weight = "0.34182050613034476" />
    <synapse sourceNeuronName = "2" targetNeuronName = "10" weight = "0.2517483657259856" />
    <synapse sourceNeuronName = "2" targetNeuronName = "11" weight = "0.04807048636518796" />
    <synapse sourceNeuronName = "2" targetNeuronName = "12" weight = "-0.5828331731963599" />
    <synapse sourceNeuronName = "3" targetNeuronName = "4" weight = "0.2596591106417767" />
    <synapse sourceNeuronName = "3" targetNeuronName = "5" weight = "-0.46523126347028754" />
    <synapse sourceNeuronName = "3" targetNeuronName = "6" weight = "0.4277061002173934" />
    <synapse sourceNeuronName = "3" targetNeuronName = "7" weight = "-0.32324151684618707" />
    <synapse sourceNeuronName = "3" targetNeuronName = "8" weight = "-0.721121845092161" />
    <synapse sourceNeuronName = "3" targetNeuronName = "9" weight = "0.9548103355862003" />
    <synapse sourceNeuronName = "3" targetNeuronName = "10" weight = "-0.6595155242068671" />
    <synapse sourceNeuronName = "3" targetNeuronName = "11" weight = "-0.45922321327636784" />
    <synapse sourceNeuronName = "3" targetNeuronName = "12" weight = "-0.5827962748104571" />
</neuralNetwork>