<neuralNetwork>
    <neuron name = "0" type = "sensor" linkName = "Link0" />
    <neuron name = "1" type = "sensor" linkName = "Link2" />
    <neuron name = "2" type = "sensor" linkName = "Link3" />
    <neuron name = "3" type = "motor"  jointName = "Link0_Link1" />
    <neuron name = "4" type = "motor"  jointName = "Link1_Link2" />
    <neuron name = "5" type = "motor"  jointName = "Link2_Link3" />
    <neuron name = "6" type = "motor"  jointName = "Link0_Link1" />
    <neuron name = "7" type = "motor"  jointName = "Link0_Link1" />
    <neuron name = "8" type = "motor"  jointName = "Link0_Link1" />
    <neuron name = "9" type = "motor"  jointName = "Link0_Link1" />
    <neuron name = "10" type = "motor"  jointName = "Link0_Link1" />
    <neuron name = "11" type = "motor"  jointName = "Link0_Link1" />
    <neuron name = "12" type = "motor"  jointName = "Link0_Link1" />
    <neuron name = "13" type = "motor"  jointName = "Link0_Link1" />
    <neuron name = "14" type = "motor"  jointName = "Link0_Link1" />
    <synapse sourceNeuronName = "0" targetNeuronName = "3" weight = "0.18179039525403318" />
    <synapse sourceNeuronName = "0" targetNeuronName = "4" weight = "-0.41431038011099175" />
    <synapse sourceNeuronName = "0" targetNeuronName = "5" weight = "-0.9943732621164703" />
    <synapse sourceNeuronName = "0" targetNeuronName = "6" weight = "0.40114307481984524" />
    <synapse sourceNeuronName = "0" targetNeuronName = "7" weight = "0.9446129240390955" />
    <synapse sourceNeuronName = "0" targetNeuronName = "8" weight = "-0.3912682669957288" />
    <synapse sourceNeuronName = "0" targetNeuronName = "9" weight = "0.5507941839591763" />
    <synapse sourceNeuronName = "0" targetNeuronName = "10" weight = "0.04948389295430178" />
    <synapse sourceNeuronName = "0" targetNeuronName = "11" weight = "0.21734108064722601" />
    <synapse sourceNeuronName = "0" targetNeuronName = "12" weight = "0.052096422774989826" />
    <synapse sourceNeuronName = "0" targetNeuronName = "13" weight = "-0.19176086748662535" />
    <synapse sourceNeuronName = "0" targetNeuronName = "14" weight = "-0.4420841992853952" />
    <synapse sourceNeuronName = "1" targetNeuronName = "3" weight = "-0.04723682287583442" />
    <synapse sourceNeuronName = "1" targetNeuronName = "4" weight = "-0.9764964633945366" />
    <synapse sourceNeuronName = "1" targetNeuronName = "5" weight = "0.9210043477967869" />
    <synapse sourceNeuronName = "1" targetNeuronName = "6" weight = "-0.5987599496767433" />
    <synapse sourceNeuronName = "1" targetNeuronName = "7" weight = "0.8761303551619759" />
    <synapse sourceNeuronName = "1" targetNeuronName = "8" weight = "0.6118899364113779" />
    <synapse sourceNeuronName = "1" targetNeuronName = "9" weight = "-0.7516842906555368" />
    <synapse sourceNeuronName = "1" targetNeuronName = "10" weight = "-0.989859760666778" />
    <synapse sourceNeuronName = "1" targetNeuronName = "11" weight = "0.7129337405606397" />
    <synapse sourceNeuronName = "1" targetNeuronName = "12" weight = "-0.13540627427392815" />
    <synapse sourceNeuronName = "1" targetNeuronName = "13" weight = "0.1481017317975113" />
    <synapse sourceNeuronName = "1" targetNeuronName = "14" weight = "-0.8959393185352793" />
    <synapse sourceNeuronName = "2" targetNeuronName = "3" weight = "0.14962574287572417" />
    <synapse sourceNeuronName = "2" targetNeuronName = "4" weight = "0.6827254517472336" />
    <synapse sourceNeuronName = "2" targetNeuronName = "5" weight = "-0.38590315424905186" />
    <synapse sourceNeuronName = "2" targetNeuronName = "6" weight = "-0.0005698911201346135" />
    <synapse sourceNeuronName = "2" targetNeuronName = "7" weight = "-0.6956323374927296" />
    <synapse sourceNeuronName = "2" targetNeuronName = "8" weight = "-0.03450491574984005" />
    <synapse sourceNeuronName = "2" targetNeuronName = "9" weight = "-0.5595505287236373" />
    <synapse sourceNeuronName = "2" targetNeuronName = "10" weight = "0.8047963410403038" />
    <synapse sourceNeuronName = "2" targetNeuronName = "11" weight = "0.555136437729872" />
    <synapse sourceNeuronName = "2" targetNeuronName = "12" weight = "-0.07393025696726241" />
    <synapse sourceNeuronName = "2" targetNeuronName = "13" weight = "-0.898633494460112" />
    <synapse sourceNeuronName = "2" targetNeuronName = "14" weight = "0.3436339673197337" />
</neuralNetwork>