<neuralNetwork>
    <neuron name = "0" type = "sensor" linkName = "Link0" />
    <neuron name = "1" type = "sensor" linkName = "Link1" />
    <neuron name = "2" type = "sensor" linkName = "Link1" />
    <neuron name = "3" type = "motor"  jointName = "Link0_Link1" />
    <neuron name = "4" type = "motor"  jointName = "Link1_Link2" />
    <neuron name = "5" type = "motor"  jointName = "Link0_Link1" />
    <neuron name = "6" type = "motor"  jointName = "Link0_Link1" />
    <neuron name = "7" type = "motor"  jointName = "Link0_Link1" />
    <neuron name = "8" type = "motor"  jointName = "Link0_Link1" />
    <neuron name = "9" type = "motor"  jointName = "Link0_Link1" />
    <synapse sourceNeuronName = "0" targetNeuronName = "3" weight = "-0.8230244857479678" />
    <synapse sourceNeuronName = "0" targetNeuronName = "4" weight = "0.9122365090896067" />
    <synapse sourceNeuronName = "0" targetNeuronName = "5" weight = "-0.04499795553357333" />
    <synapse sourceNeuronName = "0" targetNeuronName = "6" weight = "-0.7738002495296417" />
    <synapse sourceNeuronName = "0" targetNeuronName = "7" weight = "0.15425966776169497" />
    <synapse sourceNeuronName = "0" targetNeuronName = "8" weight = "-0.6219166001701701" />
    <synapse sourceNeuronName = "0" targetNeuronName = "9" weight = "-0.019758733706894738" />
    <synapse sourceNeuronName = "1" targetNeuronName = "3" weight = "0.0696733360342281" />
    <synapse sourceNeuronName = "1" targetNeuronName = "4" weight = "0.5752021684382904" />
    <synapse sourceNeuronName = "1" targetNeuronName = "5" weight = "0.22743743577777042" />
    <synapse sourceNeuronName = "1" targetNeuronName = "6" weight = "-0.16750850833949227" />
    <synapse sourceNeuronName = "1" targetNeuronName = "7" weight = "-0.6762559392231022" />
    <synapse sourceNeuronName = "1" targetNeuronName = "8" weight = "0.9562019776492743" />
    <synapse sourceNeuronName = "1" targetNeuronName = "9" weight = "0.3344483045587847" />
    <synapse sourceNeuronName = "2" targetNeuronName = "3" weight = "-0.1341751140237164" />
    <synapse sourceNeuronName = "2" targetNeuronName = "4" weight = "-0.01541836826088705" />
    <synapse sourceNeuronName = "2" targetNeuronName = "5" weight = "0.6695240181386448" />
    <synapse sourceNeuronName = "2" targetNeuronName = "6" weight = "0.9097253445712179" />
    <synapse sourceNeuronName = "2" targetNeuronName = "7" weight = "0.6733838254896343" />
    <synapse sourceNeuronName = "2" targetNeuronName = "8" weight = "-0.11079459679693837" />
    <synapse sourceNeuronName = "2" targetNeuronName = "9" weight = "0.3503726578392956" />
</neuralNetwork>