<neuralNetwork>
    <neuron name = "0" type = "sensor" linkName = "Link0" />
    <neuron name = "1" type = "sensor" linkName = "Link1" />
    <neuron name = "2" type = "sensor" linkName = "Link1" />
    <neuron name = "3" type = "sensor" linkName = "Link3" />
    <neuron name = "4" type = "motor"  jointName = "Link0_Link1" />
    <neuron name = "5" type = "motor"  jointName = "Link1_Link2" />
    <neuron name = "6" type = "motor"  jointName = "Link2_Link3" />
    <neuron name = "7" type = "motor"  jointName = "Link0_Link1" />
    <neuron name = "8" type = "motor"  jointName = "Link0_Link1" />
    <neuron name = "9" type = "motor"  jointName = "Link0_Link1" />
    <neuron name = "10" type = "motor"  jointName = "Link0_Link1" />
    <neuron name = "11" type = "motor"  jointName = "Link0_Link1" />
    <neuron name = "12" type = "motor"  jointName = "Link0_Link1" />
    <neuron name = "13" type = "motor"  jointName = "Link0_Link1" />
    <neuron name = "14" type = "motor"  jointName = "Link0_Link1" />
    <neuron name = "15" type = "motor"  jointName = "Link0_Link1" />
    <synapse sourceNeuronName = "0" targetNeuronName = "4" weight = "0.4978726293150051" />
    <synapse sourceNeuronName = "0" targetNeuronName = "5" weight = "-0.049553542558272046" />
    <synapse sourceNeuronName = "0" targetNeuronName = "6" weight = "0.6540996850299694" />
    <synapse sourceNeuronName = "0" targetNeuronName = "7" weight = "-0.7885600665557488" />
    <synapse sourceNeuronName = "0" targetNeuronName = "8" weight = "-0.6095022517931352" />
    <synapse sourceNeuronName = "0" targetNeuronName = "9" weight = "0.19143277587571061" />
    <synapse sourceNeuronName = "0" targetNeuronName = "10" weight = "-0.23000938521400172" />
    <synapse sourceNeuronName = "0" targetNeuronName = "11" weight = "-0.6208041924194296" />
    <synapse sourceNeuronName = "0" targetNeuronName = "12" weight = "0.12148015824395308" />
    <synapse sourceNeuronName = "0" targetNeuronName = "13" weight = "0.012687188662332982" />
    <synapse sourceNeuronName = "0" targetNeuronName = "14" weight = "-0.8637459219513082" />
    <synapse sourceNeuronName = "0" targetNeuronName = "15" weight = "-0.910811455819194" />
    <synapse sourceNeuronName = "1" targetNeuronName = "4" weight = "-0.4067425368350337" />
    <synapse sourceNeuronName = "1" targetNeuronName = "5" weight = "0.4817893250675729" />
    <synapse sourceNeuronName = "1" targetNeuronName = "6" weight = "-0.7696899994651618" />
    <synapse sourceNeuronName = "1" targetNeuronName = "7" weight = "-0.2795262602377231" />
    <synapse sourceNeuronName = "1" targetNeuronName = "8" weight = "0.7212387258427815" />
    <synapse sourceNeuronName = "1" targetNeuronName = "9" weight = "-0.38054633470384713" />
    <synapse sourceNeuronName = "1" targetNeuronName = "10" weight = "-0.94019696960146" />
    <synapse sourceNeuronName = "1" targetNeuronName = "11" weight = "-0.51630525359959" />
    <synapse sourceNeuronName = "1" targetNeuronName = "12" weight = "-0.11583521638369865" />
    <synapse sourceNeuronName = "1" targetNeuronName = "13" weight = "0.7663061299769256" />
    <synapse sourceNeuronName = "1" targetNeuronName = "14" weight = "0.37566991967191865" />
    <synapse sourceNeuronName = "1" targetNeuronName = "15" weight = "0.9318083141782227" />
    <synapse sourceNeuronName = "2" targetNeuronName = "4" weight = "-0.517958016334048" />
    <synapse sourceNeuronName = "2" targetNeuronName = "5" weight = "0.46883222784838163" />
    <synapse sourceNeuronName = "2" targetNeuronName = "6" weight = "-0.6615729283120506" />
    <synapse sourceNeuronName = "2" targetNeuronName = "7" weight = "0.6200187702372404" />
    <synapse sourceNeuronName = "2" targetNeuronName = "8" weight = "-0.47497511924544944" />
    <synapse sourceNeuronName = "2" targetNeuronName = "9" weight = "0.7187778552926032" />
    <synapse sourceNeuronName = "2" targetNeuronName = "10" weight = "-0.7659964314496934" />
    <synapse sourceNeuronName = "2" targetNeuronName = "11" weight = "-0.6061371853838247" />
    <synapse sourceNeuronName = "2" targetNeuronName = "12" weight = "0.4839650633287178" />
    <synapse sourceNeuronName = "2" targetNeuronName = "13" weight = "0.5527452379980693" />
    <synapse sourceNeuronName = "2" targetNeuronName = "14" weight = "0.687085785141264" />
    <synapse sourceNeuronName = "2" targetNeuronName = "15" weight = "-0.4189514768932989" />
    <synapse sourceNeuronName = "3" targetNeuronName = "4" weight = "-0.27097817221548803" />
    <synapse sourceNeuronName = "3" targetNeuronName = "5" weight = "-0.7628220443614508" />
    <synapse sourceNeuronName = "3" targetNeuronName = "6" weight = "-0.5394796322771356" />
    <synapse sourceNeuronName = "3" targetNeuronName = "7" weight = "0.6632971774220235" />
    <synapse sourceNeuronName = "3" targetNeuronName = "8" weight = "-0.9705445726042758" />
    <synapse sourceNeuronName = "3" targetNeuronName = "9" weight = "0.2898289295965173" />
    <synapse sourceNeuronName = "3" targetNeuronName = "10" weight = "-0.2057000229425383" />
    <synapse sourceNeuronName = "3" targetNeuronName = "11" weight = "0.5686366183374303" />
    <synapse sourceNeuronName = "3" targetNeuronName = "12" weight = "0.8800159091389093" />
    <synapse sourceNeuronName = "3" targetNeuronName = "13" weight = "-0.7731184743799722" />
    <synapse sourceNeuronName = "3" targetNeuronName = "14" weight = "0.30905498382674734" />
    <synapse sourceNeuronName = "3" targetNeuronName = "15" weight = "0.7917442225609339" />
</neuralNetwork>