<neuralNetwork>
    <neuron name = "0" type = "sensor" linkName = "Link0" />
    <neuron name = "1" type = "sensor" linkName = "Link1" />
    <neuron name = "2" type = "sensor" linkName = "Link1" />
    <neuron name = "3" type = "sensor" linkName = "Link2" />
    <neuron name = "4" type = "sensor" linkName = "Link3" />
    <neuron name = "5" type = "motor"  jointName = "Link0_Link1" />
    <neuron name = "6" type = "motor"  jointName = "Link1_Link2" />
    <neuron name = "7" type = "motor"  jointName = "Link2_Link3" />
    <neuron name = "8" type = "motor"  jointName = "Link0_Link1" />
    <neuron name = "9" type = "motor"  jointName = "Link0_Link1" />
    <neuron name = "10" type = "motor"  jointName = "Link0_Link1" />
    <neuron name = "11" type = "motor"  jointName = "Link0_Link1" />
    <neuron name = "12" type = "motor"  jointName = "Link0_Link1" />
    <neuron name = "13" type = "motor"  jointName = "Link0_Link1" />
    <neuron name = "14" type = "motor"  jointName = "Link0_Link1" />
    <synapse sourceNeuronName = "0" targetNeuronName = "5" weight = "-0.9287062742792778" />
    <synapse sourceNeuronName = "0" targetNeuronName = "6" weight = "0.49500007128928103" />
    <synapse sourceNeuronName = "0" targetNeuronName = "7" weight = "0.5671760406546369" />
    <synapse sourceNeuronName = "0" targetNeuronName = "8" weight = "0.6842000193241504" />
    <synapse sourceNeuronName = "0" targetNeuronName = "9" weight = "-0.162322540820117" />
    <synapse sourceNeuronName = "0" targetNeuronName = "10" weight = "-0.7831238623959467" />
    <synapse sourceNeuronName = "0" targetNeuronName = "11" weight = "-0.020966659319990866" />
    <synapse sourceNeuronName = "0" targetNeuronName = "12" weight = "0.9835583710004387" />
    <synapse sourceNeuronName = "0" targetNeuronName = "13" weight = "-0.16307722588079598" />
    <synapse sourceNeuronName = "0" targetNeuronName = "14" weight = "-0.8921848696576729" />
    <synapse sourceNeuronName = "1" targetNeuronName = "5" weight = "0.9095263082797258" />
    <synapse sourceNeuronName = "1" targetNeuronName = "6" weight = "0.4613684246444032" />
    <synapse sourceNeuronName = "1" targetNeuronName = "7" weight = "0.5483474354398927" />
    <synapse sourceNeuronName = "1" targetNeuronName = "8" weight = "0.1577781924632531" />
    <synapse sourceNeuronName = "1" targetNeuronName = "9" weight = "0.8406461626461113" />
    <synapse sourceNeuronName = "1" targetNeuronName = "10" weight = "0.5059017502215619" />
    <synapse sourceNeuronName = "1" targetNeuronName = "11" weight = "0.7736673933588665" />
    <synapse sourceNeuronName = "1" targetNeuronName = "12" weight = "-0.18368993910882558" />
    <synapse sourceNeuronName = "1" targetNeuronName = "13" weight = "-0.8687040221080842" />
    <synapse sourceNeuronName = "1" targetNeuronName = "14" weight = "-0.06669669584671478" />
    <synapse sourceNeuronName = "2" targetNeuronName = "5" weight = "-0.0761801026428579" />
    <synapse sourceNeuronName = "2" targetNeuronName = "6" weight = "-0.9709878696266343" />
    <synapse sourceNeuronName = "2" targetNeuronName = "7" weight = "0.38406913555983824" />
    <synapse sourceNeuronName = "2" targetNeuronName = "8" weight = "0.05228514522528349" />
    <synapse sourceNeuronName = "2" targetNeuronName = "9" weight = "0.6118680513057078" />
    <synapse sourceNeuronName = "2" targetNeuronName = "10" weight = "-0.25225418805279887" />
    <synapse sourceNeuronName = "2" targetNeuronName = "11" weight = "0.06233043678439487" />
    <synapse sourceNeuronName = "2" targetNeuronName = "12" weight = "-0.7332034709949276" />
    <synapse sourceNeuronName = "2" targetNeuronName = "13" weight = "-0.35808621977416855" />
    <synapse sourceNeuronName = "2" targetNeuronName = "14" weight = "0.19883367105645955" />
    <synapse sourceNeuronName = "3" targetNeuronName = "5" weight = "0.9168330066468986" />
    <synapse sourceNeuronName = "3" targetNeuronName = "6" weight = "0.5321771283849288" />
    <synapse sourceNeuronName = "3" targetNeuronName = "7" weight = "-0.540110465461836" />
    <synapse sourceNeuronName = "3" targetNeuronName = "8" weight = "0.19202361352358555" />
    <synapse sourceNeuronName = "3" targetNeuronName = "9" weight = "0.20816404602072547" />
    <synapse sourceNeuronName = "3" targetNeuronName = "10" weight = "-0.4622212603675504" />
    <synapse sourceNeuronName = "3" targetNeuronName = "11" weight = "0.1396904129197214" />
    <synapse sourceNeuronName = "3" targetNeuronName = "12" weight = "0.5127756781292034" />
    <synapse sourceNeuronName = "3" targetNeuronName = "13" weight = "-0.576870631910605" />
    <synapse sourceNeuronName = "3" targetNeuronName = "14" weight = "0.13353446327591012" />
    <synapse sourceNeuronName = "4" targetNeuronName = "5" weight = "-0.5162477720111796" />
    <synapse sourceNeuronName = "4" targetNeuronName = "6" weight = "-0.8276455285838766" />
    <synapse sourceNeuronName = "4" targetNeuronName = "7" weight = "-0.6348594684346192" />
    <synapse sourceNeuronName = "4" targetNeuronName = "8" weight = "-0.5041998345623857" />
    <synapse sourceNeuronName = "4" targetNeuronName = "9" weight = "0.42100193593257407" />
    <synapse sourceNeuronName = "4" targetNeuronName = "10" weight = "-0.13913043864983976" />
    <synapse sourceNeuronName = "4" targetNeuronName = "11" weight = "-0.18393626242037642" />
    <synapse sourceNeuronName = "4" targetNeuronName = "12" weight = "0.20381420210097856" />
    <synapse sourceNeuronName = "4" targetNeuronName = "13" weight = "-0.8680222371793713" />
    <synapse sourceNeuronName = "4" targetNeuronName = "14" weight = "0.14618952447369438" />
</neuralNetwork>