<neuralNetwork>
    <neuron name = "0" type = "sensor" linkName = "Link0" />
    <neuron name = "1" type = "sensor" linkName = "Link1" />
    <neuron name = "2" type = "sensor" linkName = "Link1" />
    <neuron name = "3" type = "sensor" linkName = "Link2" />
    <neuron name = "4" type = "motor"  jointName = "Link0_Link1" />
    <neuron name = "5" type = "motor"  jointName = "Link1_Link2" />
    <neuron name = "6" type = "motor"  jointName = "Link0_Link1" />
    <neuron name = "7" type = "motor"  jointName = "Link0_Link1" />
    <neuron name = "8" type = "motor"  jointName = "Link0_Link1" />
    <neuron name = "9" type = "motor"  jointName = "Link0_Link1" />
    <neuron name = "10" type = "motor"  jointName = "Link0_Link1" />
    <neuron name = "11" type = "motor"  jointName = "Link0_Link1" />
    <synapse sourceNeuronName = "0" targetNeuronName = "4" weight = "0.44342170956973326" />
    <synapse sourceNeuronName = "0" targetNeuronName = "5" weight = "0.26205539321278315" />
    <synapse sourceNeuronName = "0" targetNeuronName = "6" weight = "-0.9483337707492032" />
    <synapse sourceNeuronName = "0" targetNeuronName = "7" weight = "0.04370005075488881" />
    <synapse sourceNeuronName = "0" targetNeuronName = "8" weight = "-0.9995699337976123" />
    <synapse sourceNeuronName = "0" targetNeuronName = "9" weight = "-0.44360963965394706" />
    <synapse sourceNeuronName = "0" targetNeuronName = "10" weight = "-0.9543895716061239" />
    <synapse sourceNeuronName = "0" targetNeuronName = "11" weight = "0.9451876884789252" />
    <synapse sourceNeuronName = "1" targetNeuronName = "4" weight = "-0.932339403995549" />
    <synapse sourceNeuronName = "1" targetNeuronName = "5" weight = "0.34437856331731154" />
    <synapse sourceNeuronName = "1" targetNeuronName = "6" weight = "-0.40610427850040565" />
    <synapse sourceNeuronName = "1" targetNeuronName = "7" weight = "0.9169680928144233" />
    <synapse sourceNeuronName = "1" targetNeuronName = "8" weight = "0.6717179522641168" />
    <synapse sourceNeuronName = "1" targetNeuronName = "9" weight = "-0.8186676859833399" />
    <synapse sourceNeuronName = "1" targetNeuronName = "10" weight = "0.5133792562837145" />
    <synapse sourceNeuronName = "1" targetNeuronName = "11" weight = "0.8780691023455469" />
    <synapse sourceNeuronName = "2" targetNeuronName = "4" weight = "-0.07019883904115409" />
    <synapse sourceNeuronName = "2" targetNeuronName = "5" weight = "0.3095778125235109" />
    <synapse sourceNeuronName = "2" targetNeuronName = "6" weight = "-0.3866389481799972" />
    <synapse sourceNeuronName = "2" targetNeuronName = "7" weight = "-0.10312317386974512" />
    <synapse sourceNeuronName = "2" targetNeuronName = "8" weight = "-0.23692076140581775" />
    <synapse sourceNeuronName = "2" targetNeuronName = "9" weight = "0.566875424666945" />
    <synapse sourceNeuronName = "2" targetNeuronName = "10" weight = "-0.23567595160795318" />
    <synapse sourceNeuronName = "2" targetNeuronName = "11" weight = "0.794877334203899" />
    <synapse sourceNeuronName = "3" targetNeuronName = "4" weight = "-0.18318374132204163" />
    <synapse sourceNeuronName = "3" targetNeuronName = "5" weight = "-0.8974353874871446" />
    <synapse sourceNeuronName = "3" targetNeuronName = "6" weight = "0.8113895111465512" />
    <synapse sourceNeuronName = "3" targetNeuronName = "7" weight = "0.11747846417855379" />
    <synapse sourceNeuronName = "3" targetNeuronName = "8" weight = "0.33329287558013254" />
    <synapse sourceNeuronName = "3" targetNeuronName = "9" weight = "-0.2913643437947797" />
    <synapse sourceNeuronName = "3" targetNeuronName = "10" weight = "0.8985470388154959" />
    <synapse sourceNeuronName = "3" targetNeuronName = "11" weight = "-0.9812200661861543" />
</neuralNetwork>