<neuralNetwork>
    <neuron name = "0" type = "sensor" linkName = "Link0" />
    <neuron name = "1" type = "sensor" linkName = "Link1" />
    <neuron name = "2" type = "sensor" linkName = "Link1" />
    <neuron name = "3" type = "sensor" linkName = "Link2" />
    <neuron name = "4" type = "motor"  jointName = "Link0_Link1" />
    <neuron name = "5" type = "motor"  jointName = "Link1_Link2" />
    <neuron name = "6" type = "motor"  jointName = "Link2_Link3" />
    <neuron name = "7" type = "motor"  jointName = "Link0_Link1" />
    <neuron name = "8" type = "motor"  jointName = "Link0_Link1" />
    <synapse sourceNeuronName = "0" targetNeuronName = "4" weight = "0.7351370685972298" />
    <synapse sourceNeuronName = "0" targetNeuronName = "5" weight = "0.09055913446508579" />
    <synapse sourceNeuronName = "0" targetNeuronName = "6" weight = "0.7832625416315255" />
    <synapse sourceNeuronName = "0" targetNeuronName = "7" weight = "0.301422866399929" />
    <synapse sourceNeuronName = "0" targetNeuronName = "8" weight = "0.9391018556637898" />
    <synapse sourceNeuronName = "1" targetNeuronName = "4" weight = "-0.427473405527689" />
    <synapse sourceNeuronName = "1" targetNeuronName = "5" weight = "-0.06016335413312901" />
    <synapse sourceNeuronName = "1" targetNeuronName = "6" weight = "0.3379035937471029" />
    <synapse sourceNeuronName = "1" targetNeuronName = "7" weight = "-0.5767316212768616" />
    <synapse sourceNeuronName = "1" targetNeuronName = "8" weight = "0.2115264373848087" />
    <synapse sourceNeuronName = "2" targetNeuronName = "4" weight = "0.062124853532104174" />
    <synapse sourceNeuronName = "2" targetNeuronName = "5" weight = "-0.3249384731744269" />
    <synapse sourceNeuronName = "2" targetNeuronName = "6" weight = "-0.6344664330245076" />
    <synapse sourceNeuronName = "2" targetNeuronName = "7" weight = "-0.3971061047059845" />
    <synapse sourceNeuronName = "2" targetNeuronName = "8" weight = "0.6581245754491454" />
    <synapse sourceNeuronName = "3" targetNeuronName = "4" weight = "-0.02687139246880399" />
    <synapse sourceNeuronName = "3" targetNeuronName = "5" weight = "0.6203913315146996" />
    <synapse sourceNeuronName = "3" targetNeuronName = "6" weight = "0.03004791678431662" />
    <synapse sourceNeuronName = "3" targetNeuronName = "7" weight = "-0.9048364263873832" />
    <synapse sourceNeuronName = "3" targetNeuronName = "8" weight = "-0.08911817654033172" />
</neuralNetwork>