<neuralNetwork>
    <neuron name = "0" type = "sensor" linkName = "Link0" />
    <neuron name = "1" type = "sensor" linkName = "Link1" />
    <neuron name = "2" type = "sensor" linkName = "Link1" />
    <neuron name = "3" type = "sensor" linkName = "Link2" />
    <neuron name = "4" type = "motor"  jointName = "Link0_Link1" />
    <neuron name = "5" type = "motor"  jointName = "Link1_Link2" />
    <neuron name = "6" type = "motor"  jointName = "Link0_Link1" />
    <neuron name = "7" type = "motor"  jointName = "Link0_Link1" />
    <neuron name = "8" type = "motor"  jointName = "Link0_Link1" />
    <neuron name = "9" type = "motor"  jointName = "Link0_Link1" />
    <neuron name = "10" type = "motor"  jointName = "Link0_Link1" />
    <synapse sourceNeuronName = "0" targetNeuronName = "4" weight = "0.982987541860493" />
    <synapse sourceNeuronName = "0" targetNeuronName = "5" weight = "-0.3735236798904127" />
    <synapse sourceNeuronName = "0" targetNeuronName = "6" weight = "-0.5735104058483647" />
    <synapse sourceNeuronName = "0" targetNeuronName = "7" weight = "0.48496352732917236" />
    <synapse sourceNeuronName = "0" targetNeuronName = "8" weight = "-0.07722784973093288" />
    <synapse sourceNeuronName = "0" targetNeuronName = "9" weight = "0.537930174817175" />
    <synapse sourceNeuronName = "0" targetNeuronName = "10" weight = "0.07652390188207603" />
    <synapse sourceNeuronName = "1" targetNeuronName = "4" weight = "-0.6955519071708158" />
    <synapse sourceNeuronName = "1" targetNeuronName = "5" weight = "-0.14349345478321274" />
    <synapse sourceNeuronName = "1" targetNeuronName = "6" weight = "-0.24783536563044195" />
    <synapse sourceNeuronName = "1" targetNeuronName = "7" weight = "0.6724946550926245" />
    <synapse sourceNeuronName = "1" targetNeuronName = "8" weight = "-0.02174068733019463" />
    <synapse sourceNeuronName = "1" targetNeuronName = "9" weight = "-0.2958490004879941" />
    <synapse sourceNeuronName = "1" targetNeuronName = "10" weight = "-0.23119028746315307" />
    <synapse sourceNeuronName = "2" targetNeuronName = "4" weight = "-0.16070942859121606" />
    <synapse sourceNeuronName = "2" targetNeuronName = "5" weight = "0.9346213139322668" />
    <synapse sourceNeuronName = "2" targetNeuronName = "6" weight = "0.6005045825086459" />
    <synapse sourceNeuronName = "2" targetNeuronName = "7" weight = "-0.9428876199740568" />
    <synapse sourceNeuronName = "2" targetNeuronName = "8" weight = "0.7051685240512129" />
    <synapse sourceNeuronName = "2" targetNeuronName = "9" weight = "-0.1587358883856098" />
    <synapse sourceNeuronName = "2" targetNeuronName = "10" weight = "0.9184020034563842" />
    <synapse sourceNeuronName = "3" targetNeuronName = "4" weight = "-0.15850406117749527" />
    <synapse sourceNeuronName = "3" targetNeuronName = "5" weight = "0.35427225958542574" />
    <synapse sourceNeuronName = "3" targetNeuronName = "6" weight = "-0.3379668756494978" />
    <synapse sourceNeuronName = "3" targetNeuronName = "7" weight = "-0.9587518535734185" />
    <synapse sourceNeuronName = "3" targetNeuronName = "8" weight = "0.5775119269709525" />
    <synapse sourceNeuronName = "3" targetNeuronName = "9" weight = "-0.21183301793603793" />
    <synapse sourceNeuronName = "3" targetNeuronName = "10" weight = "-0.9589300819126378" />
</neuralNetwork>