<neuralNetwork>
    <neuron name = "0" type = "sensor" linkName = "Link0" />
    <neuron name = "1" type = "sensor" linkName = "Link2" />
    <neuron name = "2" type = "sensor" linkName = "Link3" />
    <neuron name = "3" type = "motor"  jointName = "Link0_Link1" />
    <neuron name = "4" type = "motor"  jointName = "Link1_Link2" />
    <neuron name = "5" type = "motor"  jointName = "Link2_Link3" />
    <neuron name = "6" type = "motor"  jointName = "Link0_Link1" />
    <neuron name = "7" type = "motor"  jointName = "Link0_Link1" />
    <neuron name = "8" type = "motor"  jointName = "Link0_Link1" />
    <neuron name = "9" type = "motor"  jointName = "Link0_Link1" />
    <neuron name = "10" type = "motor"  jointName = "Link0_Link1" />
    <synapse sourceNeuronName = "0" targetNeuronName = "3" weight = "0.5470720016706059" />
    <synapse sourceNeuronName = "0" targetNeuronName = "4" weight = "0.449535872410217" />
    <synapse sourceNeuronName = "0" targetNeuronName = "5" weight = "0.07496915630076528" />
    <synapse sourceNeuronName = "0" targetNeuronName = "6" weight = "0.7606538552797584" />
    <synapse sourceNeuronName = "0" targetNeuronName = "7" weight = "0.7152185006540555" />
    <synapse sourceNeuronName = "0" targetNeuronName = "8" weight = "-0.3231735125260491" />
    <synapse sourceNeuronName = "0" targetNeuronName = "9" weight = "0.43007545439482175" />
    <synapse sourceNeuronName = "0" targetNeuronName = "10" weight = "0.8871084784704661" />
    <synapse sourceNeuronName = "1" targetNeuronName = "3" weight = "-0.9977230956771435" />
    <synapse sourceNeuronName = "1" targetNeuronName = "4" weight = "-0.13216811850647958" />
    <synapse sourceNeuronName = "1" targetNeuronName = "5" weight = "0.9827199475872619" />
    <synapse sourceNeuronName = "1" targetNeuronName = "6" weight = "0.35926194758691077" />
    <synapse sourceNeuronName = "1" targetNeuronName = "7" weight = "0.4964588346877077" />
    <synapse sourceNeuronName = "1" targetNeuronName = "8" weight = "-0.47606622343465643" />
    <synapse sourceNeuronName = "1" targetNeuronName = "9" weight = "-0.04973525155190872" />
    <synapse sourceNeuronName = "1" targetNeuronName = "10" weight = "0.9532838214766786" />
    <synapse sourceNeuronName = "2" targetNeuronName = "3" weight = "0.8737153368683497" />
    <synapse sourceNeuronName = "2" targetNeuronName = "4" weight = "-0.07751235523913502" />
    <synapse sourceNeuronName = "2" targetNeuronName = "5" weight = "-0.8798556649725264" />
    <synapse sourceNeuronName = "2" targetNeuronName = "6" weight = "0.7179371194884698" />
    <synapse sourceNeuronName = "2" targetNeuronName = "7" weight = "-0.12628417123302604" />
    <synapse sourceNeuronName = "2" targetNeuronName = "8" weight = "0.4670558945223833" />
    <synapse sourceNeuronName = "2" targetNeuronName = "9" weight = "0.6897794942978033" />
    <synapse sourceNeuronName = "2" targetNeuronName = "10" weight = "-0.24931545947622813" />
</neuralNetwork>