<neuralNetwork>
    <neuron name = "0" type = "sensor" linkName = "Link0" />
    <neuron name = "1" type = "sensor" linkName = "Link1" />
    <neuron name = "2" type = "sensor" linkName = "Link1" />
    <neuron name = "3" type = "motor"  jointName = "Link0_Link1" />
    <neuron name = "4" type = "motor"  jointName = "Link1_Link2" />
    <neuron name = "5" type = "motor"  jointName = "Link2_Link3" />
    <neuron name = "6" type = "motor"  jointName = "Link0_Link1" />
    <neuron name = "7" type = "motor"  jointName = "Link0_Link1" />
    <neuron name = "8" type = "motor"  jointName = "Link0_Link1" />
    <neuron name = "9" type = "motor"  jointName = "Link0_Link1" />
    <synapse sourceNeuronName = "0" targetNeuronName = "3" weight = "-0.15030109331734898" />
    <synapse sourceNeuronName = "0" targetNeuronName = "4" weight = "0.603084825939092" />
    <synapse sourceNeuronName = "0" targetNeuronName = "5" weight = "0.7515443406512603" />
    <synapse sourceNeuronName = "0" targetNeuronName = "6" weight = "-0.5784375117876217" />
    <synapse sourceNeuronName = "0" targetNeuronName = "7" weight = "0.35910648114408383" />
    <synapse sourceNeuronName = "0" targetNeuronName = "8" weight = "0.10723745472589985" />
    <synapse sourceNeuronName = "0" targetNeuronName = "9" weight = "0.6140009533819326" />
    <synapse sourceNeuronName = "1" targetNeuronName = "3" weight = "-0.43137118481910974" />
    <synapse sourceNeuronName = "1" targetNeuronName = "4" weight = "0.12139601695000635" />
    <synapse sourceNeuronName = "1" targetNeuronName = "5" weight = "-0.8487461246344761" />
    <synapse sourceNeuronName = "1" targetNeuronName = "6" weight = "0.07943476756974155" />
    <synapse sourceNeuronName = "1" targetNeuronName = "7" weight = "-0.7765132441311047" />
    <synapse sourceNeuronName = "1" targetNeuronName = "8" weight = "-0.34704238670737775" />
    <synapse sourceNeuronName = "1" targetNeuronName = "9" weight = "0.5621361540989485" />
    <synapse sourceNeuronName = "2" targetNeuronName = "3" weight = "0.18944896489888374" />
    <synapse sourceNeuronName = "2" targetNeuronName = "4" weight = "0.8474158732226309" />
    <synapse sourceNeuronName = "2" targetNeuronName = "5" weight = "0.6925456456332246" />
    <synapse sourceNeuronName = "2" targetNeuronName = "6" weight = "-0.15174624998674702" />
    <synapse sourceNeuronName = "2" targetNeuronName = "7" weight = "0.07853605794246632" />
    <synapse sourceNeuronName = "2" targetNeuronName = "8" weight = "0.7698045039759827" />
    <synapse sourceNeuronName = "2" targetNeuronName = "9" weight = "-0.36111910649805323" />
</neuralNetwork>