<neuralNetwork>
    <neuron name = "0" type = "sensor" linkName = "Link0" />
    <neuron name = "1" type = "sensor" linkName = "Link1" />
    <neuron name = "2" type = "sensor" linkName = "Link1" />
    <neuron name = "3" type = "sensor" linkName = "Link2" />
    <neuron name = "4" type = "motor"  jointName = "Link0_Link1" />
    <neuron name = "5" type = "motor"  jointName = "Link1_Link2" />
    <neuron name = "6" type = "motor"  jointName = "Link2_Link3" />
    <neuron name = "7" type = "motor"  jointName = "Link0_Link1" />
    <neuron name = "8" type = "motor"  jointName = "Link0_Link1" />
    <neuron name = "9" type = "motor"  jointName = "Link0_Link1" />
    <synapse sourceNeuronName = "0" targetNeuronName = "4" weight = "-0.9333771139303373" />
    <synapse sourceNeuronName = "0" targetNeuronName = "5" weight = "-0.1949139283015502" />
    <synapse sourceNeuronName = "0" targetNeuronName = "6" weight = "0.7080100507461555" />
    <synapse sourceNeuronName = "0" targetNeuronName = "7" weight = "-0.9369759302859013" />
    <synapse sourceNeuronName = "0" targetNeuronName = "8" weight = "0.8071724462377721" />
    <synapse sourceNeuronName = "0" targetNeuronName = "9" weight = "0.9687708980461198" />
    <synapse sourceNeuronName = "1" targetNeuronName = "4" weight = "0.018048171863399576" />
    <synapse sourceNeuronName = "1" targetNeuronName = "5" weight = "0.4788688001715682" />
    <synapse sourceNeuronName = "1" targetNeuronName = "6" weight = "0.025867786418597882" />
    <synapse sourceNeuronName = "1" targetNeuronName = "7" weight = "-0.23119417557625854" />
    <synapse sourceNeuronName = "1" targetNeuronName = "8" weight = "-0.3450724227073745" />
    <synapse sourceNeuronName = "1" targetNeuronName = "9" weight = "-0.28982882210256" />
    <synapse sourceNeuronName = "2" targetNeuronName = "4" weight = "-0.7902324886110264" />
    <synapse sourceNeuronName = "2" targetNeuronName = "5" weight = "-0.06097911944354317" />
    <synapse sourceNeuronName = "2" targetNeuronName = "6" weight = "0.3431768917377036" />
    <synapse sourceNeuronName = "2" targetNeuronName = "7" weight = "0.5147288031432236" />
    <synapse sourceNeuronName = "2" targetNeuronName = "8" weight = "-0.013017832170141519" />
    <synapse sourceNeuronName = "2" targetNeuronName = "9" weight = "-0.8399115924076719" />
    <synapse sourceNeuronName = "3" targetNeuronName = "4" weight = "-0.5482575072490381" />
    <synapse sourceNeuronName = "3" targetNeuronName = "5" weight = "-0.6683725422096702" />
    <synapse sourceNeuronName = "3" targetNeuronName = "6" weight = "0.2532146355668099" />
    <synapse sourceNeuronName = "3" targetNeuronName = "7" weight = "-0.42609060465873605" />
    <synapse sourceNeuronName = "3" targetNeuronName = "8" weight = "-0.1162361799688123" />
    <synapse sourceNeuronName = "3" targetNeuronName = "9" weight = "0.3250499412177561" />
</neuralNetwork>