<neuralNetwork>
    <neuron name = "0" type = "sensor" linkName = "Link0" />
    <neuron name = "1" type = "sensor" linkName = "Link1" />
    <neuron name = "2" type = "sensor" linkName = "Link1" />
    <neuron name = "3" type = "motor"  jointName = "Link0_Link1" />
    <neuron name = "4" type = "motor"  jointName = "Link1_Link2" />
    <neuron name = "5" type = "motor"  jointName = "Link2_Link3" />
    <neuron name = "6" type = "motor"  jointName = "Link0_Link1" />
    <neuron name = "7" type = "motor"  jointName = "Link0_Link1" />
    <neuron name = "8" type = "motor"  jointName = "Link0_Link1" />
    <neuron name = "9" type = "motor"  jointName = "Link0_Link1" />
    <synapse sourceNeuronName = "0" targetNeuronName = "3" weight = "-0.3253485656465298" />
    <synapse sourceNeuronName = "0" targetNeuronName = "4" weight = "-0.24881105729251018" />
    <synapse sourceNeuronName = "0" targetNeuronName = "5" weight = "0.07143427170662342" />
    <synapse sourceNeuronName = "0" targetNeuronName = "6" weight = "-0.34050536340928206" />
    <synapse sourceNeuronName = "0" targetNeuronName = "7" weight = "-0.5665012110669698" />
    <synapse sourceNeuronName = "0" targetNeuronName = "8" weight = "0.34253718731294547" />
    <synapse sourceNeuronName = "0" targetNeuronName = "9" weight = "-0.4876394108923725" />
    <synapse sourceNeuronName = "1" targetNeuronName = "3" weight = "0.36634907278146756" />
    <synapse sourceNeuronName = "1" targetNeuronName = "4" weight = "-0.09876309836157837" />
    <synapse sourceNeuronName = "1" targetNeuronName = "5" weight = "0.3016350276552642" />
    <synapse sourceNeuronName = "1" targetNeuronName = "6" weight = "0.6741569269936825" />
    <synapse sourceNeuronName = "1" targetNeuronName = "7" weight = "-0.5749102341795573" />
    <synapse sourceNeuronName = "1" targetNeuronName = "8" weight = "0.26730585353439995" />
    <synapse sourceNeuronName = "1" targetNeuronName = "9" weight = "-0.38576513492447995" />
    <synapse sourceNeuronName = "2" targetNeuronName = "3" weight = "-0.6266840730460483" />
    <synapse sourceNeuronName = "2" targetNeuronName = "4" weight = "-0.7794528759999229" />
    <synapse sourceNeuronName = "2" targetNeuronName = "5" weight = "-0.2673580832616025" />
    <synapse sourceNeuronName = "2" targetNeuronName = "6" weight = "-0.7520984070708141" />
    <synapse sourceNeuronName = "2" targetNeuronName = "7" weight = "0.24134622633353464" />
    <synapse sourceNeuronName = "2" targetNeuronName = "8" weight = "0.6275791099805217" />
    <synapse sourceNeuronName = "2" targetNeuronName = "9" weight = "-0.5230516415116013" />
</neuralNetwork>