<neuralNetwork>
    <neuron name = "0" type = "sensor" linkName = "Link0" />
    <neuron name = "1" type = "sensor" linkName = "Link1" />
    <neuron name = "2" type = "sensor" linkName = "Link1" />
    <neuron name = "3" type = "sensor" linkName = "Link2" />
    <neuron name = "4" type = "motor"  jointName = "Link0_Link1" />
    <neuron name = "5" type = "motor"  jointName = "Link1_Link2" />
    <neuron name = "6" type = "motor"  jointName = "Link0_Link1" />
    <neuron name = "7" type = "motor"  jointName = "Link0_Link1" />
    <neuron name = "8" type = "motor"  jointName = "Link0_Link1" />
    <neuron name = "9" type = "motor"  jointName = "Link0_Link1" />
    <neuron name = "10" type = "motor"  jointName = "Link0_Link1" />
    <neuron name = "11" type = "motor"  jointName = "Link0_Link1" />
    <neuron name = "12" type = "motor"  jointName = "Link0_Link1" />
    <neuron name = "13" type = "motor"  jointName = "Link0_Link1" />
    <synapse sourceNeuronName = "0" targetNeuronName = "4" weight = "-0.5002487794894919" />
    <synapse sourceNeuronName = "0" targetNeuronName = "5" weight = "-0.27049011060958583" />
    <synapse sourceNeuronName = "0" targetNeuronName = "6" weight = "-0.703574790233888" />
    <synapse sourceNeuronName = "0" targetNeuronName = "7" weight = "-0.4371644078317727" />
    <synapse sourceNeuronName = "0" targetNeuronName = "8" weight = "0.9555106101061686" />
    <synapse sourceNeuronName = "0" targetNeuronName = "9" weight = "0.34640420549911144" />
    <synapse sourceNeuronName = "0" targetNeuronName = "10" weight = "-0.43597773001453644" />
    <synapse sourceNeuronName = "0" targetNeuronName = "11" weight = "-0.45939221187239987" />
    <synapse sourceNeuronName = "0" targetNeuronName = "12" weight = "0.2813972047883344" />
    <synapse sourceNeuronName = "0" targetNeuronName = "13" weight = "0.5911349265001755" />
    <synapse sourceNeuronName = "1" targetNeuronName = "4" weight = "0.0993897190332409" />
    <synapse sourceNeuronName = "1" targetNeuronName = "5" weight = "0.1803809381925674" />
    <synapse sourceNeuronName = "1" targetNeuronName = "6" weight = "-0.2254916145801118" />
    <synapse sourceNeuronName = "1" targetNeuronName = "7" weight = "-0.36748348909192696" />
    <synapse sourceNeuronName = "1" targetNeuronName = "8" weight = "-0.3794723080902771" />
    <synapse sourceNeuronName = "1" targetNeuronName = "9" weight = "0.9212348153782071" />
    <synapse sourceNeuronName = "1" targetNeuronName = "10" weight = "0.24799972475863274" />
    <synapse sourceNeuronName = "1" targetNeuronName = "11" weight = "-0.040413170756702144" />
    <synapse sourceNeuronName = "1" targetNeuronName = "12" weight = "-0.1885709628400758" />
    <synapse sourceNeuronName = "1" targetNeuronName = "13" weight = "0.8982265364531345" />
    <synapse sourceNeuronName = "2" targetNeuronName = "4" weight = "-0.10077665410002434" />
    <synapse sourceNeuronName = "2" targetNeuronName = "5" weight = "0.5303997685164514" />
    <synapse sourceNeuronName = "2" targetNeuronName = "6" weight = "-0.42166292728855104" />
    <synapse sourceNeuronName = "2" targetNeuronName = "7" weight = "-0.22280909855501618" />
    <synapse sourceNeuronName = "2" targetNeuronName = "8" weight = "0.9016981247401503" />
    <synapse sourceNeuronName = "2" targetNeuronName = "9" weight = "-0.02075777599653117" />
    <synapse sourceNeuronName = "2" targetNeuronName = "10" weight = "-0.6262752914480267" />
    <synapse sourceNeuronName = "2" targetNeuronName = "11" weight = "0.35175981745407237" />
    <synapse sourceNeuronName = "2" targetNeuronName = "12" weight = "-0.7362767962032943" />
    <synapse sourceNeuronName = "2" targetNeuronName = "13" weight = "0.10606946418544783" />
    <synapse sourceNeuronName = "3" targetNeuronName = "4" weight = "0.7260292657461633" />
    <synapse sourceNeuronName = "3" targetNeuronName = "5" weight = "-0.4200201664676031" />
    <synapse sourceNeuronName = "3" targetNeuronName = "6" weight = "0.45069246362420934" />
    <synapse sourceNeuronName = "3" targetNeuronName = "7" weight = "-0.4433426593274248" />
    <synapse sourceNeuronName = "3" targetNeuronName = "8" weight = "-0.9946169116813477" />
    <synapse sourceNeuronName = "3" targetNeuronName = "9" weight = "0.5872115885586344" />
    <synapse sourceNeuronName = "3" targetNeuronName = "10" weight = "-0.9256345675778059" />
    <synapse sourceNeuronName = "3" targetNeuronName = "11" weight = "-0.15821410608231856" />
    <synapse sourceNeuronName = "3" targetNeuronName = "12" weight = "0.44010776539397134" />
    <synapse sourceNeuronName = "3" targetNeuronName = "13" weight = "-0.32299166195624784" />
</neuralNetwork>