<neuralNetwork>
    <neuron name = "0" type = "sensor" linkName = "Link0" />
    <neuron name = "1" type = "sensor" linkName = "Link1" />
    <neuron name = "2" type = "sensor" linkName = "Link1" />
    <neuron name = "3" type = "sensor" linkName = "Link2" />
    <neuron name = "4" type = "motor"  jointName = "Link0_Link1" />
    <neuron name = "5" type = "motor"  jointName = "Link1_Link2" />
    <neuron name = "6" type = "motor"  jointName = "Link0_Link1" />
    <neuron name = "7" type = "motor"  jointName = "Link0_Link1" />
    <neuron name = "8" type = "motor"  jointName = "Link0_Link1" />
    <neuron name = "9" type = "motor"  jointName = "Link0_Link1" />
    <neuron name = "10" type = "motor"  jointName = "Link0_Link1" />
    <synapse sourceNeuronName = "0" targetNeuronName = "4" weight = "-0.5255565148109207" />
    <synapse sourceNeuronName = "0" targetNeuronName = "5" weight = "-0.5345951374755038" />
    <synapse sourceNeuronName = "0" targetNeuronName = "6" weight = "-0.8185875159397007" />
    <synapse sourceNeuronName = "0" targetNeuronName = "7" weight = "-0.7914417329917038" />
    <synapse sourceNeuronName = "0" targetNeuronName = "8" weight = "-0.20010541063368614" />
    <synapse sourceNeuronName = "0" targetNeuronName = "9" weight = "-0.8578824877139157" />
    <synapse sourceNeuronName = "0" targetNeuronName = "10" weight = "0.8638784986567758" />
    <synapse sourceNeuronName = "1" targetNeuronName = "4" weight = "0.3890098689630397" />
    <synapse sourceNeuronName = "1" targetNeuronName = "5" weight = "-0.08210937203612256" />
    <synapse sourceNeuronName = "1" targetNeuronName = "6" weight = "0.39813628608205653" />
    <synapse sourceNeuronName = "1" targetNeuronName = "7" weight = "-0.7245735217874809" />
    <synapse sourceNeuronName = "1" targetNeuronName = "8" weight = "-0.01773890129283351" />
    <synapse sourceNeuronName = "1" targetNeuronName = "9" weight = "0.35747483295667304" />
    <synapse sourceNeuronName = "1" targetNeuronName = "10" weight = "-0.733373003496081" />
    <synapse sourceNeuronName = "2" targetNeuronName = "4" weight = "0.8905490071987925" />
    <synapse sourceNeuronName = "2" targetNeuronName = "5" weight = "-0.7565168523487185" />
    <synapse sourceNeuronName = "2" targetNeuronName = "6" weight = "0.32618285825599114" />
    <synapse sourceNeuronName = "2" targetNeuronName = "7" weight = "0.9182733773720169" />
    <synapse sourceNeuronName = "2" targetNeuronName = "8" weight = "0.3438239706637132" />
    <synapse sourceNeuronName = "2" targetNeuronName = "9" weight = "-0.40437197670784686" />
    <synapse sourceNeuronName = "2" targetNeuronName = "10" weight = "0.3856344469525119" />
    <synapse sourceNeuronName = "3" targetNeuronName = "4" weight = "0.713670352841975" />
    <synapse sourceNeuronName = "3" targetNeuronName = "5" weight = "0.12069846597276035" />
    <synapse sourceNeuronName = "3" targetNeuronName = "6" weight = "-0.11439524426789505" />
    <synapse sourceNeuronName = "3" targetNeuronName = "7" weight = "0.5731922933901441" />
    <synapse sourceNeuronName = "3" targetNeuronName = "8" weight = "0.49628663771387216" />
    <synapse sourceNeuronName = "3" targetNeuronName = "9" weight = "-0.40649345410433835" />
    <synapse sourceNeuronName = "3" targetNeuronName = "10" weight = "-0.9086067936173405" />
</neuralNetwork>