<neuralNetwork>
    <neuron name = "0" type = "sensor" linkName = "Link0" />
    <neuron name = "1" type = "sensor" linkName = "Link1" />
    <neuron name = "2" type = "sensor" linkName = "Link1" />
    <neuron name = "3" type = "sensor" linkName = "Link2" />
    <neuron name = "4" type = "motor"  jointName = "Link0_Link1" />
    <neuron name = "5" type = "motor"  jointName = "Link1_Link2" />
    <neuron name = "6" type = "motor"  jointName = "Link2_Link3" />
    <neuron name = "7" type = "motor"  jointName = "Link0_Link1" />
    <neuron name = "8" type = "motor"  jointName = "Link0_Link1" />
    <neuron name = "9" type = "motor"  jointName = "Link0_Link1" />
    <neuron name = "10" type = "motor"  jointName = "Link0_Link1" />
    <synapse sourceNeuronName = "0" targetNeuronName = "4" weight = "-0.9709206957215453" />
    <synapse sourceNeuronName = "0" targetNeuronName = "5" weight = "-0.8976322122587446" />
    <synapse sourceNeuronName = "0" targetNeuronName = "6" weight = "-0.2746795792584156" />
    <synapse sourceNeuronName = "0" targetNeuronName = "7" weight = "0.1805117107512133" />
    <synapse sourceNeuronName = "0" targetNeuronName = "8" weight = "-0.06517465119549803" />
    <synapse sourceNeuronName = "0" targetNeuronName = "9" weight = "-0.03981334217524224" />
    <synapse sourceNeuronName = "0" targetNeuronName = "10" weight = "0.11094796828855635" />
    <synapse sourceNeuronName = "1" targetNeuronName = "4" weight = "-0.13576103958742602" />
    <synapse sourceNeuronName = "1" targetNeuronName = "5" weight = "0.23990321992718644" />
    <synapse sourceNeuronName = "1" targetNeuronName = "6" weight = "0.9188212856532703" />
    <synapse sourceNeuronName = "1" targetNeuronName = "7" weight = "-0.9803516834359629" />
    <synapse sourceNeuronName = "1" targetNeuronName = "8" weight = "0.5403939455683744" />
    <synapse sourceNeuronName = "1" targetNeuronName = "9" weight = "-0.5519510286285949" />
    <synapse sourceNeuronName = "1" targetNeuronName = "10" weight = "-0.6980541580979638" />
    <synapse sourceNeuronName = "2" targetNeuronName = "4" weight = "0.14205294448174" />
    <synapse sourceNeuronName = "2" targetNeuronName = "5" weight = "0.7937976851329043" />
    <synapse sourceNeuronName = "2" targetNeuronName = "6" weight = "-0.4237554526267471" />
    <synapse sourceNeuronName = "2" targetNeuronName = "7" weight = "0.18284493355417575" />
    <synapse sourceNeuronName = "2" targetNeuronName = "8" weight = "0.3741075560063989" />
    <synapse sourceNeuronName = "2" targetNeuronName = "9" weight = "-0.7430391758229009" />
    <synapse sourceNeuronName = "2" targetNeuronName = "10" weight = "-0.2841544730429384" />
    <synapse sourceNeuronName = "3" targetNeuronName = "4" weight = "-0.0884467613150095" />
    <synapse sourceNeuronName = "3" targetNeuronName = "5" weight = "0.5512016973505045" />
    <synapse sourceNeuronName = "3" targetNeuronName = "6" weight = "0.5878630168731926" />
    <synapse sourceNeuronName = "3" targetNeuronName = "7" weight = "-0.42636667091696734" />
    <synapse sourceNeuronName = "3" targetNeuronName = "8" weight = "0.4631225737893552" />
    <synapse sourceNeuronName = "3" targetNeuronName = "9" weight = "-0.706129840016112" />
    <synapse sourceNeuronName = "3" targetNeuronName = "10" weight = "-0.06651457647138193" />
</neuralNetwork>