<neuralNetwork>
    <neuron name = "0" type = "sensor" linkName = "Link0" />
    <neuron name = "1" type = "sensor" linkName = "Link2" />
    <neuron name = "2" type = "sensor" linkName = "Link3" />
    <neuron name = "3" type = "motor"  jointName = "Link0_Link1" />
    <neuron name = "4" type = "motor"  jointName = "Link1_Link2" />
    <neuron name = "5" type = "motor"  jointName = "Link2_Link3" />
    <neuron name = "6" type = "motor"  jointName = "Link0_Link1" />
    <neuron name = "7" type = "motor"  jointName = "Link0_Link1" />
    <neuron name = "8" type = "motor"  jointName = "Link0_Link1" />
    <neuron name = "9" type = "motor"  jointName = "Link0_Link1" />
    <neuron name = "10" type = "motor"  jointName = "Link0_Link1" />
    <synapse sourceNeuronName = "0" targetNeuronName = "3" weight = "0.6923087823588119" />
    <synapse sourceNeuronName = "0" targetNeuronName = "4" weight = "0.017365808261406768" />
    <synapse sourceNeuronName = "0" targetNeuronName = "5" weight = "0.22050305296735861" />
    <synapse sourceNeuronName = "0" targetNeuronName = "6" weight = "-0.6930727174231321" />
    <synapse sourceNeuronName = "0" targetNeuronName = "7" weight = "0.07478762201052191" />
    <synapse sourceNeuronName = "0" targetNeuronName = "8" weight = "-0.7566880533019478" />
    <synapse sourceNeuronName = "0" targetNeuronName = "9" weight = "0.46552137713387887" />
    <synapse sourceNeuronName = "0" targetNeuronName = "10" weight = "0.39955855526656725" />
    <synapse sourceNeuronName = "1" targetNeuronName = "3" weight = "-0.3356888887655103" />
    <synapse sourceNeuronName = "1" targetNeuronName = "4" weight = "-0.79327800572158" />
    <synapse sourceNeuronName = "1" targetNeuronName = "5" weight = "0.3067420688171121" />
    <synapse sourceNeuronName = "1" targetNeuronName = "6" weight = "0.14149398016405312" />
    <synapse sourceNeuronName = "1" targetNeuronName = "7" weight = "-0.7298942618067028" />
    <synapse sourceNeuronName = "1" targetNeuronName = "8" weight = "-0.6656150421952964" />
    <synapse sourceNeuronName = "1" targetNeuronName = "9" weight = "0.4590634779465823" />
    <synapse sourceNeuronName = "1" targetNeuronName = "10" weight = "-0.49853963788169264" />
    <synapse sourceNeuronName = "2" targetNeuronName = "3" weight = "0.5670467640881756" />
    <synapse sourceNeuronName = "2" targetNeuronName = "4" weight = "-0.6508159588621176" />
    <synapse sourceNeuronName = "2" targetNeuronName = "5" weight = "-0.7506816848294291" />
    <synapse sourceNeuronName = "2" targetNeuronName = "6" weight = "-0.11878897206237604" />
    <synapse sourceNeuronName = "2" targetNeuronName = "7" weight = "0.8208007480950952" />
    <synapse sourceNeuronName = "2" targetNeuronName = "8" weight = "-0.07530543354127706" />
    <synapse sourceNeuronName = "2" targetNeuronName = "9" weight = "0.44054605314004713" />
    <synapse sourceNeuronName = "2" targetNeuronName = "10" weight = "-0.7001315667392203" />
</neuralNetwork>