<neuralNetwork>
    <neuron name = "0" type = "sensor" linkName = "Link0" />
    <neuron name = "1" type = "sensor" linkName = "Link1" />
    <neuron name = "2" type = "sensor" linkName = "Link1" />
    <neuron name = "3" type = "sensor" linkName = "Link2-1" />
    <neuron name = "4" type = "sensor" linkName = "Link2-1-0" />
    <neuron name = "5" type = "sensor" linkName = "Link2-1-1" />
    <neuron name = "6" type = "sensor" linkName = "Link2-1-2-0" />
    <neuron name = "7" type = "motor"  jointName = "Link0_Link1" />
    <neuron name = "8" type = "motor"  jointName = "Link1_Link2" />
    <neuron name = "9" type = "motor"  jointName = "Link0_Link1" />
    <neuron name = "10" type = "motor"  jointName = "Link0_Link1" />
    <synapse sourceNeuronName = "0" targetNeuronName = "7" weight = "-0.989185570595873" />
    <synapse sourceNeuronName = "0" targetNeuronName = "8" weight = "-0.777421685883956" />
    <synapse sourceNeuronName = "0" targetNeuronName = "9" weight = "0.9464667207986242" />
    <synapse sourceNeuronName = "0" targetNeuronName = "10" weight = "0.08723749313988272" />
    <synapse sourceNeuronName = "1" targetNeuronName = "7" weight = "0.776989419257943" />
    <synapse sourceNeuronName = "1" targetNeuronName = "8" weight = "-0.5165614629154471" />
    <synapse sourceNeuronName = "1" targetNeuronName = "9" weight = "-0.6589600980217314" />
    <synapse sourceNeuronName = "1" targetNeuronName = "10" weight = "0.5665774484090667" />
    <synapse sourceNeuronName = "2" targetNeuronName = "7" weight = "-0.6362594144513736" />
    <synapse sourceNeuronName = "2" targetNeuronName = "8" weight = "0.3046456976530061" />
    <synapse sourceNeuronName = "2" targetNeuronName = "9" weight = "-0.3791101769075733" />
    <synapse sourceNeuronName = "2" targetNeuronName = "10" weight = "0.7546070004116221" />
    <synapse sourceNeuronName = "3" targetNeuronName = "7" weight = "0.5993417607843621" />
    <synapse sourceNeuronName = "3" targetNeuronName = "8" weight = "0.09121477783973497" />
    <synapse sourceNeuronName = "3" targetNeuronName = "9" weight = "0.9580840451576342" />
    <synapse sourceNeuronName = "3" targetNeuronName = "10" weight = "-0.8899073206620669" />
    <synapse sourceNeuronName = "4" targetNeuronName = "7" weight = "0.7775673567365153" />
    <synapse sourceNeuronName = "4" targetNeuronName = "8" weight = "0.08754919490806379" />
    <synapse sourceNeuronName = "4" targetNeuronName = "9" weight = "0.6974816007583224" />
    <synapse sourceNeuronName = "4" targetNeuronName = "10" weight = "-0.47690417318483935" />
    <synapse sourceNeuronName = "5" targetNeuronName = "7" weight = "-0.9617982525115172" />
    <synapse sourceNeuronName = "5" targetNeuronName = "8" weight = "-0.07147343050379229" />
    <synapse sourceNeuronName = "5" targetNeuronName = "9" weight = "0.20568798445311653" />
    <synapse sourceNeuronName = "5" targetNeuronName = "10" weight = "0.7190185893190999" />
    <synapse sourceNeuronName = "6" targetNeuronName = "7" weight = "0.32674851705549224" />
    <synapse sourceNeuronName = "6" targetNeuronName = "8" weight = "0.4095695360140472" />
    <synapse sourceNeuronName = "6" targetNeuronName = "9" weight = "0.06195173105767937" />
    <synapse sourceNeuronName = "6" targetNeuronName = "10" weight = "0.054535879751423266" />
</neuralNetwork>