<neuralNetwork>
    <neuron name = "0" type = "sensor" linkName = "Link0" />
    <neuron name = "1" type = "sensor" linkName = "Link1" />
    <neuron name = "2" type = "sensor" linkName = "Link1" />
    <neuron name = "3" type = "sensor" linkName = "Link3" />
    <neuron name = "4" type = "motor"  jointName = "Link0_Link1" />
    <neuron name = "5" type = "motor"  jointName = "Link1_Link2" />
    <neuron name = "6" type = "motor"  jointName = "Link2_Link3" />
    <neuron name = "7" type = "motor"  jointName = "Link0_Link1" />
    <neuron name = "8" type = "motor"  jointName = "Link0_Link1" />
    <neuron name = "9" type = "motor"  jointName = "Link0_Link1" />
    <neuron name = "10" type = "motor"  jointName = "Link0_Link1" />
    <neuron name = "11" type = "motor"  jointName = "Link0_Link1" />
    <synapse sourceNeuronName = "0" targetNeuronName = "4" weight = "0.41887601040105027" />
    <synapse sourceNeuronName = "0" targetNeuronName = "5" weight = "-0.915865507084082" />
    <synapse sourceNeuronName = "0" targetNeuronName = "6" weight = "-0.9621195780973519" />
    <synapse sourceNeuronName = "0" targetNeuronName = "7" weight = "0.768901881941078" />
    <synapse sourceNeuronName = "0" targetNeuronName = "8" weight = "-0.8688152024944797" />
    <synapse sourceNeuronName = "0" targetNeuronName = "9" weight = "0.7844231884047739" />
    <synapse sourceNeuronName = "0" targetNeuronName = "10" weight = "0.4439363040907629" />
    <synapse sourceNeuronName = "0" targetNeuronName = "11" weight = "-0.23407545633012306" />
    <synapse sourceNeuronName = "1" targetNeuronName = "4" weight = "0.2231269899671935" />
    <synapse sourceNeuronName = "1" targetNeuronName = "5" weight = "0.8056475564013703" />
    <synapse sourceNeuronName = "1" targetNeuronName = "6" weight = "0.725237993323889" />
    <synapse sourceNeuronName = "1" targetNeuronName = "7" weight = "-0.9339375947613349" />
    <synapse sourceNeuronName = "1" targetNeuronName = "8" weight = "-0.8246292498562287" />
    <synapse sourceNeuronName = "1" targetNeuronName = "9" weight = "-0.6852199866575026" />
    <synapse sourceNeuronName = "1" targetNeuronName = "10" weight = "0.4387065702242674" />
    <synapse sourceNeuronName = "1" targetNeuronName = "11" weight = "0.062453413393227075" />
    <synapse sourceNeuronName = "2" targetNeuronName = "4" weight = "-0.2427074395955673" />
    <synapse sourceNeuronName = "2" targetNeuronName = "5" weight = "0.4516498069717365" />
    <synapse sourceNeuronName = "2" targetNeuronName = "6" weight = "-0.4102449420999741" />
    <synapse sourceNeuronName = "2" targetNeuronName = "7" weight = "-0.7805538566925685" />
    <synapse sourceNeuronName = "2" targetNeuronName = "8" weight = "-0.448636670304001" />
    <synapse sourceNeuronName = "2" targetNeuronName = "9" weight = "0.24130878441158177" />
    <synapse sourceNeuronName = "2" targetNeuronName = "10" weight = "-0.7476928697541927" />
    <synapse sourceNeuronName = "2" targetNeuronName = "11" weight = "0.1438080236961572" />
    <synapse sourceNeuronName = "3" targetNeuronName = "4" weight = "0.2920313533295309" />
    <synapse sourceNeuronName = "3" targetNeuronName = "5" weight = "-0.6450979293220196" />
    <synapse sourceNeuronName = "3" targetNeuronName = "6" weight = "-0.4105309987418937" />
    <synapse sourceNeuronName = "3" targetNeuronName = "7" weight = "0.20151004328870759" />
    <synapse sourceNeuronName = "3" targetNeuronName = "8" weight = "0.14692671685223901" />
    <synapse sourceNeuronName = "3" targetNeuronName = "9" weight = "0.5010981650120332" />
    <synapse sourceNeuronName = "3" targetNeuronName = "10" weight = "-0.43741426135491746" />
    <synapse sourceNeuronName = "3" targetNeuronName = "11" weight = "-0.12583636733616732" />
</neuralNetwork>