<neuralNetwork>
    <neuron name = "0" type = "sensor" linkName = "Torso" />
    <neuron name = "1" type = "sensor" linkName = "FrontRightLeg" />
    <neuron name = "2" type = "sensor" linkName = "FrontRightLeg2" />
    <neuron name = "3" type = "sensor" linkName = "BackRightLeg" />
    <neuron name = "4" type = "sensor" linkName = "BackRightLeg2" />
    <neuron name = "5" type = "sensor" linkName = "FrontLeftLeg" />
    <neuron name = "6" type = "sensor" linkName = "FrontLeftLeg2" />
    <neuron name = "7" type = "sensor" linkName = "BackLeftLeg" />
    <neuron name = "8" type = "sensor" linkName = "BackLeftLeg2" />
    <neuron name = "9" type = "sensor" linkName = "Head" />
    <neuron name = "10" type = "motor"  jointName = "Torso_Head" />
    <neuron name = "11" type = "motor"  jointName = "Torso_FrontRightLeg" />
    <neuron name = "12" type = "motor"  jointName = "FrontRightLeg_FrontRightLeg2" />
    <neuron name = "13" type = "motor"  jointName = "Torso_BackRightLeg" />
    <neuron name = "14" type = "motor"  jointName = "BackRightLeg_BackRightLeg2" />
    <neuron name = "15" type = "motor"  jointName = "Torso_FrontLeftLeg" />
    <neuron name = "16" type = "motor"  jointName = "FrontLeftLeg_FrontLeftLeg2" />
    <neuron name = "17" type = "motor"  jointName = "Torso_BackLeftLeg" />
    <neuron name = "18" type = "motor"  jointName = "BackLeftLeg_BackLeftLeg2" />
    <synapse sourceNeuronName = "0" targetNeuronName = "10" weight = "-0.12244730033115925" />
    <synapse sourceNeuronName = "0" targetNeuronName = "11" weight = "-0.40559882651427603" />
    <synapse sourceNeuronName = "0" targetNeuronName = "12" weight = "0.021993521245538883" />
    <synapse sourceNeuronName = "0" targetNeuronName = "13" weight = "-0.4884927308432685" />
    <synapse sourceNeuronName = "0" targetNeuronName = "14" weight = "-0.04833242906589996" />
    <synapse sourceNeuronName = "0" targetNeuronName = "15" weight = "0.07029613947235669" />
    <synapse sourceNeuronName = "0" targetNeuronName = "16" weight = "0.44308640009354594" />
    <synapse sourceNeuronName = "0" targetNeuronName = "17" weight = "0.051380498392418206" />
    <synapse sourceNeuronName = "0" targetNeuronName = "18" weight = "-0.6056237683083339" />
    <synapse sourceNeuronName = "1" targetNeuronName = "10" weight = "-0.2662116346899872" />
    <synapse sourceNeuronName = "1" targetNeuronName = "11" weight = "0.5127807326946741" />
    <synapse sourceNeuronName = "1" targetNeuronName = "12" weight = "0.26315353628321847" />
    <synapse sourceNeuronName = "1" targetNeuronName = "13" weight = "-0.6297670105528843" />
    <synapse sourceNeuronName = "1" targetNeuronName = "14" weight = "-0.7067407833691348" />
    <synapse sourceNeuronName = "1" targetNeuronName = "15" weight = "-0.889649783345136" />
    <synapse sourceNeuronName = "1" targetNeuronName = "16" weight = "0.8524918796498577" />
    <synapse sourceNeuronName = "1" targetNeuronName = "17" weight = "-0.29052403788703507" />
    <synapse sourceNeuronName = "1" targetNeuronName = "18" weight = "-0.27930461874818735" />
    <synapse sourceNeuronName = "2" targetNeuronName = "10" weight = "0.11083863620664691" />
    <synapse sourceNeuronName = "2" targetNeuronName = "11" weight = "-0.9863669820648726" />
    <synapse sourceNeuronName = "2" targetNeuronName = "12" weight = "0.3005281800410715" />
    <synapse sourceNeuronName = "2" targetNeuronName = "13" weight = "-0.5956355646642473" />
    <synapse sourceNeuronName = "2" targetNeuronName = "14" weight = "-0.8875395128585577" />
    <synapse sourceNeuronName = "2" targetNeuronName = "15" weight = "-0.378256996865733" />
    <synapse sourceNeuronName = "2" targetNeuronName = "16" weight = "-0.010738052239505746" />
    <synapse sourceNeuronName = "2" targetNeuronName = "17" weight = "0.5832494457666624" />
    <synapse sourceNeuronName = "2" targetNeuronName = "18" weight = "0.00935505851677676" />
    <synapse sourceNeuronName = "3" targetNeuronName = "10" weight = "-0.40346781324283043" />
    <synapse sourceNeuronName = "3" targetNeuronName = "11" weight = "-0.792107166096585" />
    <synapse sourceNeuronName = "3" targetNeuronName = "12" weight = "-0.2664065890495053" />
    <synapse sourceNeuronName = "3" targetNeuronName = "13" weight = "-0.6732857977822371" />
    <synapse sourceNeuronName = "3" targetNeuronName = "14" weight = "0.8446652144690106" />
    <synapse sourceNeuronName = "3" targetNeuronName = "15" weight = "0.1457842426341629" />
    <synapse sourceNeuronName = "3" targetNeuronName = "16" weight = "0.2927085206022437" />
    <synapse sourceNeuronName = "3" targetNeuronName = "17" weight = "-0.9966084024240622" />
    <synapse sourceNeuronName = "3" targetNeuronName = "18" weight = "-0.5489319637439396" />
    <synapse sourceNeuronName = "4" targetNeuronName = "10" weight = "-0.7062566566419535" />
    <synapse sourceNeuronName = "4" targetNeuronName = "11" weight = "0.4630899515909519" />
    <synapse sourceNeuronName = "4" targetNeuronName = "12" weight = "0.8599967113334626" />
    <synapse sourceNeuronName = "4" targetNeuronName = "13" weight = "0.23386234882171397" />
    <synapse sourceNeuronName = "4" targetNeuronName = "14" weight = "-0.4633984714264303" />
    <synapse sourceNeuronName = "4" targetNeuronName = "15" weight = "-0.1668897143915864" />
    <synapse sourceNeuronName = "4" targetNeuronName = "16" weight = "-0.5869691643214656" />
    <synapse sourceNeuronName = "4" targetNeuronName = "17" weight = "0.8684923044323771" />
    <synapse sourceNeuronName = "4" targetNeuronName = "18" weight = "0.46021195437902995" />
    <synapse sourceNeuronName = "5" targetNeuronName = "10" weight = "0.603817755220194" />
    <synapse sourceNeuronName = "5" targetNeuronName = "11" weight = "0.6177248802515531" />
    <synapse sourceNeuronName = "5" targetNeuronName = "12" weight = "0.9923425156668053" />
    <synapse sourceNeuronName = "5" targetNeuronName = "13" weight = "0.25363055446132465" />
    <synapse sourceNeuronName = "5" targetNeuronName = "14" weight = "-0.6565326390756294" />
    <synapse sourceNeuronName = "5" targetNeuronName = "15" weight = "-0.29263874243088317" />
    <synapse sourceNeuronName = "5" targetNeuronName = "16" weight = "0.25561566861244" />
    <synapse sourceNeuronName = "5" targetNeuronName = "17" weight = "-0.9348527740218435" />
    <synapse sourceNeuronName = "5" targetNeuronName = "18" weight = "0.5257871537101448" />
    <synapse sourceNeuronName = "6" targetNeuronName = "10" weight = "-0.6900240343465547" />
    <synapse sourceNeuronName = "6" targetNeuronName = "11" weight = "0.9763937797145175" />
    <synapse sourceNeuronName = "6" targetNeuronName = "12" weight = "-0.5247626033305424" />
    <synapse sourceNeuronName = "6" targetNeuronName = "13" weight = "0.45701155379960445" />
    <synapse sourceNeuronName = "6" targetNeuronName = "14" weight = "-0.7412524320817773" />
    <synapse sourceNeuronName = "6" targetNeuronName = "15" weight = "-0.7125737349416139" />
    <synapse sourceNeuronName = "6" targetNeuronName = "16" weight = "-0.3372946559580188" />
    <synapse sourceNeuronName = "6" targetNeuronName = "17" weight = "0.06355098862346087" />
    <synapse sourceNeuronName = "6" targetNeuronName = "18" weight = "0.9528574132571026" />
    <synapse sourceNeuronName = "7" targetNeuronName = "10" weight = "0.8246233091172375" />
    <synapse sourceNeuronName = "7" targetNeuronName = "11" weight = "0.1412042298837488" />
    <synapse sourceNeuronName = "7" targetNeuronName = "12" weight = "-0.617005284051166" />
    <synapse sourceNeuronName = "7" targetNeuronName = "13" weight = "-0.002124006338256601" />
    <synapse sourceNeuronName = "7" targetNeuronName = "14" weight = "0.541919462259409" />
    <synapse sourceNeuronName = "7" targetNeuronName = "15" weight = "-0.5706986994394792" />
    <synapse sourceNeuronName = "7" targetNeuronName = "16" weight = "0.530558763289624" />
    <synapse sourceNeuronName = "7" targetNeuronName = "17" weight = "-0.6184049470269137" />
    <synapse sourceNeuronName = "7" targetNeuronName = "18" weight = "-0.7330922591422586" />
    <synapse sourceNeuronName = "8" targetNeuronName = "10" weight = "0.9081744301568597" />
    <synapse sourceNeuronName = "8" targetNeuronName = "11" weight = "0.6314609231014314" />
    <synapse sourceNeuronName = "8" targetNeuronName = "12" weight = "0.12437703779735254" />
    <synapse sourceNeuronName = "8" targetNeuronName = "13" weight = "0.19568378181211887" />
    <synapse sourceNeuronName = "8" targetNeuronName = "14" weight = "-0.5561226745611705" />
    <synapse sourceNeuronName = "8" targetNeuronName = "15" weight = "0.16987838200741057" />
    <synapse sourceNeuronName = "8" targetNeuronName = "16" weight = "0.8270876416506252" />
    <synapse sourceNeuronName = "8" targetNeuronName = "17" weight = "-0.035322050617685674" />
    <synapse sourceNeuronName = "8" targetNeuronName = "18" weight = "0.02645634956461307" />
    <synapse sourceNeuronName = "9" targetNeuronName = "10" weight = "0.8476372565438575" />
    <synapse sourceNeuronName = "9" targetNeuronName = "11" weight = "0.5328490564419075" />
    <synapse sourceNeuronName = "9" targetNeuronName = "12" weight = "0.2920094194866585" />
    <synapse sourceNeuronName = "9" targetNeuronName = "13" weight = "0.7193908633621224" />
    <synapse sourceNeuronName = "9" targetNeuronName = "14" weight = "-0.597391195985111" />
    <synapse sourceNeuronName = "9" targetNeuronName = "15" weight = "-0.4931193804177425" />
    <synapse sourceNeuronName = "9" targetNeuronName = "16" weight = "-0.651912033348734" />
    <synapse sourceNeuronName = "9" targetNeuronName = "17" weight = "0.23172554580526916" />
    <synapse sourceNeuronName = "9" targetNeuronName = "18" weight = "0.9065745518656594" />
</neuralNetwork>