<neuralNetwork>
    <neuron name = "0" type = "sensor" linkName = "Link0" />
    <neuron name = "1" type = "sensor" linkName = "Link1" />
    <neuron name = "2" type = "sensor" linkName = "Link1" />
    <neuron name = "3" type = "sensor" linkName = "Link2-1" />
    <neuron name = "4" type = "sensor" linkName = "Link2-1-0" />
    <neuron name = "5" type = "sensor" linkName = "Link2-1-1" />
    <neuron name = "6" type = "sensor" linkName = "Link2-1-2-0" />
    <neuron name = "7" type = "motor"  jointName = "Link0_Link1" />
    <neuron name = "8" type = "motor"  jointName = "Link1_Link2" />
    <neuron name = "9" type = "motor"  jointName = "Link0_Link1" />
    <neuron name = "10" type = "motor"  jointName = "Link0_Link1" />
    <neuron name = "11" type = "motor"  jointName = "Link0_Link1" />
    <synapse sourceNeuronName = "0" targetNeuronName = "7" weight = "0.4861945536625627" />
    <synapse sourceNeuronName = "0" targetNeuronName = "8" weight = "0.6609788606198121" />
    <synapse sourceNeuronName = "0" targetNeuronName = "9" weight = "-0.4382651058330107" />
    <synapse sourceNeuronName = "0" targetNeuronName = "10" weight = "0.31010896672306476" />
    <synapse sourceNeuronName = "0" targetNeuronName = "11" weight = "-0.4421836357919351" />
    <synapse sourceNeuronName = "1" targetNeuronName = "7" weight = "-0.3888090889477924" />
    <synapse sourceNeuronName = "1" targetNeuronName = "8" weight = "-0.5665273033181892" />
    <synapse sourceNeuronName = "1" targetNeuronName = "9" weight = "0.7161037939351549" />
    <synapse sourceNeuronName = "1" targetNeuronName = "10" weight = "-0.6066709180348551" />
    <synapse sourceNeuronName = "1" targetNeuronName = "11" weight = "-0.9940065235184663" />
    <synapse sourceNeuronName = "2" targetNeuronName = "7" weight = "-0.9839111371899896" />
    <synapse sourceNeuronName = "2" targetNeuronName = "8" weight = "-0.5689005678303158" />
    <synapse sourceNeuronName = "2" targetNeuronName = "9" weight = "0.9802588235624015" />
    <synapse sourceNeuronName = "2" targetNeuronName = "10" weight = "0.613818618996099" />
    <synapse sourceNeuronName = "2" targetNeuronName = "11" weight = "0.3321505872143107" />
    <synapse sourceNeuronName = "3" targetNeuronName = "7" weight = "0.9851140612260625" />
    <synapse sourceNeuronName = "3" targetNeuronName = "8" weight = "-0.07976523801902746" />
    <synapse sourceNeuronName = "3" targetNeuronName = "9" weight = "-0.8409138963608056" />
    <synapse sourceNeuronName = "3" targetNeuronName = "10" weight = "0.26771131948590776" />
    <synapse sourceNeuronName = "3" targetNeuronName = "11" weight = "-0.20418513847368058" />
    <synapse sourceNeuronName = "4" targetNeuronName = "7" weight = "0.5185078980199669" />
    <synapse sourceNeuronName = "4" targetNeuronName = "8" weight = "0.3062845389804285" />
    <synapse sourceNeuronName = "4" targetNeuronName = "9" weight = "0.5813900178628248" />
    <synapse sourceNeuronName = "4" targetNeuronName = "10" weight = "0.6612933025929331" />
    <synapse sourceNeuronName = "4" targetNeuronName = "11" weight = "0.9496816003841102" />
    <synapse sourceNeuronName = "5" targetNeuronName = "7" weight = "-0.9544106752704125" />
    <synapse sourceNeuronName = "5" targetNeuronName = "8" weight = "0.5269274785160836" />
    <synapse sourceNeuronName = "5" targetNeuronName = "9" weight = "0.7086634264338076" />
    <synapse sourceNeuronName = "5" targetNeuronName = "10" weight = "0.8245402848598133" />
    <synapse sourceNeuronName = "5" targetNeuronName = "11" weight = "0.9244748395688889" />
    <synapse sourceNeuronName = "6" targetNeuronName = "7" weight = "0.6668781295867741" />
    <synapse sourceNeuronName = "6" targetNeuronName = "8" weight = "0.07042257831722076" />
    <synapse sourceNeuronName = "6" targetNeuronName = "9" weight = "-0.7144751715355961" />
    <synapse sourceNeuronName = "6" targetNeuronName = "10" weight = "-0.3984039248111595" />
    <synapse sourceNeuronName = "6" targetNeuronName = "11" weight = "0.40099532299383966" />
</neuralNetwork>