<neuralNetwork>
    <neuron name = "0" type = "sensor" linkName = "Torso" />
    <neuron name = "1" type = "sensor" linkName = "FrontRightLeg" />
    <neuron name = "2" type = "sensor" linkName = "FrontRightLeg2" />
    <neuron name = "3" type = "sensor" linkName = "BackRightLeg" />
    <neuron name = "4" type = "sensor" linkName = "BackRightLeg2" />
    <neuron name = "5" type = "sensor" linkName = "FrontLeftLeg" />
    <neuron name = "6" type = "sensor" linkName = "FrontLeftLeg2" />
    <neuron name = "7" type = "sensor" linkName = "BackLeftLeg" />
    <neuron name = "8" type = "sensor" linkName = "BackLeftLeg2" />
    <neuron name = "9" type = "sensor" linkName = "Head" />
    <neuron name = "10" type = "motor"  jointName = "Torso_Head" />
    <neuron name = "11" type = "motor"  jointName = "Torso_FrontRightLeg" />
    <neuron name = "12" type = "motor"  jointName = "FrontRightLeg_FrontRightLeg2" />
    <neuron name = "13" type = "motor"  jointName = "Torso_BackRightLeg" />
    <neuron name = "14" type = "motor"  jointName = "BackRightLeg_BackRightLeg2" />
    <neuron name = "15" type = "motor"  jointName = "Torso_FrontLeftLeg" />
    <neuron name = "16" type = "motor"  jointName = "FrontLeftLeg_FrontLeftLeg2" />
    <neuron name = "17" type = "motor"  jointName = "Torso_BackLeftLeg" />
    <neuron name = "18" type = "motor"  jointName = "BackLeftLeg_BackLeftLeg2" />
    <synapse sourceNeuronName = "0" targetNeuronName = "10" weight = "0.8539605056105928" />
    <synapse sourceNeuronName = "0" targetNeuronName = "11" weight = "0.9308809564992409" />
    <synapse sourceNeuronName = "0" targetNeuronName = "12" weight = "-0.9215334764132992" />
    <synapse sourceNeuronName = "0" targetNeuronName = "13" weight = "-0.9747447821153816" />
    <synapse sourceNeuronName = "0" targetNeuronName = "14" weight = "0.4983879706879437" />
    <synapse sourceNeuronName = "0" targetNeuronName = "15" weight = "0.4555867496154895" />
    <synapse sourceNeuronName = "0" targetNeuronName = "16" weight = "0.4133002223968514" />
    <synapse sourceNeuronName = "0" targetNeuronName = "17" weight = "0.12556687363404118" />
    <synapse sourceNeuronName = "0" targetNeuronName = "18" weight = "0.22569113317098188" />
    <synapse sourceNeuronName = "1" targetNeuronName = "10" weight = "0.9535493201663721" />
    <synapse sourceNeuronName = "1" targetNeuronName = "11" weight = "0.3177765463236999" />
    <synapse sourceNeuronName = "1" targetNeuronName = "12" weight = "-0.8707134397442211" />
    <synapse sourceNeuronName = "1" targetNeuronName = "13" weight = "-0.5064513356457434" />
    <synapse sourceNeuronName = "1" targetNeuronName = "14" weight = "0.9095120444536715" />
    <synapse sourceNeuronName = "1" targetNeuronName = "15" weight = "0.3552218605126891" />
    <synapse sourceNeuronName = "1" targetNeuronName = "16" weight = "0.028263367349144808" />
    <synapse sourceNeuronName = "1" targetNeuronName = "17" weight = "-0.2612314050753395" />
    <synapse sourceNeuronName = "1" targetNeuronName = "18" weight = "-0.9002402173349611" />
    <synapse sourceNeuronName = "2" targetNeuronName = "10" weight = "-0.10966709901258986" />
    <synapse sourceNeuronName = "2" targetNeuronName = "11" weight = "-0.3301216768111186" />
    <synapse sourceNeuronName = "2" targetNeuronName = "12" weight = "0.027073102687825923" />
    <synapse sourceNeuronName = "2" targetNeuronName = "13" weight = "-0.0024391677298369885" />
    <synapse sourceNeuronName = "2" targetNeuronName = "14" weight = "-0.019155526991077254" />
    <synapse sourceNeuronName = "2" targetNeuronName = "15" weight = "-0.10240411887894418" />
    <synapse sourceNeuronName = "2" targetNeuronName = "16" weight = "-0.277450302995228" />
    <synapse sourceNeuronName = "2" targetNeuronName = "17" weight = "0.5182536088102174" />
    <synapse sourceNeuronName = "2" targetNeuronName = "18" weight = "-0.6276540066959584" />
    <synapse sourceNeuronName = "3" targetNeuronName = "10" weight = "-0.8087531429296817" />
    <synapse sourceNeuronName = "3" targetNeuronName = "11" weight = "-0.9808293306981604" />
    <synapse sourceNeuronName = "3" targetNeuronName = "12" weight = "-0.04670382817574947" />
    <synapse sourceNeuronName = "3" targetNeuronName = "13" weight = "0.2676118409368593" />
    <synapse sourceNeuronName = "3" targetNeuronName = "14" weight = "-0.3444775351068081" />
    <synapse sourceNeuronName = "3" targetNeuronName = "15" weight = "-0.20180611795831283" />
    <synapse sourceNeuronName = "3" targetNeuronName = "16" weight = "0.4919101792292999" />
    <synapse sourceNeuronName = "3" targetNeuronName = "17" weight = "0.33328301379514325" />
    <synapse sourceNeuronName = "3" targetNeuronName = "18" weight = "-0.9837092548634896" />
    <synapse sourceNeuronName = "4" targetNeuronName = "10" weight = "0.20960523970812917" />
    <synapse sourceNeuronName = "4" targetNeuronName = "11" weight = "0.09776332665752885" />
    <synapse sourceNeuronName = "4" targetNeuronName = "12" weight = "-0.3152542482625289" />
    <synapse sourceNeuronName = "4" targetNeuronName = "13" weight = "-0.0266321748051761" />
    <synapse sourceNeuronName = "4" targetNeuronName = "14" weight = "-0.46736770054043864" />
    <synapse sourceNeuronName = "4" targetNeuronName = "15" weight = "-0.7855436530728812" />
    <synapse sourceNeuronName = "4" targetNeuronName = "16" weight = "0.19994269901036965" />
    <synapse sourceNeuronName = "4" targetNeuronName = "17" weight = "-0.3885194850788276" />
    <synapse sourceNeuronName = "4" targetNeuronName = "18" weight = "0.25285475626503495" />
    <synapse sourceNeuronName = "5" targetNeuronName = "10" weight = "-0.44430238092387375" />
    <synapse sourceNeuronName = "5" targetNeuronName = "11" weight = "0.5810331807021096" />
    <synapse sourceNeuronName = "5" targetNeuronName = "12" weight = "-0.13247817433400755" />
    <synapse sourceNeuronName = "5" targetNeuronName = "13" weight = "0.3432790509572874" />
    <synapse sourceNeuronName = "5" targetNeuronName = "14" weight = "0.5037171672695353" />
    <synapse sourceNeuronName = "5" targetNeuronName = "15" weight = "0.755746066931275" />
    <synapse sourceNeuronName = "5" targetNeuronName = "16" weight = "-0.6408200085808133" />
    <synapse sourceNeuronName = "5" targetNeuronName = "17" weight = "0.705414496086614" />
    <synapse sourceNeuronName = "5" targetNeuronName = "18" weight = "-0.6369985996460472" />
    <synapse sourceNeuronName = "6" targetNeuronName = "10" weight = "0.07501878861595102" />
    <synapse sourceNeuronName = "6" targetNeuronName = "11" weight = "-0.7288740766647857" />
    <synapse sourceNeuronName = "6" targetNeuronName = "12" weight = "-0.4198251944599467" />
    <synapse sourceNeuronName = "6" targetNeuronName = "13" weight = "-0.8669191083912773" />
    <synapse sourceNeuronName = "6" targetNeuronName = "14" weight = "0.5245692262389263" />
    <synapse sourceNeuronName = "6" targetNeuronName = "15" weight = "0.37087527170883394" />
    <synapse sourceNeuronName = "6" targetNeuronName = "16" weight = "-0.8325295928370136" />
    <synapse sourceNeuronName = "6" targetNeuronName = "17" weight = "-0.6653917946702645" />
    <synapse sourceNeuronName = "6" targetNeuronName = "18" weight = "-0.1741312202358034" />
    <synapse sourceNeuronName = "7" targetNeuronName = "10" weight = "0.2973791839068709" />
    <synapse sourceNeuronName = "7" targetNeuronName = "11" weight = "-0.39632777768210414" />
    <synapse sourceNeuronName = "7" targetNeuronName = "12" weight = "-0.4854278349126293" />
    <synapse sourceNeuronName = "7" targetNeuronName = "13" weight = "0.8550476563939433" />
    <synapse sourceNeuronName = "7" targetNeuronName = "14" weight = "0.7598555954631943" />
    <synapse sourceNeuronName = "7" targetNeuronName = "15" weight = "-0.6927407204679175" />
    <synapse sourceNeuronName = "7" targetNeuronName = "16" weight = "0.6917446022127813" />
    <synapse sourceNeuronName = "7" targetNeuronName = "17" weight = "0.08610612845914378" />
    <synapse sourceNeuronName = "7" targetNeuronName = "18" weight = "-0.12442221340228521" />
    <synapse sourceNeuronName = "8" targetNeuronName = "10" weight = "-0.17593654187007912" />
    <synapse sourceNeuronName = "8" targetNeuronName = "11" weight = "-0.7766655290537996" />
    <synapse sourceNeuronName = "8" targetNeuronName = "12" weight = "0.41220460111282997" />
    <synapse sourceNeuronName = "8" targetNeuronName = "13" weight = "-0.37929029470274855" />
    <synapse sourceNeuronName = "8" targetNeuronName = "14" weight = "-0.2727479392239116" />
    <synapse sourceNeuronName = "8" targetNeuronName = "15" weight = "-0.4979299338170058" />
    <synapse sourceNeuronName = "8" targetNeuronName = "16" weight = "-0.20519602590900643" />
    <synapse sourceNeuronName = "8" targetNeuronName = "17" weight = "-0.3439399601707853" />
    <synapse sourceNeuronName = "8" targetNeuronName = "18" weight = "0.29475335676227843" />
    <synapse sourceNeuronName = "9" targetNeuronName = "10" weight = "-0.8106180711752007" />
    <synapse sourceNeuronName = "9" targetNeuronName = "11" weight = "-0.02313276261897368" />
    <synapse sourceNeuronName = "9" targetNeuronName = "12" weight = "-0.9379388773595754" />
    <synapse sourceNeuronName = "9" targetNeuronName = "13" weight = "0.6108566722569191" />
    <synapse sourceNeuronName = "9" targetNeuronName = "14" weight = "0.8909269864949219" />
    <synapse sourceNeuronName = "9" targetNeuronName = "15" weight = "-0.3190511054042282" />
    <synapse sourceNeuronName = "9" targetNeuronName = "16" weight = "-0.9106225774948173" />
    <synapse sourceNeuronName = "9" targetNeuronName = "17" weight = "-0.6838715290236608" />
    <synapse sourceNeuronName = "9" targetNeuronName = "18" weight = "-0.11015720064520274" />
</neuralNetwork>