<neuralNetwork>
    <neuron name = "0" type = "sensor" linkName = "Torso" />
    <neuron name = "1" type = "sensor" linkName = "FrontRightLeg" />
    <neuron name = "2" type = "sensor" linkName = "FrontRightLeg2" />
    <neuron name = "3" type = "sensor" linkName = "BackRightLeg" />
    <neuron name = "4" type = "sensor" linkName = "BackRightLeg2" />
    <neuron name = "5" type = "sensor" linkName = "FrontLeftLeg" />
    <neuron name = "6" type = "sensor" linkName = "FrontLeftLeg2" />
    <neuron name = "7" type = "sensor" linkName = "BackLeftLeg" />
    <neuron name = "8" type = "sensor" linkName = "BackLeftLeg2" />
    <neuron name = "9" type = "sensor" linkName = "Head" />
    <neuron name = "10" type = "motor"  jointName = "Torso_Head" />
    <neuron name = "11" type = "motor"  jointName = "Torso_FrontRightLeg" />
    <neuron name = "12" type = "motor"  jointName = "FrontRightLeg_FrontRightLeg2" />
    <neuron name = "13" type = "motor"  jointName = "Torso_BackRightLeg" />
    <neuron name = "14" type = "motor"  jointName = "BackRightLeg_BackRightLeg2" />
    <neuron name = "15" type = "motor"  jointName = "Torso_FrontLeftLeg" />
    <neuron name = "16" type = "motor"  jointName = "FrontLeftLeg_FrontLeftLeg2" />
    <neuron name = "17" type = "motor"  jointName = "Torso_BackLeftLeg" />
    <neuron name = "18" type = "motor"  jointName = "BackLeftLeg_BackLeftLeg2" />
    <synapse sourceNeuronName = "0" targetNeuronName = "10" weight = "-0.23405042446219082" />
    <synapse sourceNeuronName = "0" targetNeuronName = "11" weight = "0.9382742333269227" />
    <synapse sourceNeuronName = "0" targetNeuronName = "12" weight = "0.5307071399480896" />
    <synapse sourceNeuronName = "0" targetNeuronName = "13" weight = "0.27844044639323506" />
    <synapse sourceNeuronName = "0" targetNeuronName = "14" weight = "-0.07124616162360242" />
    <synapse sourceNeuronName = "0" targetNeuronName = "15" weight = "0.762888198266912" />
    <synapse sourceNeuronName = "0" targetNeuronName = "16" weight = "0.4701166408004427" />
    <synapse sourceNeuronName = "0" targetNeuronName = "17" weight = "-0.5788001074108053" />
    <synapse sourceNeuronName = "0" targetNeuronName = "18" weight = "-0.6103490640889997" />
    <synapse sourceNeuronName = "1" targetNeuronName = "10" weight = "0.5207831594706114" />
    <synapse sourceNeuronName = "1" targetNeuronName = "11" weight = "-0.5491370798001092" />
    <synapse sourceNeuronName = "1" targetNeuronName = "12" weight = "0.5504398795303738" />
    <synapse sourceNeuronName = "1" targetNeuronName = "13" weight = "0.3530960482969894" />
    <synapse sourceNeuronName = "1" targetNeuronName = "14" weight = "-0.1587821959693636" />
    <synapse sourceNeuronName = "1" targetNeuronName = "15" weight = "0.056347517035200134" />
    <synapse sourceNeuronName = "1" targetNeuronName = "16" weight = "-0.27700567529712394" />
    <synapse sourceNeuronName = "1" targetNeuronName = "17" weight = "0.3128856551978789" />
    <synapse sourceNeuronName = "1" targetNeuronName = "18" weight = "0.8537018612050489" />
    <synapse sourceNeuronName = "2" targetNeuronName = "10" weight = "-0.8593158337723217" />
    <synapse sourceNeuronName = "2" targetNeuronName = "11" weight = "0.5356818116929571" />
    <synapse sourceNeuronName = "2" targetNeuronName = "12" weight = "-0.8488625814564565" />
    <synapse sourceNeuronName = "2" targetNeuronName = "13" weight = "-0.47321021254658335" />
    <synapse sourceNeuronName = "2" targetNeuronName = "14" weight = "-0.0269202814262961" />
    <synapse sourceNeuronName = "2" targetNeuronName = "15" weight = "-0.27999693808468096" />
    <synapse sourceNeuronName = "2" targetNeuronName = "16" weight = "-0.08009276602430448" />
    <synapse sourceNeuronName = "2" targetNeuronName = "17" weight = "0.20343397195080803" />
    <synapse sourceNeuronName = "2" targetNeuronName = "18" weight = "0.13020989444283915" />
    <synapse sourceNeuronName = "3" targetNeuronName = "10" weight = "0.3802526695662367" />
    <synapse sourceNeuronName = "3" targetNeuronName = "11" weight = "0.8908613617900054" />
    <synapse sourceNeuronName = "3" targetNeuronName = "12" weight = "-0.33536533267097446" />
    <synapse sourceNeuronName = "3" targetNeuronName = "13" weight = "-0.10421348102804706" />
    <synapse sourceNeuronName = "3" targetNeuronName = "14" weight = "0.7438845206526352" />
    <synapse sourceNeuronName = "3" targetNeuronName = "15" weight = "-0.4643956086009733" />
    <synapse sourceNeuronName = "3" targetNeuronName = "16" weight = "0.8658443731055236" />
    <synapse sourceNeuronName = "3" targetNeuronName = "17" weight = "0.7768890712522603" />
    <synapse sourceNeuronName = "3" targetNeuronName = "18" weight = "-0.4064704510103938" />
    <synapse sourceNeuronName = "4" targetNeuronName = "10" weight = "0.44464858089592596" />
    <synapse sourceNeuronName = "4" targetNeuronName = "11" weight = "0.9314784297087102" />
    <synapse sourceNeuronName = "4" targetNeuronName = "12" weight = "0.19441616781207482" />
    <synapse sourceNeuronName = "4" targetNeuronName = "13" weight = "-0.6864024705286917" />
    <synapse sourceNeuronName = "4" targetNeuronName = "14" weight = "0.16292692503864314" />
    <synapse sourceNeuronName = "4" targetNeuronName = "15" weight = "-0.32969850526425315" />
    <synapse sourceNeuronName = "4" targetNeuronName = "16" weight = "0.24793920283163273" />
    <synapse sourceNeuronName = "4" targetNeuronName = "17" weight = "0.8811920342225819" />
    <synapse sourceNeuronName = "4" targetNeuronName = "18" weight = "0.23463087303273533" />
    <synapse sourceNeuronName = "5" targetNeuronName = "10" weight = "0.47580290518770574" />
    <synapse sourceNeuronName = "5" targetNeuronName = "11" weight = "0.24988888461171066" />
    <synapse sourceNeuronName = "5" targetNeuronName = "12" weight = "0.2608005934053632" />
    <synapse sourceNeuronName = "5" targetNeuronName = "13" weight = "-0.36387247077747076" />
    <synapse sourceNeuronName = "5" targetNeuronName = "14" weight = "-0.3175734707214417" />
    <synapse sourceNeuronName = "5" targetNeuronName = "15" weight = "-0.39495367586561025" />
    <synapse sourceNeuronName = "5" targetNeuronName = "16" weight = "0.8995444067396403" />
    <synapse sourceNeuronName = "5" targetNeuronName = "17" weight = "-0.1796602922805659" />
    <synapse sourceNeuronName = "5" targetNeuronName = "18" weight = "-0.901968584142409" />
    <synapse sourceNeuronName = "6" targetNeuronName = "10" weight = "-0.43514155386357967" />
    <synapse sourceNeuronName = "6" targetNeuronName = "11" weight = "0.5003286454412121" />
    <synapse sourceNeuronName = "6" targetNeuronName = "12" weight = "0.7912422664013423" />
    <synapse sourceNeuronName = "6" targetNeuronName = "13" weight = "0.3999622894793662" />
    <synapse sourceNeuronName = "6" targetNeuronName = "14" weight = "0.08307322122145067" />
    <synapse sourceNeuronName = "6" targetNeuronName = "15" weight = "0.07929326590450425" />
    <synapse sourceNeuronName = "6" targetNeuronName = "16" weight = "-0.2889085032504939" />
    <synapse sourceNeuronName = "6" targetNeuronName = "17" weight = "-0.20301874443123058" />
    <synapse sourceNeuronName = "6" targetNeuronName = "18" weight = "-0.8565057588128484" />
    <synapse sourceNeuronName = "7" targetNeuronName = "10" weight = "-0.9469061897663271" />
    <synapse sourceNeuronName = "7" targetNeuronName = "11" weight = "-0.06697754923614152" />
    <synapse sourceNeuronName = "7" targetNeuronName = "12" weight = "-0.1309303729967486" />
    <synapse sourceNeuronName = "7" targetNeuronName = "13" weight = "-0.8993736033757198" />
    <synapse sourceNeuronName = "7" targetNeuronName = "14" weight = "0.3801948156409052" />
    <synapse sourceNeuronName = "7" targetNeuronName = "15" weight = "0.7441193188247015" />
    <synapse sourceNeuronName = "7" targetNeuronName = "16" weight = "-0.7160441379401017" />
    <synapse sourceNeuronName = "7" targetNeuronName = "17" weight = "0.1130682890653183" />
    <synapse sourceNeuronName = "7" targetNeuronName = "18" weight = "-0.7050884990779225" />
    <synapse sourceNeuronName = "8" targetNeuronName = "10" weight = "-0.34470354377878953" />
    <synapse sourceNeuronName = "8" targetNeuronName = "11" weight = "0.43379041816939545" />
    <synapse sourceNeuronName = "8" targetNeuronName = "12" weight = "-0.40277440934300324" />
    <synapse sourceNeuronName = "8" targetNeuronName = "13" weight = "-0.6616169830145728" />
    <synapse sourceNeuronName = "8" targetNeuronName = "14" weight = "-0.6115134097902408" />
    <synapse sourceNeuronName = "8" targetNeuronName = "15" weight = "0.7780698428642516" />
    <synapse sourceNeuronName = "8" targetNeuronName = "16" weight = "0.5558394683536396" />
    <synapse sourceNeuronName = "8" targetNeuronName = "17" weight = "0.7792133318178103" />
    <synapse sourceNeuronName = "8" targetNeuronName = "18" weight = "-0.828146957640902" />
    <synapse sourceNeuronName = "9" targetNeuronName = "10" weight = "0.1928660816218306" />
    <synapse sourceNeuronName = "9" targetNeuronName = "11" weight = "-0.5870006879717073" />
    <synapse sourceNeuronName = "9" targetNeuronName = "12" weight = "0.09505732526810662" />
    <synapse sourceNeuronName = "9" targetNeuronName = "13" weight = "0.82852867750914" />
    <synapse sourceNeuronName = "9" targetNeuronName = "14" weight = "-0.568060772286203" />
    <synapse sourceNeuronName = "9" targetNeuronName = "15" weight = "0.4026001574764211" />
    <synapse sourceNeuronName = "9" targetNeuronName = "16" weight = "-0.19153191241159306" />
    <synapse sourceNeuronName = "9" targetNeuronName = "17" weight = "-0.9755501952420349" />
    <synapse sourceNeuronName = "9" targetNeuronName = "18" weight = "0.40486222369419655" />
</neuralNetwork>