<neuralNetwork>
    <neuron name = "0" type = "sensor" linkName = "Torso" />
    <neuron name = "1" type = "sensor" linkName = "FrontRightLeg" />
    <neuron name = "2" type = "sensor" linkName = "FrontRightLeg2" />
    <neuron name = "3" type = "sensor" linkName = "BackRightLeg" />
    <neuron name = "4" type = "sensor" linkName = "BackRightLeg2" />
    <neuron name = "5" type = "sensor" linkName = "FrontLeftLeg" />
    <neuron name = "6" type = "sensor" linkName = "FrontLeftLeg2" />
    <neuron name = "7" type = "sensor" linkName = "BackLeftLeg" />
    <neuron name = "8" type = "sensor" linkName = "BackLeftLeg2" />
    <neuron name = "9" type = "sensor" linkName = "Head" />
    <neuron name = "10" type = "motor"  jointName = "Torso_Head" />
    <neuron name = "11" type = "motor"  jointName = "Torso_FrontRightLeg" />
    <neuron name = "12" type = "motor"  jointName = "FrontRightLeg_FrontRightLeg2" />
    <neuron name = "13" type = "motor"  jointName = "Torso_BackRightLeg" />
    <neuron name = "14" type = "motor"  jointName = "BackRightLeg_BackRightLeg2" />
    <neuron name = "15" type = "motor"  jointName = "Torso_FrontLeftLeg" />
    <neuron name = "16" type = "motor"  jointName = "FrontLeftLeg_FrontLeftLeg2" />
    <neuron name = "17" type = "motor"  jointName = "Torso_BackLeftLeg" />
    <neuron name = "18" type = "motor"  jointName = "BackLeftLeg_BackLeftLeg2" />
    <synapse sourceNeuronName = "0" targetNeuronName = "10" weight = "0.8397997675781264" />
    <synapse sourceNeuronName = "0" targetNeuronName = "11" weight = "-0.492526345403143" />
    <synapse sourceNeuronName = "0" targetNeuronName = "12" weight = "-0.08651934407055428" />
    <synapse sourceNeuronName = "0" targetNeuronName = "13" weight = "-0.2733610105750881" />
    <synapse sourceNeuronName = "0" targetNeuronName = "14" weight = "-0.06572570261387556" />
    <synapse sourceNeuronName = "0" targetNeuronName = "15" weight = "0.024481543364919256" />
    <synapse sourceNeuronName = "0" targetNeuronName = "16" weight = "0.019898801705483304" />
    <synapse sourceNeuronName = "0" targetNeuronName = "17" weight = "-0.8576527091092243" />
    <synapse sourceNeuronName = "0" targetNeuronName = "18" weight = "-0.4900951538568661" />
    <synapse sourceNeuronName = "1" targetNeuronName = "10" weight = "-0.24232948708791158" />
    <synapse sourceNeuronName = "1" targetNeuronName = "11" weight = "-0.9661622748749876" />
    <synapse sourceNeuronName = "1" targetNeuronName = "12" weight = "0.410973202908101" />
    <synapse sourceNeuronName = "1" targetNeuronName = "13" weight = "-0.6836478319936021" />
    <synapse sourceNeuronName = "1" targetNeuronName = "14" weight = "0.17416872635971004" />
    <synapse sourceNeuronName = "1" targetNeuronName = "15" weight = "-0.006552774411362705" />
    <synapse sourceNeuronName = "1" targetNeuronName = "16" weight = "-0.32244141613805466" />
    <synapse sourceNeuronName = "1" targetNeuronName = "17" weight = "-0.9691092102093031" />
    <synapse sourceNeuronName = "1" targetNeuronName = "18" weight = "0.34223867516526685" />
    <synapse sourceNeuronName = "2" targetNeuronName = "10" weight = "0.4732627665447473" />
    <synapse sourceNeuronName = "2" targetNeuronName = "11" weight = "0.09862545815421431" />
    <synapse sourceNeuronName = "2" targetNeuronName = "12" weight = "-0.9692968693522757" />
    <synapse sourceNeuronName = "2" targetNeuronName = "13" weight = "0.9273989023377536" />
    <synapse sourceNeuronName = "2" targetNeuronName = "14" weight = "-0.41402820283994757" />
    <synapse sourceNeuronName = "2" targetNeuronName = "15" weight = "-0.9820647556544044" />
    <synapse sourceNeuronName = "2" targetNeuronName = "16" weight = "0.8602426830262127" />
    <synapse sourceNeuronName = "2" targetNeuronName = "17" weight = "-0.7049241910248643" />
    <synapse sourceNeuronName = "2" targetNeuronName = "18" weight = "-0.854920158146051" />
    <synapse sourceNeuronName = "3" targetNeuronName = "10" weight = "-0.42031401473931007" />
    <synapse sourceNeuronName = "3" targetNeuronName = "11" weight = "0.6033141086077778" />
    <synapse sourceNeuronName = "3" targetNeuronName = "12" weight = "-0.455684060660847" />
    <synapse sourceNeuronName = "3" targetNeuronName = "13" weight = "-0.13501155477795312" />
    <synapse sourceNeuronName = "3" targetNeuronName = "14" weight = "0.3402049920901411" />
    <synapse sourceNeuronName = "3" targetNeuronName = "15" weight = "-0.3545820451702" />
    <synapse sourceNeuronName = "3" targetNeuronName = "16" weight = "0.7621522832302186" />
    <synapse sourceNeuronName = "3" targetNeuronName = "17" weight = "0.7024296937205521" />
    <synapse sourceNeuronName = "3" targetNeuronName = "18" weight = "0.15625306538285533" />
    <synapse sourceNeuronName = "4" targetNeuronName = "10" weight = "-0.1998219105521113" />
    <synapse sourceNeuronName = "4" targetNeuronName = "11" weight = "0.843584653851204" />
    <synapse sourceNeuronName = "4" targetNeuronName = "12" weight = "-0.3235820842784578" />
    <synapse sourceNeuronName = "4" targetNeuronName = "13" weight = "0.16832824886248754" />
    <synapse sourceNeuronName = "4" targetNeuronName = "14" weight = "0.5077380060265708" />
    <synapse sourceNeuronName = "4" targetNeuronName = "15" weight = "-0.35556585043714883" />
    <synapse sourceNeuronName = "4" targetNeuronName = "16" weight = "-0.5292378814721252" />
    <synapse sourceNeuronName = "4" targetNeuronName = "17" weight = "-0.7075538455965344" />
    <synapse sourceNeuronName = "4" targetNeuronName = "18" weight = "0.25071173419639536" />
    <synapse sourceNeuronName = "5" targetNeuronName = "10" weight = "0.4968602213011559" />
    <synapse sourceNeuronName = "5" targetNeuronName = "11" weight = "0.04891709874705197" />
    <synapse sourceNeuronName = "5" targetNeuronName = "12" weight = "-0.04742973745810475" />
    <synapse sourceNeuronName = "5" targetNeuronName = "13" weight = "0.2486633848667792" />
    <synapse sourceNeuronName = "5" targetNeuronName = "14" weight = "0.20925445343556914" />
    <synapse sourceNeuronName = "5" targetNeuronName = "15" weight = "-0.7904662427900111" />
    <synapse sourceNeuronName = "5" targetNeuronName = "16" weight = "-0.55749843808765" />
    <synapse sourceNeuronName = "5" targetNeuronName = "17" weight = "0.5266443529400169" />
    <synapse sourceNeuronName = "5" targetNeuronName = "18" weight = "-0.24319778913049928" />
    <synapse sourceNeuronName = "6" targetNeuronName = "10" weight = "-0.9942728379344576" />
    <synapse sourceNeuronName = "6" targetNeuronName = "11" weight = "0.7300704699365972" />
    <synapse sourceNeuronName = "6" targetNeuronName = "12" weight = "-0.7456790556076442" />
    <synapse sourceNeuronName = "6" targetNeuronName = "13" weight = "0.5727393701341372" />
    <synapse sourceNeuronName = "6" targetNeuronName = "14" weight = "0.5237067914022442" />
    <synapse sourceNeuronName = "6" targetNeuronName = "15" weight = "-0.4640204096184313" />
    <synapse sourceNeuronName = "6" targetNeuronName = "16" weight = "-0.3699869307342254" />
    <synapse sourceNeuronName = "6" targetNeuronName = "17" weight = "-0.3765621526362455" />
    <synapse sourceNeuronName = "6" targetNeuronName = "18" weight = "0.8268329032724504" />
    <synapse sourceNeuronName = "7" targetNeuronName = "10" weight = "-0.23077829907047764" />
    <synapse sourceNeuronName = "7" targetNeuronName = "11" weight = "-0.14002119378906386" />
    <synapse sourceNeuronName = "7" targetNeuronName = "12" weight = "0.8427631904903967" />
    <synapse sourceNeuronName = "7" targetNeuronName = "13" weight = "0.2275138835811723" />
    <synapse sourceNeuronName = "7" targetNeuronName = "14" weight = "0.376698477807345" />
    <synapse sourceNeuronName = "7" targetNeuronName = "15" weight = "-0.12249688528134572" />
    <synapse sourceNeuronName = "7" targetNeuronName = "16" weight = "0.8881526183913497" />
    <synapse sourceNeuronName = "7" targetNeuronName = "17" weight = "0.30715365574118003" />
    <synapse sourceNeuronName = "7" targetNeuronName = "18" weight = "-0.026489441394329072" />
    <synapse sourceNeuronName = "8" targetNeuronName = "10" weight = "-0.3294649664554703" />
    <synapse sourceNeuronName = "8" targetNeuronName = "11" weight = "-0.7489883209737442" />
    <synapse sourceNeuronName = "8" targetNeuronName = "12" weight = "-0.41382774231949715" />
    <synapse sourceNeuronName = "8" targetNeuronName = "13" weight = "-0.2708616831617492" />
    <synapse sourceNeuronName = "8" targetNeuronName = "14" weight = "-0.9800824398020904" />
    <synapse sourceNeuronName = "8" targetNeuronName = "15" weight = "-0.6515956607378854" />
    <synapse sourceNeuronName = "8" targetNeuronName = "16" weight = "-0.4591420195679028" />
    <synapse sourceNeuronName = "8" targetNeuronName = "17" weight = "-0.5215001792301293" />
    <synapse sourceNeuronName = "8" targetNeuronName = "18" weight = "0.6738643674941287" />
    <synapse sourceNeuronName = "9" targetNeuronName = "10" weight = "-0.8190744165520254" />
    <synapse sourceNeuronName = "9" targetNeuronName = "11" weight = "0.7423904490525446" />
    <synapse sourceNeuronName = "9" targetNeuronName = "12" weight = "-0.5559774413537033" />
    <synapse sourceNeuronName = "9" targetNeuronName = "13" weight = "-0.9635903500219956" />
    <synapse sourceNeuronName = "9" targetNeuronName = "14" weight = "0.8632714450389984" />
    <synapse sourceNeuronName = "9" targetNeuronName = "15" weight = "0.6178121873553168" />
    <synapse sourceNeuronName = "9" targetNeuronName = "16" weight = "0.20497288344777842" />
    <synapse sourceNeuronName = "9" targetNeuronName = "17" weight = "0.4759932095583712" />
    <synapse sourceNeuronName = "9" targetNeuronName = "18" weight = "-0.27922669694604085" />
</neuralNetwork>