<neuralNetwork>
    <neuron name = "0" type = "sensor" linkName = "Link0" />
    <neuron name = "1" type = "sensor" linkName = "Link2" />
    <neuron name = "2" type = "sensor" linkName = "Link2-0" />
    <neuron name = "3" type = "sensor" linkName = "Link2-0-0" />
    <neuron name = "4" type = "sensor" linkName = "Link2-0-1" />
    <neuron name = "5" type = "motor"  jointName = "Link0_Link1" />
    <neuron name = "6" type = "motor"  jointName = "Link1_Link2" />
    <neuron name = "7" type = "motor"  jointName = "Link0_Link1" />
    <neuron name = "8" type = "motor"  jointName = "Link0_Link1" />
    <synapse sourceNeuronName = "0" targetNeuronName = "5" weight = "0.6912797976262561" />
    <synapse sourceNeuronName = "0" targetNeuronName = "6" weight = "0.4503606063523875" />
    <synapse sourceNeuronName = "0" targetNeuronName = "7" weight = "0.613463873897778" />
    <synapse sourceNeuronName = "0" targetNeuronName = "8" weight = "-0.37875749302618544" />
    <synapse sourceNeuronName = "1" targetNeuronName = "5" weight = "-0.1581071682465398" />
    <synapse sourceNeuronName = "1" targetNeuronName = "6" weight = "0.87330858853511" />
    <synapse sourceNeuronName = "1" targetNeuronName = "7" weight = "-0.3412687525710332" />
    <synapse sourceNeuronName = "1" targetNeuronName = "8" weight = "-0.310472578511489" />
    <synapse sourceNeuronName = "2" targetNeuronName = "5" weight = "0.21595611618707666" />
    <synapse sourceNeuronName = "2" targetNeuronName = "6" weight = "0.03633284586296481" />
    <synapse sourceNeuronName = "2" targetNeuronName = "7" weight = "0.664632347806211" />
    <synapse sourceNeuronName = "2" targetNeuronName = "8" weight = "-0.617519282855181" />
    <synapse sourceNeuronName = "3" targetNeuronName = "5" weight = "-0.6040725133911804" />
    <synapse sourceNeuronName = "3" targetNeuronName = "6" weight = "-0.029208953221219858" />
    <synapse sourceNeuronName = "3" targetNeuronName = "7" weight = "0.6060147162236165" />
    <synapse sourceNeuronName = "3" targetNeuronName = "8" weight = "-0.6574342307172112" />
    <synapse sourceNeuronName = "4" targetNeuronName = "5" weight = "-0.43350020444634496" />
    <synapse sourceNeuronName = "4" targetNeuronName = "6" weight = "0.5673361983603209" />
    <synapse sourceNeuronName = "4" targetNeuronName = "7" weight = "0.5451209198505125" />
    <synapse sourceNeuronName = "4" targetNeuronName = "8" weight = "-0.7810217110070921" />
</neuralNetwork>