<neuralNetwork>
    <neuron name = "0" type = "sensor" linkName = "Torso" />
    <neuron name = "1" type = "sensor" linkName = "FrontRightLeg" />
    <neuron name = "2" type = "sensor" linkName = "FrontRightLeg2" />
    <neuron name = "3" type = "sensor" linkName = "BackRightLeg" />
    <neuron name = "4" type = "sensor" linkName = "BackRightLeg2" />
    <neuron name = "5" type = "sensor" linkName = "FrontLeftLeg" />
    <neuron name = "6" type = "sensor" linkName = "FrontLeftLeg2" />
    <neuron name = "7" type = "sensor" linkName = "BackLeftLeg" />
    <neuron name = "8" type = "sensor" linkName = "BackLeftLeg2" />
    <neuron name = "9" type = "sensor" linkName = "Head" />
    <neuron name = "10" type = "motor"  jointName = "Torso_Head" />
    <neuron name = "11" type = "motor"  jointName = "Torso_FrontRightLeg" />
    <neuron name = "12" type = "motor"  jointName = "FrontRightLeg_FrontRightLeg2" />
    <neuron name = "13" type = "motor"  jointName = "Torso_BackRightLeg" />
    <neuron name = "14" type = "motor"  jointName = "BackRightLeg_BackRightLeg2" />
    <neuron name = "15" type = "motor"  jointName = "Torso_FrontLeftLeg" />
    <neuron name = "16" type = "motor"  jointName = "FrontLeftLeg_FrontLeftLeg2" />
    <neuron name = "17" type = "motor"  jointName = "Torso_BackLeftLeg" />
    <neuron name = "18" type = "motor"  jointName = "BackLeftLeg_BackLeftLeg2" />
    <synapse sourceNeuronName = "0" targetNeuronName = "10" weight = "-0.3217425960566327" />
    <synapse sourceNeuronName = "0" targetNeuronName = "11" weight = "-0.47108693716135996" />
    <synapse sourceNeuronName = "0" targetNeuronName = "12" weight = "-0.7172205151981836" />
    <synapse sourceNeuronName = "0" targetNeuronName = "13" weight = "0.19520067168426625" />
    <synapse sourceNeuronName = "0" targetNeuronName = "14" weight = "-0.04530151176661801" />
    <synapse sourceNeuronName = "0" targetNeuronName = "15" weight = "0.27012658887036967" />
    <synapse sourceNeuronName = "0" targetNeuronName = "16" weight = "-0.7603540943970077" />
    <synapse sourceNeuronName = "0" targetNeuronName = "17" weight = "-0.1350059657060696" />
    <synapse sourceNeuronName = "0" targetNeuronName = "18" weight = "-0.6345070300123363" />
    <synapse sourceNeuronName = "1" targetNeuronName = "10" weight = "0.40551701693540565" />
    <synapse sourceNeuronName = "1" targetNeuronName = "11" weight = "-0.7509511140686258" />
    <synapse sourceNeuronName = "1" targetNeuronName = "12" weight = "0.8108313249801424" />
    <synapse sourceNeuronName = "1" targetNeuronName = "13" weight = "0.7686159566213049" />
    <synapse sourceNeuronName = "1" targetNeuronName = "14" weight = "0.38786389411673006" />
    <synapse sourceNeuronName = "1" targetNeuronName = "15" weight = "0.5155452637947229" />
    <synapse sourceNeuronName = "1" targetNeuronName = "16" weight = "-0.2048416074946744" />
    <synapse sourceNeuronName = "1" targetNeuronName = "17" weight = "-0.3433923469744502" />
    <synapse sourceNeuronName = "1" targetNeuronName = "18" weight = "-0.49889080619330706" />
    <synapse sourceNeuronName = "2" targetNeuronName = "10" weight = "0.7230512928309427" />
    <synapse sourceNeuronName = "2" targetNeuronName = "11" weight = "0.7210758794552925" />
    <synapse sourceNeuronName = "2" targetNeuronName = "12" weight = "0.7181126822152719" />
    <synapse sourceNeuronName = "2" targetNeuronName = "13" weight = "-0.4909908286473881" />
    <synapse sourceNeuronName = "2" targetNeuronName = "14" weight = "0.6866340600089103" />
    <synapse sourceNeuronName = "2" targetNeuronName = "15" weight = "-0.7306407523800691" />
    <synapse sourceNeuronName = "2" targetNeuronName = "16" weight = "0.8012156913301234" />
    <synapse sourceNeuronName = "2" targetNeuronName = "17" weight = "0.5862318933460753" />
    <synapse sourceNeuronName = "2" targetNeuronName = "18" weight = "-0.4937049668786897" />
    <synapse sourceNeuronName = "3" targetNeuronName = "10" weight = "0.6361622432579879" />
    <synapse sourceNeuronName = "3" targetNeuronName = "11" weight = "-0.2526488222278356" />
    <synapse sourceNeuronName = "3" targetNeuronName = "12" weight = "-0.9464605284302718" />
    <synapse sourceNeuronName = "3" targetNeuronName = "13" weight = "-0.7479597491895393" />
    <synapse sourceNeuronName = "3" targetNeuronName = "14" weight = "-0.4682605670613986" />
    <synapse sourceNeuronName = "3" targetNeuronName = "15" weight = "0.18778272692889142" />
    <synapse sourceNeuronName = "3" targetNeuronName = "16" weight = "0.9090776843321073" />
    <synapse sourceNeuronName = "3" targetNeuronName = "17" weight = "-0.21092708006962746" />
    <synapse sourceNeuronName = "3" targetNeuronName = "18" weight = "0.2205306850553288" />
    <synapse sourceNeuronName = "4" targetNeuronName = "10" weight = "-0.615657385948293" />
    <synapse sourceNeuronName = "4" targetNeuronName = "11" weight = "-0.20439959046846656" />
    <synapse sourceNeuronName = "4" targetNeuronName = "12" weight = "-0.0691609748101909" />
    <synapse sourceNeuronName = "4" targetNeuronName = "13" weight = "0.7757616871016484" />
    <synapse sourceNeuronName = "4" targetNeuronName = "14" weight = "-0.6016441877509056" />
    <synapse sourceNeuronName = "4" targetNeuronName = "15" weight = "0.2998985699989436" />
    <synapse sourceNeuronName = "4" targetNeuronName = "16" weight = "0.5251733121147606" />
    <synapse sourceNeuronName = "4" targetNeuronName = "17" weight = "0.5382196854705217" />
    <synapse sourceNeuronName = "4" targetNeuronName = "18" weight = "0.8456824460753276" />
    <synapse sourceNeuronName = "5" targetNeuronName = "10" weight = "0.013720315137856431" />
    <synapse sourceNeuronName = "5" targetNeuronName = "11" weight = "-0.004874539829940128" />
    <synapse sourceNeuronName = "5" targetNeuronName = "12" weight = "-0.47935901193310104" />
    <synapse sourceNeuronName = "5" targetNeuronName = "13" weight = "-0.38260520771485296" />
    <synapse sourceNeuronName = "5" targetNeuronName = "14" weight = "0.5697758460054465" />
    <synapse sourceNeuronName = "5" targetNeuronName = "15" weight = "-0.178708227392137" />
    <synapse sourceNeuronName = "5" targetNeuronName = "16" weight = "-0.8686971526886837" />
    <synapse sourceNeuronName = "5" targetNeuronName = "17" weight = "-0.004731064718485056" />
    <synapse sourceNeuronName = "5" targetNeuronName = "18" weight = "-0.6819923792227367" />
    <synapse sourceNeuronName = "6" targetNeuronName = "10" weight = "0.8415443694455873" />
    <synapse sourceNeuronName = "6" targetNeuronName = "11" weight = "-0.6917063546795226" />
    <synapse sourceNeuronName = "6" targetNeuronName = "12" weight = "-0.8348013106079708" />
    <synapse sourceNeuronName = "6" targetNeuronName = "13" weight = "0.7118724161593519" />
    <synapse sourceNeuronName = "6" targetNeuronName = "14" weight = "-0.5490590775467719" />
    <synapse sourceNeuronName = "6" targetNeuronName = "15" weight = "-0.5002142598506427" />
    <synapse sourceNeuronName = "6" targetNeuronName = "16" weight = "0.4433733754986313" />
    <synapse sourceNeuronName = "6" targetNeuronName = "17" weight = "-0.9396790183562833" />
    <synapse sourceNeuronName = "6" targetNeuronName = "18" weight = "0.4947454125152473" />
    <synapse sourceNeuronName = "7" targetNeuronName = "10" weight = "-0.5253215402046216" />
    <synapse sourceNeuronName = "7" targetNeuronName = "11" weight = "-0.450707277894292" />
    <synapse sourceNeuronName = "7" targetNeuronName = "12" weight = "-0.7190807171988611" />
    <synapse sourceNeuronName = "7" targetNeuronName = "13" weight = "0.8196403074308392" />
    <synapse sourceNeuronName = "7" targetNeuronName = "14" weight = "-0.9339207556023179" />
    <synapse sourceNeuronName = "7" targetNeuronName = "15" weight = "-0.4788803422287977" />
    <synapse sourceNeuronName = "7" targetNeuronName = "16" weight = "0.5000084289168283" />
    <synapse sourceNeuronName = "7" targetNeuronName = "17" weight = "0.8063534482709878" />
    <synapse sourceNeuronName = "7" targetNeuronName = "18" weight = "0.6749089377282547" />
    <synapse sourceNeuronName = "8" targetNeuronName = "10" weight = "-0.5746669740782586" />
    <synapse sourceNeuronName = "8" targetNeuronName = "11" weight = "0.8387500884975303" />
    <synapse sourceNeuronName = "8" targetNeuronName = "12" weight = "0.39744934744041926" />
    <synapse sourceNeuronName = "8" targetNeuronName = "13" weight = "0.11220285401626295" />
    <synapse sourceNeuronName = "8" targetNeuronName = "14" weight = "0.5127081770030844" />
    <synapse sourceNeuronName = "8" targetNeuronName = "15" weight = "0.30901345986788686" />
    <synapse sourceNeuronName = "8" targetNeuronName = "16" weight = "-0.13469831525411147" />
    <synapse sourceNeuronName = "8" targetNeuronName = "17" weight = "0.2929599862947361" />
    <synapse sourceNeuronName = "8" targetNeuronName = "18" weight = "0.6700785415841262" />
    <synapse sourceNeuronName = "9" targetNeuronName = "10" weight = "0.32485622556347726" />
    <synapse sourceNeuronName = "9" targetNeuronName = "11" weight = "0.032593988435027255" />
    <synapse sourceNeuronName = "9" targetNeuronName = "12" weight = "-0.2546571513172222" />
    <synapse sourceNeuronName = "9" targetNeuronName = "13" weight = "-0.9855520611352526" />
    <synapse sourceNeuronName = "9" targetNeuronName = "14" weight = "-0.08146707703680489" />
    <synapse sourceNeuronName = "9" targetNeuronName = "15" weight = "0.49384148723356325" />
    <synapse sourceNeuronName = "9" targetNeuronName = "16" weight = "0.2854069296816266" />
    <synapse sourceNeuronName = "9" targetNeuronName = "17" weight = "-0.11802687256299293" />
    <synapse sourceNeuronName = "9" targetNeuronName = "18" weight = "-0.23548323901135282" />
</neuralNetwork>