<neuralNetwork>
    <neuron name = "0" type = "sensor" linkName = "Link0" />
    <neuron name = "1" type = "sensor" linkName = "Link1" />
    <neuron name = "2" type = "sensor" linkName = "Link1" />
    <neuron name = "3" type = "sensor" linkName = "Link3" />
    <neuron name = "4" type = "motor"  jointName = "Link0_Link1" />
    <neuron name = "5" type = "motor"  jointName = "Link1_Link2" />
    <neuron name = "6" type = "motor"  jointName = "Link2_Link3" />
    <neuron name = "7" type = "motor"  jointName = "Link0_Link1" />
    <neuron name = "8" type = "motor"  jointName = "Link0_Link1" />
    <neuron name = "9" type = "motor"  jointName = "Link0_Link1" />
    <neuron name = "10" type = "motor"  jointName = "Link0_Link1" />
    <neuron name = "11" type = "motor"  jointName = "Link0_Link1" />
    <neuron name = "12" type = "motor"  jointName = "Link0_Link1" />
    <synapse sourceNeuronName = "0" targetNeuronName = "4" weight = "-0.37013878747485207" />
    <synapse sourceNeuronName = "0" targetNeuronName = "5" weight = "0.2978103575050779" />
    <synapse sourceNeuronName = "0" targetNeuronName = "6" weight = "-0.0659719283983553" />
    <synapse sourceNeuronName = "0" targetNeuronName = "7" weight = "0.926039620556022" />
    <synapse sourceNeuronName = "0" targetNeuronName = "8" weight = "-0.4067556955668856" />
    <synapse sourceNeuronName = "0" targetNeuronName = "9" weight = "0.4600763370671326" />
    <synapse sourceNeuronName = "0" targetNeuronName = "10" weight = "-0.2043826259994901" />
    <synapse sourceNeuronName = "0" targetNeuronName = "11" weight = "0.5730865676022567" />
    <synapse sourceNeuronName = "0" targetNeuronName = "12" weight = "-0.6401540798223693" />
    <synapse sourceNeuronName = "1" targetNeuronName = "4" weight = "-0.7142135087188821" />
    <synapse sourceNeuronName = "1" targetNeuronName = "5" weight = "0.12969246232581222" />
    <synapse sourceNeuronName = "1" targetNeuronName = "6" weight = "0.3563764760811927" />
    <synapse sourceNeuronName = "1" targetNeuronName = "7" weight = "0.08393660971098349" />
    <synapse sourceNeuronName = "1" targetNeuronName = "8" weight = "-0.7624948274008452" />
    <synapse sourceNeuronName = "1" targetNeuronName = "9" weight = "-0.5023489145068449" />
    <synapse sourceNeuronName = "1" targetNeuronName = "10" weight = "0.6559690103294236" />
    <synapse sourceNeuronName = "1" targetNeuronName = "11" weight = "-0.5277584551923626" />
    <synapse sourceNeuronName = "1" targetNeuronName = "12" weight = "0.8152281460697992" />
    <synapse sourceNeuronName = "2" targetNeuronName = "4" weight = "0.8760614053461757" />
    <synapse sourceNeuronName = "2" targetNeuronName = "5" weight = "0.4735254471793773" />
    <synapse sourceNeuronName = "2" targetNeuronName = "6" weight = "0.18127592991021024" />
    <synapse sourceNeuronName = "2" targetNeuronName = "7" weight = "0.5482202271879972" />
    <synapse sourceNeuronName = "2" targetNeuronName = "8" weight = "-0.15526265643808124" />
    <synapse sourceNeuronName = "2" targetNeuronName = "9" weight = "-0.3903342598364603" />
    <synapse sourceNeuronName = "2" targetNeuronName = "10" weight = "0.4150459391428314" />
    <synapse sourceNeuronName = "2" targetNeuronName = "11" weight = "0.396255821442995" />
    <synapse sourceNeuronName = "2" targetNeuronName = "12" weight = "0.4606149913555626" />
    <synapse sourceNeuronName = "3" targetNeuronName = "4" weight = "-0.6029201314579846" />
    <synapse sourceNeuronName = "3" targetNeuronName = "5" weight = "-0.70764415874574" />
    <synapse sourceNeuronName = "3" targetNeuronName = "6" weight = "0.23020362145419382" />
    <synapse sourceNeuronName = "3" targetNeuronName = "7" weight = "-0.9346066272586564" />
    <synapse sourceNeuronName = "3" targetNeuronName = "8" weight = "-0.8878884833807767" />
    <synapse sourceNeuronName = "3" targetNeuronName = "9" weight = "-0.14487868055586128" />
    <synapse sourceNeuronName = "3" targetNeuronName = "10" weight = "0.9363135341408244" />
    <synapse sourceNeuronName = "3" targetNeuronName = "11" weight = "-0.2800054094026465" />
    <synapse sourceNeuronName = "3" targetNeuronName = "12" weight = "-0.3311098122116054" />
</neuralNetwork>