<neuralNetwork>
    <neuron name = "0" type = "sensor" linkName = "Torso" />
    <neuron name = "1" type = "sensor" linkName = "FrontRightLeg" />
    <neuron name = "2" type = "sensor" linkName = "FrontRightLeg2" />
    <neuron name = "3" type = "sensor" linkName = "BackRightLeg" />
    <neuron name = "4" type = "sensor" linkName = "BackRightLeg2" />
    <neuron name = "5" type = "sensor" linkName = "FrontLeftLeg" />
    <neuron name = "6" type = "sensor" linkName = "FrontLeftLeg2" />
    <neuron name = "7" type = "sensor" linkName = "BackLeftLeg" />
    <neuron name = "8" type = "sensor" linkName = "BackLeftLeg2" />
    <neuron name = "9" type = "sensor" linkName = "Head" />
    <neuron name = "10" type = "motor"  jointName = "Torso_Head" />
    <neuron name = "11" type = "motor"  jointName = "Torso_FrontRightLeg" />
    <neuron name = "12" type = "motor"  jointName = "FrontRightLeg_FrontRightLeg2" />
    <neuron name = "13" type = "motor"  jointName = "Torso_BackRightLeg" />
    <neuron name = "14" type = "motor"  jointName = "BackRightLeg_BackRightLeg2" />
    <neuron name = "15" type = "motor"  jointName = "Torso_FrontLeftLeg" />
    <neuron name = "16" type = "motor"  jointName = "FrontLeftLeg_FrontLeftLeg2" />
    <neuron name = "17" type = "motor"  jointName = "Torso_BackLeftLeg" />
    <neuron name = "18" type = "motor"  jointName = "BackLeftLeg_BackLeftLeg2" />
    <synapse sourceNeuronName = "0" targetNeuronName = "10" weight = "0.7438092312533915" />
    <synapse sourceNeuronName = "0" targetNeuronName = "11" weight = "-0.924601968157821" />
    <synapse sourceNeuronName = "0" targetNeuronName = "12" weight = "-0.8562039171884843" />
    <synapse sourceNeuronName = "0" targetNeuronName = "13" weight = "0.9363762600794505" />
    <synapse sourceNeuronName = "0" targetNeuronName = "14" weight = "0.30458137935506" />
    <synapse sourceNeuronName = "0" targetNeuronName = "15" weight = "0.2908234119398134" />
    <synapse sourceNeuronName = "0" targetNeuronName = "16" weight = "0.10993295138086023" />
    <synapse sourceNeuronName = "0" targetNeuronName = "17" weight = "-0.6729259185374199" />
    <synapse sourceNeuronName = "0" targetNeuronName = "18" weight = "-0.3867810548793862" />
    <synapse sourceNeuronName = "1" targetNeuronName = "10" weight = "0.6218259365765308" />
    <synapse sourceNeuronName = "1" targetNeuronName = "11" weight = "0.03140314965550406" />
    <synapse sourceNeuronName = "1" targetNeuronName = "12" weight = "-0.5323085878325855" />
    <synapse sourceNeuronName = "1" targetNeuronName = "13" weight = "-0.5586119897477231" />
    <synapse sourceNeuronName = "1" targetNeuronName = "14" weight = "-0.6082553639561421" />
    <synapse sourceNeuronName = "1" targetNeuronName = "15" weight = "-0.5623038721342628" />
    <synapse sourceNeuronName = "1" targetNeuronName = "16" weight = "0.2834206663243588" />
    <synapse sourceNeuronName = "1" targetNeuronName = "17" weight = "-0.384028130210633" />
    <synapse sourceNeuronName = "1" targetNeuronName = "18" weight = "0.9467389820238385" />
    <synapse sourceNeuronName = "2" targetNeuronName = "10" weight = "0.6573277547069425" />
    <synapse sourceNeuronName = "2" targetNeuronName = "11" weight = "0.7254940107156029" />
    <synapse sourceNeuronName = "2" targetNeuronName = "12" weight = "-0.6543909980686069" />
    <synapse sourceNeuronName = "2" targetNeuronName = "13" weight = "-0.06478090272180514" />
    <synapse sourceNeuronName = "2" targetNeuronName = "14" weight = "0.618837018399282" />
    <synapse sourceNeuronName = "2" targetNeuronName = "15" weight = "-0.05452892788890007" />
    <synapse sourceNeuronName = "2" targetNeuronName = "16" weight = "0.8073644641125248" />
    <synapse sourceNeuronName = "2" targetNeuronName = "17" weight = "0.38002942238106385" />
    <synapse sourceNeuronName = "2" targetNeuronName = "18" weight = "-0.7295982527468696" />
    <synapse sourceNeuronName = "3" targetNeuronName = "10" weight = "0.8138479974406159" />
    <synapse sourceNeuronName = "3" targetNeuronName = "11" weight = "0.3814039280468313" />
    <synapse sourceNeuronName = "3" targetNeuronName = "12" weight = "-0.731775922919162" />
    <synapse sourceNeuronName = "3" targetNeuronName = "13" weight = "0.06379232650362265" />
    <synapse sourceNeuronName = "3" targetNeuronName = "14" weight = "0.0068629584158665935" />
    <synapse sourceNeuronName = "3" targetNeuronName = "15" weight = "-0.40056709960086856" />
    <synapse sourceNeuronName = "3" targetNeuronName = "16" weight = "-0.5535122695869208" />
    <synapse sourceNeuronName = "3" targetNeuronName = "17" weight = "-0.08323331386112365" />
    <synapse sourceNeuronName = "3" targetNeuronName = "18" weight = "0.8181924970576226" />
    <synapse sourceNeuronName = "4" targetNeuronName = "10" weight = "0.4160350920389899" />
    <synapse sourceNeuronName = "4" targetNeuronName = "11" weight = "-0.6695539957018091" />
    <synapse sourceNeuronName = "4" targetNeuronName = "12" weight = "0.15418778675690548" />
    <synapse sourceNeuronName = "4" targetNeuronName = "13" weight = "0.258290052898978" />
    <synapse sourceNeuronName = "4" targetNeuronName = "14" weight = "0.18978518223949226" />
    <synapse sourceNeuronName = "4" targetNeuronName = "15" weight = "0.0595101097210331" />
    <synapse sourceNeuronName = "4" targetNeuronName = "16" weight = "0.008352191786420216" />
    <synapse sourceNeuronName = "4" targetNeuronName = "17" weight = "-0.5237477729370565" />
    <synapse sourceNeuronName = "4" targetNeuronName = "18" weight = "0.3368409334957265" />
    <synapse sourceNeuronName = "5" targetNeuronName = "10" weight = "-0.5004874084697695" />
    <synapse sourceNeuronName = "5" targetNeuronName = "11" weight = "0.29084960447610975" />
    <synapse sourceNeuronName = "5" targetNeuronName = "12" weight = "-0.9445864526596031" />
    <synapse sourceNeuronName = "5" targetNeuronName = "13" weight = "-0.8776196962341984" />
    <synapse sourceNeuronName = "5" targetNeuronName = "14" weight = "-0.09745902621965308" />
    <synapse sourceNeuronName = "5" targetNeuronName = "15" weight = "0.18367295256149196" />
    <synapse sourceNeuronName = "5" targetNeuronName = "16" weight = "-0.2063430861189739" />
    <synapse sourceNeuronName = "5" targetNeuronName = "17" weight = "0.5773284882676826" />
    <synapse sourceNeuronName = "5" targetNeuronName = "18" weight = "-0.7533121195295507" />
    <synapse sourceNeuronName = "6" targetNeuronName = "10" weight = "0.6630295415183065" />
    <synapse sourceNeuronName = "6" targetNeuronName = "11" weight = "-0.8026283951775461" />
    <synapse sourceNeuronName = "6" targetNeuronName = "12" weight = "-0.3790145117261481" />
    <synapse sourceNeuronName = "6" targetNeuronName = "13" weight = "0.9107738506733585" />
    <synapse sourceNeuronName = "6" targetNeuronName = "14" weight = "-0.7772528384847961" />
    <synapse sourceNeuronName = "6" targetNeuronName = "15" weight = "0.8526818597829309" />
    <synapse sourceNeuronName = "6" targetNeuronName = "16" weight = "0.3328704421973163" />
    <synapse sourceNeuronName = "6" targetNeuronName = "17" weight = "0.25887907520280606" />
    <synapse sourceNeuronName = "6" targetNeuronName = "18" weight = "-0.980770621544035" />
    <synapse sourceNeuronName = "7" targetNeuronName = "10" weight = "-0.3197632393970773" />
    <synapse sourceNeuronName = "7" targetNeuronName = "11" weight = "-0.0394714143835031" />
    <synapse sourceNeuronName = "7" targetNeuronName = "12" weight = "0.12929281240426094" />
    <synapse sourceNeuronName = "7" targetNeuronName = "13" weight = "0.27251409523526715" />
    <synapse sourceNeuronName = "7" targetNeuronName = "14" weight = "-0.014374071175029979" />
    <synapse sourceNeuronName = "7" targetNeuronName = "15" weight = "0.9662058013790471" />
    <synapse sourceNeuronName = "7" targetNeuronName = "16" weight = "-0.3175131457020033" />
    <synapse sourceNeuronName = "7" targetNeuronName = "17" weight = "0.5867800042592084" />
    <synapse sourceNeuronName = "7" targetNeuronName = "18" weight = "0.6233414465909732" />
    <synapse sourceNeuronName = "8" targetNeuronName = "10" weight = "-0.8897141696527178" />
    <synapse sourceNeuronName = "8" targetNeuronName = "11" weight = "-0.7954689817251424" />
    <synapse sourceNeuronName = "8" targetNeuronName = "12" weight = "-0.09692883664472118" />
    <synapse sourceNeuronName = "8" targetNeuronName = "13" weight = "-0.8643751628271426" />
    <synapse sourceNeuronName = "8" targetNeuronName = "14" weight = "0.7439216769597969" />
    <synapse sourceNeuronName = "8" targetNeuronName = "15" weight = "0.8095206960990267" />
    <synapse sourceNeuronName = "8" targetNeuronName = "16" weight = "-0.9510477886037885" />
    <synapse sourceNeuronName = "8" targetNeuronName = "17" weight = "0.41721477191405176" />
    <synapse sourceNeuronName = "8" targetNeuronName = "18" weight = "-0.78893057252303" />
    <synapse sourceNeuronName = "9" targetNeuronName = "10" weight = "0.4725331490155511" />
    <synapse sourceNeuronName = "9" targetNeuronName = "11" weight = "-0.42154728951236375" />
    <synapse sourceNeuronName = "9" targetNeuronName = "12" weight = "-0.748961697233518" />
    <synapse sourceNeuronName = "9" targetNeuronName = "13" weight = "-0.8698511303005418" />
    <synapse sourceNeuronName = "9" targetNeuronName = "14" weight = "-0.36619699497857217" />
    <synapse sourceNeuronName = "9" targetNeuronName = "15" weight = "-0.28896319051680264" />
    <synapse sourceNeuronName = "9" targetNeuronName = "16" weight = "0.4571899390640968" />
    <synapse sourceNeuronName = "9" targetNeuronName = "17" weight = "0.5547686207252547" />
    <synapse sourceNeuronName = "9" targetNeuronName = "18" weight = "-0.36546345405904246" />
</neuralNetwork>