<neuralNetwork>
    <neuron name = "0" type = "sensor" linkName = "Torso" />
    <neuron name = "1" type = "sensor" linkName = "FrontRightLeg" />
    <neuron name = "2" type = "sensor" linkName = "FrontRightLeg2" />
    <neuron name = "3" type = "sensor" linkName = "BackRightLeg" />
    <neuron name = "4" type = "sensor" linkName = "BackRightLeg2" />
    <neuron name = "5" type = "sensor" linkName = "FrontLeftLeg" />
    <neuron name = "6" type = "sensor" linkName = "FrontLeftLeg2" />
    <neuron name = "7" type = "sensor" linkName = "BackLeftLeg" />
    <neuron name = "8" type = "sensor" linkName = "BackLeftLeg2" />
    <neuron name = "9" type = "sensor" linkName = "Head" />
    <neuron name = "10" type = "motor"  jointName = "Torso_Head" />
    <neuron name = "11" type = "motor"  jointName = "Torso_FrontRightLeg" />
    <neuron name = "12" type = "motor"  jointName = "FrontRightLeg_FrontRightLeg2" />
    <neuron name = "13" type = "motor"  jointName = "Torso_BackRightLeg" />
    <neuron name = "14" type = "motor"  jointName = "BackRightLeg_BackRightLeg2" />
    <neuron name = "15" type = "motor"  jointName = "Torso_FrontLeftLeg" />
    <neuron name = "16" type = "motor"  jointName = "FrontLeftLeg_FrontLeftLeg2" />
    <neuron name = "17" type = "motor"  jointName = "Torso_BackLeftLeg" />
    <neuron name = "18" type = "motor"  jointName = "BackLeftLeg_BackLeftLeg2" />
    <synapse sourceNeuronName = "0" targetNeuronName = "10" weight = "-0.7402835987607745" />
    <synapse sourceNeuronName = "0" targetNeuronName = "11" weight = "-0.34499894356487704" />
    <synapse sourceNeuronName = "0" targetNeuronName = "12" weight = "0.40772088165117415" />
    <synapse sourceNeuronName = "0" targetNeuronName = "13" weight = "0.7354272427554382" />
    <synapse sourceNeuronName = "0" targetNeuronName = "14" weight = "0.7316313606823197" />
    <synapse sourceNeuronName = "0" targetNeuronName = "15" weight = "-0.2741741997263394" />
    <synapse sourceNeuronName = "0" targetNeuronName = "16" weight = "-0.6675226381328918" />
    <synapse sourceNeuronName = "0" targetNeuronName = "17" weight = "-0.15307270270308115" />
    <synapse sourceNeuronName = "0" targetNeuronName = "18" weight = "0.2972767985043925" />
    <synapse sourceNeuronName = "1" targetNeuronName = "10" weight = "0.20703151673883013" />
    <synapse sourceNeuronName = "1" targetNeuronName = "11" weight = "-0.46378960747555587" />
    <synapse sourceNeuronName = "1" targetNeuronName = "12" weight = "0.3712518478784599" />
    <synapse sourceNeuronName = "1" targetNeuronName = "13" weight = "-0.34942552800797544" />
    <synapse sourceNeuronName = "1" targetNeuronName = "14" weight = "-0.8504205800218909" />
    <synapse sourceNeuronName = "1" targetNeuronName = "15" weight = "0.9302092675467715" />
    <synapse sourceNeuronName = "1" targetNeuronName = "16" weight = "-0.9058716975192296" />
    <synapse sourceNeuronName = "1" targetNeuronName = "17" weight = "-0.220489367674769" />
    <synapse sourceNeuronName = "1" targetNeuronName = "18" weight = "-0.860387854957126" />
    <synapse sourceNeuronName = "2" targetNeuronName = "10" weight = "-0.6531454845034939" />
    <synapse sourceNeuronName = "2" targetNeuronName = "11" weight = "-0.015179892673206075" />
    <synapse sourceNeuronName = "2" targetNeuronName = "12" weight = "0.7062067949678605" />
    <synapse sourceNeuronName = "2" targetNeuronName = "13" weight = "0.8347244755241168" />
    <synapse sourceNeuronName = "2" targetNeuronName = "14" weight = "0.8314765972291456" />
    <synapse sourceNeuronName = "2" targetNeuronName = "15" weight = "-0.026489350253358968" />
    <synapse sourceNeuronName = "2" targetNeuronName = "16" weight = "0.7575786589219502" />
    <synapse sourceNeuronName = "2" targetNeuronName = "17" weight = "-0.9833606214550712" />
    <synapse sourceNeuronName = "2" targetNeuronName = "18" weight = "-0.7254429462269782" />
    <synapse sourceNeuronName = "3" targetNeuronName = "10" weight = "-0.7629959547946399" />
    <synapse sourceNeuronName = "3" targetNeuronName = "11" weight = "-0.005615330240524852" />
    <synapse sourceNeuronName = "3" targetNeuronName = "12" weight = "-0.481763115239058" />
    <synapse sourceNeuronName = "3" targetNeuronName = "13" weight = "0.9385115345403452" />
    <synapse sourceNeuronName = "3" targetNeuronName = "14" weight = "0.29208474462084366" />
    <synapse sourceNeuronName = "3" targetNeuronName = "15" weight = "0.028369817538568487" />
    <synapse sourceNeuronName = "3" targetNeuronName = "16" weight = "-0.614878901435834" />
    <synapse sourceNeuronName = "3" targetNeuronName = "17" weight = "0.40101615573083693" />
    <synapse sourceNeuronName = "3" targetNeuronName = "18" weight = "0.4773165414759073" />
    <synapse sourceNeuronName = "4" targetNeuronName = "10" weight = "0.3565006856837347" />
    <synapse sourceNeuronName = "4" targetNeuronName = "11" weight = "0.027805206809400573" />
    <synapse sourceNeuronName = "4" targetNeuronName = "12" weight = "0.13718800184868707" />
    <synapse sourceNeuronName = "4" targetNeuronName = "13" weight = "-0.39583282167787903" />
    <synapse sourceNeuronName = "4" targetNeuronName = "14" weight = "0.6356237948908188" />
    <synapse sourceNeuronName = "4" targetNeuronName = "15" weight = "0.4901898931727189" />
    <synapse sourceNeuronName = "4" targetNeuronName = "16" weight = "0.845029263608402" />
    <synapse sourceNeuronName = "4" targetNeuronName = "17" weight = "0.15293207169465584" />
    <synapse sourceNeuronName = "4" targetNeuronName = "18" weight = "-0.8665045399855587" />
    <synapse sourceNeuronName = "5" targetNeuronName = "10" weight = "0.9511286811537234" />
    <synapse sourceNeuronName = "5" targetNeuronName = "11" weight = "0.9609845418885508" />
    <synapse sourceNeuronName = "5" targetNeuronName = "12" weight = "-0.9711923459793947" />
    <synapse sourceNeuronName = "5" targetNeuronName = "13" weight = "-0.41963332286231636" />
    <synapse sourceNeuronName = "5" targetNeuronName = "14" weight = "-0.9506747236972872" />
    <synapse sourceNeuronName = "5" targetNeuronName = "15" weight = "-0.7937805267454603" />
    <synapse sourceNeuronName = "5" targetNeuronName = "16" weight = "-0.23390016816481607" />
    <synapse sourceNeuronName = "5" targetNeuronName = "17" weight = "-0.19771719961205214" />
    <synapse sourceNeuronName = "5" targetNeuronName = "18" weight = "-0.44850131694962814" />
    <synapse sourceNeuronName = "6" targetNeuronName = "10" weight = "-0.5569303143175632" />
    <synapse sourceNeuronName = "6" targetNeuronName = "11" weight = "0.7233760046991033" />
    <synapse sourceNeuronName = "6" targetNeuronName = "12" weight = "-0.46633602169810207" />
    <synapse sourceNeuronName = "6" targetNeuronName = "13" weight = "0.9897993690184921" />
    <synapse sourceNeuronName = "6" targetNeuronName = "14" weight = "-0.7534360370768425" />
    <synapse sourceNeuronName = "6" targetNeuronName = "15" weight = "-0.14511436154807678" />
    <synapse sourceNeuronName = "6" targetNeuronName = "16" weight = "-0.6000068255268574" />
    <synapse sourceNeuronName = "6" targetNeuronName = "17" weight = "-0.9599497205204317" />
    <synapse sourceNeuronName = "6" targetNeuronName = "18" weight = "-0.1331165946976316" />
    <synapse sourceNeuronName = "7" targetNeuronName = "10" weight = "0.5489980616256129" />
    <synapse sourceNeuronName = "7" targetNeuronName = "11" weight = "-0.19534520674643407" />
    <synapse sourceNeuronName = "7" targetNeuronName = "12" weight = "-0.11222592335733594" />
    <synapse sourceNeuronName = "7" targetNeuronName = "13" weight = "0.17692682067082632" />
    <synapse sourceNeuronName = "7" targetNeuronName = "14" weight = "0.4487125725937231" />
    <synapse sourceNeuronName = "7" targetNeuronName = "15" weight = "-0.3601031050172956" />
    <synapse sourceNeuronName = "7" targetNeuronName = "16" weight = "-0.19990721007892076" />
    <synapse sourceNeuronName = "7" targetNeuronName = "17" weight = "0.04434294710907993" />
    <synapse sourceNeuronName = "7" targetNeuronName = "18" weight = "-0.9943649025439716" />
    <synapse sourceNeuronName = "8" targetNeuronName = "10" weight = "0.3085016396655833" />
    <synapse sourceNeuronName = "8" targetNeuronName = "11" weight = "-0.8897466570124095" />
    <synapse sourceNeuronName = "8" targetNeuronName = "12" weight = "0.38877033202150124" />
    <synapse sourceNeuronName = "8" targetNeuronName = "13" weight = "-0.9249566169204495" />
    <synapse sourceNeuronName = "8" targetNeuronName = "14" weight = "0.7172467445960375" />
    <synapse sourceNeuronName = "8" targetNeuronName = "15" weight = "0.15432382690345792" />
    <synapse sourceNeuronName = "8" targetNeuronName = "16" weight = "-0.8425520638253106" />
    <synapse sourceNeuronName = "8" targetNeuronName = "17" weight = "-0.08379604189814582" />
    <synapse sourceNeuronName = "8" targetNeuronName = "18" weight = "-0.12784416829649348" />
    <synapse sourceNeuronName = "9" targetNeuronName = "10" weight = "-0.31612091591344127" />
    <synapse sourceNeuronName = "9" targetNeuronName = "11" weight = "-0.945697481371129" />
    <synapse sourceNeuronName = "9" targetNeuronName = "12" weight = "-0.9927612465606341" />
    <synapse sourceNeuronName = "9" targetNeuronName = "13" weight = "-0.5977598241876605" />
    <synapse sourceNeuronName = "9" targetNeuronName = "14" weight = "-0.3714524250531819" />
    <synapse sourceNeuronName = "9" targetNeuronName = "15" weight = "0.49534166195267093" />
    <synapse sourceNeuronName = "9" targetNeuronName = "16" weight = "-0.41606598835816855" />
    <synapse sourceNeuronName = "9" targetNeuronName = "17" weight = "-0.2402637079290304" />
    <synapse sourceNeuronName = "9" targetNeuronName = "18" weight = "0.3820658633071148" />
</neuralNetwork>