<neuralNetwork>
    <neuron name = "0" type = "sensor" linkName = "Torso" />
    <neuron name = "1" type = "sensor" linkName = "FrontRightLeg" />
    <neuron name = "2" type = "sensor" linkName = "FrontRightLeg2" />
    <neuron name = "3" type = "sensor" linkName = "BackRightLeg" />
    <neuron name = "4" type = "sensor" linkName = "BackRightLeg2" />
    <neuron name = "5" type = "sensor" linkName = "FrontLeftLeg" />
    <neuron name = "6" type = "sensor" linkName = "FrontLeftLeg2" />
    <neuron name = "7" type = "sensor" linkName = "BackLeftLeg" />
    <neuron name = "8" type = "sensor" linkName = "BackLeftLeg2" />
    <neuron name = "9" type = "sensor" linkName = "Head" />
    <neuron name = "10" type = "motor"  jointName = "Torso_Head" />
    <neuron name = "11" type = "motor"  jointName = "Torso_FrontRightLeg" />
    <neuron name = "12" type = "motor"  jointName = "FrontRightLeg_FrontRightLeg2" />
    <neuron name = "13" type = "motor"  jointName = "Torso_BackRightLeg" />
    <neuron name = "14" type = "motor"  jointName = "BackRightLeg_BackRightLeg2" />
    <neuron name = "15" type = "motor"  jointName = "Torso_FrontLeftLeg" />
    <neuron name = "16" type = "motor"  jointName = "FrontLeftLeg_FrontLeftLeg2" />
    <neuron name = "17" type = "motor"  jointName = "Torso_BackLeftLeg" />
    <neuron name = "18" type = "motor"  jointName = "BackLeftLeg_BackLeftLeg2" />
    <synapse sourceNeuronName = "0" targetNeuronName = "10" weight = "-0.7416803378170536" />
    <synapse sourceNeuronName = "0" targetNeuronName = "11" weight = "-0.3943824109745673" />
    <synapse sourceNeuronName = "0" targetNeuronName = "12" weight = "-0.965234310701339" />
    <synapse sourceNeuronName = "0" targetNeuronName = "13" weight = "0.0994326469729494" />
    <synapse sourceNeuronName = "0" targetNeuronName = "14" weight = "0.6217060607811395" />
    <synapse sourceNeuronName = "0" targetNeuronName = "15" weight = "0.31403519137356284" />
    <synapse sourceNeuronName = "0" targetNeuronName = "16" weight = "-0.13012583165824299" />
    <synapse sourceNeuronName = "0" targetNeuronName = "17" weight = "-0.4058096647642211" />
    <synapse sourceNeuronName = "0" targetNeuronName = "18" weight = "0.7412895893432425" />
    <synapse sourceNeuronName = "1" targetNeuronName = "10" weight = "0.522014829327138" />
    <synapse sourceNeuronName = "1" targetNeuronName = "11" weight = "-0.32386491168960907" />
    <synapse sourceNeuronName = "1" targetNeuronName = "12" weight = "-0.11084888004947069" />
    <synapse sourceNeuronName = "1" targetNeuronName = "13" weight = "0.2926508673905064" />
    <synapse sourceNeuronName = "1" targetNeuronName = "14" weight = "-0.3156696997921187" />
    <synapse sourceNeuronName = "1" targetNeuronName = "15" weight = "-0.08626863788561878" />
    <synapse sourceNeuronName = "1" targetNeuronName = "16" weight = "0.11034465475226485" />
    <synapse sourceNeuronName = "1" targetNeuronName = "17" weight = "0.8685576900094023" />
    <synapse sourceNeuronName = "1" targetNeuronName = "18" weight = "0.1912860302895958" />
    <synapse sourceNeuronName = "2" targetNeuronName = "10" weight = "-0.819083802350058" />
    <synapse sourceNeuronName = "2" targetNeuronName = "11" weight = "-0.34078318460216095" />
    <synapse sourceNeuronName = "2" targetNeuronName = "12" weight = "-0.11760184169279886" />
    <synapse sourceNeuronName = "2" targetNeuronName = "13" weight = "0.9585276295990874" />
    <synapse sourceNeuronName = "2" targetNeuronName = "14" weight = "-0.23997835427311043" />
    <synapse sourceNeuronName = "2" targetNeuronName = "15" weight = "0.19603120164837673" />
    <synapse sourceNeuronName = "2" targetNeuronName = "16" weight = "0.00013012795516909037" />
    <synapse sourceNeuronName = "2" targetNeuronName = "17" weight = "-0.23640329695872886" />
    <synapse sourceNeuronName = "2" targetNeuronName = "18" weight = "0.2459276107729289" />
    <synapse sourceNeuronName = "3" targetNeuronName = "10" weight = "0.5699962804755658" />
    <synapse sourceNeuronName = "3" targetNeuronName = "11" weight = "0.00290716685488257" />
    <synapse sourceNeuronName = "3" targetNeuronName = "12" weight = "-0.9027587684181848" />
    <synapse sourceNeuronName = "3" targetNeuronName = "13" weight = "-0.4629995792827448" />
    <synapse sourceNeuronName = "3" targetNeuronName = "14" weight = "-0.0006046821862959462" />
    <synapse sourceNeuronName = "3" targetNeuronName = "15" weight = "0.3853907313147049" />
    <synapse sourceNeuronName = "3" targetNeuronName = "16" weight = "-0.5040450414714526" />
    <synapse sourceNeuronName = "3" targetNeuronName = "17" weight = "0.2846283436494499" />
    <synapse sourceNeuronName = "3" targetNeuronName = "18" weight = "0.7512256736903202" />
    <synapse sourceNeuronName = "4" targetNeuronName = "10" weight = "0.3898283495032553" />
    <synapse sourceNeuronName = "4" targetNeuronName = "11" weight = "0.6527742593449137" />
    <synapse sourceNeuronName = "4" targetNeuronName = "12" weight = "-0.10652693880355679" />
    <synapse sourceNeuronName = "4" targetNeuronName = "13" weight = "-0.006549745697348008" />
    <synapse sourceNeuronName = "4" targetNeuronName = "14" weight = "-0.6126414950725241" />
    <synapse sourceNeuronName = "4" targetNeuronName = "15" weight = "-0.19139640533339475" />
    <synapse sourceNeuronName = "4" targetNeuronName = "16" weight = "0.2800656458841744" />
    <synapse sourceNeuronName = "4" targetNeuronName = "17" weight = "0.9771801088046861" />
    <synapse sourceNeuronName = "4" targetNeuronName = "18" weight = "-0.5620791946013437" />
    <synapse sourceNeuronName = "5" targetNeuronName = "10" weight = "-0.0821891921215987" />
    <synapse sourceNeuronName = "5" targetNeuronName = "11" weight = "-0.15587767370435435" />
    <synapse sourceNeuronName = "5" targetNeuronName = "12" weight = "-0.07249742271037274" />
    <synapse sourceNeuronName = "5" targetNeuronName = "13" weight = "-0.512899446458208" />
    <synapse sourceNeuronName = "5" targetNeuronName = "14" weight = "-0.9261592475688474" />
    <synapse sourceNeuronName = "5" targetNeuronName = "15" weight = "0.30735907875637714" />
    <synapse sourceNeuronName = "5" targetNeuronName = "16" weight = "0.7095030483564533" />
    <synapse sourceNeuronName = "5" targetNeuronName = "17" weight = "-0.43097286487005726" />
    <synapse sourceNeuronName = "5" targetNeuronName = "18" weight = "-0.8898543580427698" />
    <synapse sourceNeuronName = "6" targetNeuronName = "10" weight = "0.8121470273983524" />
    <synapse sourceNeuronName = "6" targetNeuronName = "11" weight = "-0.32698543147800607" />
    <synapse sourceNeuronName = "6" targetNeuronName = "12" weight = "0.029196656073357863" />
    <synapse sourceNeuronName = "6" targetNeuronName = "13" weight = "-0.9231442858830861" />
    <synapse sourceNeuronName = "6" targetNeuronName = "14" weight = "-0.04575224225958552" />
    <synapse sourceNeuronName = "6" targetNeuronName = "15" weight = "0.8210624523901664" />
    <synapse sourceNeuronName = "6" targetNeuronName = "16" weight = "-0.7525974003249598" />
    <synapse sourceNeuronName = "6" targetNeuronName = "17" weight = "-0.6865435782504123" />
    <synapse sourceNeuronName = "6" targetNeuronName = "18" weight = "-0.9561488612291529" />
    <synapse sourceNeuronName = "7" targetNeuronName = "10" weight = "-0.9665618865454111" />
    <synapse sourceNeuronName = "7" targetNeuronName = "11" weight = "-0.7419822356076575" />
    <synapse sourceNeuronName = "7" targetNeuronName = "12" weight = "0.8455901405370565" />
    <synapse sourceNeuronName = "7" targetNeuronName = "13" weight = "0.652733173985298" />
    <synapse sourceNeuronName = "7" targetNeuronName = "14" weight = "0.15560970937820628" />
    <synapse sourceNeuronName = "7" targetNeuronName = "15" weight = "0.19235705429393146" />
    <synapse sourceNeuronName = "7" targetNeuronName = "16" weight = "0.48839516645133063" />
    <synapse sourceNeuronName = "7" targetNeuronName = "17" weight = "-0.3889749005020875" />
    <synapse sourceNeuronName = "7" targetNeuronName = "18" weight = "-0.16210790669323183" />
    <synapse sourceNeuronName = "8" targetNeuronName = "10" weight = "0.3075399555401579" />
    <synapse sourceNeuronName = "8" targetNeuronName = "11" weight = "0.25195043190564825" />
    <synapse sourceNeuronName = "8" targetNeuronName = "12" weight = "-0.1802341870083768" />
    <synapse sourceNeuronName = "8" targetNeuronName = "13" weight = "-0.2957044456807172" />
    <synapse sourceNeuronName = "8" targetNeuronName = "14" weight = "0.02818571497592104" />
    <synapse sourceNeuronName = "8" targetNeuronName = "15" weight = "0.5425337585439196" />
    <synapse sourceNeuronName = "8" targetNeuronName = "16" weight = "0.16652050473319768" />
    <synapse sourceNeuronName = "8" targetNeuronName = "17" weight = "0.4345642851980336" />
    <synapse sourceNeuronName = "8" targetNeuronName = "18" weight = "-0.15442833672500278" />
    <synapse sourceNeuronName = "9" targetNeuronName = "10" weight = "-0.5569635546111535" />
    <synapse sourceNeuronName = "9" targetNeuronName = "11" weight = "-0.024860889284042953" />
    <synapse sourceNeuronName = "9" targetNeuronName = "12" weight = "0.41822010506987306" />
    <synapse sourceNeuronName = "9" targetNeuronName = "13" weight = "-0.6080436016836428" />
    <synapse sourceNeuronName = "9" targetNeuronName = "14" weight = "0.44711417900883377" />
    <synapse sourceNeuronName = "9" targetNeuronName = "15" weight = "0.5994556250211611" />
    <synapse sourceNeuronName = "9" targetNeuronName = "16" weight = "-0.04116754775625453" />
    <synapse sourceNeuronName = "9" targetNeuronName = "17" weight = "-0.652336068256679" />
    <synapse sourceNeuronName = "9" targetNeuronName = "18" weight = "-0.5019760443079757" />
</neuralNetwork>